0.841507 0.394882 0.782043 0.797243 0.91189 0.198906 0.335894 17.1522 15.0457 13.6112 -9.58135e+42 -8.25305e+42 -7.00152e+42 -5.80611e+42 -4.6385e+42 -3.45513e+42 -2.24271e+42 -9.83969e+41 2.73133e+41 1.38873e+42 
0.0175811 0.245614 0.13745 0.80154 0.154882 0.402725 0.132968 13.7132 13.0162 10.5839 -7.9551e+42 -6.71043e+42 -5.54208e+42 -4.43145e+42 -3.35479e+42 -2.26647e+42 -1.17662e+42 -7.73928e+40 9.69397e+41 1.82195e+42 
0.528121 0.770352 0.399017 0.890267 0.283681 0.353955 0.808379 18.4759 15.9299 15.003 -1.02673e+43 -8.86436e+42 -7.53799e+42 -6.26747e+42 -5.02457e+42 -3.75422e+42 -2.46057e+42 -1.12546e+42 1.8985e+41 1.32196e+42 
0.23944 0.970913 0.901144 0.8499 0.267023 0.540984 0.375709 15.1797 13.4038 11.9616 -8.43247e+42 -7.20144e+42 -6.04877e+42 -4.95591e+42 -3.89831e+42 -2.83305e+42 -1.75965e+42 -6.63954e+41 4.06368e+41 1.32523e+42 
0.689069 0.166522 0.439111 0.878815 0.829358 0.331699 0.22977 16.6477 14.4602 13.0633 -9.21308e+42 -7.88296e+42 -6.63006e+42 -5.43532e+42 -4.27378e+42 -3.08993e+42 -1.9016e+42 -6.95006e+41 4.64407e+41 1.41922e+42 
0.483498 0.216363 0.949841 0.919639 0.148045 0.882076 0.641601 2.92674 1.49468 -0.446734 -1.45914e+42 -4.53721e+41 4.90003e+41 1.39161e+42 2.2714e+42 3.13558e+42 3.25681e+42 3.42461e+42 3.56041e+42 3.54871e+42 
0.104439 0.12632 0.49422 0.759387 0.985252 0.936412 0.684921 15.578 14.4597 12.5234 -8.88602e+42 -7.66213e+42 -6.51926e+42 -5.43974e+42 -4.39988e+42 -3.35239e+42 -2.30245e+42 -1.23014e+42 -1.76829e+41 7.38328e+41 
0.0755198 0.949986 0.051272 0.520765 0.176907 0.241342 0.798047 19.2243 17.7504 16.5761 -1.08139e+43 -9.56361e+42 -8.4018e+42 -7.31264e+42 -6.27348e+42 -5.22214e+42 -4.17795e+42 -3.10193e+42 -2.01806e+42 -1.03264e+42 
0.57435 0.755316 0.050517 0.157038 1.00087 0.205669 0.890038 14.4136 14.1353 12.0076 -8.35589e+42 -7.34838e+42 -6.43074e+42 -5.58872e+42 -4.8021e+42 -4.0363e+42 -3.27873e+42 -2.49518e+42 -1.67903e+42 -8.72462e+41 
