0.373739 0.126846 0.864095 
0.380286 0.118306 0.867955 
0.332985 0.0710059 0.82076 
0.278866 0.0168887 0.766894 
0.282753 0.016633 0.767896 
0.285917 0.0209906 0.767941 
0.278023 0.0213912 0.764195 
0.20075 -0.0530294 0.707473 
0.217361 -0.0364398 0.722702 
0.19617 -0.0576513 0.710692 
0.116576 -0.136969 0.643949 
0.0484069 -0.203892 0.60428 
0.0947984 -0.157763 0.632028 
0.123887 -0.128749 0.654833 
0.115882 -0.135786 0.64905 
0.0503565 -0.200937 0.599104 
-0.00697078 -0.257441 0.564145 
0.0376501 -0.213161 0.587884 
0.0715147 -0.179396 0.61372 
0.060532 -0.191131 0.60787 
3.26736e-05 -0.251437 0.562126 
-0.0513716 -0.302385 0.531556 
-0.0030027 -0.254349 0.556728 
0.0369516 -0.214478 0.586923 
0.030442 -0.221712 0.583112 
-0.0282491 -0.280269 0.537796 
-0.0731984 -0.324807 0.513996 
-0.0234594 -0.275313 0.539287 
0.0205114 -0.231449 0.570898 
0.0236922 -0.229383 0.570717 
-0.0329864 -0.285859 0.529756 
-0.0790632 -0.331506 0.503475 
-0.0297923 -0.282378 0.527212 
0.0144562 -0.238187 0.560665 
0.0199237 -0.232362 0.560734 
-0.0368822 -0.288988 0.517156 
-0.0778801 -0.329256 0.496586 
-0.0276003 -0.278969 0.522299 
0.0171743 -0.234292 0.553149 
0.0234499 -0.22848 0.553973 
-0.0316372 -0.283381 0.512648 
-0.0748343 -0.326178 0.488754 
-0.0315817 -0.283233 0.508321 
0.0128848 -0.238895 0.540027 
0.00918391 -0.244439 0.538217 
-0.0449622 -0.298518 0.496406 
-0.0848651 -0.338373 0.475581 
-0.0381706 -0.292492 0.498581 
0.00767538 -0.246915 0.528185 
0.00910383 -0.248749 0.528734 
-0.0420698 -0.299858 0.492524 
-0.0814249 -0.33909 0.471951 
-0.0362689 -0.294485 0.492727 
0.00869575 -0.249633 0.523847 
0.0136838 -0.24621 0.52461 
-0.0371063 -0.296881 0.48818 
-0.0753903 -0.334841 0.468413 
-0.0289732 -0.288453 0.489998 
0.01449 -0.245058 0.520157 
0.017459 -0.242451 0.51984 
-0.0336108 -0.29341 0.481953 
-0.0703484 -0.32986 0.464098 
-0.0256672 -0.285397 0.484838 
0.0176842 -0.242183 0.513645 
0.019518 -0.242654 0.513751 
-0.0310282 -0.29313 0.476866 
-0.0694363 -0.331365 0.457144 
-0.0234954 -0.285568 0.478427 
0.0207813 -0.241362 0.509122 
0.02649 -0.236783 0.510031 
-0.0258767 -0.289057 0.472264 
-0.0669114 -0.329917 0.450828 
-0.0194709 -0.28266 0.47225 
0.027422 -0.235839 0.504328 
0.0342339 -0.229422 0.505138 
-0.0204163 -0.283891 0.46809 
-0.0638353 -0.326931 0.446041 
-0.0153259 -0.278364 0.467092 
0.0333434 -0.229768 0.50017 
0.0425831 -0.220743 0.501549 
-0.0141976 -0.277288 0.462752 
-0.0589316 -0.321386 0.440404 
-0.00827866 -0.270406 0.462591 
0.0416766 -0.220523 0.495426 
0.0660335 -0.197024 0.503147 
0.00572462 -0.25714 0.458797 
-0.042121 -0.304522 0.433948 
0.00513024 -0.257099 0.454294 
0.0533464 -0.208967 0.487492 
0.070535 -0.193267 0.492697 
0.0100813 -0.253603 0.447631 
-0.0384924 -0.301954 0.421751 
0.00938892 -0.25427 0.442934 
0.0575717 -0.206176 0.475741 
0.0701417 -0.19526 0.479226 
0.0105374 -0.254768 0.435083 
-0.0355955 -0.300747 0.412292 
0.007641 -0.257637 0.430279 
0.0557677 -0.209592 0.463813 
0.0543071 -0.212819 0.462317 
-0.00190876 -0.268978 0.424293 
-0.0478568 -0.314809 0.400095 
0.000133131 -0.266978 0.420656 
0.0489978 -0.218166 0.454205 
0.0610026 -0.206606 0.456586 
0.00556144 -0.261888 0.419518 
-0.0405651 -0.307679 0.394852 
0.0109357 -0.255997 0.418468 
0.0586516 -0.208309 0.450694 
0.0670121 -0.199274 0.451254 
0.0120312 -0.254026 0.414911 
-0.0321468 -0.297666 0.3931 
0.0105033 -0.254242 0.409459 
0.0580398 -0.206749 0.442119 
0.0745343 -0.190443 0.44605 
0.0177784 -0.247022 0.406736 
-0.0291718 -0.293612 0.381715 
0.0186364 -0.245536 0.402418 
0.0656625 -0.198558 0.434326 
0.0756726 -0.189105 0.436206 
0.0191527 -0.245493 0.398641 
-0.0291758 -0.29361 0.371568 
0.0167821 -0.247644 0.390852 
0.0650824 -0.199403 0.422951 
0.0901626 -0.175294 0.430833 
0.0318107 -0.233505 0.389453 
-0.015543 -0.280576 0.365289 
0.0250389 -0.239598 0.381052 
0.0725622 -0.192128 0.413897 
0.0900216 -0.176113 0.418844 
0.0318569 -0.234203 0.376354 
-0.014697 -0.28061 0.352984 
0.0288996 -0.23674 0.370586 
0.0763937 -0.189293 0.402746 
0.0956631 -0.171522 0.408471 
0.0375224 -0.229601 0.367165 
-0.0118499 -0.278908 0.339929 
0.0339706 -0.233323 0.35924 
0.0821948 -0.185151 0.391328 
0.102881 -0.165993 0.397558 
0.0443949 -0.22442 0.356332 
-0.004622 -0.273354 0.330352 
0.0435099 -0.225157 0.350948 
0.090984 -0.17771 0.383302 
0.0956987 -0.173583 0.383222 
0.0383369 -0.230888 0.345107 
-0.00798299 -0.277073 0.32335 
0.0339801 -0.234372 0.338786 
0.0833991 -0.184973 0.371979 
0.100322 -0.168221 0.375789 
0.043339 -0.225104 0.338892 
-0.00549984 -0.273767 0.313101 
0.040679 -0.227128 0.33127 
0.0894982 -0.178326 0.36303 
0.109192 -0.159031 0.368069 
0.0521328 -0.216003 0.330493 
0.00406337 -0.263933 0.30613 
0.0446191 -0.222894 0.321201 
0.0932524 -0.174286 0.353118 
0.116404 -0.151867 0.359653 
0.0590661 -0.209126 0.321268 
0.0111939 -0.256844 0.297042 
0.0567887 -0.210833 0.315256 
0.103638 -0.163998 0.346301 
0.123741 -0.14436 0.351337 
0.0664239 -0.201589 0.313151 
0.0181494 -0.24963 0.288733 
0.0627361 -0.204209 0.305838 
0.108973 -0.157975 0.337176 
0.131558 -0.135235 0.342969 
0.0741184 -0.192584 0.304222 
0.0244748 -0.242086 0.276983 
0.0684944 -0.197609 0.294676 
0.113647 -0.152463 0.324891 
0.136613 -0.129923 0.331333 
0.079987 -0.186493 0.292687 
0.0330371 -0.233362 0.268423 
0.0719015 -0.194052 0.283375 
0.114539 -0.151425 0.312237 
0.135025 -0.131252 0.31755 
0.0803013 -0.185905 0.281309 
0.0318017 -0.234235 0.255435 
0.0769451 -0.188431 0.273548 
0.122366 -0.14301 0.304669 
0.146072 -0.119442 0.311175 
0.0874201 -0.178047 0.269879 
0.0366096 -0.228784 0.243294 
0.0831774 -0.181671 0.262128 
0.130803 -0.134041 0.294345 
0.154913 -0.109898 0.300813 
0.092964 -0.171791 0.258357 
0.0393174 -0.225369 0.230466 
0.0849582 -0.179183 0.248398 
0.134377 -0.129766 0.280637 
0.153022 -0.111748 0.285266 
0.0920629 -0.172685 0.245985 
0.0375216 -0.22718 0.215854 
0.0837094 -0.180631 0.23429 
0.133733 -0.130618 0.267479 
0.146518 -0.119451 0.270338 
0.085884 -0.180111 0.230579 
0.0329346 -0.233081 0.202575 
0.0776384 -0.187723 0.219463 
0.128537 -0.136821 0.254228 
0.150991 -0.114996 0.260119 
0.0914336 -0.174557 0.219453 
0.0418659 -0.224161 0.193548 
0.0859259 -0.179543 0.210806 
0.133747 -0.131708 0.24238 
0.157359 -0.108388 0.248724 
0.106 -0.15975 0.214596 
0.0675752 -0.198195 0.194483 
0.0939702 -0.171309 0.204054 
0.133893 -0.131378 0.23037 
0.164426 -0.101049 0.239043 
0.0933205 -0.172148 0.191494 
0.0306176 -0.234903 0.15868 
0.0884873 -0.176502 0.181828 
0.153128 -0.111847 0.222991 
0.183894 -0.0831708 0.2318 
0.10893 -0.158152 0.179055 
0.0479178 -0.219287 0.149336 
0.102526 -0.163709 0.171038 
0.155778 -0.110423 0.206056 
0.181472 -0.0848322 0.212844 
0.120473 -0.14585 0.17106 
0.0679443 -0.198462 0.14234 
0.112327 -0.153659 0.160352 
0.15824 -0.107727 0.190804 
0.178107 -0.0885528 0.195994 
0.120911 -0.145786 0.157135 
0.0715835 -0.195245 0.1324 
0.118791 -0.147597 0.153197 
0.163469 -0.102866 0.181008 
0.190645 -0.0756709 0.188781 
0.133594 -0.132738 0.150767 
0.0839618 -0.18237 0.125731 
0.127848 -0.13747 0.143259 
0.171565 -0.0937122 0.172319 
0.196495 -0.0683091 0.179007 
0.13962 -0.125221 0.141348 
0.0881385 -0.176754 0.111673 
0.131324 -0.132936 0.129703 
0.174445 -0.0897771 0.15812 
0.193397 -0.0707651 0.162666 
0.137654 -0.126578 0.126985 
0.0872543 -0.177039 0.0985198 
0.127376 -0.136201 0.114573 
0.171178 -0.0923696 0.143672 
0.194275 -0.0702468 0.150509 
0.138043 -0.126538 0.111522 
0.0879036 -0.176801 0.0833081 
0.1326 -0.131521 0.102787 
0.176266 -0.0878192 0.132687 
0.199865 -0.0639784 0.139111 
0.144214 -0.119696 0.101747 
0.0946422 -0.169394 0.074491 
0.135263 -0.127845 0.0905385 
0.178437 -0.0846335 0.120119 
0.201394 -0.0609898 0.125983 
0.146483 -0.11596 0.0896541 
0.0977841 -0.164765 0.0636822 
0.135069 -0.126253 0.0777767 
0.178082 -0.0831984 0.106752 
0.198838 -0.0625066 0.112231 
0.144959 -0.116477 0.0768501 
0.0962811 -0.165273 0.0489637 
0.135735 -0.125142 0.0649193 
0.178946 -0.0818961 0.0943103 
0.197144 -0.0643505 0.0989706 
0.143048 -0.118528 0.0622063 
0.0943052 -0.167407 0.0346592 
0.137961 -0.122976 0.0533032 
0.182577 -0.0783023 0.0828549 
0.202516 -0.0587649 0.0881722 
0.14707 -0.114339 0.0519884 
0.0963523 -0.165187 0.0217497 
0.13572 -0.125202 0.0374117 
0.182725 -0.0781525 0.0692112 
0.206398 -0.0549151 0.0757553 
0.149441 -0.112061 0.0405886 
0.0965461 -0.165089 0.00971345 
0.138323 -0.122047 0.0254832 
0.188048 -0.0722822 0.060371 
0.218034 -0.0415428 0.0686491 
0.157236 -0.10245 0.0289376 
0.101517 -0.158309 -0.00263058 
0.149675 -0.108789 0.0165746 
0.201458 -0.0569424 0.0516419 
0.234586 -0.0228535 0.0612917 
0.170854 -0.0866984 0.0197143 
0.112179 -0.145527 -0.0137096 
0.156101 -0.0998697 0.00263544 
0.208835 -0.0470835 0.0391949 
0.242351 -0.0130179 0.0494308 
0.177297 -0.0781548 0.00426751 
0.118648 -0.137076 -0.026868 
0.160157 -0.0935509 -0.0117894 
0.212857 -0.0407889 0.0243159 
0.247147 -0.00603885 0.0352835 
0.182275 -0.0710045 -0.00980297 
0.123159 -0.130346 -0.0436921 
0.162749 -0.089247 -0.028757 
0.215006 -0.0369185 0.00655287 
0.246752 -0.00508337 0.0166157 
0.182785 -0.0692166 -0.025379 
0.123865 -0.128345 -0.0601083 
0.161795 -0.0894574 -0.0454638 
0.2135 -0.0376821 -0.0107757 
0.248149 -0.00296 0.000962809 
0.1852 -0.0660619 -0.0407595 
0.128058 -0.123423 -0.0733421 
0.170557 -0.0791148 -0.0571491 
0.2213 -0.028317 -0.0213334 
0.257261 0.00833828 -0.00887741 
0.194487 -0.0545239 -0.0532034 
0.137929 -0.111336 -0.0851363 
0.180064 -0.0674159 -0.0688234 
0.22944 -0.0179964 -0.0327463 
0.256441 0.0103088 -0.0258181 
0.194823 -0.05146 -0.0665323 
0.138365 -0.108105 -0.0993928 
0.182172 -0.0624606 -0.0819587 
0.23141 -0.0131622 -0.0470787 
0.263072 0.0192521 -0.0369197 
0.201606 -0.0423436 -0.0792634 
0.145035 -0.099075 -0.114902 
0.186872 -0.0557401 -0.0979243 
0.235981 -0.00657165 -0.0627015 
0.26759 0.0260259 -0.0524168 
0.206384 -0.0353331 -0.0936896 
0.14975 -0.0922373 -0.126637 
0.183211 -0.0570766 -0.113946 
0.233015 -0.00720099 -0.0790321 
0.265178 0.0253699 -0.0680374 
0.204475 -0.0354853 -0.109588 
0.148527 -0.0916492 -0.143286 
0.192391 -0.0461436 -0.124734 
0.240808 0.00237932 -0.0917198 
0.275825 0.0379071 -0.077902 
0.214636 -0.0234206 -0.120805 
0.158074 -0.0801236 -0.158581 
0.196161 -0.0407406 -0.142616 
0.245549 0.00870734 -0.106288 
0.274789 0.0383685 -0.0967306 
0.213922 -0.0227259 -0.137315 
0.157769 -0.0789786 -0.176666 
0.204038 -0.0316422 -0.154764 
0.253232 0.0176145 -0.118152 
0.276067 0.041184 -0.111794 
0.215865 -0.0192696 -0.151679 
0.160115 -0.0752351 -0.187238 
0.194252 -0.0394857 -0.173548 
0.244925 0.0112549 -0.136247 
0.274572 0.0417638 -0.126598 
0.214444 -0.0185869 -0.166916 
0.159123 -0.0741371 -0.201497 
0.199559 -0.0318678 -0.184483 
0.24908 0.0177438 -0.148999 
0.281272 0.0505204 -0.137141 
0.221103 -0.00980428 -0.179926 
0.165705 -0.0654918 -0.21406 
0.201805 -0.0270878 -0.199615 
0.252302 0.0234719 -0.161516 
0.285527 0.0576525 -0.149144 
0.225454 -0.00262458 -0.190525 
0.170191 -0.0580932 -0.226534 
0.207817 -0.0183198 -0.210998 
0.257491 0.0314402 -0.174521 
0.292868 0.0675299 -0.159383 
0.232456 0.00694382 -0.202233 
0.176678 -0.0489995 -0.24036 
0.213675 -0.00987482 -0.224709 
0.263607 0.0401252 -0.186595 
0.294935 0.0723916 -0.174955 
0.234669 0.0119335 -0.21775 
0.179163 -0.0437691 -0.255235 
0.210575 -0.0105607 -0.24201 
0.260939 0.0398761 -0.203653 
0.294968 0.0744437 -0.189083 
0.2355 0.0148807 -0.234936 
0.180787 -0.0401843 -0.269272 
0.217989 -0.00071077 -0.253101 
0.268073 0.0494495 -0.214507 
0.301205 0.0833467 -0.200578 
0.241658 0.023584 -0.24315 
0.187011 -0.0312129 -0.282402 
0.228481 0.0117468 -0.262359 
0.276212 0.0595685 -0.225945 
0.30888 0.093076 -0.211399 
0.251347 0.0352266 -0.250312 
0.197846 -0.018422 -0.288721 
0.231889 0.0179985 -0.273959 
0.278401 0.0645612 -0.23633 
0.30546 0.0927901 -0.226054 
0.250801 0.0379445 -0.265877 
0.200342 -0.0127088 -0.300947 
0.234362 0.0233143 -0.285498 
0.280689 0.0697091 -0.248757 
0.309957 0.0998923 -0.236858 
0.251353 0.0411288 -0.281152 
0.197377 -0.0130491 -0.319588 
0.235991 0.0272545 -0.3009 
0.285238 0.0765833 -0.261845 
0.313735 0.105962 -0.250817 
0.253668 0.0457113 -0.296143 
0.198031 -0.010235 -0.334001 
0.230951 0.0251454 -0.319107 
0.283805 0.0780828 -0.276712 
0.315981 0.110983 -0.263137 
0.254851 0.0496531 -0.309306 
0.198812 -0.00656092 -0.35102 
0.235764 0.0323925 -0.333355 
0.288872 0.0855795 -0.290096 
0.321412 0.119168 -0.276239 
0.259855 0.0573314 -0.321253 
0.203856 0.0011533 -0.363093 
0.236483 0.0355615 -0.347604 
0.288958 0.0881349 -0.30549 
0.321231 0.121219 -0.291145 
0.261486 0.0612404 -0.336039 
0.20696 0.00647635 -0.375627 
0.238154 0.0399866 -0.361039 
0.286812 0.0887223 -0.321118 
0.313426 0.116135 -0.3096 
0.259938 0.0624592 -0.350662 
0.210942 0.0132423 -0.386439 
0.236119 0.0400795 -0.374334 
0.273068 0.077106 -0.344575 
0.291698 0.0961169 -0.335608 
0.250351 0.0545969 -0.367333 
0.198513 0.00261258 -0.407726 
0.242869 0.0499499 -0.385601 
0.309875 0.117045 -0.328925 
0.353666 0.161827 -0.30702 
0.27817 0.0860741 -0.36551 
0.207681 0.0153459 -0.419806 
0.240373 0.0506774 -0.404111 
0.304127 0.114513 -0.349762 
0.344279 0.155678 -0.328923 
0.280598 0.0916767 -0.376309 
0.224369 0.0352219 -0.418564 
0.253978 0.0679338 -0.404723 
0.303872 0.117918 -0.363176 
0.335371 0.150194 -0.346743 
0.280037 0.0945951 -0.388856 
0.22961 0.043983 -0.427747 
0.253529 0.0702976 -0.416402 
0.302287 0.119123 -0.374769 
0.333199 0.150835 -0.358596 
0.2788 0.0961737 -0.400199 
0.228976 0.046111 -0.437609 
0.250133 0.0702198 -0.427868 
0.299016 0.119189 -0.386698 
0.331946 0.152819 -0.368205 
0.277464 0.0980542 -0.409532 
0.228077 0.0485117 -0.44857 
0.253263 0.0759611 -0.436115 
0.301958 0.124745 -0.394996 
0.333073 0.15661 -0.378427 
0.279025 0.102185 -0.418478 
0.23031 0.0533455 -0.458021 
0.262371 0.0876039 -0.441516 
0.310854 0.136156 -0.399645 
0.341952 0.168007 -0.382436 
0.287396 0.113262 -0.426208 
0.23771 0.0633255 -0.464002 
0.264107 0.0924861 -0.451052 
0.312348 0.140816 -0.409883 
0.343273 0.172493 -0.392731 
0.288924 0.117909 -0.435653 
0.239874 0.0687211 -0.475667 
0.266081 0.0970136 -0.462114 
0.314993 0.145982 -0.41887 
0.339177 0.171041 -0.408059 
0.285657 0.117323 -0.451436 
0.237088 0.068519 -0.48921 
0.255061 0.0887551 -0.479935 
0.305393 0.13915 -0.435548 
0.336201 0.170669 -0.418598 
0.283834 0.118178 -0.46274 
0.236514 0.0706751 -0.500801 
0.254717 0.0900476 -0.490891 
0.3044 0.139805 -0.447334 
0.335049 0.171165 -0.430402 
0.283557 0.119535 -0.473652 
0.236637 0.0723099 -0.50951 
0.25264 0.0898706 -0.50072 
0.302526 0.139853 -0.45755 
0.334179 0.172116 -0.439562 
0.282259 0.120017 -0.482573 
0.235594 0.0731751 -0.520626 
0.262591 0.102304 -0.506035 
0.313013 0.152832 -0.462294 
0.347124 0.187601 -0.441484 
0.292933 0.133171 -0.48555 
0.244136 0.084214 -0.52605 
0.265169 0.106916 -0.514491 
0.318483 0.160315 -0.467274 
0.353709 0.196272 -0.446194 
0.296089 0.138389 -0.493091 
0.243335 0.0854148 -0.536029 
0.274339 0.119605 -0.5195 
0.330607 0.175944 -0.468825 
0.36683 0.213098 -0.447588 
0.30531 0.151321 -0.498117 
0.249434 0.0952406 -0.544334 
0.280428 0.129531 -0.527661 
0.33772 0.186929 -0.476876 
0.378255 0.228094 -0.449931 
0.315061 0.164629 -0.501742 
0.257714 0.107124 -0.550506 
0.286154 0.138326 -0.534826 
0.34411 0.196363 -0.482503 
0.382416 0.235402 -0.458371 
0.319017 0.171822 -0.512598 
0.261469 0.114065 -0.560902 
0.29878 0.154232 -0.539284 
0.355261 0.210824 -0.488868 
0.392296 0.248594 -0.46512 
0.329006 0.185108 -0.519313 
0.271629 0.127556 -0.56857 
0.299441 0.157623 -0.552312 
0.356004 0.214286 -0.501186 
0.392351 0.251333 -0.478133 
0.329776 0.188557 -0.532175 
0.273665 0.132267 -0.58072 
0.309524 0.170271 -0.558699 
0.364205 0.225067 -0.509451 
0.399199 0.260809 -0.486772 
0.337408 0.198668 -0.538093 
0.281902 0.143053 -0.587835 
0.32043 0.18376 -0.563328 
0.374355 0.237741 -0.512898 
0.401699 0.26632 -0.4982 
0.340886 0.205284 -0.551044 
0.285438 0.14954 -0.597696 
0.318227 0.185266 -0.577842 
0.37154 0.238672 -0.528818 
0.40524 0.273117 -0.506397 
0.345202 0.212857 -0.55876 
0.290756 0.158224 -0.606493 
0.317971 0.188343 -0.590014 
0.371224 0.241678 -0.540538 
0.406315 0.277418 -0.516045 
0.346791 0.217682 -0.568455 
0.293363 0.164109 -0.616378 
0.32268 0.195926 -0.597943 
0.37568 0.249007 -0.548444 
0.40876 0.28286 -0.526126 
0.349257 0.223006 -0.577079 
0.295522 0.169134 -0.625672 
0.318345 0.19461 -0.611351 
0.371798 0.248168 -0.561718 
0.410946 0.287749 -0.531159 
0.351137 0.227759 -0.584876 
0.297238 0.173721 -0.633892 
0.319117 0.197635 -0.619599 
0.373784 0.252385 -0.568149 
0.410315 0.289584 -0.541708 
0.350692 0.229754 -0.595246 
0.297568 0.176484 -0.643723 
0.33343 0.214453 -0.619253 
0.386521 0.267657 -0.569664 
0.42042 0.302287 -0.545523 
0.360739 0.242336 -0.598658 
0.306507 0.187858 -0.646925 
0.33172 0.21619 -0.630665 
0.385655 0.270218 -0.579705 
0.421274 0.306529 -0.553333 
0.361573 0.246511 -0.606089 
0.30822 0.193032 -0.655466 
0.339027 0.226511 -0.634702 
0.392033 0.279602 -0.584342 
0.425096 0.313464 -0.560623 
0.365834 0.253858 -0.61301 
0.312432 0.200341 -0.662847 
0.338648 0.22916 -0.645088 
0.392339 0.282918 -0.593577 
0.425363 0.316804 -0.569995 
0.365793 0.256959 -0.623732 
0.312501 0.203516 -0.67313 
0.339038 0.232401 -0.65479 
0.392654 0.286107 -0.603636 
0.428775 0.322865 -0.575812 
0.369615 0.263466 -0.629812 
0.31661 0.210318 -0.679233 
0.351949 0.248207 -0.6538 
0.4044 0.300743 -0.603534 
0.436736 0.333887 -0.579863 
0.37731 0.274124 -0.633452 
0.323921 0.220626 -0.683928 
0.349608 0.249237 -0.665913 
0.402958 0.302642 -0.614121 
0.436622 0.337091 -0.588596 
0.377587 0.277818 -0.643053 
0.324677 0.224769 -0.692848 
0.343777 0.246272 -0.678908 
0.39734 0.299915 -0.627191 
0.435919 0.33898 -0.59507 
0.377638 0.28043 -0.64862 
0.325379 0.228046 -0.698098 
0.339749 0.244325 -0.687464 
0.393827 0.29846 -0.634804 
0.432151 0.337381 -0.603293 
0.374417 0.279483 -0.657517 
0.322933 0.22783 -0.705777 
0.358033 0.265527 -0.679472 
0.409375 0.316974 -0.630108 
0.44022 0.348707 -0.607307 
0.381806 0.289933 -0.660694 
0.329507 0.237511 -0.710511 
0.354842 0.265106 -0.691649 
0.407302 0.317642 -0.640699 
0.44087 0.35195 -0.614318 
0.383695 0.294513 -0.667548 
0.33319 0.243854 -0.715392 
0.35486 0.268163 -0.699159 
0.406209 0.319594 -0.649271 
0.44124 0.355262 -0.620712 
0.385602 0.299338 -0.672407 
0.337429 0.251084 -0.71894 
0.361254 0.277139 -0.700708 
0.409427 0.325359 -0.653451 
0.440926 0.357498 -0.627955 
0.386165 0.302541 -0.679835 
0.336349 0.252605 -0.727674 
0.367661 0.286499 -0.703293 
0.418082 0.337023 -0.654335 
0.456435 0.375713 -0.619912 
0.398332 0.317376 -0.6747 
0.345824 0.264802 -0.725895 
0.380542 0.301751 -0.698063 
0.431625 0.352917 -0.648167 
0.466429 0.388363 -0.619035 
0.405181 0.326894 -0.677346 
0.349597 0.271181 -0.731068 
0.377187 0.301125 -0.709012 
0.430528 0.354551 -0.656771 
0.467463 0.39213 -0.625215 
0.40579 0.330212 -0.683976 
0.349975 0.27424 -0.73785 
0.375245 0.301761 -0.71752 
0.428358 0.354941 -0.665254 
0.459761 0.387499 -0.640772 
0.399855 0.327159 -0.696847 
0.345689 0.272748 -0.74848 
0.357876 0.288034 -0.738361 
0.413056 0.343282 -0.683977 
0.45038 0.381424 -0.652416 
0.393604 0.324409 -0.706726 
0.345566 0.276222 -0.753161 
0.368229 0.301408 -0.73476 
0.417455 0.350719 -0.686406 
0.449386 0.383292 -0.658875 
0.403437 0.337041 -0.702285 
0.368406 0.301937 -0.736452 
0.376303 0.310665 -0.729588 
0.419568 0.353995 -0.687033 
0.461845 0.397228 -0.650991 
0.388639 0.323718 -0.721169 
0.322842 0.257616 -0.784324 
0.346128 0.283303 -0.763799 
0.419425 0.356745 -0.691736 
0.471986 0.410121 -0.646007 
0.399411 0.337315 -0.716274 
0.338217 0.275884 -0.775497 
0.3805 0.321269 -0.73953 
0.436047 0.376905 -0.684739 
0.471992 0.413806 -0.653759 
0.413027 0.354396 -0.709412 
0.360136 0.301341 -0.760787 
0.377574 0.321529 -0.746022 
0.427612 0.371647 -0.696653 
0.461195 0.405998 -0.667645 
0.405116 0.349632 -0.721589 
0.355147 0.299449 -0.769942 
0.372017 0.319166 -0.75562 
0.422332 0.36955 -0.705856 
0.457578 0.40553 -0.674696 
0.402328 0.349941 -0.727596 
0.352806 0.300286 -0.775996 
0.369188 0.319402 -0.761799 
0.419906 0.370186 -0.711581 
0.454803 0.405879 -0.68099 
0.399875 0.350683 -0.734058 
0.35092 0.30159 -0.781962 
0.36789 0.320787 -0.766775 
0.418709 0.371693 -0.716535 
0.456354 0.409899 -0.682194 
0.401214 0.354422 -0.73525 
0.35171 0.304816 -0.783956 
0.369827 0.324838 -0.767812 
0.42104 0.376126 -0.717088 
0.458786 0.414546 -0.682807 
0.402475 0.357906 -0.737101 
0.352298 0.307568 -0.786171 
0.37159 0.329535 -0.769057 
0.422448 0.380511 -0.718865 
0.460338 0.418995 -0.684187 
0.404065 0.362371 -0.738476 
0.354139 0.312323 -0.787569 
0.370332 0.330508 -0.772687 
0.421004 0.381265 -0.722491 
0.457967 0.418845 -0.688681 
0.403255 0.36386 -0.741845 
0.354439 0.314915 -0.789861 
0.374011 0.336828 -0.771978 
0.423762 0.386678 -0.722722 
0.460036 0.423578 -0.689461 
0.405174 0.368338 -0.742508 
0.356077 0.319162 -0.791099 
0.379859 0.344678 -0.769173 
0.428284 0.393229 -0.721298 
0.465573 0.43093 -0.686046 
0.410473 0.37558 -0.739882 
0.360866 0.325809 -0.788671 
0.37105 0.337446 -0.778381 
0.421888 0.388376 -0.727934 
0.461139 0.428117 -0.690861 
0.405031 0.371743 -0.745701 
0.354485 0.320998 -0.795342 
0.376967 0.346301 -0.774787 
0.428036 0.397508 -0.724234 
0.467519 0.437545 -0.687037 
0.409674 0.37918 -0.742833 
0.356525 0.325888 -0.795266 
0.373818 0.3465 -0.779002 
0.427864 0.40066 -0.72537 
0.471194 0.444393 -0.68383 
0.410001 0.382899 -0.743661 
0.354168 0.326958 -0.798969 
0.382276 0.357788 -0.772822 
0.437937 0.413554 -0.717529 
0.481084 0.457262 -0.676523 
0.416832 0.392672 -0.739329 
0.357996 0.333704 -0.797579 
0.392437 0.370992 -0.765275 
0.447618 0.426351 -0.710612 
0.487742 0.467262 -0.673273 
0.422602 0.40157 -0.736601 
0.362414 0.341223 -0.796187 
0.367417 0.346746 -0.78924 
0.426997 0.406442 -0.729963 
0.470859 0.451171 -0.688976 
0.406422 0.386249 -0.751943 
0.348181 0.327843 -0.809637 
0.360998 0.342296 -0.7959 
0.420824 0.402247 -0.736356 
0.466664 0.448819 -0.692759 
0.403141 0.384927 -0.755182 
0.346429 0.328011 -0.81131 
0.364172 0.347855 -0.79317 
0.421877 0.405744 -0.735825 
0.467695 0.452085 -0.691536 
0.406409 0.390113 -0.751147 
0.350425 0.334015 -0.806776 
0.36668 0.352779 -0.790374 
0.42341 0.409597 -0.733822 
0.46531 0.452486 -0.694316 
0.404999 0.391503 -0.753051 
0.349847 0.336173 -0.807704 
0.358371 0.347033 -0.798272 
0.414851 0.403655 -0.742053 
0.460274 0.449581 -0.697981 
0.399885 0.388872 -0.757494 
0.346073 0.334897 -0.810884 
0.369986 0.361589 -0.787188 
0.424267 0.416025 -0.733171 
0.46584 0.458276 -0.693295 
0.405647 0.397598 -0.752406 
0.350972 0.342767 -0.806708 
0.365886 0.35977 -0.790917 
0.420786 0.414829 -0.736253 
0.464342 0.458908 -0.693932 
0.404351 0.398403 -0.752876 
0.349859 0.343784 -0.807077 
0.367355 0.363647 -0.788861 
0.421479 0.417928 -0.73494 
0.464902 0.461813 -0.692538 
0.405255 0.40166 -0.751233 
0.350961 0.347202 -0.805201 
0.339201 0.335006 -0.814313 
0.396777 0.392734 -0.756905 
0.444842 0.441233 -0.709676 
0.386741 0.382657 -0.76685 
0.334989 0.330786 -0.818363 
0.346731 0.342907 -0.804785 
0.402837 0.39923 -0.748908 
0.444789 0.442104 -0.708847 
0.388069 0.384343 -0.764184 
0.335925 0.332036 -0.816041 
0.344451 0.341507 -0.805826 
0.401207 0.398465 -0.749266 
0.447195 0.445059 -0.704378 
0.388868 0.386121 -0.761757 
0.336223 0.333313 -0.814125 
0.354975 0.354676 -0.794617 
0.410735 0.410596 -0.739009 
0.454082 0.454729 -0.697039 
0.394803 0.394875 -0.75547 
0.341312 0.34115 -0.808605 
0.345366 0.34734 -0.80305 
0.401748 0.403862 -0.746789 
0.447028 0.44974 -0.702528 
0.388884 0.391012 -0.759831 
0.336348 0.338324 -0.812129 
0.338586 0.342278 -0.808247 
0.395978 0.399795 -0.750956 
0.442385 0.446816 -0.705517 
0.384937 0.388727 -0.762019 
0.332995 0.336666 -0.813766 
0.344428 0.349128 -0.800968 
0.400726 0.405562 -0.744786 
0.443156 0.449037 -0.70397 
0.385721 0.390916 -0.760502 
0.333571 0.338463 -0.812229 
0.33994 0.347293 -0.80463 
0.39615 0.403713 -0.748586 
0.44122 0.4495 -0.704636 
0.383415 0.391105 -0.761628 
0.331136 0.338631 -0.81363 
0.348433 0.358322 -0.795276 
0.403497 0.413591 -0.740366 
0.446796 0.4576 -0.69817 
0.388771 0.398843 -0.75532 
0.335872 0.345751 -0.807959 
0.347538 0.360183 -0.795157 
0.402681 0.415528 -0.74015 
0.44758 0.460951 -0.696018 
0.389718 0.402346 -0.752994 
0.336573 0.34902 -0.805894 
0.324306 0.336664 -0.815814 
0.381977 0.394526 -0.758255 
0.430816 0.443769 -0.709992 
0.373919 0.38624 -0.766075 
0.322846 0.335055 -0.816991 
0.336464 0.350017 -0.801853 
0.391854 0.405595 -0.746582 
0.435051 0.449548 -0.704428 
0.379082 0.392949 -0.759672 
0.328752 0.342396 -0.809735 
0.337257 0.352666 -0.799629 
0.391356 0.407059 -0.745694 
0.435666 0.45191 -0.702117 
0.380649 0.396242 -0.756435 
0.33266 0.348081 -0.804222 
0.327971 0.343329 -0.806765 
0.380147 0.395705 -0.754685 
0.423602 0.439701 -0.711905 
0.371239 0.386579 -0.763523 
0.322611 0.337793 -0.811975 
0.316022 0.330831 -0.816404 
0.37256 0.387524 -0.759935 
0.417781 0.433604 -0.715745 
0.364328 0.379223 -0.768359 
0.315097 0.329788 -0.817368 
0.316619 0.332339 -0.814101 
0.374784 0.390851 -0.756099 
0.424727 0.441273 -0.70674 
0.367367 0.383107 -0.763195 
0.315046 0.330563 -0.815248 
0.313066 0.32884 -0.815168 
0.373211 0.389204 -0.755137 
0.419516 0.436605 -0.710345 
0.362648 0.378757 -0.766274 
0.3111 0.326968 -0.817547 
0.324222 0.343501 -0.803318 
0.382421 0.401916 -0.745238 
0.42854 0.448919 -0.70028 
0.370837 0.390376 -0.757086 
0.318475 0.337831 -0.809228 
0.313689 0.333082 -0.811775 
0.372229 0.391844 -0.753342 
0.420677 0.440844 -0.705589 
0.36506 0.384586 -0.760493 
0.317208 0.336523 -0.808107 
0.322608 0.343107 -0.801181 
0.376925 0.397793 -0.747055 
0.421867 0.443201 -0.702686 
0.374643 0.395161 -0.749086 
0.337865 0.358198 -0.785644 
0.327496 0.347054 -0.79448 
0.373014 0.392825 -0.749133 
0.423006 0.44375 -0.700304 
0.361898 0.380736 -0.759627 
0.300559 0.319084 -0.82055 
0.294072 0.313102 -0.824426 
0.367269 0.386754 -0.751456 
0.429693 0.449959 -0.690216 
0.359849 0.379138 -0.758847 
0.300632 0.319556 -0.817618 
0.305937 0.327632 -0.811257 
0.367879 0.389797 -0.749459 
0.416116 0.439032 -0.702553 
0.360737 0.382805 -0.756884 
0.311767 0.333539 -0.805441 
0.307125 0.330123 -0.808168 
0.361393 0.384713 -0.754126 
0.406443 0.430334 -0.709957 
0.354306 0.377615 -0.761368 
0.308194 0.331258 -0.807166 
0.311005 0.335362 -0.802691 
0.364572 0.389172 -0.7493 
0.409082 0.434246 -0.705618 
0.359483 0.38342 -0.753936 
0.312841 0.336621 -0.800342 
0.309785 0.33435 -0.801836 
0.362865 0.387679 -0.748954 
0.407482 0.432837 -0.70515 
0.357044 0.381516 -0.754484 
0.311007 0.335218 -0.800121 
0.298936 0.323561 -0.80996 
0.353113 0.378109 -0.756077 
0.399542 0.425029 -0.710457 
0.3489 0.373442 -0.759919 
0.303566 0.327952 -0.804997 
0.292599 0.31597 -0.8134 
0.347657 0.371301 -0.758566 
0.393896 0.418223 -0.713414 
0.345072 0.368153 -0.760758 
0.300007 0.3229 -0.805503 
0.283655 0.305244 -0.819126 
0.339585 0.361432 -0.763426 
0.385596 0.408261 -0.718778 
0.337375 0.35885 -0.765564 
0.29385 0.315095 -0.808705 
0.284741 0.305898 -0.815599 
0.339799 0.36126 -0.760838 
0.385889 0.408096 -0.716032 
0.339196 0.360081 -0.761056 
0.295922 0.316546 -0.803858 
0.273371 0.292725 -0.823818 
0.328465 0.348078 -0.769017 
0.375075 0.395461 -0.723779 
0.329167 0.348576 -0.768205 
0.287942 0.307067 -0.808889 
0.280728 0.299681 -0.813761 
0.333458 0.353034 -0.761737 
0.379566 0.399751 -0.716866 
0.332488 0.351681 -0.762421 
0.290252 0.309041 -0.803902 
0.269534 0.287091 -0.821519 
0.324556 0.342531 -0.767018 
0.372706 0.391298 -0.720202 
0.32635 0.343562 -0.764522 
0.283874 0.300851 -0.806471 
0.269695 0.286137 -0.817848 
0.327003 0.34376 -0.761004 
0.376012 0.39357 -0.713791 
0.32735 0.343534 -0.760153 
0.282443 0.298398 -0.804477 
0.266511 0.28223 -0.817366 
0.325858 0.341873 -0.758497 
0.375925 0.392885 -0.710624 
0.324647 0.340187 -0.759302 
0.27718 0.292377 -0.805887 
0.254829 0.26863 -0.824249 
0.317107 0.331314 -0.762679 
0.372515 0.387331 -0.708982 
0.320091 0.333397 -0.75843 
0.271928 0.284995 -0.805856 
0.266169 0.280817 -0.809688 
0.328791 0.343856 -0.74788 
0.382935 0.398795 -0.695923 
0.328366 0.34272 -0.746951 
0.27764 0.291675 -0.796622 
0.253138 0.265276 -0.816223 
0.315834 0.328692 -0.754925 
0.371398 0.385042 -0.701785 
0.31993 0.331333 -0.748886 
0.270574 0.281653 -0.797141 
0.246861 0.255879 -0.815829 
0.309925 0.319557 -0.754115 
0.364464 0.375029 -0.702509 
0.317127 0.32517 -0.745057 
0.268836 0.276645 -0.7924 
0.260771 0.268923 -0.79738 
0.32187 0.330564 -0.737593 
0.374321 0.383815 -0.687915 
0.32052 0.328467 -0.737833 
0.272094 0.279639 -0.784817 
0.25139 0.257821 -0.800868 
0.312224 0.319237 -0.741503 
0.364936 0.372806 -0.691726 
0.322855 0.328078 -0.728479 
0.27406 0.279056 -0.776187 
0.247561 0.250625 -0.797053 
0.30884 0.312416 -0.737249 
0.360328 0.364963 -0.689483 
0.311015 0.313551 -0.733663 
0.264258 0.266385 -0.778726 
0.242695 0.24293 -0.794784 
0.302165 0.303278 -0.737699 
0.355716 0.357609 -0.687271 
0.306989 0.306783 -0.73064 
0.261025 0.260401 -0.774796 
0.2424 0.240434 -0.788269 
0.301467 0.300385 -0.731756 
0.353798 0.353679 -0.683245 
0.310013 0.307116 -0.720824 
0.262837 0.25958 -0.766228 
0.243176 0.238619 -0.780379 
0.30231 0.298631 -0.72395 
0.35496 0.352074 -0.674808 
0.307195 0.302023 -0.716508 
0.260728 0.255196 -0.761137 
0.24694 0.240716 -0.770308 
0.304623 0.299588 -0.716089 
0.357758 0.353399 -0.666116 
0.311521 0.304601 -0.705549 
0.263857 0.256567 -0.751215 
0.238263 0.228354 -0.769874 
0.295455 0.286803 -0.716523 
0.34728 0.339574 -0.66887 
0.309886 0.298799 -0.699426 
0.26209 0.250579 -0.744909 
0.233739 0.219674 -0.765894 
0.289588 0.277099 -0.714607 
0.343034 0.331313 -0.664908 
0.300558 0.285669 -0.700021 
0.253749 0.238339 -0.744154 
0.226032 0.208127 -0.764415 
0.283212 0.266754 -0.711732 
0.336683 0.32117 -0.66279 
0.310151 0.290889 -0.683836 
0.261863 0.242236 -0.729847 
0.232942 0.211064 -0.751327 
0.29055 0.269926 -0.698 
0.343608 0.323832 -0.649212 
0.307863 0.28532 -0.678012 
0.259129 0.236048 -0.723536 
0.22639 0.201308 -0.748259 
0.284072 0.260263 -0.695175 
0.33752 0.314507 -0.646125 
0.29453 0.268442 -0.680969 
0.247454 0.220747 -0.724544 
0.217909 0.188759 -0.746024 
0.273957 0.246526 -0.695824 
0.328689 0.301926 -0.645114 
0.288338 0.259125 -0.677583 
0.241907 0.212 -0.719904 
0.213031 0.181089 -0.740314 
0.266054 0.236375 -0.694473 
0.3207 0.291839 -0.644836 
0.285602 0.253165 -0.671661 
0.239588 0.206721 -0.714546 
0.212922 0.177286 -0.732512 
0.269631 0.235482 -0.681767 
0.322492 0.289332 -0.63478 
0.288061 0.25135 -0.660903 
0.241371 0.204159 -0.703991 
0.21952 0.180513 -0.718347 
0.275828 0.23827 -0.668076 
0.326686 0.290293 -0.623759 
0.296236 0.256709 -0.646853 
0.2483 0.208108 -0.690209 
0.219771 0.177607 -0.7098 
0.270822 0.23103 -0.666795 
0.324072 0.285043 -0.618749 
0.295661 0.253882 -0.639934 
0.247908 0.205592 -0.683456 
0.213665 0.168626 -0.707704 
0.2675 0.224129 -0.661035 
0.317642 0.275288 -0.617355 
0.282585 0.236958 -0.643416 
0.238152 0.19185 -0.683112 
0.213215 0.16427 -0.699032 
0.263414 0.21655 -0.656931 
0.311277 0.265615 -0.616393 
0.284162 0.234899 -0.635986 
0.241262 0.19135 -0.674211 
0.214687 0.162481 -0.691705 
0.264272 0.213717 -0.649309 
0.311454 0.261949 -0.609016 
0.280264 0.227063 -0.631767 
0.235291 0.181461 -0.671971 
0.206558 0.150469 -0.691135 
0.260064 0.205641 -0.645101 
0.31127 0.257801 -0.600579 
0.277499 0.220882 -0.625208 
0.231366 0.174155 -0.666426 
0.20108 0.141123 -0.686358 
0.257368 0.198985 -0.637828 
0.309209 0.252138 -0.594486 
0.274338 0.213683 -0.619472 
0.226205 0.164732 -0.661425 
0.197276 0.133259 -0.679993 
0.254204 0.191971 -0.631667 
0.3043 0.243722 -0.591368 
0.276241 0.212009 -0.611132 
0.227513 0.162355 -0.652951 
0.194366 0.126854 -0.67502 
0.249636 0.184119 -0.628981 
0.301074 0.236914 -0.586683 
0.269301 0.201257 -0.608955 
0.221871 0.152894 -0.649378 
0.18578 0.11442 -0.674138 
0.240774 0.171376 -0.628538 
0.293361 0.224933 -0.583757 
0.260648 0.188966 -0.606677 
0.219723 0.147327 -0.641711 
0.189917 0.114872 -0.66061 
0.239644 0.166328 -0.619897 
0.282275 0.209913 -0.584669 
0.261444 0.186741 -0.598995 
0.234507 0.1594 -0.622235 
0.215266 0.138101 -0.633162 
0.269385 0.194584 -0.590725 
0.328517 0.255514 -0.544311 
0.299665 0.223575 -0.563432 
0.234813 0.157444 -0.616676 
0.198985 0.117737 -0.63727 
0.262957 0.184712 -0.587922 
0.321574 0.245139 -0.542854 
0.28695 0.206275 -0.565954 
0.231331 0.149258 -0.610532 
0.205386 0.12218 -0.625746 
0.256854 0.176314 -0.586521 
0.305882 0.226788 -0.548101 
0.27853 0.197022 -0.566475 
0.23084 0.148429 -0.60562 
0.20388 0.118597 -0.620602 
0.248449 0.165374 -0.587308 
0.297257 0.214998 -0.547052 
0.253687 0.168933 -0.578868 
0.210368 0.124567 -0.613864 
0.204049 0.119339 -0.616474 
0.25417 0.171449 -0.577035 
0.299723 0.218276 -0.541392 
0.265359 0.180479 -0.564618 
0.219165 0.133392 -0.602706 
0.200277 0.113145 -0.612352 
0.240138 0.156196 -0.583976 
0.28713 0.204202 -0.54654 
0.279922 0.194048 -0.552649 
0.233871 0.147488 -0.592316 
0.193829 0.106416 -0.622692 
0.246787 0.160628 -0.578221 
0.299111 0.213313 -0.531398 
0.255714 0.167192 -0.561324 
0.212361 0.123536 -0.599701 
0.177269 0.0841884 -0.620078 
0.227721 0.136109 -0.580328 
0.276554 0.185967 -0.541465 
0.255232 0.16236 -0.555803 
0.211427 0.117588 -0.590317 
0.192566 0.0976786 -0.599434 
0.217113 0.126817 -0.584884 
0.271316 0.181376 -0.536759 
0.228984 0.136754 -0.566008 
0.187893 0.095095 -0.599982 
0.177245 0.0815782 -0.603392 
0.223763 0.130761 -0.57049 
0.271114 0.179485 -0.535196 
0.254622 0.160826 -0.545886 
0.209228 0.114432 -0.581152 
0.181319 0.0840492 -0.596349 
0.227506 0.132828 -0.563966 
0.27374 0.180529 -0.530205 
0.255164 0.160293 -0.542328 
0.21054 0.11456 -0.576052 
0.184101 0.0861985 -0.590238 
0.228075 0.132653 -0.559609 
0.271968 0.177992 -0.528183 
0.243179 0.145949 -0.546033 
0.200599 0.102128 -0.577698 
0.174081 0.073425 -0.591797 
0.221177 0.122711 -0.558059 
0.266315 0.169295 -0.525485 
0.237464 0.137403 -0.543348 
0.195098 0.0938102 -0.574714 
0.173137 0.0693588 -0.585604 
0.218042 0.117035 -0.555388 
0.267503 0.167768 -0.518546 
0.230845 0.129436 -0.542439 
0.190097 0.0865262 -0.568523 
0.163472 0.057863 -0.582672 
0.212059 0.109039 -0.550074 
0.258179 0.157176 -0.519868 
0.216243 0.112828 -0.546945 
0.170978 0.0659034 -0.57833 
0.176428 0.0750708 -0.57474 
0.232103 0.132959 -0.534304 
0.250363 0.153941 -0.525942 
0.231513 0.128387 -0.535654 
0.181934 0.0766611 -0.569536 
0.151384 0.042891 -0.58476 
0.200355 0.0955546 -0.553312 
0.25443 0.151412 -0.515661 
0.244268 0.139786 -0.522987 
0.191859 0.086258 -0.562071 
0.157936 0.0500081 -0.580112 
0.212073 0.10699 -0.542823 
0.261584 0.158646 -0.510271 
0.233724 0.126648 -0.5262 
0.183767 0.0749941 -0.561136 
0.1443 0.0324741 -0.583213 
0.196237 0.0870698 -0.54803 
0.248588 0.141119 -0.51206 
0.221959 0.110429 -0.52717 
0.174307 0.0612078 -0.560503 
0.146617 0.0303308 -0.573416 
0.193 0.0802785 -0.544323 
0.245149 0.134085 -0.508375 
0.221245 0.10676 -0.522265 
0.174051 0.0581408 -0.555647 
0.151133 0.0331185 -0.566073 
0.195333 0.0815522 -0.539257 
0.246862 0.134848 -0.504065 
0.235878 0.122287 -0.511338 
0.188121 0.0728684 -0.543952 
0.155264 0.0369433 -0.560399 
0.191783 0.0774609 -0.539542 
0.244831 0.131823 -0.501829 
0.239591 0.126705 -0.506829 
0.190851 0.0769947 -0.542432 
0.172268 0.0573317 -0.550255 
0.21025 0.0994717 -0.528422 
0.256293 0.147415 -0.499055 
0.251483 0.140649 -0.502517 
0.201597 0.089891 -0.539752 
0.165707 0.0504268 -0.557875 
0.213952 0.100913 -0.525655 
0.261199 0.149662 -0.493886 
0.221701 0.10672 -0.51687 
0.176751 0.0593225 -0.54525 
0.152367 0.0307775 -0.555459 
0.192152 0.0735954 -0.531731 
0.236165 0.119845 -0.504942 
0.227368 0.10923 -0.51067 
0.181801 0.0623478 -0.54218 
0.184972 0.066585 -0.53871 
0.209821 0.0960038 -0.525843 
0.257409 0.145188 -0.494534 
0.241639 0.12653 -0.503677 
0.193826 0.0772789 -0.536712 
0.164084 0.0450243 -0.551583 
0.214125 0.0974559 -0.51814 
0.257642 0.143172 -0.491382 
0.218583 0.101145 -0.515039 
0.177081 0.0565368 -0.539386 
0.153052 0.0314039 -0.550124 
0.183597 0.0672463 -0.533382 
0.237403 0.122457 -0.495672 
0.240916 0.12391 -0.495134 
0.190452 0.0724564 -0.532355 
0.15989 0.0378556 -0.546779 
0.203754 0.0853575 -0.520867 
0.254548 0.137889 -0.487011 
0.255566 0.142663 -0.490195 
0.206651 0.0925493 -0.522694 
0.170176 0.0548194 -0.542353 
0.211588 0.0996056 -0.517511 
0.256593 0.146267 -0.488922 
0.223497 0.108807 -0.50715 
0.176948 0.0600755 -0.536632 
0.143252 0.0230337 -0.552757 
0.186847 0.0694438 -0.525909 
0.237048 0.121096 -0.492422 
0.21582 0.0963002 -0.504188 
0.170812 0.0496668 -0.533863 
0.140742 0.0166734 -0.548332 
0.190421 0.0691007 -0.517038 
0.237934 0.118614 -0.48733 
0.210473 0.0897428 -0.503514 
0.168026 0.0453443 -0.529633 
0.149151 0.0256893 -0.537857 
0.191374 0.0716067 -0.513482 
0.229976 0.112894 -0.492534 
0.220585 0.100945 -0.498389 
0.177086 0.0553925 -0.525214 
0.145525 0.0215461 -0.540766 
0.185152 0.0647791 -0.518329 
0.231722 0.113282 -0.489569 
0.215831 0.095753 -0.498917 
0.171568 0.0497371 -0.526721 
0.14076 0.0160924 -0.540988 
0.180432 0.0586559 -0.517868 
0.224108 0.104198 -0.492204 
0.203102 0.0793846 -0.503206 
0.161077 0.035185 -0.528363 
0.131763 0.00298929 -0.541548 
0.175736 0.0499496 -0.515735 
0.221101 0.097404 -0.489065 
0.203192 0.0766427 -0.498595 
0.160199 0.0320305 -0.525997 
0.143235 0.0121448 -0.532288 
0.182771 0.055288 -0.510614 
0.223073 0.0983435 -0.488647 
0.207206 0.0813286 -0.497911 
0.167754 0.0397198 -0.520548 
0.154537 0.0257249 -0.525118 
0.176989 0.0519417 -0.513655 
0.218333 0.0951778 -0.490222 
0.218176 0.0926501 -0.491386 
0.175005 0.0475978 -0.517838 
0.144499 0.0150455 -0.532718 
0.187157 0.0608744 -0.508186 
0.229014 0.105047 -0.484465 
0.215826 0.0914455 -0.492904 
0.176535 0.0500775 -0.515281 
0.142498 0.0140979 -0.532438 
0.179123 0.0535347 -0.511991 
0.220631 0.0966957 -0.487596 
0.201328 0.0745659 -0.497844 
0.162418 0.0338467 -0.521077 
0.138324 0.00711043 -0.530976 
0.177023 0.0486968 -0.509239 
0.21744 0.0911844 -0.486961 
0.199849 0.0704812 -0.496207 
0.158567 0.0270946 -0.520341 
0.134339 0.000411992 -0.53043 
0.175993 0.0454902 -0.507374 
0.218322 0.090351 -0.484357 
0.207872 0.0781857 -0.490616 
0.165173 0.0332942 -0.515542 
0.140706 0.006545 -0.526027 
0.17677 0.0468391 -0.507417 
0.218981 0.0918855 -0.485243 
0.216634 0.0898849 -0.488684 
0.17608 0.0472398 -0.511123 
0.142893 0.0125093 -0.526673 
0.168277 0.0415353 -0.513646 
0.216851 0.0917524 -0.484808 
0.214931 0.0875873 -0.486798 
0.167259 0.0386181 -0.517535 
0.141828 0.0099089 -0.527103 
0.181292 0.0528106 -0.505731 
0.227414 0.100995 -0.47964 
0.225668 0.0983969 -0.481857 
0.177902 0.0491884 -0.511897 
0.149011 0.0169906 -0.524113 
0.189741 0.0605656 -0.501698 
0.228467 0.101577 -0.480938 
0.212995 0.0854803 -0.489962 
0.175414 0.0461072 -0.511015 
0.163475 0.0336197 -0.51495 
0.181505 0.0544212 -0.506016 
0.209148 0.0831668 -0.490747 
0.204195 0.0763362 -0.493619 
0.170432 0.0410126 -0.513783 
0.140865 0.00918035 -0.526792 
0.192007 0.0647227 -0.498641 
0.244393 0.120211 -0.470943 
0.231586 0.105962 -0.479028 
0.174509 0.0460394 -0.510694 
0.134716 0.00343329 -0.528032 
0.168775 0.0414579 -0.510252 
0.221944 0.0966734 -0.479803 
0.230233 0.104209 -0.477531 
0.178538 0.051378 -0.5112 
0.155261 0.0252888 -0.519893 
0.193269 0.0665598 -0.499405 
0.235604 0.110752 -0.475575 
0.222726 0.096341 -0.483223 
0.181343 0.0530026 -0.506882 
0.154006 0.0237512 -0.518809 
0.186521 0.0594274 -0.501915 
0.228619 0.103208 -0.477893 
0.221149 0.0952374 -0.483252 
0.179476 0.0520975 -0.508119 
0.15462 0.0259182 -0.518853 
0.190206 0.0646659 -0.499936 
0.23066 0.106994 -0.477668 
0.220054 0.0955061 -0.48423 
0.178887 0.0526507 -0.508272 
0.152281 0.0237644 -0.519611 
0.182922 0.0569897 -0.503817 
0.223974 0.0996299 -0.480534 
0.2075 0.0819845 -0.489684 
0.165886 0.0391245 -0.515296 
0.165878 0.0385768 -0.512834 
0.187007 0.062992 -0.502153 
0.224374 0.101541 -0.481664 
0.21686 0.0898172 -0.485261 
0.173919 0.0451272 -0.511103 
0.150957 0.019082 -0.519931 
0.185239 0.0564 -0.501812 
0.22558 0.0988097 -0.479876 
0.223757 0.0973391 -0.482752 
0.182673 0.0547897 -0.506763 
0.155587 0.0263307 -0.518733 
0.186155 0.0599271 -0.502725 
0.226287 0.101626 -0.480268 
0.21686 0.0901693 -0.485963 
0.176132 0.0476596 -0.509649 
0.149681 0.0192663 -0.520996 
0.179893 0.0526032 -0.50532 
0.222449 0.096704 -0.480669 
0.214718 0.0881459 -0.485903 
0.174081 0.04602 -0.509993 
0.149621 0.0196009 -0.519996 
0.180313 0.0530232 -0.503919 
0.220086 0.0943449 -0.481843 
0.21661 0.089923 -0.485036 
0.175901 0.0479449 -0.509708 
0.151505 0.0220231 -0.52009 
0.185742 0.0591134 -0.501923 
0.22509 0.100111 -0.480084 
0.209902 0.0836313 -0.488773 
0.170508 0.0426497 -0.511699 
0.147148 0.0174097 -0.521057 
0.177995 0.0510691 -0.504849 
0.21797 0.0925829 -0.482535 
0.208853 0.081391 -0.487754 
0.167854 0.0387554 -0.511958 
0.14778 0.0161283 -0.519241 
0.176462 0.0477618 -0.504576 
0.217539 0.0905906 -0.482232 
0.215705 0.0885072 -0.485151 
0.174319 0.0457216 -0.509029 
0.147375 0.0179123 -0.520837 
0.179114 0.0532534 -0.5047 
0.225592 0.101377 -0.478375 
0.218308 0.0932691 -0.483597 
0.171535 0.0450441 -0.511353 
0.142966 0.0144715 -0.52326 
0.183313 0.0577593 -0.501574 
0.228992 0.105265 -0.476678 
0.21787 0.0932112 -0.483841 
0.170862 0.0447118 -0.511352 
0.147015 0.0196589 -0.521022 
0.18391 0.0602666 -0.502123 
0.229855 0.108142 -0.476978 
0.215434 0.0927429 -0.485523 
0.168729 0.0443291 -0.512343 
0.143693 0.0172208 -0.522088 
0.175164 0.0517016 -0.505634 
0.219084 0.0972619 -0.482016 
0.212263 0.0882764 -0.486369 
0.166939 0.0409418 -0.511605 
0.134505 0.0059453 -0.52547 
0.16665 0.040432 -0.508413 
0.21257 0.0879271 -0.483116 
0.203214 0.07696 -0.488695 
0.159014 0.030914 -0.513326 
0.133029 0.00242573 -0.52328 
0.165904 0.0377413 -0.505967 
0.208058 0.0815085 -0.483983 
0.203224 0.0746948 -0.487508 
0.16048 0.0301828 -0.511159 
0.134851 0.00302178 -0.521633 
0.171077 0.0425326 -0.503157 
0.21437 0.0878174 -0.480618 
0.206099 0.0791892 -0.486521 
0.164771 0.0363166 -0.50918 
0.137424 0.00811085 -0.521008 
0.173171 0.0470344 -0.502804 
0.215025 0.0907839 -0.481194 
0.205409 0.0804988 -0.487559 
0.164101 0.0376131 -0.510093 
0.136782 0.00896926 -0.52149 
0.167948 0.042986 -0.505868 
0.211822 0.0883759 -0.482305 
0.199831 0.0754708 -0.489468 
0.157686 0.0318136 -0.51275 
0.133942 0.00651335 -0.52181 
0.167858 0.043068 -0.504289 
0.207479 0.0841254 -0.484242 
0.197734 0.0719836 -0.489938 
0.1565 0.0289564 -0.512234 
0.128635 -0.000428067 -0.523688 
0.162614 0.0364987 -0.50645 
0.205332 0.0809877 -0.48445 
0.201764 0.0764698 -0.487476 
0.157808 0.031073 -0.512168 
0.129762 0.000527692 -0.523037 
0.16488 0.0378316 -0.504818 
0.205388 0.0799569 -0.484504 
0.197855 0.0711048 -0.489398 
0.157948 0.0294387 -0.510368 
0.134263 0.00426103 -0.519293 
0.159787 0.0327196 -0.507193 
0.203348 0.0779148 -0.484924 
0.203217 0.0777948 -0.486814 
0.158793 0.0323298 -0.512116 
0.139285 0.0111808 -0.518628 
0.170417 0.0450446 -0.503259 
0.208804 0.0849426 -0.484483 
0.200498 0.0744823 -0.489275 
0.159031 0.0311868 -0.510996 
0.134639 0.00495632 -0.519942 
0.162971 0.0357924 -0.505912 
0.204977 0.0791722 -0.484599 
0.198819 0.071557 -0.488976 
0.158362 0.0294193 -0.509981 
0.129607 -0.000469094 -0.521652 
0.16145 0.0341347 -0.506006 
0.205586 0.0796947 -0.483276 
0.19801 0.0712688 -0.488611 
0.156357 0.0282029 -0.510748 
0.128465 -0.00088789 -0.521907 
0.162064 0.0356057 -0.505712 
0.206979 0.0820206 -0.482505 
0.193579 0.068487 -0.490548 
0.152425 0.0259598 -0.512276 
0.128333 0.000653722 -0.521266 
0.160844 0.0357572 -0.505495 
0.200037 0.076498 -0.48682 
0.19144 0.0667741 -0.492237 
0.151485 0.0254177 -0.512902 
0.126371 -0.00101286 -0.522068 
0.155142 0.0300226 -0.508136 
0.196783 0.0727808 -0.487364 
0.186889 0.0610976 -0.492829 
0.145523 0.0182862 -0.514623 
0.123604 -0.00573796 -0.521756 
0.157027 0.0299453 -0.50553 
0.196324 0.0707437 -0.486965 
0.187819 0.0610536 -0.4922 
0.149272 0.0209947 -0.511619 
0.127408 -0.00196211 -0.519434 
0.156892 0.0303479 -0.505974 
0.197662 0.072698 -0.486532 
0.187495 0.0626061 -0.493137 
0.150497 0.0244207 -0.511601 
0.127732 0.00129726 -0.52017 
0.155268 0.0316643 -0.507613 
0.19482 0.0726278 -0.488854 
0.185351 0.06256 -0.494635 
0.147427 0.0232115 -0.513361 
0.122809 -0.00262707 -0.522345 
0.153468 0.0299229 -0.507704 
0.191457 0.0691308 -0.490242 
0.182563 0.0591591 -0.495686 
0.145613 0.0208261 -0.513608 
0.121486 -0.00406973 -0.522472 
0.150839 0.0274997 -0.508908 
0.18964 0.0675003 -0.49081 
0.176471 0.0535807 -0.498051 
0.139779 0.0155469 -0.515965 
0.119167 -0.00608623 -0.522764 
0.149102 0.0259557 -0.508816 
0.18537 0.0633315 -0.492355 
0.174355 0.0505618 -0.4981 
0.139586 0.0142552 -0.514888 
0.121651 -0.0051761 -0.520379 
0.146823 0.0222918 -0.509199 
0.183075 0.0599375 -0.493056 
0.176366 0.0529773 -0.497589 
0.141301 0.0166452 -0.514207 
0.119506 -0.00608509 -0.521578 
0.144834 0.0213263 -0.510181 
0.181845 0.05952 -0.493825 
0.178348 0.0553066 -0.496948 
0.140187 0.0160946 -0.515648 
0.120793 -0.00387457 -0.522035 
0.149772 0.0278815 -0.509339 
0.18728 0.0670498 -0.493381 
0.183718 0.0632774 -0.496779 
0.14444 0.022985 -0.515674 
0.121058 -0.0010978 -0.523741 
0.149477 0.0295877 -0.510977 
0.188371 0.0696187 -0.493726 
0.178073 0.0581417 -0.499577 
0.139848 0.0183613 -0.517376 
0.117856 -0.00462621 -0.524553 
0.141227 0.0212961 -0.514177 
0.180616 0.061942 -0.496703 
0.180034 0.0605654 -0.49848 
0.140537 0.0198299 -0.517342 
0.115739 -0.00678804 -0.525384 
0.14059 0.0193 -0.513885 
0.176497 0.056142 -0.498451 
0.175594 0.0542498 -0.500262 
0.141117 0.0186659 -0.51627 
0.116688 -0.0066221 -0.524692 
0.142866 0.0213806 -0.513084 
0.174516 0.054002 -0.49948 
0.168786 0.0473731 -0.502695 
0.146146 0.0235158 -0.512705 
0.125564 0.0013439 -0.519134 
0.151072 0.0283219 -0.508429 
0.194941 0.0737837 -0.491009 
0.192726 0.0721019 -0.494015 
0.148239 0.026565 -0.512893 
0.124643 0.00189225 -0.519601 
0.1543 0.0338303 -0.507112 
0.193028 0.0737787 -0.492631 
0.195104 0.0745945 -0.493755 
0.155931 0.0345649 -0.510437 
0.132657 0.0120924 -0.518302 
0.159755 0.0422575 -0.507801 
0.193682 0.077814 -0.495195 
0.195801 0.0799298 -0.496559 
0.160032 0.0435951 -0.512436 
0.132898 0.0165022 -0.521963 
0.157399 0.0429068 -0.512021 
0.19341 0.0798498 -0.497291 
0.189074 0.0753706 -0.500779 
0.153124 0.0384514 -0.516574 
0.126768 0.0113765 -0.52539 
0.153669 0.0395701 -0.514027 
0.187789 0.0746152 -0.500402 
0.182882 0.0693057 -0.503998 
0.149931 0.0352529 -0.518061 
0.125028 0.010004 -0.526492 
0.149149 0.0356564 -0.516564 
0.183111 0.0705495 -0.503042 
0.180995 0.0683485 -0.505727 
0.146944 0.0336703 -0.52095 
0.12545 0.0120764 -0.527807 
0.147197 0.0357805 -0.518965 
0.182056 0.0714132 -0.504763 
0.179463 0.0682897 -0.507329 
0.144363 0.032215 -0.5229 
0.120956 0.007887 -0.530327 
0.143903 0.0324085 -0.520867 
0.178389 0.067881 -0.507034 
0.177427 0.0668498 -0.509085 
0.143362 0.0319996 -0.524216 
0.123294 0.0112547 -0.530224 
0.141754 0.0313666 -0.522498 
0.173666 0.0640595 -0.509962 
0.180119 0.0698169 -0.50904 
0.146392 0.0354472 -0.524117 
0.121731 0.0103207 -0.532448 
0.141796 0.0318068 -0.524174 
0.175963 0.0668159 -0.510549 
0.17786 0.0691064 -0.511806 
0.145645 0.0365661 -0.526003 
0.120738 0.0116195 -0.534421 
0.143115 0.034859 -0.524878 
0.176245 0.0682375 -0.511514 
0.173349 0.064178 -0.513994 
0.140201 0.0302 -0.528511 
0.117173 0.00688225 -0.536019 
0.142807 0.0342259 -0.525713 
0.176732 0.0691116 -0.512275 
0.171366 0.0634503 -0.51582 
0.13771 0.028749 -0.530397 
0.11588 0.00567565 -0.536771 
0.135086 0.0258771 -0.528603 
0.16656 0.0579952 -0.516524 
0.172105 0.062773 -0.5158 
0.138204 0.0282059 -0.53048 
0.113914 0.00308891 -0.537892 
0.133448 0.0232307 -0.529452 
0.167228 0.0572973 -0.516241 
0.170599 0.0594673 -0.516317 
0.13458 0.0226785 -0.531782 
0.110731 -0.0017801 -0.539007 
0.135336 0.0244549 -0.529143 
0.173236 0.0631648 -0.514391 
0.170475 0.060257 -0.51741 
0.135308 0.0242726 -0.532187 
0.111167 8.9257e-05 -0.539842 
0.134375 0.0258666 -0.531113 
0.174476 0.0672329 -0.515827 
0.179794 0.0735496 -0.516337 
0.13962 0.0333217 -0.534319 
0.117582 0.0114009 -0.541036 
0.140901 0.037006 -0.531882 
0.176008 0.0730053 -0.51897 
0.183221 0.0792815 -0.518366 
0.143788 0.0395445 -0.53568 
0.114735 0.0107444 -0.545287 
0.133141 0.0314832 -0.537706 
0.174625 0.0735327 -0.520903 
0.182281 0.0803654 -0.519504 
0.138827 0.036079 -0.538305 
0.10489 0.000165053 -0.548785 
0.132671 0.0270927 -0.536294 
0.170641 0.0652571 -0.521535 
0.174256 0.0677144 -0.521731 
0.136705 0.0293429 -0.537305 
0.112038 0.00431309 -0.544931 
0.135571 0.0300381 -0.536041 
0.171684 0.0675602 -0.523136 
0.181342 0.0779287 -0.522041 
0.145013 0.0418872 -0.537621 
0.117914 0.0152907 -0.54642 
0.140234 0.0385584 -0.537347 
0.175665 0.0742367 -0.524389 
0.183433 0.0814005 -0.523776 
0.145937 0.0440757 -0.539723 
0.112805 0.0119928 -0.552045 
0.147492 0.0482019 -0.538331 
0.188673 0.0900903 -0.521863 
0.170002 0.0718509 -0.530793 
0.134346 0.0347948 -0.544799 
0.109299 0.00908773 -0.552234 
0.132702 0.0338365 -0.5429 
0.168747 0.0706652 -0.529638 
0.177511 0.0791711 -0.52834 
0.140083 0.0415874 -0.544355 
0.111336 0.012843 -0.553871 
0.136348 0.0390283 -0.543798 
0.170485 0.0739036 -0.531365 
0.177804 0.0804224 -0.530434 
0.142108 0.044216 -0.545225 
0.111365 0.0134823 -0.555611 
0.131545 0.0345593 -0.547253 
0.168401 0.0719113 -0.533431 
0.179448 0.0825771 -0.531212 
0.14224 0.0450129 -0.546424 
0.109143 0.0113544 -0.557403 
0.129496 0.0312944 -0.548725 
0.169814 0.0715174 -0.532688 
0.167479 0.0691345 -0.535249 
0.132353 0.0334853 -0.549355 
0.110184 0.0112236 -0.555646 
0.129365 0.0319414 -0.548246 
0.164465 0.0674171 -0.535531 
0.17184 0.0738928 -0.534608 
0.134643 0.0364098 -0.54998 
0.107717 0.00948718 -0.558183 
0.126388 0.0296357 -0.550851 
0.164693 0.0682621 -0.536473 
0.171019 0.0740355 -0.535963 
0.132889 0.0354668 -0.551464 
0.102863 0.00475649 -0.560524 
0.123058 0.0250489 -0.55214 
0.161189 0.0632047 -0.537809 
0.165814 0.067231 -0.537785 
0.128508 0.0296085 -0.55281 
0.102139 0.00300111 -0.56041 
0.127467 0.0289211 -0.550379 
0.162687 0.0641749 -0.537882 
0.165757 0.0658086 -0.538563 
0.130318 0.0299845 -0.552696 
0.102097 0.00274079 -0.561843 
0.128029 0.0312159 -0.552716 
0.169055 0.0730655 -0.537527 
0.174682 0.0790641 -0.537779 
0.134769 0.0388689 -0.554656 
0.106318 0.00974744 -0.563143 
0.129088 0.0335873 -0.554662 
0.165749 0.0711848 -0.542131 
0.180609 0.086837 -0.539416 
0.142883 0.0498811 -0.555542 
0.113048 0.0208465 -0.565285 
0.13449 0.0432499 -0.556895 
0.170664 0.0793635 -0.543668 
0.176078 0.0833593 -0.543236 
0.138492 0.0452071 -0.557996 
0.106837 0.0132447 -0.567736 
0.126426 0.0332032 -0.559945 
0.166461 0.0732885 -0.544852 
0.174283 0.0809543 -0.54385 
0.134808 0.0413804 -0.560173 
0.107686 0.0134279 -0.567627 
0.130832 0.0366753 -0.558657 
0.165325 0.0713476 -0.546632 
0.171387 0.0769172 -0.546215 
0.13676 0.0422535 -0.559797 
0.111774 0.0174802 -0.56707 
0.130416 0.0371263 -0.560229 
0.166799 0.0736322 -0.54728 
0.169962 0.076738 -0.548037 
0.135607 0.0423181 -0.56132 
0.108328 0.0155398 -0.56964 
0.130456 0.0384582 -0.561456 
0.165734 0.0738499 -0.548767 
0.165359 0.0727786 -0.550284 
0.132508 0.0391332 -0.562774 
0.105839 0.0121667 -0.570699 
0.121285 0.0286845 -0.565009 
0.157093 0.0647208 -0.551847 
0.154989 0.0629602 -0.554154 
0.127556 0.0347704 -0.563952 
0.10447 0.0111012 -0.569699 
0.103564 0.0101318 -0.568173 
0.141066 0.0464548 -0.553549 
0.149537 0.0525931 -0.551663 
0.115528 0.0177837 -0.564601 
0.088561 -0.0096182 -0.572294 
0.109101 0.0122457 -0.565102 
0.146683 0.0506461 -0.552666 
0.157277 0.0623427 -0.551812 
0.124756 0.0302566 -0.564511 
0.0925616 -0.00114437 -0.575066 
0.115009 0.0222033 -0.567027 
0.154486 0.0619924 -0.55348 
0.158993 0.0666711 -0.554112 
0.122938 0.0304511 -0.567656 
0.0944154 0.00169129 -0.575572 
0.11201 0.0199834 -0.569263 
0.151511 0.0596082 -0.55566 
0.152905 0.0615084 -0.557096 
0.117638 0.0261217 -0.570018 
0.0925051 0.000697584 -0.576385 
0.113217 0.0214598 -0.568534 
0.144935 0.0529062 -0.558394 
0.15073 0.0571158 -0.557794 
0.11889 0.0247281 -0.568668 
0.0897004 -0.0040219 -0.577029 
0.112886 0.0198058 -0.569033 
0.148802 0.0559042 -0.55726 
0.150496 0.0578242 -0.558799 
0.120737 0.0282897 -0.569935 
0.0982682 0.00708577 -0.576409 
0.115387 0.0260002 -0.571045 
0.142543 0.0532762 -0.562102 
0.142262 0.0530115 -0.563552 
0.119381 0.0300042 -0.572364 
0.088684 0.000137537 -0.581621 
0.116058 0.0289428 -0.572003 
0.164425 0.0774731 -0.556071 
0.175115 0.0864222 -0.554229 
0.12102 0.0317032 -0.57301 
0.0805892 -0.0114887 -0.581729 
0.104834 0.0105124 -0.571675 
0.152121 0.0571898 -0.55601 
0.160377 0.0654388 -0.55611 
0.122904 0.0286816 -0.569478 
0.0955847 0.002952 -0.576982 
0.11858 0.027766 -0.569958 
0.15391 0.0635046 -0.559552 
0.159149 0.0684624 -0.559706 
0.123278 0.0326444 -0.572414 
0.0945522 0.00406818 -0.579668 
0.119058 0.0283524 -0.571222 
0.153453 0.0623214 -0.560512 
0.152155 0.0598053 -0.562355 
0.119406 0.0266195 -0.573331 
0.0929443 0.000737072 -0.579983 
0.113318 0.0224752 -0.573793 
0.15218 0.0613986 -0.561386 
0.15317 0.0630064 -0.563215 
0.1178 0.0277029 -0.576028 
0.093514 0.00342878 -0.581666 
0.113789 0.0247012 -0.57547 
0.150286 0.0613903 -0.564461 
0.155902 0.0677599 -0.565015 
0.121386 0.0338977 -0.577796 
0.0996027 0.013014 -0.583013 
0.119766 0.0343989 -0.576827 
0.153925 0.0684847 -0.566576 
0.158999 0.0731026 -0.567004 
0.124392 0.0388959 -0.579717 
0.0981447 0.0138221 -0.586755 
0.11982 0.0368683 -0.580107 
0.156356 0.0734013 -0.568652 
0.157154 0.0742086 -0.570244 
0.121879 0.0388171 -0.582619 
0.0916246 0.00856832 -0.590333 
0.110908 0.0272545 -0.583403 
0.148123 0.0637945 -0.571223 
0.147807 0.0626483 -0.572531 
0.112701 0.0272353 -0.584408 
0.0887541 0.00233182 -0.588889 
0.103625 0.0166124 -0.583471 
0.140712 0.0528764 -0.571729 
0.140655 0.0523501 -0.573273 
0.10746 0.0191409 -0.584384 
0.0851194 -0.00301145 -0.589193 
0.105798 0.0184496 -0.583066 
0.141448 0.0539633 -0.572435 
0.134986 0.047775 -0.575994 
0.104327 0.0168479 -0.585824 
0.0839752 -0.00344641 -0.5899 
0.0994374 0.0128385 -0.585048 
0.132909 0.0459441 -0.575415 
0.134279 0.0467589 -0.576383 
0.102508 0.0147596 -0.586477 
0.0773805 -0.0107996 -0.591733 
0.096105 0.00740592 -0.58556 
0.128485 0.0392404 -0.576521 
0.128194 0.0381003 -0.577582 
0.095156 0.00489824 -0.587856 
0.0762302 -0.0146838 -0.590597 
0.0978116 0.00672056 -0.583602 
0.126414 0.0345143 -0.576137 
0.133986 0.0392654 -0.574827 
0.0989991 0.00397465 -0.585719 
0.0749347 -0.0196826 -0.590721 
0.102028 0.00901 -0.583695 
0.139972 0.0478935 -0.574618 
0.147284 0.0566305 -0.575521 
0.10996 0.0203095 -0.587921 
0.0836009 -0.00481209 -0.593858 
0.105318 0.018394 -0.588054 
0.146299 0.0593226 -0.577032 
0.145755 0.0594949 -0.579561 
0.106372 0.0207071 -0.592133 
0.0824421 -0.00228503 -0.596744 
0.104464 0.0208168 -0.590254 
0.143177 0.0589287 -0.5798 
0.146383 0.0606214 -0.580552 
0.105308 0.0196273 -0.593277 
0.075392 -0.0098969 -0.599358 
0.101742 0.0170094 -0.591575 
0.14366 0.0585581 -0.579842 
0.140004 0.0539257 -0.582428 
0.0992321 0.0126604 -0.594735 
0.0696386 -0.0171449 -0.600649 
0.0939818 0.00808734 -0.593436 
0.133489 0.0477802 -0.582997 
0.13616 0.0500763 -0.584146 
0.103159 0.0161365 -0.592894 
0.0678408 -0.0192903 -0.600744 
0.0822218 -0.00620339 -0.595152 
0.125295 0.0359053 -0.583129 
0.129386 0.0399547 -0.584387 
0.0963978 0.00729954 -0.594023 
0.0667524 -0.0210198 -0.600621 
0.0895347 0.00286175 -0.594531 
0.129628 0.0428055 -0.584559 
0.134265 0.0472273 -0.585591 
0.094999 0.00840945 -0.597935 
0.0692135 -0.0165059 -0.602817 
0.0946706 0.0103271 -0.596185 
0.132442 0.0482779 -0.587277 
0.139912 0.0550137 -0.587378 
0.100961 0.016245 -0.598999 
0.0693512 -0.0150846 -0.605291 
0.091878 0.00764968 -0.598932 
0.133364 0.0487528 -0.588302 
0.134114 0.0497578 -0.590278 
0.0972104 0.0129514 -0.600889 
0.0682745 -0.0156643 -0.606271 
0.0895259 0.00571207 -0.600298 
0.127365 0.0431034 -0.591266 
0.132947 0.0479714 -0.59172 
0.094564 0.00988984 -0.602845 
0.0661342 -0.0181108 -0.607731 
0.0878393 0.00384941 -0.601579 
0.127245 0.0424985 -0.591791 
0.127329 0.0412893 -0.593255 
0.0905612 0.00415233 -0.60289 
0.062055 -0.0246468 -0.60726 
0.0798378 -0.00695293 -0.602292 
0.12238 0.0349452 -0.592 
0.122671 0.0358683 -0.594323 
0.0848689 -0.00133456 -0.60511 
0.0612678 -0.0240398 -0.608793 
0.0873318 0.00307571 -0.602625 
0.125139 0.0406877 -0.594382 
0.122693 0.0376883 -0.596766 
0.0860072 0.00095055 -0.606462 
0.0595102 -0.0249317 -0.610755 
0.0839817 0.000408413 -0.604888 
0.122413 0.0387176 -0.596648 
0.124691 0.0409152 -0.598357 
0.0883658 0.00494707 -0.60812 
0.0601623 -0.0224304 -0.612814 
0.0805116 -0.00131651 -0.607669 
0.121445 0.0389363 -0.59836 
0.121022 0.0381343 -0.600485 
0.0836753 0.000903395 -0.610356 
0.0548131 -0.0273986 -0.614909 
0.0789072 -0.00286767 -0.608998 
0.11735 0.0352761 -0.601088 
0.123757 0.0410137 -0.601458 
0.0844805 0.00205493 -0.61188 
0.0559341 -0.0265888 -0.615692 
0.0810345 -0.00180392 -0.609434 
0.119779 0.0363587 -0.601366 
0.1211 0.037131 -0.602938 
0.0841308 0.000388563 -0.612456 
0.0603767 -0.0228663 -0.615754 
0.0823166 0.000624026 -0.611338 
0.120453 0.0389471 -0.604129 
0.126177 0.0454304 -0.605271 
0.0891753 0.0091896 -0.615224 
0.0633506 -0.0159337 -0.619049 
0.0838245 0.00505925 -0.614121 
0.1184 0.0391999 -0.607416 
0.126066 0.0457109 -0.607356 
0.0899533 0.00984466 -0.616247 
0.0601377 -0.0195837 -0.620735 
0.0786433 -0.00127282 -0.615941 
0.116891 0.0361419 -0.607939 
0.117958 0.0365339 -0.609243 
0.0823949 0.000931646 -0.617496 
0.0564976 -0.0251073 -0.62044 
0.0733967 -0.00853586 -0.615872 
0.110279 0.0272857 -0.608507 
0.116009 0.0317877 -0.609006 
0.0814551 -0.00244834 -0.617267 
0.0536844 -0.029122 -0.621495 
0.0773175 -0.00474255 -0.616628 
0.115698 0.0334008 -0.609588 
0.116603 0.0346833 -0.61172 
0.0820997 0.000580735 -0.620028 
0.0538955 -0.0265069 -0.624395 
0.0770303 -0.00249988 -0.619793 
0.115339 0.0356695 -0.612799 
0.116705 0.0377027 -0.614813 
0.0819642 0.00343401 -0.623226 
0.0558202 -0.0221144 -0.626769 
0.0751007 -0.00251016 -0.622435 
0.110574 0.0324123 -0.616125 
0.115546 0.0370976 -0.617102 
0.0819846 0.00407067 -0.62496 
0.0513336 -0.0254205 -0.629762 
0.0749871 -0.00211087 -0.624331 
0.110565 0.0327223 -0.61783 
0.11209 0.03289 -0.618735 
0.0772616 -0.00213638 -0.626001 
0.049945 -0.0296913 -0.628735 
0.0679006 -0.0126589 -0.624255 
0.104211 0.0225844 -0.617721 
0.106403 0.0242715 -0.619095 
0.074086 -0.00766546 -0.626208 
0.0495031 -0.0312439 -0.629306 
0.0696524 -0.0103802 -0.625623 
0.104606 0.0241737 -0.619862 
0.103937 0.0237158 -0.621943 
0.0719391 -0.00789823 -0.629319 
0.0487382 -0.0300615 -0.632069 
0.0696675 -0.00814465 -0.628098 
0.104171 0.0260357 -0.622746 
0.111111 0.0320077 -0.623179 
0.0766444 -0.00218149 -0.630618 
0.0468294 -0.0315147 -0.634058 
0.0651411 -0.0134481 -0.630043 
0.105517 0.0260942 -0.623399 
0.110625 0.0311904 -0.624537 
0.0713004 -0.0074911 -0.633277 
0.046024 -0.032511 -0.635512 
0.0690661 -0.00896829 -0.631174 
0.106467 0.0280124 -0.625549 
0.110109 0.031149 -0.626806 
0.0737067 -0.004884 -0.634227 
0.0462423 -0.0317752 -0.637004 
0.0637313 -0.0137753 -0.633355 
0.101866 0.0236257 -0.627526 
0.109442 0.0305933 -0.628066 
0.0730441 -0.00527919 -0.63539 
0.0435146 -0.0341333 -0.638504 
0.065509 -0.0127201 -0.633908 
0.102402 0.0232732 -0.628438 
0.108267 0.0280796 -0.629199 
0.0727912 -0.00695519 -0.636302 
0.0461894 -0.0325801 -0.639274 
0.0665657 -0.0113844 -0.636074 
0.101762 0.023606 -0.631112 
0.101795 0.0242948 -0.633108 
0.0732924 -0.00400656 -0.638791 
0.0539694 -0.023068 -0.640505 
0.0634623 -0.0134958 -0.638592 
0.0871655 0.00964005 -0.635364 
0.0957127 0.0173473 -0.635417 
0.0552191 -0.0226301 -0.643981 
0.017394 -0.0594923 -0.649159 
0.0431462 -0.0336787 -0.642776 
0.0917771 0.0140057 -0.634273 
0.101855 0.0222846 -0.634635 
0.0577092 -0.0217496 -0.642873 
0.022163 -0.0565822 -0.647082 
0.0428723 -0.0356331 -0.642261 
0.0842447 0.00514668 -0.635781 
0.100397 0.0203138 -0.63498 
0.0633488 -0.0159291 -0.643236 
0.0345157 -0.0440406 -0.646643 
0.0545986 -0.0232738 -0.643074 
0.0911601 0.0131634 -0.638031 
0.101577 0.0237639 -0.638216 
0.0674564 -0.00961893 -0.645734 
0.0417503 -0.0349272 -0.648331 
0.0597028 -0.0169557 -0.644737 
0.0906784 0.013679 -0.640729 
0.107611 0.0293685 -0.639458 
0.0738464 -0.00332888 -0.646973 
0.0465561 -0.0294815 -0.650167 
0.0637071 -0.0120141 -0.646862 
0.0982226 0.0218669 -0.642085 
0.110307 0.033161 -0.641764 
0.0757196 -0.000652885 -0.648897 
0.0451774 -0.030408 -0.65246 
0.0669802 -0.00948325 -0.648265 
0.102983 0.0256317 -0.642986 
0.101896 0.0243329 -0.644758 
0.0693139 -0.00802941 -0.650645 
0.043136 -0.0335046 -0.653032 
0.0612917 -0.0152314 -0.649558 
0.0960284 0.0185966 -0.644521 
0.0991113 0.0201921 -0.645103 
0.0669694 -0.012363 -0.650366 
0.0379795 -0.0412579 -0.652917 
0.0544391 -0.0250593 -0.649602 
0.0901663 0.010143 -0.645074 
0.101258 0.020864 -0.645201 
0.070701 -0.00921639 -0.65093 
0.0412077 -0.0377288 -0.654344 
0.0577737 -0.0208665 -0.65134 
0.091929 0.0128832 -0.647309 
0.103566 0.02419 -0.647509 
0.074441 -0.00422178 -0.653046 
0.043769 -0.0335223 -0.65671 
0.0563387 -0.0205093 -0.654131 
0.0924197 0.0147048 -0.649509 
0.106174 0.0273599 -0.649017 
0.0709708 -0.00717192 -0.655975 
0.0427212 -0.0348157 -0.658368 
0.0585069 -0.0188005 -0.655457 
0.0940539 0.0160755 -0.651135 
0.107417 0.0284231 -0.650692 
0.072677 -0.0057755 -0.657234 
0.0426763 -0.035331 -0.659826 
0.0600095 -0.0184656 -0.656603 
0.0966898 0.0174474 -0.652187 
0.105249 0.025683 -0.652855 
0.0725189 -0.00641541 -0.658604 
0.0420529 -0.0358928 -0.661481 
0.0591354 -0.0188596 -0.658479 
0.0967264 0.0178592 -0.653977 
0.103478 0.0240836 -0.654771 
0.0680723 -0.0108268 -0.660791 
0.0370851 -0.0408535 -0.663533 
0.060455 -0.0175007 -0.659857 
0.0979499 0.0195009 -0.655766 
0.109546 0.029992 -0.655916 
0.0716967 -0.0073248 -0.66233 
0.0386128 -0.0393991 -0.665353 
0.0587287 -0.0187842 -0.662161 
0.101004 0.0230041 -0.657554 
0.116358 0.0384495 -0.658181 
0.0776455 0.00111726 -0.665194 
0.0400257 -0.0347151 -0.669591 
0.0610865 -0.0131263 -0.666311 
0.106064 0.0311357 -0.660876 
0.113314 0.0389278 -0.662425 
0.072678 -0.000743705 -0.66919 
0.0367957 -0.0353933 -0.672442 
0.0579 -0.0149083 -0.668228 
0.0990175 0.0247564 -0.663028 
0.10953 0.0332463 -0.663211 
0.0696629 -0.00614388 -0.669275 
0.0310809 -0.0434638 -0.672901 
0.0543892 -0.0207531 -0.668588 
0.0988957 0.0225882 -0.66307 
0.108346 0.0305558 -0.663437 
0.0654687 -0.0119337 -0.670058 
0.0293807 -0.0475813 -0.672582 
0.05434 -0.023149 -0.668395 
0.0965755 0.0183625 -0.663775 
0.108907 0.0296782 -0.664126 
0.0691922 -0.00945523 -0.670501 
0.0344591 -0.0431053 -0.673418 
0.0528763 -0.0241208 -0.670336 
0.0941223 0.0164961 -0.666088 
0.114118 0.0354343 -0.665578 
0.0748018 -0.00295643 -0.672227 
0.0366623 -0.0400711 -0.675841 
0.0532176 -0.0236314 -0.672838 
0.0966601 0.0189923 -0.667966 
0.109782 0.0319421 -0.668376 
0.0697643 -0.00724009 -0.674978 
0.0368936 -0.0396158 -0.677087 
0.0536964 -0.023479 -0.673724 
0.0918206 0.0134944 -0.669635 
0.108068 0.0280251 -0.669093 
0.0709851 -0.00840124 -0.674672 
0.0348401 -0.0435008 -0.677757 
0.0561129 -0.0227907 -0.674298 
0.0972271 0.017477 -0.669941 
0.105968 0.0255558 -0.670668 
0.0693632 -0.0106646 -0.675964 
0.0357536 -0.0432955 -0.678624 
0.0545265 -0.0242788 -0.675859 
0.0954274 0.0160006 -0.671927 
0.107312 0.0280579 -0.672959 
0.0743567 -0.00387191 -0.678223 
0.0387419 -0.037665 -0.681963 
0.0543333 -0.0209268 -0.679861 
0.0973416 0.021402 -0.675392 
0.108505 0.0327906 -0.676273 
0.0701251 -0.00480634 -0.682434 
0.0367649 -0.0373144 -0.685031 
0.0512568 -0.0223896 -0.682613 
0.0911257 0.0168368 -0.678747 
0.109503 0.0347047 -0.678494 
0.0727815 -0.000996951 -0.684266 
0.0366796 -0.0361825 -0.687318 
0.0476196 -0.0258276 -0.684598 
0.0881358 0.0133424 -0.67995 
0.10092 0.0248752 -0.679823 
0.0647671 -0.0108345 -0.684747 
0.0317199 -0.0433829 -0.686752 
0.0423454 -0.033279 -0.683965 
0.0811973 0.00414876 -0.679809 
0.0998405 0.020889 -0.678973 
0.0648683 -0.0134949 -0.683977 
0.0291888 -0.0479563 -0.687146 
0.0496957 -0.0275441 -0.684132 
0.0883263 0.0106379 -0.680843 
0.107069 0.0281513 -0.680468 
0.0706432 -0.00761716 -0.685955 
0.0340143 -0.043084 -0.689334 
0.0469924 -0.0290795 -0.687177 
0.0879696 0.0114844 -0.683427 
0.10605 0.0293343 -0.683364 
0.076078 -0.000557869 -0.687178 
0.0355229 -0.040361 -0.690782 
0.0387194 -0.0389006 -0.688067 
0.0808507 0.00158228 -0.683506 
0.102488 0.0222353 -0.683101 
0.0684506 -0.0101962 -0.688713 
0.0351787 -0.0413947 -0.691735 
0.0457469 -0.0292868 -0.69012 
0.0871074 0.0110833 -0.68623 
0.105506 0.0283054 -0.685999 
0.0655523 -0.0105997 -0.692337 
0.0309806 -0.0439648 -0.694715 
0.0469819 -0.027417 -0.692171 
0.0890077 0.013603 -0.688051 
0.10639 0.0294776 -0.687756 
0.0660359 -0.0101208 -0.693997 
0.0303536 -0.0449963 -0.696228 
0.047443 -0.0280467 -0.693425 
0.0889679 0.0126605 -0.689841 
0.1129 0.0354398 -0.688954 
0.0704458 -0.00586216 -0.695886 
0.0332533 -0.0421631 -0.698472 
0.0580282 -0.0185644 -0.694776 
0.0994425 0.0219218 -0.690906 
0.110616 0.0324455 -0.691572 
0.0723364 -0.00501652 -0.696949 
0.0367289 -0.039317 -0.699736 
0.0582998 -0.017763 -0.697043 
0.100304 0.0234888 -0.693187 
0.108875 0.0321968 -0.694422 
0.0709219 -0.00476818 -0.699989 
0.0373387 -0.0369545 -0.702363 
0.052534 -0.0213619 -0.699931 
0.0934103 0.0183405 -0.69585 
0.107043 0.0304073 -0.695859 
0.0680214 -0.00795508 -0.701146 
0.0308768 -0.0441713 -0.703542 
0.0493563 -0.0266221 -0.700306 
0.0921105 0.0149774 -0.696035 
0.105043 0.0264947 -0.696036 
0.0648164 -0.0133118 -0.7013 
0.0281024 -0.0494907 -0.703594 
0.0525672 -0.0258618 -0.700427 
0.0934998 0.0145143 -0.697067 
0.100853 0.0222449 -0.698344 
0.0676604 -0.0104449 -0.702468 
0.0341006 -0.0429294 -0.704533 
0.038594 -0.0377873 -0.702785 
0.0794491 0.00174188 -0.698907 
0.100066 0.0207566 -0.698205 
0.0645055 -0.0140499 -0.703045 
0.0289437 -0.0485783 -0.705532 
0.0430405 -0.0344706 -0.703318 
0.0843543 0.00600244 -0.70003 
0.102969 0.0239827 -0.700122 
0.0668056 -0.0110147 -0.70556 
0.0349319 -0.0415953 -0.707566 
0.0474392 -0.0283279 -0.705801 
0.0862631 0.00968013 -0.702838 
0.105581 0.0279411 -0.702435 
0.0666506 -0.0101616 -0.707775 
0.0293904 -0.0466633 -0.710065 
0.0487202 -0.028444 -0.707093 
0.0898433 0.0116936 -0.703644 
0.103294 0.0245533 -0.704192 
0.06531 -0.0123245 -0.70935 
0.0332154 -0.0431364 -0.710961 
0.0428307 -0.0325001 -0.709207 
0.0868574 0.0102658 -0.705265 
0.105013 0.0266873 -0.704987 
0.0623208 -0.0152459 -0.710468 
0.0230146 -0.0535308 -0.71289 
0.0496256 -0.0275203 -0.709481 
0.0923636 0.0145593 -0.706356 
0.110611 0.0317619 -0.706494 
0.069897 -0.00802911 -0.711525 
0.0303099 -0.0465033 -0.713891 
0.0442499 -0.0327794 -0.711348 
0.0904995 0.0123019 -0.707209 
0.107288 0.0281437 -0.707589 
0.0654829 -0.012641 -0.713154 
0.0277553 -0.0490074 -0.715604 
0.0494157 -0.02703 -0.713084 
0.0924981 0.0153668 -0.70997 
0.112376 0.0343266 -0.709862 
0.0722702 -0.00476054 -0.715357 
0.0377028 -0.0384922 -0.716872 
0.054066 -0.0231859 -0.714151 
0.0911933 0.0127431 -0.711191 
0.105913 0.0258945 -0.710743 
0.0774037 -0.00210443 -0.714611 
0.0527538 -0.0261547 -0.715541 
0.0717723 -0.00737536 -0.713917 
0.119092 0.0391169 -0.711301 
0.120137 0.0404242 -0.713425 
0.0708551 -0.00883144 -0.716739 
0.0262323 -0.0529331 -0.717649 
0.0327481 -0.0454711 -0.715544 
0.0918984 0.012308 -0.710885 
0.118382 0.0379387 -0.711731 
0.074532 -0.00429228 -0.716436 
0.0307722 -0.0460509 -0.719103 
0.0484949 -0.0271924 -0.717456 
0.0918938 0.0157513 -0.715573 
0.117078 0.0404108 -0.715706 
0.0766112 0.00146039 -0.720791 
0.0371128 -0.0366522 -0.723129 
0.0554949 -0.0186674 -0.720629 
0.0950429 0.0199281 -0.718076 
0.11493 0.0381379 -0.717748 
0.0775724 0.00137087 -0.721788 
0.0392714 -0.0359928 -0.723784 
0.048103 -0.0269421 -0.722085 
0.0895594 0.0137125 -0.719523 
0.114963 0.0384211 -0.719147 
0.0761763 0.00106938 -0.724541 
0.0400065 -0.03387 -0.726724 
0.0524418 -0.0212742 -0.724779 
0.0916789 0.0170259 -0.722006 
0.113859 0.0378123 -0.721541 
0.0774438 0.00240839 -0.726092 
0.0400075 -0.0337505 -0.728484 
0.0459602 -0.0272248 -0.726817 
0.088014 0.0136436 -0.723388 
0.110208 0.0344601 -0.72311 
0.072407 -0.00216523 -0.728055 
0.0333767 -0.0397323 -0.730737 
0.0430348 -0.0294977 -0.728752 
0.0877014 0.0140508 -0.724925 
0.110835 0.035389 -0.72431 
0.0679801 -0.00661978 -0.729986 
0.0281345 -0.0454774 -0.732435 
0.048611 -0.0250648 -0.729754 
0.0918162 0.0174132 -0.72647 
0.114753 0.0389121 -0.726096 
0.0739166 -0.00111081 -0.731606 
0.0326715 -0.0413474 -0.734696 
0.0461408 -0.0278676 -0.732158 
0.088594 0.0138251 -0.729003 
0.118211 0.0421003 -0.727694 
0.0778995 0.00275663 -0.732817 
0.0340977 -0.0403524 -0.736329 
0.0534948 -0.024195 -0.732156 
0.0958501 0.0168175 -0.728073 
0.112923 0.0319675 -0.727722 
0.0733076 -0.00701272 -0.73255 
0.0364272 -0.0428512 -0.734726 
0.053261 -0.0256015 -0.732622 
0.095655 0.0160968 -0.729324 
0.115715 0.0352435 -0.729161 
0.0760604 -0.00360765 -0.734336 
0.0375994 -0.0412545 -0.736734 
0.0515715 -0.0277639 -0.734453 
0.0943058 0.0141355 -0.731041 
0.11705 0.036035 -0.730735 
0.0753634 -0.00446013 -0.736705 
0.0382531 -0.0403272 -0.739069 
0.0569342 -0.0216232 -0.736587 
0.0995997 0.0201212 -0.732917 
0.119096 0.037969 -0.732574 
0.0769797 -0.00339066 -0.737861 
0.0358915 -0.0434289 -0.740718 
0.0541196 -0.0252141 -0.738182 
0.101618 0.0214955 -0.733965 
0.122634 0.0419658 -0.734226 
0.0780937 -0.00132278 -0.740193 
0.0344033 -0.0435326 -0.743604 
0.0571767 -0.0209157 -0.74055 
0.106093 0.0270931 -0.736011 
0.13122 0.0506901 -0.735657 
0.0821563 0.00285947 -0.742581 
0.0383826 -0.0393687 -0.746073 
0.060688 -0.0162442 -0.743431 
0.111563 0.033903 -0.738483 
0.133141 0.0547753 -0.738795 
0.0849902 0.00774081 -0.745292 
0.0360599 -0.0399042 -0.750069 
0.0638935 -0.0129822 -0.745838 
0.113408 0.0356068 -0.740613 
0.136743 0.0568899 -0.739842 
0.0870254 0.00782676 -0.745997 
0.0383699 -0.0401116 -0.749615 
0.0524392 -0.0274263 -0.745974 
0.105023 0.0239932 -0.739479 
0.130017 0.0469794 -0.738558 
0.0811485 -0.00118123 -0.744882 
0.033832 -0.0476844 -0.748717 
0.0563084 -0.0263034 -0.744936 
0.105891 0.0223822 -0.739737 
0.132035 0.0470746 -0.738938 
0.0840977 0.000138589 -0.74567 
0.0391321 -0.0437673 -0.749104 
0.0561755 -0.0271151 -0.745856 
0.105139 0.0207696 -0.740286 
0.133262 0.046463 -0.73867 
0.0841284 -0.00198567 -0.74565 
0.0397434 -0.0456419 -0.74886 
0.0590176 -0.0264341 -0.745911 
0.109264 0.0231747 -0.740311 
0.134484 0.0475103 -0.739898 
0.087204 0.00116169 -0.747153 
0.0437314 -0.041275 -0.751075 
0.0653727 -0.0192466 -0.748288 
0.113253 0.0281231 -0.743319 
0.13805 0.0522541 -0.742866 
0.0930563 0.00824784 -0.749413 
0.0478046 -0.0360782 -0.753864 
0.0642003 -0.0204564 -0.750691 
0.111797 0.0262437 -0.745091 
0.136049 0.0490979 -0.744337 
0.0910213 0.00503978 -0.75089 
0.0465119 -0.038322 -0.755348 
0.0671865 -0.017984 -0.751993 
0.1153 0.029293 -0.746038 
0.137693 0.0497115 -0.745203 
0.0899404 0.00257473 -0.75252 
0.0461595 -0.0403658 -0.756299 
0.0649844 -0.0210647 -0.753597 
0.115191 0.0286309 -0.747287 
0.13965 0.052218 -0.746669 
0.0904215 0.00368058 -0.754642 
0.0464097 -0.0397357 -0.758284 
0.0636431 -0.0226508 -0.755307 
0.113205 0.0262662 -0.749049 
0.135759 0.0480418 -0.748844 
0.092594 0.00574756 -0.75507 
0.046698 -0.0391497 -0.76039 
0.0630564 -0.0226918 -0.757571 
0.11263 0.026258 -0.751278 
0.138329 0.0509195 -0.750399 
0.0914802 0.0048685 -0.75761 
0.0460871 -0.039752 -0.762217 
0.0681049 -0.0186767 -0.758463 
0.115857 0.028334 -0.75274 
0.144325 0.0552856 -0.751269 
0.0971954 0.00907272 -0.758711 
0.0519379 -0.0351918 -0.763568 
0.0738041 -0.0136825 -0.759984 
0.121656 0.0333934 -0.753762 
0.145645 0.0553901 -0.752743 
0.0984233 0.00881681 -0.760311 
0.0528634 -0.0358109 -0.765375 
0.0731674 -0.0148167 -0.762277 
0.122888 0.0344466 -0.755351 
0.152762 0.0626905 -0.753262 
0.102355 0.0126856 -0.762172 
0.055662 -0.0337662 -0.766698 
0.0777965 -0.0129235 -0.762695 
0.126022 0.0348462 -0.756271 
0.156263 0.0645071 -0.754935 
0.110644 0.0200989 -0.763069 
0.0647638 -0.0247639 -0.769127 
0.0822026 -0.00702573 -0.766263 
0.130707 0.0409784 -0.75925 
0.159096 0.0683352 -0.757563 
0.110632 0.0206051 -0.766553 
0.0653612 -0.0239404 -0.772115 
0.0931072 0.00325923 -0.767916 
0.139566 0.0492526 -0.76128 
0.160954 0.0698078 -0.760613 
0.115552 0.0251605 -0.768455 
0.0709218 -0.0185672 -0.774264 
0.086743 -0.00211359 -0.771468 
0.133687 0.0443239 -0.764237 
0.16304 0.0722317 -0.761677 
0.115168 0.0248713 -0.770543 
0.0689034 -0.0209619 -0.776695 
0.0915856 0.000495659 -0.772251 
0.136267 0.0446366 -0.765803 
0.169826 0.0769971 -0.762448 
0.124512 0.0326662 -0.771126 
0.0786405 -0.012408 -0.778231 
0.0971297 0.00531187 -0.774441 
0.143191 0.0507029 -0.766896 
0.173981 0.0800279 -0.76408 
0.126274 0.0331136 -0.774123 
0.0803706 -0.0119395 -0.781752 
0.106239 0.0144741 -0.77783 
0.155763 0.0637215 -0.76762 
0.167376 0.0752616 -0.767934 
0.118973 0.0271217 -0.777369 
0.0747591 -0.0168841 -0.782797 
0.0921527 0.000216059 -0.77943 
0.139895 0.0475789 -0.771171 
0.171742 0.0788223 -0.768348 
0.126385 0.0344954 -0.778251 
0.0833409 -0.00755006 -0.785131 
0.0979668 0.00820168 -0.782658 
0.143381 0.0532481 -0.774745 
0.174536 0.083333 -0.771361 
0.128746 0.0381633 -0.781377 
0.0855984 -0.00444213 -0.788599 
0.094261 0.00482346 -0.786359 
0.139503 0.0496746 -0.777383 
0.165513 0.074905 -0.774996 
0.125145 0.0350128 -0.782636 
0.0811143 -0.00857643 -0.790315 
0.0779981 -0.0120634 -0.788673 
0.127705 0.036985 -0.77832 
0.161458 0.0695267 -0.774343 
0.116342 0.0251918 -0.784106 
0.0717452 -0.0186588 -0.791808 
0.0931453 0.00285424 -0.787846 
0.142136 0.0514201 -0.778891 
0.175343 0.0835026 -0.775522 
0.126978 0.0359775 -0.785579 
0.07884 -0.0114503 -0.794479 
0.0947556 0.00479894 -0.791235 
0.147163 0.056813 -0.780326 
0.178172 0.0871674 -0.777656 
0.127902 0.0377714 -0.78868 
0.0794295 -0.00990973 -0.797274 
0.101403 0.0116787 -0.792627 
0.151245 0.0608318 -0.782566 
0.181013 0.0885762 -0.779359 
0.130377 0.0384754 -0.790566 
0.0816447 -0.00958409 -0.799423 
0.0988501 0.00830728 -0.79573 
0.152023 0.0611022 -0.783373 
0.187397 0.0948877 -0.7785 
0.134811 0.042559 -0.792657 
0.0886033 -0.00369999 -0.799091 
0.110846 0.0177014 -0.794292 
0.158698 0.0652188 -0.784037 
0.19318 0.0987651 -0.779461 
0.148119 0.0542513 -0.790574 
0.111328 0.0178755 -0.797649 
0.1238 0.0306032 -0.795454 
0.157087 0.0637349 -0.788931 
0.19136 0.0976702 -0.784539 
0.135359 0.0429373 -0.79915 
0.0785605 -0.0128754 -0.812088 
0.101106 0.0102125 -0.806553 
0.16554 0.074017 -0.789603 
0.210468 0.116477 -0.782625 
0.144286 0.0507417 -0.799478 
0.0866058 -0.00646166 -0.811747 
0.111889 0.0194925 -0.806255 
0.169078 0.0764953 -0.791277 
0.209079 0.115937 -0.78478 
0.157272 0.0648458 -0.79944 
0.108981 0.01699 -0.811494 
0.12947 0.0372239 -0.806687 
0.176901 0.0843835 -0.794614 
0.207326 0.114108 -0.790074 
0.162267 0.0696374 -0.801277 
0.116371 0.0241354 -0.812964 
0.131771 0.0384566 -0.808483 
0.177205 0.0833757 -0.796956 
0.209431 0.114434 -0.79131 
0.164009 0.0695502 -0.803126 
0.118539 0.0245563 -0.814995 
0.139855 0.0457285 -0.81011 
0.1866 0.092211 -0.797282 
0.215095 0.119899 -0.792988 
0.168471 0.0737877 -0.806074 
0.124482 0.0304142 -0.816288 
0.130858 0.0385371 -0.814343 
0.17995 0.0873492 -0.799615 
0.210162 0.116671 -0.794917 
0.164966 0.0719384 -0.807348 
0.119809 0.0272437 -0.819977 
0.122489 0.0317846 -0.818585 
0.173895 0.0830052 -0.802161 
0.210259 0.118891 -0.795218 
0.162308 0.0714116 -0.810472 
0.116227 0.0255883 -0.822979 
0.129434 0.037977 -0.818812 
0.178542 0.0867445 -0.803991 
0.211224 0.118507 -0.798065 
0.164193 0.0719157 -0.812225 
0.119387 0.0275014 -0.824422 
0.141245 0.0494952 -0.819213 
0.187459 0.0955078 -0.806316 
0.220021 0.127165 -0.800052 
0.173164 0.080617 -0.813557 
0.127824 0.0354975 -0.826288 
0.135049 0.0422519 -0.8232 
0.182905 0.08979 -0.80838 
0.214571 0.120656 -0.802542 
0.171146 0.0776956 -0.814463 
0.126908 0.0338309 -0.827457 
0.136521 0.0437482 -0.82431 
0.184428 0.09138 -0.809384 
0.217768 0.123871 -0.802822 
0.172105 0.0786045 -0.816532 
0.127888 0.0346983 -0.829766 
0.13936 0.0466582 -0.826546 
0.188375 0.0954969 -0.81037 
0.219323 0.125948 -0.805027 
0.172152 0.0792194 -0.819375 
0.126305 0.0336914 -0.832796 
0.138487 0.0462034 -0.828992 
0.188532 0.0959818 -0.812372 
0.217993 0.124123 -0.807201 
0.171133 0.0772278 -0.819788 
0.124384 0.0306978 -0.834922 
0.139651 0.0463985 -0.830511 
0.191289 0.0979287 -0.81437 
0.232886 0.139089 -0.804523 
0.182954 0.089754 -0.818888 
0.13264 0.0396473 -0.836296 
0.144249 0.0501914 -0.831997 
0.198678 0.104394 -0.814125 
0.240804 0.146113 -0.804602 
0.188237 0.0945475 -0.820997 
0.136208 0.043072 -0.837955 
0.160833 0.0688014 -0.832189 
0.214137 0.121991 -0.815136 
0.251648 0.158892 -0.807637 
0.196868 0.104687 -0.824769 
0.1435 0.0517421 -0.841812 
0.151279 0.0608706 -0.838893 
0.2067 0.116078 -0.820055 
0.250746 0.159447 -0.808595 
0.19425 0.103405 -0.827848 
0.140899 0.0502789 -0.845856 
0.151402 0.0600847 -0.841497 
0.207578 0.115954 -0.82107 
0.248407 0.155863 -0.811149 
0.193316 0.101115 -0.829367 
0.141266 0.049273 -0.846328 
0.151862 0.0596549 -0.842341 
0.207794 0.115342 -0.821623 
0.244187 0.151065 -0.813913 
0.192751 0.100084 -0.829549 
0.141898 0.0495698 -0.846099 
0.148596 0.0566321 -0.84324 
0.203226 0.111008 -0.823798 
0.242505 0.149702 -0.814624 
0.191145 0.0989608 -0.831298 
0.141187 0.0493527 -0.847769 
0.15152 0.0602971 -0.844484 
0.206131 0.114698 -0.824247 
0.238068 0.146126 -0.817999 
0.186647 0.0950962 -0.834699 
0.138052 0.0468206 -0.848878 
0.151268 0.0603373 -0.844468 
0.197967 0.106703 -0.830759 
0.241663 0.149386 -0.817979 
0.190738 0.0988106 -0.834531 
0.141296 0.0496316 -0.851195 
0.148332 0.0570537 -0.848114 
0.201897 0.110401 -0.82899 
0.244436 0.152364 -0.817164 
0.193512 0.10194 -0.834688 
0.14462 0.0533058 -0.852332 
0.160206 0.0691391 -0.847735 
0.21348 0.122284 -0.827911 
0.248611 0.157053 -0.820116 
0.198049 0.10697 -0.836611 
0.148803 0.0580414 -0.852828 
0.152491 0.0624958 -0.850594 
0.204964 0.114698 -0.831819 
0.244064 0.15295 -0.82185 
0.195035 0.104241 -0.837217 
0.145524 0.0550173 -0.854156 
0.14152 0.0522043 -0.853687 
0.197028 0.107508 -0.832449 
0.239811 0.1498 -0.820824 
0.188809 0.0993817 -0.83837 
0.139661 0.0505507 -0.855386 
0.146092 0.0576382 -0.85266 
0.200066 0.111403 -0.833047 
0.241223 0.152004 -0.822253 
0.189889 0.101261 -0.839807 
0.140233 0.051909 -0.856926 
0.147529 0.0592401 -0.853751 
0.201599 0.112985 -0.833398 
0.236886 0.147179 -0.82518 
0.185247 0.0958022 -0.842926 
0.136405 0.0472348 -0.859385 
0.156668 0.0677915 -0.853124 
0.20868 0.119558 -0.83471 
0.246478 0.155985 -0.824851 
0.195351 0.104707 -0.840903 
0.145614 0.0550795 -0.85915 
0.150412 0.0598728 -0.856315 
0.206046 0.115361 -0.834524 
0.250091 0.15899 -0.821658 
0.198602 0.108064 -0.839994 
0.149259 0.0590464 -0.857879 
0.151551 0.0634289 -0.856477 
0.206511 0.118317 -0.835034 
0.247993 0.159492 -0.82373 
0.198346 0.110368 -0.840141 
0.149538 0.0617521 -0.859561 
0.157789 0.0697663 -0.856018 
0.211275 0.123075 -0.83553 
0.250903 0.162209 -0.824963 
0.200533 0.112326 -0.841989 
0.151466 0.0635303 -0.859792 
0.157128 0.0697343 -0.857039 
0.20931 0.121691 -0.837532 
0.248588 0.160243 -0.82682 
0.19848 0.110476 -0.843907 
0.150373 0.0625713 -0.861696 
0.156475 0.068697 -0.858684 
0.209131 0.121138 -0.838329 
0.248602 0.159925 -0.827315 
0.197457 0.109066 -0.845758 
0.149315 0.0610703 -0.86368 
0.172034 0.0831095 -0.856579 
0.222012 0.132929 -0.838475 
0.256247 0.166419 -0.829974 
0.209765 0.12004 -0.844204 
0.160886 0.0714039 -0.863178 
0.179116 0.0897933 -0.857587 
0.228593 0.139201 -0.83966 
0.266886 0.177006 -0.828809 
0.218737 0.129336 -0.845044 
0.169674 0.0806048 -0.864224 
0.176227 0.0890026 -0.861943 
0.228253 0.140991 -0.841122 
0.26709 0.179503 -0.829828 
0.217896 0.13076 -0.847269 
0.169111 0.0821958 -0.866991 
0.168317 0.0824283 -0.865782 
0.220632 0.134623 -0.844772 
0.262247 0.175776 -0.831263 
0.212819 0.126635 -0.849096 
0.165908 0.079846 -0.868698 
0.170488 0.0839566 -0.865681 
0.220114 0.133379 -0.84614 
0.258741 0.171325 -0.834083 
0.213643 0.126298 -0.849232 
0.169123 0.0819153 -0.867401 
0.163183 0.0763306 -0.867091 
0.212175 0.125113 -0.846739 
0.250394 0.162757 -0.834694 
0.205978 0.118476 -0.849801 
0.160664 0.0733132 -0.869157 
0.159466 0.0728049 -0.868062 
0.213066 0.126319 -0.844771 
0.2543 0.167267 -0.831437 
0.205365 0.118643 -0.850199 
0.158088 0.0714794 -0.868304 
0.158395 0.0725243 -0.867048 
0.211848 0.125921 -0.845925 
0.252984 0.166789 -0.834036 
0.207465 0.12194 -0.849075 
0.158159 0.0730197 -0.866918 
0.133838 0.0507903 -0.871967 
0.190707 0.107401 -0.847837 
0.235417 0.151381 -0.833903 
0.187124 0.103262 -0.850247 
0.139462 0.0557703 -0.869264 
0.134441 0.0518454 -0.868903 
0.189853 0.107142 -0.846895 
0.235884 0.152758 -0.831977 
0.188216 0.105532 -0.847967 
0.140889 0.0583733 -0.868005 
0.151622 0.0686112 -0.86344 
0.20394 0.120745 -0.843888 
0.247541 0.163729 -0.829638 
0.201161 0.117592 -0.845843 
0.157382 0.0739752 -0.86298 
0.161295 0.0788874 -0.86109 
0.210517 0.128091 -0.841974 
0.24484 0.162241 -0.831514 
0.21027 0.128042 -0.843825 
0.180103 0.0979864 -0.855336 
0.178427 0.0965503 -0.854652 
0.226276 0.144265 -0.838504 
0.273795 0.191369 -0.825776 
0.219407 0.137946 -0.841206 
0.156359 0.0753179 -0.863863 
0.148417 0.0675661 -0.863275 
0.21548 0.134003 -0.83785 
0.265376 0.182375 -0.824201 
0.206735 0.123872 -0.842313 
0.150922 0.0684552 -0.861905 
0.153092 0.07334 -0.860624 
0.207994 0.128183 -0.839231 
0.248872 0.168532 -0.827447 
0.199565 0.119457 -0.844891 
0.153131 0.0731623 -0.862109 
0.140752 0.0618987 -0.863327 
0.192584 0.11357 -0.842281 
0.23465 0.155169 -0.828493 
0.187757 0.108441 -0.845376 
0.143763 0.0645158 -0.862584 
0.150351 0.0707555 -0.859467 
0.199612 0.119941 -0.840942 
0.237384 0.15739 -0.830458 
0.196651 0.117021 -0.843024 
0.151727 0.0723546 -0.860223 
0.141908 0.0642383 -0.861391 
0.191392 0.113639 -0.842753 
0.231683 0.153623 -0.830636 
0.190805 0.113241 -0.843531 
0.147351 0.0699823 -0.861079 
0.141945 0.065257 -0.860962 
0.191422 0.114617 -0.842345 
0.230253 0.153132 -0.831145 
0.187585 0.110977 -0.844926 
0.143469 0.0670792 -0.861749 
0.144422 0.0681985 -0.859935 
0.192286 0.115816 -0.842789 
0.228344 0.151088 -0.833015 
0.187838 0.11049 -0.844981 
0.143463 0.0663304 -0.862144 
0.140197 0.0639825 -0.861433 
0.189434 0.113017 -0.842773 
0.226716 0.149548 -0.832311 
0.182856 0.105712 -0.846591 
0.139314 0.0623004 -0.862671 
0.123243 0.0472393 -0.864729 
0.175057 0.0988602 -0.844212 
0.218492 0.141811 -0.829931 
0.172345 0.0958312 -0.84676 
0.128735 0.0522171 -0.861833 
0.130974 0.053729 -0.859517 
0.179523 0.102106 -0.842379 
0.218871 0.141015 -0.831221 
0.177339 0.0999479 -0.844692 
0.134879 0.0578399 -0.858844 
0.125687 0.0513329 -0.860469 
0.174545 0.100182 -0.843093 
0.21311 0.138518 -0.832498 
0.171507 0.0973689 -0.846085 
0.12921 0.0552418 -0.860658 
0.115917 0.0429912 -0.862256 
0.164762 0.0916623 -0.845416 
0.204134 0.130583 -0.834451 
0.163608 0.0901537 -0.846279 
0.120737 0.0473694 -0.861162 
0.116826 0.0423753 -0.859891 
0.162345 0.0875516 -0.845912 
0.204301 0.128756 -0.833878 
0.163177 0.0878061 -0.845594 
0.118974 0.0436571 -0.858435 
0.0957767 0.0212432 -0.862289 
0.14865 0.0737408 -0.844435 
0.19065 0.115251 -0.834088 
0.151347 0.0765538 -0.84478 
0.105187 0.0307976 -0.859229 
0.109076 0.03553 -0.85717 
0.159397 0.0857352 -0.842603 
0.203797 0.129289 -0.831222 
0.159421 0.0851673 -0.843525 
0.110494 0.0366843 -0.858802 
0.116226 0.0450465 -0.857216 
0.168192 0.0973729 -0.842428 
0.213907 0.142774 -0.83083 
0.172924 0.102459 -0.842136 
0.121366 0.0512716 -0.85972 
0.102904 0.0347215 -0.862363 
0.157269 0.0889603 -0.845124 
0.205635 0.136758 -0.831605 
0.16114 0.0924805 -0.843279 
0.110489 0.0419879 -0.860621 
0.0965987 0.0268281 -0.860668 
0.151333 0.0809002 -0.842897 
0.199474 0.127982 -0.829484 
0.152845 0.0813857 -0.841807 
0.103174 0.0318035 -0.85705 
0.0951045 0.0234035 -0.856873 
0.149627 0.0776644 -0.839732 
0.191334 0.118937 -0.830329 
0.149242 0.0774692 -0.841487 
0.101767 0.0304012 -0.856212 
0.118065 0.0467908 -0.851136 
0.159189 0.087834 -0.840931 
0.199998 0.126915 -0.830536 
0.160984 0.0869171 -0.839769 
0.113894 0.0400176 -0.855489 
0.110803 0.0379883 -0.854432 
0.160224 0.0874292 -0.839737 
0.205278 0.131882 -0.826975 
0.160565 0.0869661 -0.83891 
0.114518 0.0410083 -0.855361 
0.114121 0.0392964 -0.852564 
0.15864 0.0832879 -0.838761 
0.194579 0.117458 -0.829536 
0.156659 0.0780748 -0.838765 
0.1101 0.0316037 -0.855827 
0.084912 0.01011 -0.859884 
0.146355 0.0716632 -0.835844 
0.199397 0.124509 -0.818264 
0.14658 0.071187 -0.833031 
0.0939929 0.0181724 -0.848687 
0.0912256 0.0147898 -0.847325 
0.137304 0.0627501 -0.8385 
0.192645 0.118194 -0.821442 
0.232979 0.159196 -0.815534 
0.179685 0.106838 -0.839756 
0.138076 0.0720785 -0.853888 
0.182976 0.118857 -0.845838 
0.238395 0.174251 -0.820288 
0.210343 0.15473 -0.831436 
0.166972 0.111471 -0.850799 
0.163216 0.101676 -0.848403 
0.193654 0.131967 -0.842263 
0.216375 0.15681 -0.83944 
0.228421 0.171019 -0.837274 
0.176578 0.119895 -0.85141 
0.151183 0.0873479 -0.849138 
0.161091 0.0805879 -0.839218 
0.158553 0.0606197 -0.832398 
0.116648 0.0140773 -0.837102 
0.0997385 -0.00793112 -0.836824 
0.128611 0.016265 -0.828427 
0.162093 0.0446718 -0.821521 
0.179323 0.0567243 -0.819964 
0.127157 0.00618938 -0.838916 
0.0827186 -0.0343319 -0.854788 
0.145382 0.0288083 -0.832082 
0.180985 0.0659589 -0.824378 
0.148748 0.0244078 -0.823139 
0.100393 -0.0241577 -0.837033 
0.064915 -0.0596813 -0.848577 
0.100702 -0.0429223 -0.829694 
0.149788 0.00195196 -0.812301 
0.174802 0.0126564 -0.802967 
0.129277 -0.0356155 -0.806156 
0.0875427 -0.0777108 -0.812557 
0.0910746 -0.0834499 -0.806885 
0.150234 -0.0244046 -0.790555 
0.180032 0.00683311 -0.791117 
0.133485 -0.0378049 -0.803422 
0.100791 -0.0652774 -0.811351 
0.154302 -0.0115896 -0.804201 
0.207203 0.0413804 -0.79605 
0.18317 0.0396161 -0.810152 
0.1306 -0.0117095 -0.828753 
0.181242 0.0398651 -0.823173 
0.233807 0.0924031 -0.809369 
0.186192 0.0463968 -0.824701 
0.138315 -0.00183657 -0.834496 
0.0886556 -0.0512899 -0.845642 
0.115057 -0.0152944 -0.845109 
0.161722 0.0381441 -0.840842 
0.212532 0.0893022 -0.829701 
0.240902 0.0945446 -0.815876 
0.179577 0.0318953 -0.816387 
0.124794 -0.02288 -0.82977 
0.0769284 -0.0767221 -0.825026 
0.129853 -0.0238189 -0.812462 
0.1751 0.0214032 -0.800644 
0.150037 0.00065184 -0.808604 
0.117639 -0.0316765 -0.818075 
0.0783213 -0.0712017 -0.820033 
0.0604535 -0.0912296 -0.815924 
0.110621 -0.0420521 -0.807138 
0.158301 0.00496368 -0.797185 
0.106681 -0.0466222 -0.804065 
0.0530944 -0.101392 -0.802506 
0.11878 -0.0380332 -0.788015 
0.17869 0.0214532 -0.784214 
0.182428 0.0380429 -0.793345 
0.213873 0.0705047 -0.796971 
0.235517 0.0933711 -0.801329 
0.248296 0.109706 -0.806522 
0.284954 0.146759 -0.802877 
0.231698 0.0988512 -0.828702 
0.274794 0.142255 -0.818941 
0.322614 0.189951 -0.79845 
0.265399 0.132847 -0.828032 
0.204271 0.0717544 -0.852852 
0.261166 0.118088 -0.824262 
0.265608 0.107965 -0.814572 
0.225399 0.06493 -0.817295 
0.191438 0.0308655 -0.830976 
0.222684 0.0151533 -0.813313 
0.179871 -0.0296442 -0.819626 
0.157624 -0.0517638 -0.828072 
0.190751 -0.0187068 -0.817312 
0.22451 0.0149685 -0.804069 
0.189075 -0.0252398 -0.808731 
0.144445 -0.069851 -0.828224 
0.090033 -0.124318 -0.846704 
0.163046 -0.0512782 -0.816155 
0.217311 0.00296174 -0.801864 
0.176306 -0.0371157 -0.816537 
0.143473 -0.076688 -0.827192 
0.103011 -0.108691 -0.844929 
0.123197 -0.0676337 -0.859592 
0.177494 -0.0132159 -0.852523 
0.231559 0.0407426 -0.838931 
0.228793 0.0561274 -0.85114 
0.170796 -0.00171321 -0.867654 
0.119394 -0.05295 -0.882882 
0.178045 0.00586441 -0.866534 
0.22765 0.0553587 -0.853817 
0.181121 0.00902037 -0.861055 
0.143825 -0.0281909 -0.869881 
0.0898614 -0.0851093 -0.850465 
0.119634 -0.105232 -0.826266 
0.177926 -0.0510546 -0.809626 
0.215594 -0.0257662 -0.798212 
0.254688 -0.00838151 -0.785411 
0.195956 -0.0684521 -0.785098 
0.151226 -0.11718 -0.781713 
0.174733 -0.111078 -0.777673 
0.218877 -0.0669599 -0.775543 
0.257355 -0.0278317 -0.77687 
0.237924 -0.00521827 -0.79215 
0.26413 0.022435 -0.793461 
0.303034 0.0613134 -0.779943 
0.318711 0.0779924 -0.778647 
0.290498 0.0498519 -0.794938 
0.264389 0.026628 -0.80149 
0.306307 0.0689109 -0.789208 
0.366198 0.12867 -0.763333 
0.377449 0.150719 -0.764193 
0.30133 0.0753798 -0.791115 
0.232534 0.00676628 -0.820006 
0.253743 -0.00189637 -0.806848 
0.250409 -0.0224143 -0.804791 
0.256311 -0.0244153 -0.802886 
0.249854 -0.0253316 -0.803736 
0.203696 -0.0681431 -0.820183 
0.250915 -0.023054 -0.800964 
0.287205 0.00201492 -0.787955 
0.254902 -0.0421601 -0.792113 
0.214613 -0.0823817 -0.81415 
0.243768 -0.0584213 -0.803392 
0.297594 -0.00459981 -0.777793 
0.351719 0.0493659 -0.752492 
0.393873 0.0907822 -0.739601 
0.339315 0.0366114 -0.769855 
0.29663 -0.00295301 -0.787341 
0.346471 0.046802 -0.763108 
0.396525 0.0967617 -0.738029 
0.409691 0.119343 -0.739514 
0.360405 0.070593 -0.768167 
0.32271 0.0390592 -0.779336 
0.370574 0.0861119 -0.754423 
0.39511 0.10215 -0.746007 
0.332327 0.0395543 -0.785006 
0.281034 -0.0130377 -0.800838 
0.33664 0.0421145 -0.764349 
0.359422 0.050588 -0.754461 
0.308348 -0.00050238 -0.78115 
0.311392 -0.0292016 -0.7753 
0.274285 -0.066128 -0.796742 
0.307667 -0.0333682 -0.78541 
0.360433 0.0192786 -0.752592 
0.393947 0.0533788 -0.742623 
0.340813 0.000651508 -0.773845 
0.287304 -0.0520572 -0.799628 
0.342336 0.00236845 -0.771728 
0.386615 0.0460282 -0.751069 
0.405955 0.0554517 -0.745065 
0.351334 0.000905016 -0.774008 
0.395858 0.0386886 -0.757635 
0.339399 -0.0159554 -0.790061 
0.397344 0.0420989 -0.755707 
0.449268 0.0939104 -0.721366 
0.407512 0.0608842 -0.738576 
0.35455 0.00824485 -0.769454 
0.305562 -0.0398041 -0.794322 
0.339191 -0.00215051 -0.784409 
0.388813 0.0473581 -0.75171 
0.355483 0.0192064 -0.762252 
0.31824 -0.0179163 -0.784059 
0.274358 -0.0619401 -0.799258 
0.255128 -0.0868594 -0.798967 
0.302048 -0.0404695 -0.776464 
0.332842 -0.0153852 -0.766143 
0.287582 -0.0605046 -0.787368 
0.242561 -0.105594 -0.805203 
0.286086 -0.070033 -0.789007 
0.343913 -0.0129266 -0.764343 
0.369447 0.00807412 -0.759972 
0.394414 0.0261316 -0.755056 
0.34082 -0.0268576 -0.779095 
0.34793 -0.0129661 -0.780953 
0.39785 0.0369088 -0.756662 
0.427728 0.0675744 -0.749833 
0.375058 0.0179246 -0.775411 
0.37794 0.0305365 -0.776103 
0.33397 -0.00631886 -0.790918 
0.369012 0.0272867 -0.779206 
0.384305 0.037014 -0.774987 
0.330907 -0.0160579 -0.790555 
0.276734 -0.0695926 -0.815003 
0.295765 -0.0565698 -0.80572 
0.351179 -0.00309379 -0.779249 
0.395993 0.0340037 -0.762937 
0.335699 -0.0264669 -0.789413 
0.284676 -0.077357 -0.819122 
0.341637 -0.0201808 -0.795005 
0.402679 0.0408456 -0.759123 
0.439736 0.0788987 -0.748372 
0.379271 0.0202682 -0.776038 
0.324715 -0.0339493 -0.805704 
0.352973 -0.0112115 -0.794504 
0.391503 0.0243862 -0.779554 
0.390988 0.0160824 -0.778008 
0.353449 -0.0264805 -0.78769 
0.305068 -0.0760509 -0.805564 
0.258036 -0.124873 -0.822606 
0.327264 -0.0561355 -0.789443 
0.397114 0.0137389 -0.755562 
0.336655 -0.0410229 -0.777345 
0.369177 -0.012682 -0.769056 
0.409318 0.0215348 -0.758087 
0.413196 0.0159519 -0.759951 
0.359061 -0.0359314 -0.781859 
0.339191 -0.0345388 -0.791054 
0.380855 0.00987411 -0.779823 
0.431985 0.0609829 -0.752114 
0.38689 0.0270551 -0.76707 
0.339849 -0.0196869 -0.788996 
0.293843 -0.0659875 -0.805307 
0.247459 -0.115932 -0.813901 
0.275075 -0.101203 -0.802458 
0.32753 -0.0518405 -0.781413 
0.301337 -0.0882671 -0.784924 
0.278163 -0.125322 -0.788455 
0.239777 -0.167035 -0.798434 
0.271399 -0.13316 -0.791875 
0.321608 -0.0813607 -0.778635 
0.373356 -0.0296117 -0.75812 
0.391503 -0.00576689 -0.757198 
0.346095 -0.0506485 -0.780101 
0.336825 -0.0524036 -0.784519 
0.39412 0.00509081 -0.763018 
0.425834 0.0441885 -0.758189 
0.391172 0.0327511 -0.767102 
0.377877 0.0210098 -0.766945 
0.339059 -0.0252918 -0.773038 
0.326907 -0.063425 -0.771377 
0.277163 -0.113213 -0.792061 
0.235699 -0.154427 -0.805453 
0.291776 -0.0983327 -0.781673 
0.33623 -0.0532676 -0.768264 
0.363303 -0.0288905 -0.762107 
0.311592 -0.0801896 -0.782674 
0.261871 -0.129694 -0.803949 
0.291771 -0.104719 -0.793771 
0.353047 -0.0437533 -0.767375 
0.396531 -0.00242899 -0.753723 
0.350078 -0.0518233 -0.76511 
0.300102 -0.101686 -0.786935 
0.310692 -0.0961717 -0.784884 
0.358913 -0.0467173 -0.770854 
0.406738 0.00149559 -0.755523 
0.448878 0.0435676 -0.741837 
0.393919 -0.0100414 -0.767509 
0.344444 -0.0588434 -0.788728 
0.312753 -0.0925747 -0.795564 
0.36802 -0.0379212 -0.768773 
0.399623 -0.0101595 -0.759668 
0.347479 -0.0620801 -0.786951 
0.369209 -0.051901 -0.778977 
0.422725 0.000791671 -0.75382 
0.431607 0.00256745 -0.751931 
0.381973 -0.0480511 -0.767116 
0.373773 -0.0582789 -0.768734 
0.332496 -0.090717 -0.781315 
0.388165 -0.0351689 -0.758909 
0.439475 0.0157558 -0.73596 
0.383801 -0.0357492 -0.757898 
0.332552 -0.0856575 -0.780844 
0.3454 -0.0657772 -0.779423 
0.402111 -0.00923285 -0.754563 
0.420766 0.0180401 -0.75278 
0.418404 0.0186045 -0.753177 
0.368413 -0.0303995 -0.772138 
0.327006 -0.0714943 -0.787702 
0.357093 -0.0507959 -0.77744 
0.333278 -0.0789322 -0.780892 
0.305867 -0.10881 -0.784774 
0.258315 -0.153705 -0.796601 
0.293802 -0.117855 -0.784021 
0.338419 -0.0789466 -0.769183 
0.384639 -0.0460855 -0.753084 
0.33127 -0.101922 -0.768056 
0.281086 -0.15327 -0.785023 
0.276691 -0.164568 -0.787573 
0.335931 -0.104634 -0.7685 
0.392881 -0.0475977 -0.747492 
0.40558 -0.0134942 -0.752007 
0.361933 -0.0365071 -0.766382 
0.32295 -0.0630383 -0.776433 
0.284858 -0.0949697 -0.785278 
0.325354 -0.0589051 -0.774055 
0.281824 -0.100511 -0.785236 
0.251515 -0.131498 -0.78979 
0.21715 -0.162839 -0.795391 
0.225627 -0.156418 -0.791192 
0.26493 -0.124338 -0.779126 
0.236852 -0.157331 -0.783122 
0.20252 -0.193421 -0.789864 
0.167896 -0.228901 -0.795807 
0.167023 -0.233967 -0.794239 
0.227224 -0.174018 -0.780634 
0.274467 -0.126464 -0.773906 
0.228665 -0.168567 -0.782805 
0.193586 -0.204667 -0.786609 
0.21804 -0.192903 -0.782894 
0.272666 -0.141414 -0.77376 
0.240855 -0.165963 -0.782183 
0.23915 -0.154314 -0.786657 
0.268414 -0.117546 -0.787012 
0.304272 -0.0790423 -0.784879 
0.343856 -0.0398165 -0.778659 
0.293165 -0.0865763 -0.793374 
0.247684 -0.129577 -0.804856 
0.265357 -0.113096 -0.800572 
0.295112 -0.0858688 -0.794658 
0.325881 -0.0617456 -0.787759 
0.283914 -0.104609 -0.794098 
0.235915 -0.152106 -0.805255 
0.234046 -0.162298 -0.80326 
0.279656 -0.119664 -0.793119 
0.317684 -0.0853373 -0.785572 
0.279227 -0.122454 -0.794175 
0.260241 -0.143636 -0.79591 
0.221138 -0.181143 -0.80433 
0.243013 -0.158508 -0.801464 
0.298025 -0.104213 -0.789155 
0.261038 -0.132617 -0.793694 
0.210867 -0.181756 -0.802407 
0.22405 -0.189726 -0.796145 
0.263687 -0.165704 -0.78762 
0.247166 -0.191494 -0.787524 
0.228804 -0.216181 -0.789716 
0.269527 -0.179045 -0.786043 
0.309044 -0.138281 -0.783318 
0.279727 -0.150085 -0.791623 
0.311723 -0.113746 -0.79114 
0.351118 -0.0727606 -0.787955 
0.320333 -0.0816039 -0.795867 
0.283779 -0.102234 -0.802757 
0.302095 -0.0827659 -0.800077 
0.341161 -0.0502949 -0.792512 
0.304213 -0.0879687 -0.797097 
0.257608 -0.133613 -0.806506 
0.248933 -0.148278 -0.805749 
0.27779 -0.123866 -0.801125 
0.308097 -0.0960954 -0.79667 
0.299594 -0.101539 -0.7981 
0.267629 -0.130825 -0.804564 
0.267321 -0.129056 -0.803621 
0.287517 -0.110976 -0.799632 
0.326045 -0.0824392 -0.791538 
0.275329 -0.135981 -0.797823 
0.225653 -0.188091 -0.803849 
0.190886 -0.224958 -0.806809 
0.214755 -0.206065 -0.803539 
0.28482 -0.137291 -0.786854 
0.305765 -0.113096 -0.787025 
0.236926 -0.18071 -0.803295 
0.278604 -0.131027 -0.798411 
0.340632 -0.0693637 -0.783242 
0.369857 -0.0401148 -0.780858 
0.328976 -0.0855754 -0.785553 
0.274833 -0.139234 -0.79733 
0.229801 -0.184132 -0.803457 
0.261274 -0.150072 -0.801882 
0.311101 -0.10053 -0.791634 
0.332859 -0.0701106 -0.792262 
0.283734 -0.117689 -0.806831 
0.250801 -0.14718 -0.809538 
0.24107 -0.158742 -0.808383 
0.280794 -0.125875 -0.799326 
0.259999 -0.153683 -0.800356 
0.218667 -0.194685 -0.807965 
0.183352 -0.229375 -0.810933 
0.22765 -0.185525 -0.804751 
0.277961 -0.136027 -0.796416 
0.28657 -0.130843 -0.795534 
0.243297 -0.17349 -0.803107 
0.202154 -0.214522 -0.807484 
0.23441 -0.187433 -0.804296 
0.283694 -0.138651 -0.80024 
0.315877 -0.101842 -0.800748 
0.282167 -0.118032 -0.807466 
0.273402 -0.117216 -0.809084 
0.297592 -0.0966573 -0.806832 
0.331859 -0.0691929 -0.802401 
0.292197 -0.108938 -0.80771 
0.246949 -0.152865 -0.815887 
0.26435 -0.132895 -0.815866 
0.309728 -0.0876791 -0.810002 
0.32625 -0.0615667 -0.810485 
0.29328 -0.0859965 -0.815379 
0.261618 -0.116707 -0.817118 
0.217712 -0.159786 -0.822009 
0.216562 -0.174373 -0.818 
0.235786 -0.169081 -0.813009 
0.220861 -0.190044 -0.812573 
0.20341 -0.210473 -0.812705 
0.186729 -0.225994 -0.813631 
0.225165 -0.190077 -0.808932 
0.251644 -0.166969 -0.806085 
0.238169 -0.182958 -0.807429 
0.217097 -0.205905 -0.809351 
0.189102 -0.230984 -0.812747 
0.216335 -0.200814 -0.81214 
0.259523 -0.157294 -0.8094 
0.286414 -0.127797 -0.809008 
0.263313 -0.143169 -0.813096 
0.232242 -0.170105 -0.816676 
0.221921 -0.181637 -0.817182 
0.253478 -0.156669 -0.813847 
0.268159 -0.14499 -0.813456 
0.235462 -0.17119 -0.81877 
0.206648 -0.189607 -0.822947 
0.233305 -0.159433 -0.821266 
0.277041 -0.117627 -0.815183 
0.252131 -0.140368 -0.816912 
0.205195 -0.186014 -0.823874 
0.193032 -0.20734 -0.820883 
0.186431 -0.220067 -0.81853 
0.222147 -0.19376 -0.813297 
0.252342 -0.1721 -0.809507 
0.214862 -0.207547 -0.813057 
0.17209 -0.24801 -0.81782 
0.219542 -0.203515 -0.813241 
0.270503 -0.154328 -0.808626 
0.249661 -0.169972 -0.81111 
0.20259 -0.214593 -0.816204 
0.210654 -0.21114 -0.815395 
0.242774 -0.178353 -0.814242 
0.271429 -0.147551 -0.813782 
0.298566 -0.122232 -0.81343 
0.296656 -0.122864 -0.81544 
0.267481 -0.145152 -0.818992 
0.229404 -0.174664 -0.822884 
0.26633 -0.140861 -0.820659 
0.309474 -0.100622 -0.818013 
0.302958 -0.0992922 -0.820003 
0.245699 -0.154032 -0.82864 
0.277093 -0.127498 -0.823864 
0.323557 -0.0848766 -0.817646 
0.344231 -0.0722503 -0.814406 
0.285452 -0.129693 -0.823079 
0.237767 -0.177052 -0.826164 
0.284837 -0.134571 -0.8182 
0.330144 -0.0923528 -0.811175 
0.291576 -0.129209 -0.815808 
0.250499 -0.169636 -0.819985 
0.223082 -0.195479 -0.821844 
0.253089 -0.167737 -0.818123 
0.299422 -0.123988 -0.811592 
0.286978 -0.135665 -0.814121 
0.241668 -0.177337 -0.82104 
0.212684 -0.198882 -0.824693 
0.255427 -0.156276 -0.819962 
0.306413 -0.106829 -0.81185 
0.286431 -0.125051 -0.815926 
0.235458 -0.173905 -0.825626 
0.200133 -0.2042 -0.830652 
0.247345 -0.157037 -0.825466 
0.298976 -0.10648 -0.818095 
0.28807 -0.10655 -0.82229 
0.23707 -0.153407 -0.831809 
0.195566 -0.189886 -0.836656 
0.227188 -0.162548 -0.831638 
0.277233 -0.116711 -0.822763 
0.246768 -0.147151 -0.825723 
0.198449 -0.193903 -0.833482 
0.169584 -0.222331 -0.834121 
0.212603 -0.18247 -0.828018 
0.262976 -0.135093 -0.820895 
0.243832 -0.154717 -0.822064 
0.194773 -0.202187 -0.828208 
0.16608 -0.232795 -0.828506 
0.211995 -0.19141 -0.822756 
0.257512 -0.149395 -0.818248 
0.244505 -0.161647 -0.820669 
0.206492 -0.196315 -0.825144 
0.177783 -0.218684 -0.82843 
0.214651 -0.181278 -0.826665 
0.263462 -0.134198 -0.822631 
