1.000400e+01 -8.528100e-05 2.433888e-10 -6.094213e-05 -3.705377e-05
1.000800e+01 1.608539e-05 -3.790504e-10 -2.181965e-05 -1.208431e-05
1.001200e+01 -3.156093e-06 -1.348347e-10 -1.663956e-05 1.161948e-05
1.001600e+01 -4.721250e-05 2.040135e-10 -2.681116e-05 8.052241e-06
1.002000e+01 -3.236015e-05 5.332751e-11 -2.702740e-05 2.995867e-06
1.002400e+01 -5.164898e-05 -1.799331e-11 -5.344831e-05 -4.258462e-05
1.002800e+01 -2.262596e-05 -3.000386e-10 -5.262982e-05 -3.005523e-05
1.003200e+01 -4.793467e-05 -1.016238e-10 -5.809706e-05 -7.367806e-06
1.003600e+01 -7.374826e-05 7.456723e-11 -6.629154e-05 2.672044e-05
1.004000e+01 -9.548203e-05 1.912358e-10 -7.635845e-05 3.931887e-06
1.004400e+01 -3.635991e-05 -7.064376e-11 -4.342428e-05 -8.738893e-06
1.004800e+01 -2.349958e-05 -8.919806e-11 -3.241939e-05 -9.806695e-06
1.005200e+01 -4.689518e-05 -2.707068e-11 -4.960224e-05 -1.477952e-05
1.005600e+01 -5.604256e-05 -1.490384e-10 -7.094640e-05 -1.510961e-05
1.006000e+01 -7.207637e-05 -1.417408e-10 -8.625045e-05 -1.577432e-05
1.006400e+01 -5.815371e-05 -7.224237e-11 -6.537794e-05 2.769500e-05
1.006800e+01 -9.588391e-05 2.622096e-10 -6.966295e-05 3.372005e-05
1.007200e+01 -9.709316e-05 1.730075e-10 -7.979241e-05 6.096039e-06
1.007600e+01 -3.475301e-05 -1.031373e-10 -4.506674e-05 -3.631666e-06
1.008000e+01 -7.986412e-05 1.361245e-11 -7.850288e-05 -1.540382e-05
1.008400e+01 -9.556696e-05 1.349839e-11 -9.421712e-05 5.009145e-06
1.008800e+01 -1.257939e-04 1.579228e-10 -1.100016e-04 -6.795088e-06
1.009200e+01 -1.043098e-04 -3.886807e-11 -1.081966e-04 -4.130543e-06
1.009600e+01 -1.123045e-04 -2.875722e-11 -1.151802e-04 4.467199e-06
1.010000e+01 -1.326270e-04 1.696984e-10 -1.156571e-04 2.446199e-05
1.010400e+01 -1.950714e-04 2.842890e-10 -1.666425e-04 -2.469769e-05
1.010800e+01 -1.136088e-04 -2.996218e-10 -1.435709e-04 -1.928393e-05
1.011200e+01 -1.489370e-04 -1.393053e-10 -1.628676e-04 -2.318373e-05
1.011600e+01 -2.101688e-04 4.841730e-11 -2.053271e-04 -5.971708e-05
1.012000e+01 -1.516409e-04 -4.039487e-10 -1.920358e-04 -3.596274e-05
1.012400e+01 -1.964691e-04 -2.507519e-10 -2.215443e-04 -1.250372e-05
1.012800e+01 -2.004371e-04 -7.682897e-11 -2.081200e-04 2.797331e-05
1.013200e+01 -2.162433e-04 1.247081e-10 -2.037724e-04 3.049681e-05
1.013600e+01 -1.965126e-04 8.510761e-11 -1.880018e-04 1.212899e-05
1.014000e+01 -1.508453e-04 -1.209654e-10 -1.629419e-04 -4.048978e-06
1.014400e+01 -1.374084e-04 -1.396037e-10 -1.513688e-04 5.157059e-06
1.014800e+01 -1.618581e-04 1.453838e-10 -1.473197e-04 1.276361e-05
1.015200e+01 -1.555687e-04 1.845760e-10 -1.371111e-04 1.569975e-05
1.015600e+01 -1.757463e-04 1.336441e-10 -1.623819e-04 -1.594402e-05
1.016000e+01 -1.099330e-04 -1.339561e-10 -1.233286e-04 1.810488e-05
1.016400e+01 -1.437778e-04 2.806076e-10 -1.157170e-04 2.878383e-05
1.016800e+01 -1.521895e-04 3.586174e-10 -1.163278e-04 1.797719e-05
1.017200e+01 -7.366095e-05 1.320581e-11 -7.234036e-05 5.385734e-06
1.017600e+01 -6.630220e-06 -4.521952e-11 -1.115217e-05 -1.575834e-06
1.018000e+01 -3.011020e-06 9.465852e-11 6.454832e-06 -2.761156e-06
1.018400e+01 2.962603e-06 7.655901e-11 1.061850e-05 -4.102380e-06
1.018800e+01 -1.141284e-05 -1.528412e-11 -1.294125e-05 -3.170718e-05
1.019200e+01 2.922379e-05 -3.110981e-10 -1.886024e-06 -3.038081e-05
1.019600e+01 3.955735e-05 -2.535244e-10 1.420490e-05 -9.268443e-06
1.020000e+01 5.466408e-06 4.921394e-11 1.038780e-05 6.091498e-06
1.020400e+01 3.358365e-05 -8.088328e-12 3.277481e-05 1.717343e-05
1.020800e+01 5.563326e-05 -9.426726e-11 4.620653e-05 -3.747645e-06
1.021200e+01 9.265458e-05 -2.001979e-10 7.263479e-05 1.018889e-05
1.021600e+01 7.725276e-05 4.409688e-11 8.166245e-05 2.982376e-05
1.022000e+01 5.659600e-05 1.396577e-10 7.056178e-05 8.423187e-06
1.022400e+01 7.178399e-05 -1.203583e-10 5.974816e-05 -6.542901e-06
1.022800e+01 8.430221e-05 -1.226166e-10 7.204054e-05 5.461962e-06
1.023200e+01 6.849745e-05 1.457570e-10 8.307315e-05 1.430779e-05
1.023600e+01 6.434407e-05 1.489557e-10 7.923964e-05 1.842336e-05
1.024000e+01 5.626322e-05 1.612418e-11 5.787563e-05 -2.956746e-07
1.024400e+01 5.079871e-05 -7.943285e-11 4.285542e-05 -2.908984e-06
1.024800e+01 2.691687e-05 6.251188e-11 3.316805e-05 -1.239785e-07
1.025200e+01 2.853594e-05 4.982781e-11 3.351873e-05 -2.765771e-05
1.025600e+01 1.137490e-04 -3.550175e-10 7.824729e-05 -3.977913e-06
1.026000e+01 1.176990e-04 -1.093643e-10 1.067626e-04 3.884035e-05
1.026400e+01 4.942038e-05 3.952288e-10 8.894326e-05 2.969773e-05
1.026800e+01 4.831027e-05 1.799776e-10 6.630804e-05 3.082456e-06
1.027200e+01 8.457910e-05 -2.167507e-10 6.290403e-05 -2.646793e-06
1.027600e+01 4.806636e-05 -6.457340e-11 4.160902e-05 -2.177966e-05
1.028000e+01 5.908561e-05 -5.048684e-11 5.403693e-05 -1.734929e-05
1.028400e+01 5.668685e-05 -8.679459e-11 4.800739e-05 -7.924002e-06
1.028800e+01 7.711275e-05 -8.527352e-11 6.858540e-05 1.462385e-05
1.029200e+01 6.132945e-05 1.143253e-10 7.276198e-05 2.919950e-05
1.029600e+01 2.628029e-05 2.641970e-10 5.269999e-05 2.485377e-05
1.030000e+01 4.347003e-06 1.461747e-10 1.896448e-05 -1.097619e-05
1.030400e+01 4.580688e-05 -2.340984e-10 2.239704e-05 3.562406e-06
1.030800e+01 2.724328e-05 1.035207e-11 2.827849e-05 1.369112e-05
1.031200e+01 1.013916e-05 1.795596e-10 2.809511e-05 1.432653e-05
1.031600e+01 4.438894e-05 6.114522e-11 5.050346e-05 1.711315e-05
1.032000e+01 6.129612e-05 3.802312e-11 6.509844e-05 1.059614e-05
1.032400e+01 1.760791e-05 5.983777e-11 2.359169e-05 -1.904961e-05
1.032800e+01 4.627310e-05 -1.860343e-10 2.766967e-05 1.878995e-05
1.033200e+01 1.611183e-05 1.131672e-10 2.742855e-05 4.935612e-05
1.033600e+01 -1.239939e-05 4.027673e-10 2.787735e-05 1.614604e-05
1.034000e+01 3.725367e-05 2.798105e-11 4.005177e-05 -3.186979e-07
1.034400e+01 1.982267e-05 -5.143120e-11 1.467955e-05 -1.619657e-05
1.034800e+01 -1.855940e-05 -6.407484e-12 -1.920015e-05 -1.496590e-05
1.035200e+01 4.411140e-07 -4.179915e-11 -3.738801e-06 -4.294957e-06
1.035600e+01 2.796540e-05 -1.852468e-11 2.611293e-05 3.252082e-06
1.036000e+01 3.629244e-05 3.660833e-11 3.995327e-05 5.912153e-06
1.036400e+01 4.601199e-05 2.770580e-11 4.878257e-05 1.565991e-05
1.036800e+01 -1.377834e-05 1.211787e-10 -1.660477e-06 -3.196649e-05
1.037200e+01 -9.506518e-06 -3.138889e-10 -4.089541e-05 -7.653086e-05
1.037600e+01 3.718106e-05 -6.252143e-10 -2.534037e-05 -5.194779e-05
1.038000e+01 3.945214e-05 -2.671990e-10 1.273225e-05 1.054286e-05
1.038400e+01 -3.380876e-05 2.233970e-10 -1.146906e-05 -6.847960e-06
1.038800e+01 8.434223e-06 -2.400597e-10 -1.557174e-05 -1.773058e-05
1.039200e+01 4.605220e-05 -3.814331e-10 7.908894e-06 -9.532462e-07
1.039600e+01 2.099537e-05 4.757899e-11 2.575327e-05 1.989367e-05
1.040000e+01 -2.341097e-05 2.425603e-10 8.450600e-07 -9.822092e-06
1.040400e+01 2.931176e-05 -1.897689e-10 1.033487e-05 -1.905771e-05
1.040800e+01 2.862408e-05 -1.594956e-10 1.267452e-05 -3.440029e-05
1.041200e+01 3.418185e-05 -3.680277e-11 3.050157e-05 7.073033e-06
1.041600e+01 1.500862e-05 2.826124e-10 4.326987e-05 4.650460e-05
1.042000e+01 -6.980275e-06 4.504669e-10 3.806642e-05 2.878173e-05
1.042400e+01 1.827751e-05 1.659838e-10 3.487588e-05 -2.228291e-05
1.042800e+01 5.529862e-05 -9.560078e-11 4.573855e-05 -1.399403e-05
1.043200e+01 3.886922e-05 1.454092e-10 5.341015e-05 2.896852e-05
1.043600e+01 -2.786848e-07 3.360958e-10 3.333090e-05 2.626074e-05
1.044000e+01 2.759712e-05 1.472760e-11 2.906988e-05 -1.093323e-05
1.044400e+01 7.156519e-05 -2.373702e-10 4.782817e-05 -1.864128e-05
1.044800e+01 4.022537e-05 -4.029485e-11 3.619588e-05 -3.162585e-06
1.045200e+01 3.212754e-05 8.028592e-11 4.015613e-05 2.431039e-05
1.045600e+01 -1.177650e-05 7.874170e-11 -3.902327e-06 -1.667243e-06
1.046000e+01 -7.970615e-06 -1.373567e-10 -2.170629e-05 -3.738247e-05
1.046400e+01 5.022406e-05 -2.748826e-10 2.273580e-05 -1.320618e-05
1.046800e+01 4.065534e-05 6.689498e-11 4.734484e-05 9.459333e-06
1.047200e+01 7.863922e-06 1.146464e-10 1.932856e-05 -2.923661e-05
1.047600e+01 5.149793e-05 -4.568630e-10 5.811630e-06 -2.054605e-05
1.048000e+01 2.393345e-05 -1.761401e-10 6.319442e-06 2.615622e-06
1.048400e+01 1.340776e-05 2.608353e-10 3.949129e-05 4.344482e-06
1.048800e+01 3.153484e-05 5.123911e-11 3.665875e-05 1.206074e-05
1.049200e+01 1.733753e-05 -4.517214e-11 1.282032e-05 7.053497e-06
1.049600e+01 1.109114e-05 7.727826e-11 1.881896e-05 6.774465e-06
1.050000e+01 1.272389e-05 1.915310e-10 3.187699e-05 7.246567e-06
1.050400e+01 5.268493e-07 1.405839e-10 1.458524e-05 1.169582e-05
1.050800e+01 4.564893e-05 1.512065e-11 4.716100e-05 2.917491e-05
1.051200e+01 3.420032e-05 1.608026e-10 5.028058e-05 2.019532e-05
1.051600e+01 -1.366610e-05 2.093431e-10 7.268208e-06 -3.053670e-05
1.052000e+01 2.896350e-05 -2.045122e-10 8.512277e-06 -3.231514e-05
1.052400e+01 2.895360e-05 -2.119053e-10 7.763070e-06 -2.644134e-05
1.052800e+01 -1.905304e-06 -6.900773e-11 -8.806077e-06 -2.962597e-05
1.053200e+01 1.277121e-05 -1.001926e-10 2.751943e-06 -2.007061e-05
1.053600e+01 4.706306e-05 -1.445109e-10 3.261197e-05 1.969649e-05
1.054000e+01 -2.965105e-06 6.253287e-11 3.288181e-06 1.501662e-05
1.054400e+01 1.975266e-06 1.594883e-11 3.570149e-06 6.742971e-06
1.054800e+01 1.452394e-05 2.196174e-11 1.672011e-05 -2.140728e-06
1.055200e+01 4.470230e-05 -3.271132e-11 4.143117e-05 1.939608e-05
1.055600e+01 4.073626e-05 1.028638e-10 5.102264e-05 3.888840e-05
1.056000e+01 -1.060950e-05 2.844218e-10 1.783268e-05 3.053362e-05
1.056400e+01 -2.350810e-05 2.989127e-10 6.383164e-06 3.567705e-06
1.056800e+01 -2.072999e-05 1.657051e-10 -4.159472e-06 -2.561980e-05
1.057200e+01 4.389971e-06 -7.877175e-11 -3.487205e-06 -3.241617e-05
1.057600e+01 3.135052e-05 -1.539080e-10 1.595973e-05 -9.168299e-06
1.058000e+01 3.715631e-05 9.496423e-11 4.665273e-05 3.067614e-05
1.058400e+01 -1.910096e-05 3.895524e-10 1.985428e-05 1.057577e-05
1.058800e+01 -6.721569e-06 3.409721e-11 -3.311848e-06 -1.573396e-05
1.059200e+01 2.555747e-05 -2.354392e-10 2.013545e-06 -3.021228e-05
1.059600e+01 2.112376e-05 -2.002566e-10 1.098102e-06 -4.595804e-05
1.060000e+01 1.830096e-05 -3.181347e-10 -1.351251e-05 -3.548921e-05
1.060400e+01 3.076510e-05 -3.186776e-10 -1.102655e-06 2.113747e-05
1.060800e+01 -1.292771e-05 1.464926e-10 1.721551e-06 3.805257e-05
1.061200e+01 -6.715634e-06 2.432012e-10 1.760448e-05 3.242255e-05
1.061600e+01 2.816251e-05 8.980452e-11 3.714296e-05 1.874142e-05
1.062000e+01 4.822563e-06 2.569134e-11 7.391697e-06 -1.851602e-05
1.062400e+01 -3.894489e-06 -1.406625e-10 -1.796074e-05 -3.249821e-05
1.062800e+01 7.117617e-06 -6.020160e-11 1.097457e-06 -8.067988e-06
1.063200e+01 -2.513742e-05 2.724971e-10 2.112283e-06 -5.605606e-06
1.063600e+01 -8.644258e-06 8.788675e-11 1.444171e-07 -1.976997e-05
1.064000e+01 -3.270549e-06 -2.022841e-10 -2.349896e-05 -4.507245e-05
1.064400e+01 5.014388e-06 -2.806326e-10 -2.304888e-05 -2.765514e-05
1.064800e+01 -3.153148e-06 -4.148475e-11 -7.301624e-06 1.100373e-05
1.065200e+01 -1.126974e-05 8.171957e-11 -3.097786e-06 3.605388e-05
1.065600e+01 -7.313450e-06 1.546752e-11 -5.766698e-06 3.960419e-05
1.066000e+01 -2.041000e-06 9.825667e-12 -1.058434e-06 3.888223e-05
1.066400e+01 -1.222523e-05 1.652169e-10 4.296463e-06 4.448251e-05
1.066800e+01 -2.646201e-05 2.876312e-10 2.301110e-06 2.239794e-05
1.067200e+01 -4.304150e-05 8.123778e-12 -4.222912e-05 -2.380922e-05
1.067600e+01 2.168788e-05 -3.877858e-10 -1.709070e-05 -4.601719e-06
1.068000e+01 1.013013e-05 7.597634e-11 1.772776e-05 4.248060e-05
1.068400e+01 -4.837294e-05 6.092338e-10 1.255044e-05 3.271586e-05
1.068800e+01 1.638223e-05 1.977112e-10 3.615335e-05 1.347683e-05
1.069200e+01 2.123648e-05 -9.259500e-11 1.197698e-05 7.859558e-07
1.069600e+01 -2.608469e-05 2.484831e-11 -2.359986e-05 -2.167003e-05
1.070000e+01 -2.375041e-05 -1.003955e-10 -3.378996e-05 -4.254812e-05
1.070400e+01 3.801493e-05 -4.016396e-10 -2.149023e-06 -1.592293e-05
1.070800e+01 9.806684e-06 -2.282059e-10 -1.301391e-05 -1.840579e-05
1.071200e+01 -2.834803e-05 -2.257890e-10 -5.092693e-05 -5.161130e-05
1.071600e+01 1.547680e-05 -4.712591e-10 -3.164911e-05 -1.913231e-05
1.072000e+01 3.570022e-05 -1.838388e-10 1.731634e-05 3.640086e-05
1.072400e+01 6.902978e-07 1.738656e-10 1.807686e-05 3.940220e-05
1.072800e+01 -2.802363e-06 2.468021e-12 -2.555561e-06 3.021852e-05
1.073200e+01 -1.323221e-06 -7.345855e-11 -8.669076e-06 2.341307e-05
1.073600e+01 -1.090579e-05 -2.017245e-11 -1.292303e-05 1.801411e-05
1.074000e+01 1.087231e-05 -3.702832e-11 7.169480e-06 2.658996e-05
1.074400e+01 -1.557849e-05 1.286951e-10 -2.708980e-06 1.978321e-05
1.074800e+01 -8.936087e-05 2.487282e-10 -6.448805e-05 -1.631814e-05
1.075200e+01 -1.177091e-04 4.616095e-11 -1.130930e-04 -4.931302e-05
1.075600e+01 -7.284405e-05 -1.703631e-10 -8.988036e-05 -2.564108e-05
1.076000e+01 -5.395395e-05 6.159002e-11 -4.779495e-05 1.407168e-05
1.076400e+01 -7.372858e-05 2.521230e-10 -4.851628e-05 3.750976e-05
1.076800e+01 -8.341075e-05 2.665526e-10 -5.675549e-05 1.803046e-05
1.077200e+01 -7.797347e-05 4.480043e-11 -7.349343e-05 8.534028e-06
1.077600e+01 -7.444189e-05 -2.193003e-11 -7.663489e-05 6.995329e-06
1.078000e+01 -6.139144e-05 -7.039774e-12 -6.209542e-05 -6.776607e-06
1.078400e+01 -4.418790e-05 -1.484552e-10 -5.903342e-05 -2.569898e-05
1.078800e+01 -3.482354e-05 -3.289649e-10 -6.772003e-05 -5.564242e-05
1.079200e+01 8.839501e-06 -4.160194e-10 -3.276244e-05 -3.495749e-05
1.079600e+01 1.019585e-07 -5.170907e-11 -5.068948e-06 1.317061e-05
1.080000e+01 -6.799341e-05 2.086502e-10 -4.712839e-05 -4.850138e-06
1.080400e+01 -4.491637e-06 -3.171606e-10 -3.620770e-05 -4.545856e-06
1.080800e+01 1.433435e-05 -2.822979e-10 -1.389544e-05 1.915749e-05
1.081200e+01 4.692587e-06 2.162114e-10 2.631372e-05 3.545441e-05
1.081600e+01 -8.090519e-06 2.635001e-10 1.825949e-05 6.911815e-06
1.082000e+01 2.219592e-05 -1.834972e-10 3.846198e-06 -2.125027e-05
1.082400e+01 3.772712e-05 -2.467727e-10 1.304986e-05 -2.867122e-05
1.082800e+01 3.975142e-05 2.373191e-11 4.212461e-05 -6.618473e-06
1.083200e+01 2.912026e-05 2.520948e-10 5.432974e-05 8.335983e-06
1.083600e+01 7.541019e-06 1.507242e-10 2.261344e-05 -1.576880e-05
1.084000e+01 7.522703e-05 -2.675294e-10 4.847408e-05 2.990163e-05
1.084400e+01 3.192612e-05 2.207584e-10 5.400196e-05 3.487104e-05
1.084800e+01 -2.069580e-06 3.384222e-10 3.177264e-05 -1.845961e-05
1.085200e+01 9.730620e-05 -3.512897e-10 6.217723e-05 -3.263478e-05
1.085600e+01 1.130638e-04 -4.315842e-10 6.990541e-05 -9.229262e-06
1.086000e+01 3.979743e-05 9.740818e-11 4.953825e-05 -1.816657e-05
1.086400e+01 7.552720e-05 -2.623453e-11 7.290374e-05 4.602130e-06
1.086800e+01 9.710930e-05 -7.079787e-11 9.002951e-05 4.557379e-05
1.087200e+01 4.176148e-05 3.175561e-10 7.351709e-05 3.958462e-05
1.087600e+01 1.574521e-05 2.556926e-10 4.131447e-05 9.138897e-06
1.088000e+01 4.317762e-05 -2.029044e-11 4.114857e-05 8.034503e-06
1.088400e+01 -4.726663e-05 1.776455e-10 -2.950208e-05 -6.172445e-05
1.088800e+01 -1.690719e-05 -3.649542e-10 -5.340261e-05 -6.749626e-05
1.089200e+01 -1.377425e-05 -4.135194e-10 -5.512619e-05 -2.272801e-05
1.089600e+01 -6.940611e-05 1.070308e-10 -5.870303e-05 -1.387424e-05
1.090000e+01 -5.377706e-05 -7.285487e-12 -5.450561e-05 9.162551e-06
1.090400e+01 -1.117578e-04 -5.318366e-11 -1.170761e-04 3.983105e-05
1.090800e+01 -3.079494e-04 2.153846e-10 -2.864109e-04 1.406837e-05
1.091200e+01 -4.168215e-04 -2.367147e-11 -4.191886e-04 -8.548562e-06
1.091600e+01 -4.369433e-04 -2.251943e-10 -4.594628e-04 -1.603253e-05
1.092000e+01 -2.271286e-04 -1.794246e-10 -2.450710e-04 2.320496e-05
1.092400e+01 2.796478e-05 1.344774e-10 4.141251e-05 3.424140e-05
1.092800e+01 1.952464e-04 2.227316e-10 2.175195e-04 -6.833716e-06
1.093200e+01 3.159030e-04 -2.587378e-12 3.156442e-04 -2.096059e-05
1.093600e+01 3.961814e-04 7.766813e-11 4.039482e-04 -2.277421e-05
1.094000e+01 4.269977e-04 8.145634e-11 4.351433e-04 7.747690e-06
1.094400e+01 3.618419e-04 2.496664e-10 3.868085e-04 4.147843e-05
1.094800e+01 2.960634e-04 4.214664e-10 3.382101e-04 6.172205e-05
1.095200e+01 2.139147e-04 5.408101e-10 2.679957e-04 5.904438e-06
1.095600e+01 2.049597e-04 9.352104e-11 2.143118e-04 -1.120750e-05
1.096000e+01 9.025829e-05 -8.495202e-11 8.176309e-05 -3.495064e-05
1.096400e+01 2.325105e-05 -2.877379e-10 -5.522738e-06 -6.524326e-05
1.096800e+01 6.223925e-05 -4.718911e-10 1.505014e-05 -2.061133e-05
1.097200e+01 4.166158e-05 1.270737e-10 5.436896e-05 2.487537e-06
1.097600e+01 1.092850e-05 3.039187e-10 4.132037e-05 -1.963616e-05
1.098000e+01 -1.482133e-05 -1.657280e-10 -3.139413e-05 -3.175543e-05
1.098400e+01 -3.057678e-05 -2.973978e-10 -6.031656e-05 -1.018084e-05
1.098800e+01 -1.828782e-05 1.497806e-11 -1.679001e-05 2.758890e-05
1.099200e+01 5.069505e-05 2.122387e-10 7.191892e-05 7.744969e-05
1.099600e+01 -2.408179e-05 4.753291e-10 2.345112e-05 2.773393e-05
1.100000e+01 -4.708106e-05 3.104360e-11 -4.397670e-05 -1.341715e-05
1.100400e+01 -2.929390e-05 -1.341284e-10 -4.270674e-05 1.835610e-05
1.100800e+01 -4.906850e-05 4.812956e-10 -9.389443e-07 4.573582e-05
1.101200e+01 -4.471586e-05 7.046760e-10 2.575174e-05 3.315729e-05
1.101600e+01 -1.843843e-05 4.132358e-10 2.288515e-05 -1.444287e-05
1.102000e+01 -2.025687e-05 1.150631e-10 -8.750558e-06 -4.821265e-05
1.102400e+01 -4.122516e-05 -5.616495e-11 -4.684166e-05 -6.544372e-05
1.102800e+01 2.682696e-05 -2.931050e-10 -2.483541e-06 -1.624504e-05
1.103200e+01 1.913022e-05 -5.468065e-11 1.366216e-05 3.128326e-05
1.103600e+01 -1.402786e-05 1.743220e-10 3.404346e-06 1.750028e-05
1.104000e+01 -6.943196e-06 -6.604844e-11 -1.354804e-05 1.742833e-07
1.104400e+01 1.315534e-05 -2.169751e-10 -8.542165e-06 2.225277e-05
1.104800e+01 -3.878765e-05 6.896954e-11 -3.189070e-05 -9.786245e-06
1.105200e+01 -1.077914e-05 -2.205824e-10 -3.283738e-05 -3.607235e-05
1.105600e+01 1.410060e-05 -3.572886e-10 -2.162826e-05 -4.072978e-05
1.106000e+01 3.692866e-06 -1.430769e-10 -1.061483e-05 -1.012985e-05
1.106400e+01 -1.598025e-05 1.119238e-10 -4.787873e-06 3.419698e-05
1.106800e+01 -4.771740e-05 2.708696e-10 -2.063044e-05 4.110056e-05
1.107200e+01 -3.028959e-05 1.429995e-10 -1.598963e-05 3.096013e-05
1.107600e+01 -4.160361e-06 5.751509e-11 1.591148e-06 4.421784e-07
1.108000e+01 -3.177211e-05 -4.473321e-11 -3.624543e-05 -6.579454e-05
1.108400e+01 -1.370194e-05 -4.368583e-10 -5.738778e-05 -7.433412e-05
1.108800e+01 5.917687e-06 -3.757281e-10 -3.165512e-05 -2.311157e-05
1.109200e+01 -1.713907e-05 6.818059e-11 -1.032101e-05 2.045480e-05
1.109600e+01 -2.355844e-05 1.849565e-10 -5.062795e-06 4.709802e-05
1.110000e+01 -4.285806e-05 1.671022e-10 -2.614783e-05 3.314299e-05
1.110400e+01 -5.309230e-05 -6.136639e-12 -5.370596e-05 -1.115724e-05
1.110800e+01 -4.579453e-05 -3.307175e-10 -7.886628e-05 -4.294974e-05
1.111200e+01 -4.284109e-05 -5.314568e-10 -9.598677e-05 -4.016324e-05
1.111600e+01 -5.127753e-05 -3.526441e-10 -8.654194e-05 1.190838e-05
1.112000e+01 -1.250625e-04 2.239060e-10 -1.026719e-04 1.701494e-06
1.112400e+01 -8.401121e-05 4.615072e-12 -8.354970e-05 6.666254e-06
1.112800e+01 -6.720845e-05 -8.835847e-11 -7.604429e-05 3.054219e-05
1.113200e+01 -1.254095e-04 2.356376e-10 -1.018457e-04 4.442818e-06
1.113600e+01 -8.183675e-05 -1.242934e-11 -8.307969e-05 4.546398e-06
1.114000e+01 -8.493793e-05 -5.816794e-11 -9.075472e-05 1.134711e-05
1.114400e+01 -1.321787e-04 8.519284e-11 -1.236595e-04 7.136400e-07
1.114800e+01 -1.464954e-04 -6.579467e-13 -1.465612e-04 -2.599538e-05
1.115200e+01 -1.067968e-04 -2.505603e-10 -1.318529e-04 -2.162207e-05
1.115600e+01 -1.599191e-04 -9.533909e-11 -1.694530e-04 -2.053694e-05
1.116000e+01 -1.528606e-04 -4.538509e-11 -1.573991e-04 6.200883e-06
1.116400e+01 -1.096371e-04 5.103801e-12 -1.091267e-04 4.168656e-05
1.116800e+01 -1.285142e-04 1.937813e-10 -1.091360e-04 3.934920e-05
1.117200e+01 -1.624780e-04 1.164690e-10 -1.508311e-04 2.904655e-05
1.117600e+01 -1.825359e-04 6.452283e-11 -1.760836e-04 1.734025e-06
1.118000e+01 -1.827434e-04 -4.817631e-11 -1.875610e-04 -4.945523e-05
1.118400e+01 -1.303725e-04 -5.413241e-10 -1.845049e-04 -6.292984e-05
1.118800e+01 -8.223545e-05 -6.341255e-10 -1.456480e-04 -3.231696e-06
1.119200e+01 -1.356864e-04 8.115672e-11 -1.275707e-04 3.105194e-05
1.119600e+01 -1.477592e-04 2.640394e-10 -1.213552e-04 5.762199e-05
1.120000e+01 -1.779334e-04 2.523800e-10 -1.526954e-04 2.110100e-05
1.120400e+01 -1.547477e-04 4.030338e-13 -1.547074e-04 -3.017870e-05
1.120800e+01 -9.471441e-05 -2.956078e-10 -1.242752e-04 -4.492302e-05
1.121200e+01 -5.890355e-05 -3.930365e-10 -9.820720e-05 -2.335385e-05
1.121600e+01 -6.202527e-05 -2.278327e-10 -8.480854e-05 3.490551e-06
1.122000e+01 -2.224874e-05 -6.347771e-11 -2.859651e-05 5.320233e-05
1.122400e+01 -1.881649e-05 3.302358e-10 1.420709e-05 8.516845e-05
1.122800e+01 -7.378983e-05 5.853104e-10 -1.525879e-05 5.523458e-05
1.123200e+01 -5.800832e-05 2.716354e-10 -3.084478e-05 -2.043782e-05
1.123600e+01 1.511553e-05 -2.497730e-10 -9.861775e-06 -6.371440e-05
1.124000e+01 4.891757e-05 -2.651485e-10 2.240272e-05 -2.345008e-05
1.124400e+01 5.366890e-05 1.434876e-10 6.801766e-05 2.900068e-05
1.124800e+01 6.759389e-05 1.754809e-10 8.514198e-05 2.619288e-05
1.125200e+01 8.445299e-05 -1.672069e-10 6.773230e-05 -1.883938e-05
1.125600e+01 7.724268e-05 -4.000729e-10 3.723539e-05 -3.677490e-05
1.126000e+01 8.770035e-05 -2.412297e-10 6.357738e-05 -5.140566e-06
1.126400e+01 5.415340e-05 5.736789e-11 5.989019e-05 -2.080591e-05
1.126800e+01 1.039855e-04 -2.825641e-10 7.572912e-05 -1.919325e-05
1.127200e+01 1.243847e-04 -2.661941e-10 9.776532e-05 2.139869e-05
1.127600e+01 1.048899e-04 3.174664e-10 1.366365e-04 8.588009e-05
1.128000e+01 8.024512e-05 7.355783e-10 1.538029e-04 1.020562e-04
1.128400e+01 6.173441e-05 5.743183e-10 1.191662e-04 3.053802e-05
1.128800e+01 6.421376e-05 -3.716392e-11 6.049737e-05 -6.736685e-05
1.129200e+01 1.020097e-04 -5.436879e-10 4.764088e-05 -7.541732e-05
1.129600e+01 8.600128e-05 -2.796442e-10 5.803686e-05 -3.997181e-05
1.130000e+01 7.088802e-05 -1.987336e-12 7.068928e-05 -2.558470e-05
1.130400e+01 1.234418e-04 -1.825944e-10 1.051824e-04 -8.235196e-06
1.130800e+01 1.314956e-04 -1.471529e-10 1.167804e-04 5.377525e-06
1.131200e+01 7.031325e-05 5.510122e-11 7.582337e-05 1.252361e-05
1.131600e+01 6.077383e-05 1.950146e-11 6.272398e-05 2.719814e-05
1.132000e+01 5.408291e-05 1.226102e-11 5.530901e-05 2.429977e-05
1.132400e+01 2.523714e-05 3.468686e-11 2.870582e-05 -8.198394e-06
1.132800e+01 2.380635e-05 -8.923444e-11 1.488290e-05 -5.068858e-05
1.133200e+01 9.907199e-05 -2.705624e-10 7.201575e-05 -2.842750e-05
1.133600e+01 1.035735e-04 2.394153e-11 1.059677e-04 1.059818e-05
1.134000e+01 6.683412e-05 4.069915e-10 1.075333e-04 -1.156875e-05
1.134400e+01 5.226517e-05 1.664683e-10 6.891201e-05 -4.661687e-05
1.134800e+01 7.978172e-05 -2.380684e-10 5.597488e-05 -5.397313e-06
1.135200e+01 3.108651e-05 1.528758e-10 4.637409e-05 6.247713e-05
1.135600e+01 -1.732425e-05 6.884639e-10 5.152214e-05 7.620890e-05
1.136000e+01 -1.241648e-05 5.762745e-10 4.521097e-05 1.658371e-05
1.136400e+01 9.018608e-06 3.303662e-11 1.232227e-05 -6.199801e-05
1.136800e+01 5.001425e-05 -4.466366e-10 5.350592e-06 -6.600947e-05
1.137200e+01 4.481445e-05 -3.063327e-10 1.418118e-05 -2.227211e-05
1.137600e+01 2.835051e-05 8.787491e-12 2.922926e-05 2.377732e-05
1.138000e+01 4.993613e-05 9.608677e-11 5.954480e-05 6.150584e-05
1.138400e+01 8.303995e-06 3.009466e-10 3.839866e-05 3.857724e-05
1.138800e+01 -1.975162e-05 2.850280e-10 8.751183e-06 -2.189854e-05
1.139200e+01 2.350913e-05 -1.120276e-10 1.230637e-05 -2.846687e-05
1.139600e+01 3.055490e-05 -2.220436e-10 8.350537e-06 -1.307626e-05
1.140000e+01 3.066458e-05 -1.667731e-10 1.398726e-05 -1.439001e-05
1.140400e+01 1.429327e-05 -1.059962e-10 3.693648e-06 -9.946812e-06
1.140800e+01 -1.409892e-05 1.047434e-10 -3.624577e-06 3.373591e-05
1.141200e+01 -7.232484e-05 4.552306e-10 -2.680177e-05 4.198477e-05
1.141600e+01 -3.410731e-05 2.414787e-10 -9.959436e-06 1.421516e-05
1.142000e+01 3.259231e-05 -8.064683e-11 2.452762e-05 4.071966e-06
1.142400e+01 4.996666e-06 1.259453e-10 1.759119e-05 2.089269e-05
1.142800e+01 -1.642315e-05 4.000564e-10 2.358250e-05 2.138252e-05
1.143200e+01 3.126408e-06 1.625661e-10 1.938302e-05 -2.225625e-06
1.143600e+01 4.507187e-05 -1.857019e-10 2.650168e-05 -1.989958e-06
1.144000e+01 3.162762e-05 -1.855263e-11 2.977235e-05 9.813350e-07
1.144400e+01 -7.792102e-06 2.224414e-10 1.445204e-05 -1.300249e-05
1.144800e+01 2.345832e-05 1.684563e-11 2.514288e-05 -3.604196e-06
1.145200e+01 2.527999e-05 -3.199473e-12 2.496004e-05 -3.185688e-06
1.145600e+01 2.900516e-05 5.989163e-11 3.499432e-05 -4.879283e-06
1.146000e+01 1.672386e-05 4.534600e-11 2.125846e-05 -2.929663e-06
1.146400e+01 3.316789e-05 -3.218878e-11 2.994901e-05 3.254348e-05
1.146800e+01 4.636706e-05 1.330755e-10 5.967461e-05 5.045986e-05
1.147200e+01 3.653440e-05 2.368976e-10 6.022416e-05 4.135758e-05
1.147600e+01 3.973189e-07 2.018181e-10 2.057913e-05 -6.491866e-06
1.148000e+01 4.105194e-05 -1.724006e-10 2.381188e-05 -2.584175e-05
1.148400e+01 8.479518e-05 -2.514055e-10 5.965463e-05 5.942389e-06
1.148800e+01 3.246881e-05 3.118554e-10 6.365435e-05 1.626559e-05
1.149200e+01 -1.824000e-06 4.855240e-10 4.672840e-05 -1.176939e-06
1.149600e+01 9.975890e-07 2.148151e-10 2.247910e-05 -4.083613e-05
1.150000e+01 1.643888e-05 -1.954356e-10 -3.104679e-06 -4.893104e-05
1.150400e+01 5.035887e-05 -3.169727e-10 1.866160e-05 -1.192843e-05
1.150800e+01 5.209277e-05 -1.088215e-10 4.121062e-05 1.335069e-05
1.151200e+01 7.842884e-05 -6.406043e-11 7.202280e-05 1.945170e-05
1.151600e+01 5.600734e-05 -1.201032e-10 4.399702e-05 -3.147490e-05
1.152000e+01 1.051979e-04 -4.829692e-10 5.690096e-05 -3.932446e-05
1.152400e+01 1.215363e-04 -3.485133e-10 8.668497e-05 1.960321e-05
1.152800e+01 8.209878e-06 2.762541e-10 3.583529e-05 2.328350e-05
1.153200e+01 2.776265e-06 1.184104e-10 1.461730e-05 -1.435611e-05
1.153600e+01 8.843292e-05 -2.829653e-10 6.013640e-05 -2.494850e-06
1.154000e+01 8.184421e-05 8.672499e-11 9.051671e-05 3.825576e-05
1.154400e+01 2.769573e-05 5.705850e-10 8.475423e-05 2.719464e-05
1.154800e+01 2.729886e-05 3.081206e-10 5.811092e-05 4.771488e-06
1.155200e+01 -2.001046e-05 8.553095e-11 -1.145736e-05 -5.498858e-05
1.155600e+01 1.129962e-05 -2.495830e-10 -1.365867e-05 -7.052402e-05
1.156000e+01 3.799837e-05 -2.914466e-10 8.853710e-06 -3.734838e-05
1.156400e+01 3.311402e-05 -5.644195e-11 2.746983e-05 4.019407e-06
1.156800e+01 1.197527e-05 1.344534e-10 2.542060e-05 -1.136115e-05
1.157200e+01 2.682761e-05 -1.564915e-10 1.117846e-05 -3.620622e-05
1.157600e+01 6.807574e-05 -4.296378e-10 2.511195e-05 -2.101140e-05
1.158000e+01 3.904229e-05 -2.399037e-10 1.505193e-05 -2.290774e-05
1.158400e+01 7.871017e-05 -3.449096e-10 4.421921e-05 1.960365e-06
1.158800e+01 6.228763e-05 -1.857726e-10 4.371038e-05 -1.613404e-06
1.159200e+01 4.939520e-05 -1.244662e-10 3.694858e-05 6.152263e-06
1.159600e+01 2.874303e-05 -4.213353e-11 2.452968e-05 2.630466e-05
1.160000e+01 4.944364e-06 1.896288e-10 2.390724e-05 2.430678e-05
1.160400e+01 -6.153384e-06 2.864962e-10 2.249624e-05 1.422108e-05
1.160800e+01 1.173677e-06 2.265450e-10 2.382818e-05 -6.005511e-06
1.161200e+01 6.581612e-05 -3.109287e-11 6.270684e-05 1.184348e-05
1.161600e+01 3.849675e-05 6.232411e-11 4.472916e-05 -3.059679e-07
1.162000e+01 2.304007e-05 -1.006080e-11 2.203399e-05 -2.336069e-05
1.162400e+01 4.832207e-05 -1.527248e-10 3.304960e-05 -1.640588e-05
1.162800e+01 5.983418e-05 6.895413e-12 6.052373e-05 2.550109e-05
1.163200e+01 2.086393e-05 2.788748e-10 4.875141e-05 8.679634e-06
1.163600e+01 3.445944e-05 -1.297961e-10 2.147983e-05 -3.215683e-05
1.164000e+01 7.402526e-05 -4.720965e-10 2.681561e-05 -4.703306e-06
1.164400e+01 1.963472e-05 -6.929865e-11 1.270486e-05 1.703080e-05
1.164800e+01 2.069742e-06 -5.211067e-11 -3.141324e-06 1.081393e-05
1.165200e+01 4.088076e-05 -3.286840e-10 8.012352e-06 -7.744555e-06
1.165600e+01 4.987213e-05 -3.250907e-10 1.736306e-05 1.681769e-06
1.166000e+01 4.541573e-05 -3.884445e-11 4.153128e-05 1.833573e-05
1.166400e+01 2.301974e-05 1.381129e-10 3.683103e-05 -9.185615e-07
1.166800e+01 4.569319e-05 -1.037121e-10 3.532198e-05 -1.143563e-06
1.167200e+01 4.733940e-05 -6.595645e-11 4.074375e-05 9.946993e-06
1.167600e+01 1.578094e-05 2.590218e-10 4.168312e-05 2.781895e-05
1.168000e+01 -2.704827e-05 5.096955e-10 2.392128e-05 2.290915e-05
1.168400e+01 3.494958e-06 2.362674e-10 2.712169e-05 -5.067593e-06
1.168800e+01 7.512823e-05 -2.649520e-10 4.863302e-05 1.488462e-06
1.169200e+01 3.863943e-05 -4.888115e-11 3.375132e-05 -7.622901e-06
1.169600e+01 8.766785e-06 5.451784e-11 1.421857e-05 -1.229582e-05
1.170000e+01 1.010225e-05 -1.181330e-10 -1.711050e-06 2.957979e-07
1.170400e+01 3.643120e-05 -1.217550e-10 2.425571e-05 5.802181e-06
1.170800e+01 4.180417e-05 -4.275784e-11 3.752838e-05 1.047591e-05
1.171200e+01 -1.603633e-06 4.165762e-11 2.562129e-06 -1.969922e-05
1.171600e+01 3.245118e-05 -2.001477e-10 1.243641e-05 -1.803899e-05
1.172000e+01 1.508220e-05 -1.792943e-10 -2.847226e-06 -8.319032e-06
1.172400e+01 1.402067e-05 -1.031472e-10 3.705952e-06 4.296046e-07
1.172800e+01 -1.817081e-05 -6.696869e-12 -1.884050e-05 -1.839374e-05
1.173200e+01 2.200559e-05 -1.237392e-10 9.631674e-06 6.380185e-06
1.173600e+01 1.474709e-05 6.557539e-11 2.130463e-05 2.258885e-05
1.174000e+01 1.080946e-06 1.883455e-10 1.991549e-05 2.331548e-05
1.174400e+01 -1.384459e-06 1.815693e-10 1.677247e-05 1.420300e-05
1.174800e+01 3.029306e-05 1.159515e-10 4.188820e-05 1.588632e-05
1.175200e+01 3.586881e-05 1.556231e-10 5.143113e-05 3.930604e-05
1.175600e+01 -2.590461e-05 3.644205e-10 1.053744e-05 5.378342e-05
1.176000e+01 -7.887162e-05 4.450063e-10 -3.437099e-05 1.786739e-05
1.176400e+01 -6.016398e-05 7.090783e-11 -5.307320e-05 -3.849789e-05
1.176800e+01 -1.290625e-05 -3.900525e-10 -5.191150e-05 -5.292928e-05
1.177200e+01 -2.366554e-06 -2.996478e-10 -3.233133e-05 -5.644716e-06
1.177600e+01 -5.455717e-05 2.485877e-10 -2.969840e-05 1.320288e-07
1.178000e+01 -6.111495e-05 1.006509e-10 -5.104986e-05 -2.099879e-06
1.178400e+01 -8.627422e-05 -1.722820e-10 -1.035024e-04 -4.385393e-06
1.178800e+01 -1.277722e-04 -1.388202e-10 -1.416542e-04 -2.569874e-05
1.179200e+01 -9.709522e-05 -2.315756e-10 -1.202528e-04 -3.216193e-05
1.179600e+01 -6.894123e-06 -3.331455e-10 -4.020867e-05 1.558752e-05
1.180000e+01 -4.657981e-05 -2.529538e-12 -4.683276e-05 1.622168e-05
1.180400e+01 -6.800714e-05 -2.980587e-11 -7.098773e-05 -2.319269e-05
1.180800e+01 -4.070258e-05 -2.762787e-10 -6.833045e-05 -3.755041e-05
1.181200e+01 -2.514063e-05 -1.578486e-10 -4.092549e-05 -1.517279e-07
1.181600e+01 -4.624243e-05 1.246183e-10 -3.378060e-05 2.685791e-05
1.182000e+01 -5.171688e-05 7.238588e-11 -4.447829e-05 3.446833e-05
1.182400e+01 -4.844601e-05 7.965459e-11 -4.048055e-05 2.923807e-05
1.182800e+01 -3.738231e-05 1.746584e-10 -1.991647e-05 4.080405e-06
1.183200e+01 3.868137e-05 2.299474e-11 4.098085e-05 1.387987e-05
1.183600e+01 6.857081e-05 1.500252e-10 8.357334e-05 3.678902e-05
1.184000e+01 1.537304e-05 3.442548e-10 4.979853e-05 9.784528e-07
1.184400e+01 1.597007e-05 -1.512797e-11 1.445727e-05 -4.138547e-05
1.184800e+01 3.917699e-05 -2.558091e-10 1.359608e-05 -4.018310e-05
1.185200e+01 1.402535e-05 -9.133056e-11 4.892297e-06 -3.075599e-05
1.185600e+01 1.729754e-05 -6.576812e-11 1.072073e-05 -2.604862e-05
1.186000e+01 4.929025e-05 -1.586283e-10 3.342742e-05 -7.186929e-06
1.186400e+01 3.825655e-05 -5.465868e-11 3.279069e-05 6.845151e-06
1.186800e+01 2.971284e-05 3.270804e-11 3.298364e-05 2.825349e-05
1.187200e+01 -9.165795e-06 1.685058e-10 7.684786e-06 1.843748e-05
1.187600e+01 -9.601680e-06 -1.665815e-11 -1.126750e-05 3.218456e-06
1.188000e+01 5.260634e-05 -2.874284e-10 2.386350e-05 1.265868e-05
1.188400e+01 4.921904e-05 -6.356128e-11 4.286291e-05 1.103904e-05
1.188800e+01 -1.745357e-05 1.983049e-10 2.376925e-06 9.492575e-06
1.189200e+01 -6.115570e-05 1.996396e-10 -4.119174e-05 -6.899869e-06
1.189600e+01 -1.477818e-05 -3.081795e-11 -1.785997e-05 1.397429e-05
1.190000e+01 -2.721798e-06 1.851601e-10 1.579422e-05 4.463608e-05
1.190400e+01 -8.513048e-05 4.753014e-10 -3.760034e-05 2.851959e-05
1.190800e+01 -1.453020e-04 1.737443e-10 -1.279275e-04 -5.998664e-05
1.191200e+01 -3.342293e-05 -5.656965e-10 -8.999258e-05 -8.378739e-05
1.191600e+01 -3.429821e-05 -5.068037e-10 -8.497858e-05 -5.579973e-05
1.192000e+01 -1.642578e-04 -2.154559e-10 -1.858034e-04 -3.297797e-05
1.192400e+01 -3.320043e-04 -2.454029e-10 -3.565446e-04 -2.819426e-05
1.192800e+01 -4.335129e-04 -3.229841e-10 -4.658113e-04 3.179696e-06
1.193200e+01 -4.496495e-04 4.364979e-12 -4.492130e-04 2.409826e-05
1.193600e+01 -2.193567e-04 1.151649e-10 -2.078402e-04 2.197624e-05
1.194000e+01 6.151232e-05 -1.151616e-10 4.999616e-05 1.943000e-05
1.194400e+01 1.691251e-04 -3.760824e-11 1.653643e-04 8.536078e-07
1.194800e+01 2.544006e-04 1.505624e-10 2.694568e-04 4.086954e-05
1.195200e+01 2.824390e-04 6.119285e-10 3.436318e-04 5.316544e-05
1.195600e+01 2.526046e-04 5.359198e-10 3.061966e-04 1.263271e-05
1.196000e+01 2.022596e-04 7.279390e-11 2.095390e-04 -3.762341e-05
1.196400e+01 2.185847e-04 -1.282657e-10 2.057581e-04 -1.272858e-05
1.196800e+01 1.965449e-04 3.033526e-10 2.268802e-04 5.097337e-05
1.197200e+01 8.674015e-05 5.990030e-10 1.466405e-04 7.366596e-05
1.197600e+01 -2.865359e-05 3.841270e-10 9.759112e-06 4.821842e-05
1.198000e+01 -9.384983e-05 1.259944e-10 -8.125039e-05 -2.398787e-05
1.198400e+01 -5.680837e-05 -2.788412e-10 -8.469249e-05 -6.633571e-05
1.198800e+01 3.565342e-05 -4.493084e-10 -9.277419e-06 -4.275480e-05
1.199200e+01 -9.629046e-06 -1.832676e-10 -2.795581e-05 -2.439422e-05
1.199600e+01 -8.784907e-05 -1.733851e-10 -1.051876e-04 -1.329472e-05
1.200000e+01 -1.193380e-04 -1.761252e-10 -1.369505e-04 5.227610e-06
1.200400e+01 -1.084392e-04 1.020213e-10 -9.823703e-05 2.145502e-05
1.200800e+01 -3.483578e-05 1.561042e-10 -1.922537e-05 7.890993e-05
1.201200e+01 -1.050795e-04 3.949558e-10 -6.558392e-05 6.226684e-05
1.201600e+01 -2.165805e-04 2.804993e-10 -1.885305e-04 -7.428689e-05
1.202000e+01 -1.062145e-04 -6.695704e-10 -1.731715e-04 -1.102135e-04
1.202400e+01 -2.414464e-05 -6.336277e-10 -8.750742e-05 -2.150334e-05
1.202800e+01 -8.253798e-05 3.227447e-10 -5.026351e-05 2.221675e-05
1.203200e+01 -1.166812e-04 3.442902e-10 -8.225213e-05 3.723752e-07
1.203600e+01 -1.180819e-04 -1.629283e-10 -1.343747e-04 -2.071961e-06
1.204000e+01 -1.261489e-04 -3.568556e-11 -1.297174e-04 4.761840e-05
1.204400e+01 -1.448562e-04 4.961607e-10 -9.524011e-05 1.011754e-04
1.204800e+01 -1.673352e-04 6.743915e-10 -9.989605e-05 5.779837e-05
1.205200e+01 -1.428789e-04 4.469936e-11 -1.384089e-04 -3.420240e-05
1.205600e+01 -1.113416e-04 -5.324035e-10 -1.645820e-04 -7.343810e-05
1.206000e+01 -1.214872e-04 -3.513122e-10 -1.566184e-04 -5.943527e-05
1.206400e+01 -1.204602e-04 -4.856848e-11 -1.253171e-04 -2.633131e-05
1.206800e+01 -9.028991e-05 -1.215665e-11 -9.150557e-05 1.970317e-06
1.207200e+01 -1.038891e-04 7.208745e-11 -9.668033e-05 1.644904e-05
1.207600e+01 -1.208299e-04 2.331173e-10 -9.751815e-05 5.346710e-05
1.208000e+01 -1.416374e-04 5.107951e-10 -9.055789e-05 8.265610e-05
1.208400e+01 -1.427538e-04 5.184815e-10 -9.090568e-05 6.915265e-05
1.208800e+01 -1.749954e-04 2.639279e-10 -1.486026e-04 -1.391798e-05
1.209200e+01 -1.760707e-04 -1.640666e-10 -1.924773e-04 -6.896499e-05
1.209600e+01 -1.854484e-04 -2.139542e-10 -2.068438e-04 -7.651055e-05
1.210000e+01 -1.933340e-04 -1.435515e-10 -2.076891e-04 -6.735189e-05
1.210400e+01 -1.405864e-04 -2.690195e-10 -1.674884e-04 -1.170117e-05
1.210800e+01 -1.339938e-04 6.433966e-11 -1.275598e-04 2.226313e-05
1.211200e+01 -1.561982e-04 2.765036e-10 -1.285478e-04 1.839257e-05
1.211600e+01 -1.912223e-04 2.600982e-11 -1.886213e-04 -1.467845e-05
1.212000e+01 -1.889852e-04 -4.679058e-10 -2.357758e-04 -3.300876e-05
1.212400e+01 -1.384775e-04 -6.777926e-10 -2.062567e-04 7.459004e-06
1.212800e+01 -1.710992e-04 -1.915772e-10 -1.902569e-04 1.310108e-05
1.213200e+01 -1.775494e-04 -5.093191e-11 -1.826426e-04 3.193420e-06
1.213600e+01 -2.047114e-04 -1.120936e-10 -2.159208e-04 -1.518699e-05
1.214000e+01 -1.742991e-04 -1.526101e-10 -1.895601e-04 1.089893e-07
1.214400e+01 -2.325041e-04 1.686237e-10 -2.156418e-04 -3.396730e-05
1.214800e+01 -2.109307e-04 -5.749732e-11 -2.166804e-04 -2.336196e-05
1.215200e+01 -1.950865e-04 -2.128459e-11 -1.972150e-04 2.867532e-05
1.215600e+01 -2.235582e-04 4.438448e-10 -1.791737e-04 6.932741e-05
1.216000e+01 -2.831501e-04 7.303215e-10 -2.101179e-04 3.539314e-05
1.216400e+01 -2.542112e-04 1.973763e-10 -2.344736e-04 7.207543e-06
1.216800e+01 -2.435904e-04 -1.760748e-10 -2.611978e-04 1.120495e-05
1.217200e+01 -2.895413e-04 1.676185e-11 -2.878651e-04 6.362740e-06
1.217600e+01 -2.907743e-04 8.713526e-11 -2.820607e-04 -2.608641e-05
1.218000e+01 -2.213270e-04 -2.063813e-10 -2.419651e-04 -4.539112e-05
1.218400e+01 -1.987552e-04 -3.849573e-10 -2.372510e-04 -1.772794e-05
1.218800e+01 -2.443608e-04 -1.654742e-10 -2.609082e-04 -1.947539e-06
1.219200e+01 -2.485327e-04 -1.683376e-10 -2.653665e-04 8.318616e-06
1.219600e+01 -2.435953e-04 -1.856340e-10 -2.621587e-04 1.689965e-05
1.220000e+01 -2.693087e-04 -1.196745e-10 -2.812761e-04 2.187373e-07
1.220400e+01 -2.290455e-04 -2.169363e-10 -2.507392e-04 4.900352e-06
1.220800e+01 -2.030530e-04 -1.437151e-10 -2.174245e-04 3.104481e-05
1.221200e+01 -1.855905e-04 8.569908e-11 -1.770206e-04 7.815157e-05
1.221600e+01 -2.659801e-04 5.515906e-10 -2.108211e-04 3.779930e-05
1.222000e+01 -2.562326e-04 3.827801e-10 -2.179546e-04 -6.276724e-06
1.222400e+01 -2.221887e-04 1.500400e-10 -2.071847e-04 -2.427041e-05
1.222800e+01 -2.177106e-04 -4.250480e-11 -2.219611e-04 -5.302245e-05
1.223200e+01 -1.340903e-04 -4.910282e-10 -1.831932e-04 -3.633637e-05
1.223600e+01 -9.844975e-05 -2.754312e-10 -1.259929e-04 9.343238e-06
1.224000e+01 -1.103709e-04 2.517758e-10 -8.519336e-05 5.487856e-05
1.224400e+01 -1.143123e-04 3.077257e-10 -8.353971e-05 5.070032e-05
1.224800e+01 -8.119419e-05 -9.461410e-11 -9.065560e-05 2.352292e-05
1.225200e+01 -5.361395e-05 -2.280566e-10 -7.641961e-05 -1.761963e-05
1.225600e+01 1.155047e-05 -2.432389e-10 -1.277342e-05 -1.362466e-05
1.226000e+01 -3.352649e-05 4.348505e-12 -3.309164e-05 -2.540925e-05
1.226400e+01 -5.080046e-05 -1.338629e-10 -6.418675e-05 -5.417869e-05
1.226800e+01 4.784443e-06 -5.324971e-10 -4.846527e-05 -4.653783e-05
1.227200e+01 -4.890980e-06 -3.420769e-10 -3.909867e-05 -3.447870e-05
1.227600e+01 -2.863607e-05 -7.775438e-11 -3.641150e-05 -3.021931e-05
1.228000e+01 1.332411e-05 -2.037436e-10 -7.050253e-06 4.750924e-06
1.228400e+01 2.246428e-05 -6.333574e-11 1.613071e-05 2.358343e-05
1.228800e+01 -6.290334e-06 9.930887e-11 3.640553e-06 2.267080e-05
1.229200e+01 -7.567762e-06 1.176999e-10 4.202225e-06 2.864628e-05
1.229600e+01 -1.069336e-05 2.928424e-10 1.859088e-05 3.926806e-05
1.230000e+01 -4.069948e-05 4.896568e-10 8.266200e-06 2.336690e-05
1.230400e+01 -3.550605e-05 2.000938e-10 -1.549667e-05 -1.253043e-05
1.230800e+01 2.595222e-05 -2.317346e-10 2.778763e-06 -3.019420e-05
1.231200e+01 8.635916e-05 -1.863184e-10 6.772732e-05 8.880153e-06
1.231600e+01 7.748930e-05 3.065215e-10 1.081414e-04 6.091791e-05
1.232000e+01 9.893601e-06 6.332522e-10 7.321882e-05 2.089937e-05
1.232400e+01 9.486714e-07 1.344451e-10 1.439318e-05 -4.911620e-05
1.232800e+01 2.664762e-05 -3.790514e-10 -1.125752e-05 -6.885942e-05
1.233200e+01 5.501810e-06 -3.213331e-10 -2.663150e-05 -5.938676e-05
1.233600e+01 9.266064e-07 -2.500372e-10 -2.407711e-05 -3.420499e-05
1.234000e+01 3.315414e-05 -3.399373e-10 -8.395868e-07 2.066884e-06
1.234400e+01 3.056288e-05 -2.797728e-10 2.585601e-06 9.358901e-06
1.234800e+01 -1.703861e-06 -2.060829e-10 -2.231215e-05 1.045494e-05
1.235200e+01 -1.758676e-05 -1.138706e-10 -2.897382e-05 1.741526e-05
1.235600e+01 7.986966e-06 -8.417446e-11 -4.304808e-07 1.343619e-05
1.236000e+01 2.020625e-05 -7.534526e-11 1.267172e-05 3.277295e-06
1.236400e+01 2.060735e-05 3.297655e-11 2.390501e-05 4.770428e-05
1.236800e+01 -2.179770e-05 5.840446e-10 3.660676e-05 8.718832e-05
1.237200e+01 -8.849841e-05 8.907483e-10 5.764139e-07 4.239952e-05
1.237600e+01 -6.289663e-05 2.829168e-10 -3.460495e-05 -6.028756e-05
1.238000e+01 1.752877e-05 -5.291951e-10 -3.539073e-05 -1.102863e-04
1.238400e+01 1.391145e-05 -5.949570e-10 -4.558425e-05 -8.608471e-05
1.238800e+01 -3.541123e-05 -2.839504e-10 -6.380628e-05 -8.571162e-05
1.239200e+01 4.752470e-05 -6.466468e-10 -1.713998e-05 -3.413415e-05
1.239600e+01 1.029715e-04 -5.453657e-10 4.843493e-05 6.542402e-05
1.240000e+01 3.944058e-05 2.990988e-10 6.935046e-05 1.304751e-04
1.240400e+01 -6.089963e-05 7.959377e-10 1.869414e-05 6.537754e-05
1.240800e+01 -3.394499e-05 2.852188e-12 -3.365977e-05 -3.755848e-06
1.241200e+01 3.581534e-05 -6.002248e-10 -2.420714e-05 -7.286728e-06
1.241600e+01 -1.305106e-05 -1.674942e-10 -2.980048e-05 -9.549696e-06
1.242000e+01 -5.061253e-05 1.398145e-10 -3.663108e-05 -4.558385e-08
1.242400e+01 -4.236717e-05 1.282144e-10 -2.954573e-05 -1.780615e-06
1.242800e+01 -7.157542e-05 1.271632e-10 -5.885910e-05 -3.268222e-05
1.243200e+01 -7.196980e-05 6.574184e-11 -6.539562e-05 -5.110051e-05
1.243600e+01 1.258231e-05 -9.707147e-11 2.875162e-06 2.377301e-05
1.244000e+01 6.209925e-06 3.664281e-10 4.285273e-05 9.105341e-05
1.244400e+01 -5.175272e-05 7.003314e-10 1.828043e-05 6.873233e-05
1.244800e+01 -7.463394e-05 3.355757e-10 -4.107636e-05 -1.978773e-05
1.245200e+01 -1.177693e-05 -3.152875e-10 -4.330567e-05 -8.189289e-05
1.245600e+01 7.835010e-05 -6.477120e-10 1.357890e-05 -3.594026e-05
1.246000e+01 1.818203e-05 -1.669228e-10 1.489747e-06 3.685506e-06
1.246400e+01 -4.470780e-05 8.702355e-11 -3.600544e-05 9.026464e-06
1.246800e+01 -2.327376e-05 -4.189628e-12 -2.369272e-05 3.103294e-05
1.247200e+01 -6.294277e-07 1.658125e-10 1.595183e-05 5.360450e-05
1.247600e+01 -4.833963e-06 3.170171e-10 2.686775e-05 4.012490e-05
1.248000e+01 4.628773e-05 1.514636e-10 6.143410e-05 2.146740e-05
1.248400e+01 4.361183e-05 1.466174e-10 5.827357e-05 -1.570957e-05
1.248800e+01 1.313440e-05 3.658179e-11 1.679258e-05 -5.648094e-05
1.249200e+01 -1.978082e-05 -2.261243e-10 -4.239325e-05 -8.690519e-05
1.249600e+01 1.440727e-05 -4.371128e-10 -2.930401e-05 -4.519093e-05
1.250000e+01 -9.503954e-06 -4.446196e-11 -1.395015e-05 -1.335359e-05
1.250400e+01 -3.233098e-05 1.536583e-10 -1.696514e-05 -1.576732e-05
1.250800e+01 1.178733e-05 -3.759120e-11 8.028207e-06 4.300648e-06
1.251200e+01 3.132783e-05 1.006813e-10 4.139596e-05 3.946512e-05
1.251600e+01 -1.367556e-05 3.069239e-10 1.701683e-05 2.811097e-05
1.252000e+01 1.915471e-05 -8.315853e-11 1.083885e-05 2.365984e-05
1.252400e+01 2.651123e-05 -1.339302e-10 1.311821e-05 1.608817e-05
1.252800e+01 4.629188e-06 1.159332e-10 1.622251e-05 6.395066e-06
1.253200e+01 -4.042567e-05 2.958682e-10 -1.083885e-05 -4.236786e-05
1.253600e+01 1.108015e-05 -1.026093e-10 8.192229e-07 -6.312289e-05
1.254000e+01 3.951208e-05 -3.318563e-10 6.326451e-06 -3.104317e-05
1.254400e+01 8.064434e-06 3.109915e-11 1.117435e-05 1.571293e-05
1.254800e+01 -2.976935e-05 3.975972e-10 9.990371e-06 2.013497e-05
1.255200e+01 2.221238e-05 9.607958e-11 3.182034e-05 3.228614e-05
1.255600e+01 5.843221e-05 -3.964004e-11 5.446820e-05 4.178652e-05
1.256000e+01 4.002514e-05 2.197972e-10 6.200486e-05 3.509681e-05
1.256400e+01 7.976052e-06 3.214189e-10 4.011794e-05 9.794398e-06
1.256800e+01 8.110523e-06 9.633540e-11 1.774406e-05 -1.525065e-05
1.257200e+01 1.667581e-05 -3.315749e-11 1.336006e-05 -4.173653e-05
1.257600e+01 2.526331e-05 -5.619216e-11 1.964410e-05 -2.711011e-05
1.258000e+01 8.426658e-06 4.209604e-11 1.263626e-05 -1.747698e-05
1.258400e+01 3.584522e-06 -1.008022e-10 -6.495702e-06 -3.321531e-05
1.258800e+01 5.117025e-05 -4.094686e-10 1.022339e-05 -2.061715e-05
1.259200e+01 8.637141e-05 -3.273425e-10 5.363716e-05 4.165773e-05
1.259600e+01 3.344098e-05 1.501313e-10 4.845411e-05 3.657724e-05
1.260000e+01 6.769864e-06 -1.713384e-10 -1.036398e-05 -1.859573e-05
1.260400e+01 4.438007e-05 -7.208955e-10 -2.770948e-05 -2.842223e-05
1.260800e+01 4.422905e-05 -3.342503e-10 1.080402e-05 2.234051e-05
1.261200e+01 -1.631706e-05 4.331954e-10 2.700248e-05 4.792496e-05
1.261600e+01 -1.288373e-05 4.274625e-10 2.986252e-05 2.045645e-05
1.262000e+01 1.842923e-05 -2.376124e-11 1.605311e-05 -3.305902e-05
1.262400e+01 6.104356e-05 -2.415798e-10 3.688558e-05 -3.072441e-05
1.262800e+01 3.894084e-05 6.993339e-11 4.593418e-05 3.191939e-06
1.263200e+01 1.980647e-05 2.662866e-10 4.643513e-05 4.589114e-05
1.263600e+01 -2.584019e-05 3.422616e-10 8.385971e-06 1.171103e-05
1.264000e+01 8.422518e-06 -4.846904e-11 3.575613e-06 -1.488705e-05
1.264400e+01 6.042305e-05 -1.642234e-10 4.400071e-05 2.504556e-05
1.264800e+01 3.849039e-05 2.391436e-10 6.240475e-05 4.245863e-05
1.265200e+01 4.234279e-05 1.825503e-10 6.059782e-05 3.729513e-05
1.265600e+01 5.256003e-05 2.655371e-11 5.521541e-05 4.318326e-05
1.266000e+01 6.551147e-06 2.949402e-10 3.604516e-05 1.657843e-05
1.266400e+01 -2.762693e-05 2.017595e-10 -7.450982e-06 -4.648391e-05
1.266800e+01 1.759194e-05 -3.676678e-10 -1.917484e-05 -4.698487e-05
1.267200e+01 2.049184e-05 -2.140853e-10 -9.166905e-07 1.342849e-05
1.267600e+01 -4.995702e-05 4.743994e-10 -2.517075e-06 2.012037e-05
1.268000e+01 -6.615240e-06 2.709761e-10 2.048237e-05 -1.546998e-05
1.268400e+01 8.114636e-05 -3.021057e-10 5.093580e-05 -4.955351e-05
1.268800e+01 1.047370e-04 -3.688203e-10 6.785493e-05 -9.111988e-06
1.269200e+01 1.345702e-05 2.802954e-10 4.148656e-05 -4.139644e-06
1.269600e+01 -7.881989e-06 8.364930e-11 4.829414e-07 -2.970485e-05
1.270000e+01 2.232058e-05 -6.249953e-10 -4.017895e-05 -4.237335e-05
1.270400e+01 7.699145e-05 -7.137187e-10 5.619581e-06 1.524232e-05
1.270800e+01 4.727341e-05 1.290926e-10 6.018268e-05 5.572475e-05
1.271200e+01 3.021220e-06 4.065261e-10 4.367383e-05 2.605327e-05
1.271600e+01 7.222295e-05 -2.459317e-10 4.762979e-05 8.684827e-06
1.272000e+01 5.199693e-05 -2.008536e-10 3.191157e-05 3.675664e-06
1.272400e+01 -2.482280e-05 3.713265e-10 1.230986e-05 -9.919410e-06
1.272800e+01 -4.262313e-06 3.099062e-10 2.672831e-05 -2.262997e-05
1.273200e+01 1.729315e-05 -9.379710e-11 7.913442e-06 -5.593870e-05
1.273600e+01 3.190649e-05 -4.281359e-10 -1.090710e-05 -5.286451e-05
1.274000e+01 3.498639e-05 -2.962462e-10 5.361763e-06 -7.218996e-06
1.274400e+01 4.387081e-05 8.272962e-11 5.214377e-05 4.875574e-05
1.274800e+01 4.997642e-05 3.644557e-10 8.642199e-05 6.512204e-05
1.275200e+01 4.727490e-05 3.251161e-10 7.978651e-05 4.990525e-05
1.275600e+01 -2.291652e-05 2.968770e-10 6.771174e-06 -8.878265e-06
1.276000e+01 -6.651300e-05 7.092852e-11 -5.942015e-05 -4.232064e-05
1.276400e+01 -1.100687e-05 -1.140539e-10 -2.241225e-05 2.853009e-06
1.276800e+01 -4.267113e-05 3.050586e-10 -1.216527e-05 1.730535e-05
1.277200e+01 -8.409500e-05 3.579627e-10 -4.829873e-05 -2.313621e-05
1.277600e+01 -3.378168e-05 -1.843307e-10 -5.221476e-05 -1.971766e-05
1.278000e+01 1.266671e-05 -2.458053e-10 -1.191382e-05 2.666269e-05
1.278400e+01 -2.104476e-05 1.263498e-10 -8.409781e-06 4.933442e-05
1.278800e+01 -4.551015e-05 2.097106e-10 -2.453909e-05 3.301958e-05
1.279200e+01 -5.339242e-05 5.826834e-11 -4.756559e-05 -1.967566e-05
1.279600e+01 -5.637940e-05 -1.870644e-10 -7.508584e-05 -6.699867e-05
1.280000e+01 -1.427170e-05 -3.802391e-10 -5.229561e-05 -4.475230e-05
1.280400e+01 -3.633181e-05 -4.408912e-11 -4.074072e-05 -2.084734e-05
1.280800e+01 -1.320608e-05 -3.741558e-11 -1.694763e-05 7.285154e-06
1.281200e+01 2.701212e-05 -1.973052e-10 7.281593e-06 2.642455e-05
1.281600e+01 2.130257e-05 -1.147802e-10 9.824546e-06 6.714953e-06
1.282000e+01 5.548643e-05 -1.192632e-10 4.356011e-05 2.033488e-05
1.282400e+01 6.063449e-05 7.549641e-11 6.818413e-05 3.424752e-05
1.282800e+01 7.362126e-05 1.030348e-10 8.392474e-05 4.297627e-05
1.283200e+01 6.445771e-05 1.622908e-10 8.068678e-05 4.865628e-05
1.283600e+01 -4.032673e-06 5.058370e-10 4.655102e-05 1.263537e-05
1.284000e+01 -1.975863e-05 3.821720e-10 1.845857e-05 -5.675205e-05
1.284400e+01 7.585460e-05 -2.981931e-10 4.603530e-05 -6.067552e-05
1.284800e+01 8.863612e-05 -3.280317e-10 5.583294e-05 -4.608735e-05
1.285200e+01 6.468684e-05 -1.442976e-10 5.025708e-05 -2.359929e-05
1.285600e+01 5.346645e-05 -6.872492e-11 4.659396e-05 -3.088774e-06
1.286000e+01 1.058555e-04 -5.529379e-11 1.003261e-04 2.066687e-05
1.286400e+01 1.136026e-04 9.462031e-11 1.230646e-04 1.533099e-05
1.286800e+01 8.289221e-05 9.744316e-11 9.263652e-05 -2.003288e-05
1.287200e+01 1.159961e-04 -2.789609e-10 8.810003e-05 9.186222e-07
1.287600e+01 9.215759e-05 -8.438039e-11 8.371955e-05 1.842455e-05
1.288000e+01 6.092272e-05 2.943624e-10 9.035895e-05 9.869763e-06
1.288400e+01 5.712974e-05 2.653073e-10 8.366047e-05 -1.723829e-05
1.288800e+01 1.030128e-04 -1.233046e-10 9.068236e-05 -1.100775e-06
1.289200e+01 7.931021e-05 -6.725695e-12 7.863764e-05 3.421572e-06
1.289600e+01 3.399727e-05 1.541463e-10 4.941190e-05 -1.926707e-05
1.290000e+01 8.564921e-05 -6.315126e-12 8.501770e-05 1.109312e-05
1.290400e+01 6.587398e-05 2.707518e-10 9.294916e-05 2.919414e-05
1.290800e+01 2.813687e-05 3.107771e-10 5.921459e-05 2.441410e-05
1.291200e+01 -2.697967e-06 8.389780e-11 5.691813e-06 2.486637e-06
1.291600e+01 -2.523172e-05 -7.533326e-11 -3.276504e-05 -2.551396e-05
1.292000e+01 1.419434e-05 -2.193771e-10 -7.743365e-06 -1.007503e-05
1.292400e+01 -4.233742e-05 6.754412e-12 -4.166198e-05 3.257365e-06
1.292800e+01 -1.709478e-04 1.267109e-10 -1.582767e-04 -1.810135e-05
1.293200e+01 -2.940863e-04 -1.574708e-10 -3.098334e-04 -4.101968e-05
1.293600e+01 -3.361373e-04 -4.317238e-10 -3.793097e-04 4.156513e-06
1.294000e+01 -3.084381e-04 -6.258925e-11 -3.146971e-04 2.028843e-05
1.294400e+01 -5.514457e-05 -3.427285e-11 -5.857185e-05 9.596357e-06
1.294800e+01 2.132117e-04 -2.116647e-10 1.920452e-04 6.172318e-06
1.295200e+01 3.256219e-04 -9.506077e-11 3.161158e-04 1.621938e-06
1.295600e+01 3.930003e-04 -4.037749e-12 3.925965e-04 1.286032e-05
1.296000e+01 4.135159e-04 1.658716e-10 4.301031e-04 3.620541e-05
1.296400e+01 3.440181e-04 4.578351e-10 3.898017e-04 6.765068e-05
1.296800e+01 2.733751e-04 6.966203e-10 3.430371e-04 3.963992e-05
1.297200e+01 2.788740e-04 3.312127e-10 3.119953e-04 -2.230050e-05
1.297600e+01 3.178814e-04 -8.921378e-11 3.089600e-04 -3.082707e-05
1.298000e+01 2.104531e-04 1.122904e-10 2.216821e-04 -2.225898e-05
1.298400e+01 1.062382e-04 6.728419e-11 1.129666e-04 -1.803222e-05
1.298800e+01 4.924462e-05 -1.796713e-10 3.127748e-05 -5.304923e-05
1.299200e+01 7.605014e-05 -4.706171e-10 2.898843e-05 -5.970174e-05
1.299600e+01 1.464460e-04 -4.371839e-10 1.027276e-04 -1.839127e-05
1.300000e+01 9.385289e-05 -1.753674e-10 7.631615e-05 1.060966e-05
1.300400e+01 1.252050e-05 -2.155007e-10 -9.029575e-06 7.436626e-06
1.300800e+01 2.016097e-05 -4.039941e-10 -2.023843e-05 3.742441e-05
1.301200e+01 1.880816e-05 5.002887e-12 1.930845e-05 4.701753e-05
1.301600e+01 4.233995e-05 2.041196e-10 6.275191e-05 3.715699e-05
1.302000e+01 1.899127e-05 6.088356e-11 2.507963e-05 -1.560005e-05
1.302400e+01 1.494756e-05 -2.465211e-10 -9.704557e-06 -6.879289e-05
1.302800e+01 1.459757e-05 -3.446981e-10 -1.987225e-05 -6.837246e-05
1.303200e+01 2.878538e-05 -1.002223e-10 1.876315e-05 -2.098381e-05
1.303600e+01 1.264162e-05 2.794905e-10 4.059066e-05 1.752944e-05
1.304000e+01 -2.705641e-05 3.985294e-10 1.279654e-05 8.247038e-06
1.304400e+01 -2.524384e-05 2.015539e-11 -2.322831e-05 -1.173593e-05
1.304800e+01 1.961531e-05 -3.106034e-10 -1.144503e-05 5.334465e-06
1.305200e+01 4.274768e-05 -1.548115e-10 2.726652e-05 2.797310e-05
1.305600e+01 2.520932e-05 3.012298e-11 2.822162e-05 1.899879e-05
1.306000e+01 1.054008e-05 -1.291690e-10 -2.376812e-06 1.198492e-05
1.306400e+01 -1.482264e-05 -1.228313e-10 -2.710578e-05 2.796873e-05
1.306800e+01 -5.524692e-05 2.076944e-10 -3.447749e-05 1.809901e-05
1.307200e+01 -4.248768e-06 2.018679e-10 1.593802e-05 2.936116e-05
1.307600e+01 1.735631e-05 3.974041e-10 5.709672e-05 4.865509e-05
1.308000e+01 -8.463874e-06 6.752370e-10 5.905982e-05 4.229370e-05
1.308400e+01 -1.849192e-05 4.829781e-10 2.980589e-05 3.148707e-05
1.308800e+01 -1.234466e-05 2.385497e-10 1.151030e-05 1.498267e-05
1.309200e+01 -1.204673e-05 2.068190e-10 8.635169e-06 -2.502935e-05
1.309600e+01 -1.753151e-05 2.284271e-11 -1.524724e-05 -5.458222e-05
1.310000e+01 -4.257685e-05 -1.865769e-10 -6.123454e-05 -7.446948e-05
1.310400e+01 -3.237767e-05 -4.014131e-10 -7.251897e-05 -6.767031e-05
1.310800e+01 -2.909223e-06 -3.966007e-10 -4.256929e-05 -3.715936e-05
1.311200e+01 -1.076059e-05 -1.953871e-10 -3.029930e-05 -5.774641e-07
1.311600e+01 1.266470e-05 -1.634043e-10 -3.675729e-06 3.992399e-05
1.312000e+01 4.111351e-05 -1.629582e-10 2.481769e-05 5.274947e-05
1.312400e+01 8.025061e-06 -1.471150e-10 -6.686435e-06 4.205218e-05
1.312800e+01 -6.056283e-06 -1.358808e-10 -1.964436e-05 2.722697e-05
1.313200e+01 6.605260e-08 -1.023055e-10 -1.016450e-05 2.464167e-05
1.313600e+01 -6.216208e-05 7.112996e-11 -5.504909e-05 -2.834785e-05
1.314000e+01 -9.257101e-05 -1.419491e-10 -1.067659e-04 -8.817625e-05
1.314400e+01 -5.260349e-05 -3.897961e-10 -9.158310e-05 -7.762978e-05
1.314800e+01 -7.001993e-05 -8.104819e-11 -7.812475e-05 -4.258875e-05
1.315200e+01 -7.678999e-05 6.440642e-11 -7.034935e-05 -2.154806e-06
1.315600e+01 -6.540845e-05 1.642121e-11 -6.376633e-05 6.950972e-05
1.316000e+01 -8.876888e-05 4.378657e-10 -4.498231e-05 9.883489e-05
1.316400e+01 -1.258810e-04 5.340367e-10 -7.247737e-05 2.370916e-05
1.316800e+01 -1.052493e-04 -3.169571e-10 -1.369450e-04 -7.308996e-05
1.317200e+01 -6.981048e-05 -9.535285e-10 -1.651633e-04 -9.443834e-05
1.317600e+01 -6.546691e-05 -6.443981e-10 -1.299067e-04 -3.426867e-05
1.318000e+01 -1.288655e-04 3.255894e-11 -1.256096e-04 -1.667496e-05
1.318400e+01 -1.070351e-04 -1.644413e-10 -1.234792e-04 9.848531e-06
1.318800e+01 -1.200253e-04 -1.924992e-10 -1.392753e-04 2.283090e-05
1.319200e+01 -1.280108e-04 5.580362e-11 -1.224305e-04 3.765474e-05
1.319600e+01 -1.503391e-04 2.828660e-10 -1.220525e-04 2.002440e-05
1.320000e+01 -1.168541e-04 -2.072007e-11 -1.189261e-04 1.960549e-05
1.320400e+01 -1.438231e-04 -1.327720e-10 -1.571003e-04 6.980722e-06
1.320800e+01 -1.494146e-04 -1.629891e-11 -1.510445e-04 9.605423e-06
1.321200e+01 -1.616753e-04 2.563014e-10 -1.360451e-04 1.737430e-05
1.321600e+01 -1.506773e-04 2.325328e-10 -1.274241e-04 2.639304e-05
1.322000e+01 -1.321023e-04 1.714922e-10 -1.149531e-04 2.195487e-05
1.322400e+01 -1.470115e-04 3.321673e-10 -1.137948e-04 -1.034403e-06
1.322800e+01 -1.235092e-04 2.723283e-10 -9.627640e-05 -2.293159e-06
1.323200e+01 -9.313605e-05 1.368957e-10 -7.944648e-05 -1.328464e-05
1.323600e+01 -5.305262e-05 -6.089791e-11 -5.914241e-05 -2.898642e-05
1.324000e+01 -1.030617e-05 -1.398988e-10 -2.429605e-05 -9.318707e-06
1.324400e+01 -1.920168e-05 4.512886e-11 -1.468879e-05 7.223682e-06
1.324800e+01 -1.275224e-05 2.281915e-11 -1.047032e-05 1.016622e-05
1.325200e+01 1.133007e-05 -9.574593e-11 1.755480e-06 -1.912415e-06
1.325600e+01 2.182983e-05 -1.027195e-10 1.155788e-05 -2.799712e-05
1.326000e+01 5.446083e-05 -2.984585e-10 2.461498e-05 -3.276038e-06
1.326400e+01 6.138941e-05 -1.303003e-10 4.835938e-05 4.857101e-05
1.326800e+01 3.888438e-05 2.994209e-10 6.882648e-05 2.591415e-05
1.327200e+01 6.215904e-05 1.073338e-10 7.289243e-05 -3.199130e-05
1.327600e+01 1.372947e-04 -3.414439e-10 1.031503e-04 -1.519441e-05
1.328000e+01 1.497799e-04 -9.913005e-12 1.487886e-04 2.877343e-05
1.328400e+01 7.540343e-05 5.021632e-10 1.256197e-04 7.101502e-06
1.328800e+01 7.124725e-05 2.153155e-10 9.277881e-05 -3.382081e-05
1.329200e+01 1.135762e-04 -1.514037e-10 9.843580e-05 -2.274402e-05
1.329600e+01 1.021479e-04 6.278658e-11 1.084266e-04 1.270130e-05
1.330000e+01 1.010923e-04 2.761874e-10 1.287110e-04 2.697970e-05
1.330400e+01 1.169556e-04 1.035603e-10 1.273117e-04 5.808083e-06
1.330800e+01 1.311270e-04 -2.457205e-10 1.065550e-04 -1.531572e-06
1.331200e+01 1.471463e-04 -2.217253e-10 1.249738e-04 4.676816e-05
1.331600e+01 9.441301e-05 3.707104e-10 1.314840e-04 4.604464e-05
1.332000e+01 9.224651e-05 3.352596e-10 1.257725e-04 1.464921e-05
1.332400e+01 1.471172e-04 4.358934e-11 1.514761e-04 1.584891e-05
1.332800e+01 9.843142e-05 3.756688e-10 1.359983e-04 1.550983e-05
1.333200e+01 1.082569e-05 5.961642e-10 7.044211e-05 -3.319123e-05
1.333600e+01 8.424111e-05 -5.526288e-11 7.871482e-05 -4.403867e-05
1.334000e+01 1.224244e-04 -2.387400e-10 9.855036e-05 -2.414847e-05
1.334400e+01 1.260264e-04 5.998497e-11 1.320249e-04 5.030427e-06
1.334800e+01 1.366295e-04 8.492714e-11 1.451222e-04 2.560266e-05
1.335200e+01 1.148195e-04 -4.517215e-11 1.103023e-04 1.998383e-06
1.335600e+01 9.895727e-05 -2.344016e-10 7.551711e-05 -3.198417e-05
1.336000e+01 9.485007e-05 -3.101852e-10 6.383155e-05 -3.941072e-05
1.336400e+01 9.426045e-05 -1.527722e-10 7.898323e-05 -3.302792e-05
1.336800e+01 1.132887e-04 -8.472590e-11 1.048161e-04 2.084923e-05
1.337200e+01 1.018352e-04 2.222593e-10 1.240611e-04 8.381694e-05
1.337600e+01 2.697351e-05 6.441199e-10 9.138550e-05 5.571186e-05
1.338000e+01 1.176299e-05 2.548330e-10 3.724629e-05 -2.605753e-05
1.338400e+01 9.754418e-05 -4.609602e-10 5.144817e-05 -6.346313e-05
1.338800e+01 1.136629e-04 -4.841671e-10 6.524615e-05 -5.501802e-05
1.339200e+01 9.908840e-05 -1.850011e-10 8.058829e-05 -1.405908e-05
1.339600e+01 7.271469e-05 4.783291e-11 7.749798e-05 -4.333732e-06
1.340000e+01 7.016557e-05 1.361529e-11 7.152710e-05 -7.109161e-06
1.340400e+01 9.791093e-05 -1.129715e-12 9.779796e-05 2.733466e-05
1.340800e+01 7.093975e-05 3.164193e-10 1.025817e-04 5.260029e-05
1.341200e+01 4.312505e-05 4.145341e-10 8.457846e-05 4.223188e-05
1.341600e+01 2.294063e-05 1.425997e-10 3.720060e-05 2.252151e-06
1.342000e+01 5.768113e-05 -2.648049e-10 3.120064e-05 -5.893807e-06
1.342400e+01 4.572796e-05 -1.868772e-10 2.704024e-05 -2.121840e-05
1.342800e+01 3.431277e-05 -9.375965e-11 2.493680e-05 -2.000136e-05
1.343200e+01 3.544818e-05 -8.896967e-12 3.455848e-05 -1.811035e-05
1.343600e+01 5.245411e-05 -3.673364e-11 4.878075e-05 -2.332570e-06
1.344000e+01 4.259614e-05 7.656945e-11 5.025309e-05 -1.346497e-06
1.344400e+01 4.203686e-05 1.404527e-10 5.608213e-05 -8.424881e-07
1.344800e+01 2.418151e-05 1.630207e-10 4.048358e-05 -1.190343e-05
1.345200e+01 2.841475e-05 -3.776912e-11 2.463783e-05 -2.171305e-05
1.345600e+01 7.065477e-05 -2.998785e-10 4.066691e-05 -7.899630e-06
1.346000e+01 7.297424e-05 -2.207504e-10 5.089920e-05 1.919676e-06
1.346400e+01 5.516057e-05 -6.352061e-11 4.880851e-05 -2.723194e-07
1.346800e+01 6.259841e-05 -5.625771e-11 5.697264e-05 6.225878e-06
1.347200e+01 6.167127e-05 -4.043889e-11 5.762739e-05 2.876174e-05
1.347600e+01 2.719315e-05 2.065009e-10 4.784324e-05 2.540517e-05
1.348000e+01 3.537336e-05 2.325303e-10 5.862638e-05 3.038661e-05
1.348400e+01 1.427073e-05 3.194988e-10 4.622062e-05 4.859822e-06
1.348800e+01 4.341141e-05 1.122704e-10 5.463845e-05 -2.034039e-05
1.349200e+01 5.089986e-05 -8.570274e-11 4.232958e-05 -6.407830e-05
1.349600e+01 5.036567e-05 -3.367115e-10 1.669452e-05 -7.798857e-05
1.350000e+01 6.748067e-05 -4.270471e-10 2.477596e-05 -4.298527e-05
1.350400e+01 8.236558e-05 -2.341072e-10 5.895486e-05 -1.037059e-05
1.350800e+01 8.208469e-05 -6.856953e-11 7.522773e-05 1.521530e-05
1.351200e+01 5.980041e-05 1.008309e-10 6.988350e-05 4.376682e-05
1.351600e+01 3.579845e-05 3.130734e-10 6.710579e-05 5.156318e-05
1.352000e+01 5.612781e-05 2.625141e-10 8.237923e-05 2.848932e-05
1.352400e+01 9.435701e-05 -4.620806e-11 8.973620e-05 -9.070319e-06
1.352800e+01 1.083444e-04 -2.202448e-10 8.631997e-05 -8.023127e-06
1.353200e+01 7.994863e-05 2.643296e-11 8.259193e-05 7.667129e-06
1.353600e+01 1.943649e-05 2.333598e-10 4.277247e-05 -2.640469e-05
1.354000e+01 5.703369e-05 -1.575634e-10 4.127736e-05 -2.559422e-05
1.354400e+01 7.857611e-05 -8.813903e-11 6.976221e-05 1.452794e-05
1.354800e+01 5.904822e-05 3.805480e-10 9.710302e-05 6.188982e-05
1.355200e+01 2.007411e-05 6.173819e-10 8.181230e-05 6.496409e-05
1.355600e+01 4.134114e-05 3.363950e-10 7.498065e-05 6.531360e-05
1.356000e+01 1.410780e-05 3.479202e-10 4.889981e-05 1.133557e-06
1.356400e+01 5.616238e-05 -2.320088e-11 5.384229e-05 -5.371158e-05
1.356800e+01 8.797227e-05 -3.585977e-10 5.211250e-05 -6.112551e-05
1.357200e+01 9.517710e-05 -3.041278e-10 6.476432e-05 -4.664722e-05
1.357600e+01 1.070161e-04 -2.508991e-10 8.192623e-05 1.708962e-06
1.358000e+01 9.718428e-05 -1.343587e-11 9.584070e-05 4.674243e-05
1.358400e+01 3.171887e-05 2.821552e-10 5.993439e-05 2.692372e-05
1.358800e+01 3.384264e-05 2.328284e-11 3.617093e-05 -3.080791e-05
1.359200e+01 6.751227e-05 -5.436196e-10 1.315032e-05 -6.043821e-05
1.359600e+01 1.193681e-04 -6.897134e-10 5.039672e-05 -3.261585e-05
1.360000e+01 9.388090e-05 -2.835552e-10 6.552538e-05 -3.394531e-05
1.360400e+01 9.996949e-05 -3.419383e-10 6.577567e-05 -1.250763e-05
1.360800e+01 1.011157e-04 -3.108255e-10 7.003317e-05 2.165510e-05
1.361200e+01 5.746342e-05 8.364796e-12 5.829990e-05 3.371498e-05
1.361600e+01 7.277020e-05 1.203624e-10 8.480644e-05 4.538329e-05
1.362000e+01 6.575462e-05 2.574218e-10 9.149680e-05 4.550396e-05
1.362400e+01 2.432272e-05 3.765962e-10 6.198234e-05 1.548675e-05
1.362800e+01 6.189138e-06 2.808920e-10 3.427834e-05 -3.501786e-05
1.363200e+01 6.371807e-05 -3.024534e-11 6.069353e-05 -1.763478e-05
1.363600e+01 4.508312e-05 1.699957e-10 6.208269e-05 1.239844e-06
1.364000e+01 5.293812e-05 1.635349e-10 6.929161e-05 3.695817e-05
1.364400e+01 1.974722e-05 3.388729e-10 5.363452e-05 2.605885e-05
1.364800e+01 6.441123e-06 3.041149e-10 3.685261e-05 -3.172343e-06
1.365200e+01 2.566996e-05 -5.558850e-11 2.011111e-05 -2.899603e-05
1.365600e+01 4.691365e-05 -3.627125e-10 1.064240e-05 -4.276431e-05
1.366000e+01 5.335703e-05 -3.108879e-10 2.226824e-05 -3.801549e-05
1.366400e+01 5.718756e-05 -1.089550e-10 4.629207e-05 -1.906639e-06
1.366800e+01 3.942199e-05 7.821446e-11 4.724344e-05 7.252193e-06
1.367200e+01 4.925865e-05 -5.005956e-11 4.425269e-05 1.040477e-05
1.367600e+01 5.966826e-05 -4.713757e-11 5.495450e-05 5.505218e-06
1.368000e+01 4.183410e-06 1.079388e-10 1.497728e-05 -2.300140e-05
1.368400e+01 3.784353e-05 -6.175146e-11 3.166838e-05 -2.656210e-05
1.368800e+01 7.871723e-05 -1.593646e-10 6.278077e-05 5.874741e-06
1.369200e+01 5.341812e-05 7.668229e-11 6.108635e-05 1.131257e-05
1.369600e+01 1.663836e-05 1.745088e-10 3.408925e-05 -1.998264e-05
1.370000e+01 5.611321e-05 -2.300102e-10 3.311219e-05 -4.561778e-06
1.370400e+01 8.993491e-05 -2.827606e-10 6.165885e-05 4.566241e-05
1.370800e+01 6.996516e-05 1.538782e-10 8.535299e-05 6.058179e-05
1.371200e+01 4.809496e-05 2.983142e-10 7.792639e-05 3.280586e-05
1.371600e+01 3.898832e-05 -5.369497e-12 3.845137e-05 -1.317864e-05
1.372000e+01 4.654216e-05 -2.612386e-10 2.041829e-05 -2.081081e-05
1.372400e+01 4.850575e-05 -6.912631e-11 4.159312e-05 1.754710e-05
1.372800e+01 4.639963e-05 2.851405e-10 7.491368e-05 5.402958e-05
1.373200e+01 5.770580e-05 3.166627e-10 8.937208e-05 5.972712e-05
1.373600e+01 4.256271e-05 2.163130e-10 6.419401e-05 1.628749e-05
1.374000e+01 2.699156e-05 6.863687e-11 3.385525e-05 -2.100301e-05
1.374400e+01 1.000747e-06 8.662531e-11 9.663278e-06 -2.369863e-05
1.374800e+01 5.606392e-06 1.350384e-10 1.911023e-05 -3.335181e-05
1.375200e+01 3.943211e-06 -9.559449e-11 -5.616238e-06 -7.636558e-05
1.375600e+01 5.997839e-05 -4.772881e-10 1.224958e-05 -3.947607e-05
1.376000e+01 3.099538e-05 -7.980957e-11 2.301442e-05 1.292920e-05
1.376400e+01 1.237559e-05 2.289107e-10 3.526666e-05 4.818879e-05
1.376800e+01 3.711539e-06 1.798057e-10 2.169211e-05 1.173320e-05
1.377200e+01 6.238552e-05 -2.737717e-10 3.500835e-05 -3.182134e-05
1.377600e+01 8.124547e-05 -4.904938e-10 3.219609e-05 -4.272050e-05
1.378000e+01 7.188817e-05 -3.331588e-10 3.857229e-05 -1.746569e-05
1.378400e+01 6.136467e-05 -1.561800e-10 4.574667e-05 -1.925155e-06
1.378800e+01 5.889584e-05 -1.953861e-10 3.935723e-05 2.186566e-05
1.379200e+01 2.291985e-05 6.354297e-11 2.927415e-05 2.834599e-05
1.379600e+01 -8.715408e-06 2.983619e-10 2.112078e-05 1.060045e-05
1.380000e+01 -1.483663e-05 1.584934e-10 1.012718e-06 -9.743989e-06
1.380400e+01 -3.121728e-06 -2.249309e-11 -5.371038e-06 -1.156861e-05
1.380800e+01 2.554491e-05 1.618891e-11 2.716380e-05 3.238148e-05
1.381200e+01 -2.800965e-05 4.152279e-10 1.351314e-05 5.242238e-05
1.381600e+01 -6.915180e-05 4.008463e-10 -2.906717e-05 4.633926e-05
1.382000e+01 -7.731744e-05 1.500067e-10 -6.231677e-05 -9.176538e-07
1.382400e+01 -8.040755e-05 -1.542766e-10 -9.583521e-05 -3.957332e-05
1.382800e+01 -4.045887e-05 -2.179454e-10 -6.225341e-05 -1.389911e-05
1.383200e+01 -3.403281e-05 1.793074e-10 -1.610207e-05 1.613851e-05
1.383600e+01 -6.325645e-05 3.272444e-10 -3.053201e-05 -1.493044e-05
1.384000e+01 -1.204031e-05 -1.790624e-10 -2.994655e-05 -3.711980e-05
1.384400e+01 2.727988e-05 -3.353288e-10 -6.253003e-06 -1.303252e-05
1.384800e+01 -1.469941e-05 -5.485257e-12 -1.524793e-05 -1.532798e-05
1.385200e+01 6.121205e-06 -2.609493e-10 -1.997372e-05 -3.294725e-05
1.385600e+01 2.808794e-05 -5.532946e-10 -2.724152e-05 -4.087779e-05
1.386000e+01 3.257784e-05 -4.392038e-10 -1.134253e-05 -9.392497e-07
1.386400e+01 3.315748e-07 3.772042e-11 4.103617e-06 2.565011e-05
1.386800e+01 -4.107554e-05 1.498670e-10 -2.608883e-05 -5.844235e-06
1.387200e+01 3.743826e-06 -2.160165e-10 -1.785782e-05 -1.010601e-05
1.387600e+01 4.337644e-05 -4.631828e-11 3.874461e-05 3.810985e-05
1.388000e+01 3.618826e-06 5.841672e-10 6.203555e-05 5.570557e-05
1.388400e+01 3.026286e-05 4.874485e-10 7.900770e-05 3.767979e-05
1.388800e+01 8.969757e-05 8.852081e-11 9.854965e-05 -3.079869e-06
1.389200e+01 7.774271e-05 -2.606388e-11 7.513633e-05 -3.770326e-05
1.389600e+01 7.048325e-05 -3.214173e-11 6.726907e-05 -4.349719e-05
1.390000e+01 9.097472e-05 -9.278897e-11 8.169583e-05 -2.703741e-05
1.390400e+01 9.677671e-05 -1.412716e-10 8.264955e-05 1.547778e-05
1.390800e+01 4.594426e-05 1.376887e-10 5.971313e-05 3.761426e-05
1.391200e+01 2.748583e-05 2.785393e-10 5.533975e-05 5.207194e-05
1.391600e+01 5.213955e-05 2.867687e-10 8.081643e-05 3.324416e-05
1.392000e+01 8.681130e-05 4.889532e-11 9.170083e-05 9.932063e-06
1.392400e+01 4.976593e-05 -5.511274e-11 4.425466e-05 -2.430759e-05
1.392800e+01 1.473322e-05 -1.778543e-10 -3.052206e-06 -6.576061e-05
1.393200e+01 5.792400e-05 -3.895945e-10 1.896454e-05 -5.150265e-05
1.393600e+01 8.499773e-05 -1.619146e-10 6.880627e-05 -1.099918e-05
1.394000e+01 6.043199e-05 1.683132e-10 7.726331e-05 3.137228e-05
1.394400e+01 4.102181e-05 2.650425e-10 6.752605e-05 3.703903e-05
1.394800e+01 -8.109298e-06 8.605732e-11 4.964345e-07 -4.824568e-07
1.395200e+01 -2.723999e-05 -1.857393e-10 -4.581392e-05 -2.300296e-05
1.395600e+01 -6.378005e-05 -1.373232e-10 -7.751238e-05 -2.938776e-05
1.396000e+01 -5.021988e-05 -1.230334e-11 -5.145021e-05 -3.982482e-06
1.396400e+01 -9.276681e-05 7.624311e-11 -8.514250e-05 -2.456543e-06
1.396800e+01 -2.056448e-04 -1.141654e-10 -2.170614e-04 -4.135000e-06
1.397200e+01 -3.611166e-04 -8.399906e-11 -3.695165e-04 -4.183958e-06
1.397600e+01 -5.000674e-04 1.542320e-10 -4.846442e-04 -7.780572e-06
1.398000e+01 -4.300539e-04 5.919532e-11 -4.241343e-04 -3.326511e-06
1.398400e+01 -1.298061e-04 -1.525286e-10 -1.450590e-04 -1.826409e-05
1.398800e+01 1.909929e-04 -3.211497e-10 1.588779e-04 1.866766e-05
1.399200e+01 2.988521e-04 2.386821e-10 3.227203e-04 3.627794e-05
1.399600e+01 3.713901e-04 4.920454e-10 4.205946e-04 2.395323e-05
1.400000e+01 4.151606e-04 2.559672e-10 4.407573e-04 -8.430985e-06
1.400400e+01 3.605985e-04 -1.836481e-11 3.587620e-04 -3.262189e-05
1.400800e+01 3.231455e-04 -5.929356e-11 3.172162e-04 -1.906808e-05
1.401200e+01 2.731428e-04 1.765893e-10 2.908017e-04 -3.227130e-06
1.401600e+01 2.180221e-04 1.656788e-10 2.345900e-04 1.133625e-06
1.402000e+01 1.469584e-04 -2.796800e-11 1.441616e-04 -1.558844e-05
1.402400e+01 4.102103e-05 -1.984862e-10 2.117241e-05 -3.035789e-05
1.402800e+01 -1.567359e-05 -2.898621e-10 -4.465980e-05 -2.864103e-05
1.403200e+01 4.176486e-05 -3.345712e-10 8.307739e-06 1.318567e-06
1.403600e+01 9.582790e-05 -9.512752e-11 8.631515e-05 5.565707e-05
1.404000e+01 3.358335e-05 4.179189e-10 7.537523e-05 6.657379e-05
1.404400e+01 -4.807267e-05 3.889710e-10 -9.175564e-06 4.599561e-05
1.404800e+01 -6.961796e-05 7.944710e-11 -6.167325e-05 -1.120707e-06
1.405200e+01 -2.783200e-06 -1.860907e-10 -2.139227e-05 -1.743572e-05
1.405600e+01 -3.099162e-07 -3.249068e-11 -3.558984e-06 -2.642590e-05
1.406000e+01 -1.927807e-05 9.858587e-12 -1.829221e-05 -1.738081e-05
1.406400e+01 -4.713915e-05 -4.808479e-11 -5.194763e-05 7.663507e-06
1.406800e+01 -7.698434e-05 7.865999e-11 -6.911834e-05 1.690457e-05
1.407200e+01 -6.274845e-05 1.247911e-10 -5.026934e-05 7.302171e-06
1.407600e+01 -2.990660e-05 1.646535e-12 -2.974194e-05 -1.567976e-05
1.408000e+01 -2.712770e-05 -1.837327e-10 -4.550097e-05 -2.279951e-05
1.408400e+01 -4.548427e-05 -1.455837e-10 -6.004264e-05 2.346665e-05
1.408800e+01 -9.635814e-05 3.003916e-10 -6.631897e-05 4.324254e-05
1.409200e+01 -9.232318e-05 3.190014e-10 -6.042304e-05 2.106664e-05
1.409600e+01 -6.900315e-06 -5.665641e-11 -1.256596e-05 2.166961e-05
1.410000e+01 -2.347153e-05 1.166107e-10 -1.181046e-05 -1.270646e-05
1.410400e+01 -4.833940e-05 -1.044577e-12 -4.844386e-05 -4.055775e-05
1.410800e+01 -2.838674e-05 -2.646599e-10 -5.485273e-05 -2.027760e-05
1.411200e+01 -1.191984e-05 -7.479678e-11 -1.939951e-05 -3.567201e-06
1.411600e+01 -3.572612e-05 7.433579e-11 -2.829254e-05 8.169543e-06
1.412000e+01 -6.507483e-05 1.163031e-10 -5.344452e-05 -2.718479e-06
1.412400e+01 -4.709003e-05 -5.927995e-11 -5.301803e-05 -1.783274e-05
1.412800e+01 -1.841435e-05 -2.314299e-10 -4.155734e-05 -6.259225e-06
1.413200e+01 -2.168380e-05 -3.751919e-11 -2.543572e-05 1.035127e-05
1.413600e+01 -2.320888e-05 1.192660e-10 -1.128228e-05 4.050004e-05
1.414000e+01 -4.913693e-05 2.287796e-10 -2.625896e-05 3.527378e-05
1.414400e+01 -8.861174e-05 1.391778e-10 -7.469396e-05 -1.021416e-05
1.414800e+01 -8.111227e-05 -1.227899e-10 -9.339126e-05 -1.992977e-05
1.415200e+01 -9.319729e-05 2.430290e-11 -9.076700e-05 -1.406323e-05
1.415600e+01 -7.092700e-05 2.001019e-11 -6.892598e-05 1.663360e-06
1.416000e+01 -6.306564e-05 -7.299456e-11 -7.036509e-05 -5.188660e-07
1.416400e+01 -8.393403e-05 -6.966136e-11 -9.090017e-05 -2.213278e-05
1.416800e+01 -6.669528e-05 -1.337679e-10 -8.007207e-05 -2.169673e-05
1.417200e+01 -6.505469e-05 -1.676532e-10 -8.182001e-05 -7.542469e-06
1.417600e+01 -8.120946e-05 -1.997272e-10 -1.011822e-04 2.109003e-05
1.418000e+01 -1.072237e-04 -1.000493e-10 -1.172286e-04 1.347428e-05
1.418400e+01 -9.761861e-05 -1.364070e-10 -1.112593e-04 -1.252875e-05
1.418800e+01 -7.975680e-05 -2.299744e-10 -1.027542e-04 -4.302668e-05
1.419200e+01 -9.209384e-05 -3.616787e-10 -1.282617e-04 -5.659870e-05
1.419600e+01 -1.097995e-04 -3.986471e-10 -1.496642e-04 -2.198419e-05
1.420000e+01 -1.328107e-04 -5.656081e-11 -1.384668e-04 3.001544e-05
1.420400e+01 -1.542310e-04 3.218781e-10 -1.220432e-04 5.215650e-05
1.420800e+01 -1.678046e-04 3.140409e-10 -1.364005e-04 3.206035e-05
1.421200e+01 -1.400299e-04 4.754095e-11 -1.352758e-04 2.027774e-05
1.421600e+01 -1.607529e-04 5.816272e-12 -1.601713e-04 9.912562e-07
1.422000e+01 -1.655325e-04 -1.219764e-10 -1.777302e-04 -8.155891e-07
1.422400e+01 -1.625911e-04 -6.874821e-11 -1.694660e-04 7.197409e-07
1.422800e+01 -1.605754e-04 1.475252e-10 -1.458229e-04 2.011921e-05
1.423200e+01 -2.333684e-04 3.986200e-10 -1.935064e-04 -1.303372e-06
1.423600e+01 -2.340327e-04 6.931495e-11 -2.271012e-04 -2.623036e-05
1.424000e+01 -2.224447e-04 -2.238718e-10 -2.448318e-04 -4.108233e-05
1.424400e+01 -1.983103e-04 -2.360678e-10 -2.219170e-04 -2.256153e-05
1.424800e+01 -1.840053e-04 -9.571994e-11 -1.935773e-04 -3.805986e-06
1.425200e+01 -1.769558e-04 -1.026064e-10 -1.872164e-04 3.325968e-06
1.425600e+01 -1.264802e-04 -1.802894e-10 -1.445092e-04 3.556985e-05
1.426000e+01 -1.410387e-04 1.319544e-10 -1.278433e-04 3.901306e-05
1.426400e+01 -2.073824e-04 2.203113e-10 -1.853513e-04 -2.819329e-05
1.426800e+01 -1.442028e-04 -4.276218e-10 -1.869650e-04 -4.404153e-05
1.427200e+01 -8.730114e-05 -4.935302e-10 -1.366542e-04 8.083784e-06
1.427600e+01 -1.174379e-04 1.609312e-10 -1.013447e-04 2.990238e-05
1.428000e+01 -1.043573e-04 2.375391e-10 -8.060342e-05 3.131545e-05
1.428400e+01 -3.002638e-05 7.877547e-12 -2.923863e-05 5.221292e-05
1.428800e+01 -5.931072e-05 2.513755e-10 -3.417318e-05 1.817075e-05
1.429200e+01 -5.311486e-05 1.210909e-10 -4.100577e-05 2.793549e-06
1.429600e+01 -5.081092e-05 7.668445e-11 -4.314247e-05 -2.394763e-05
1.430000e+01 -1.545495e-06 -1.568113e-10 -1.722663e-05 -1.455730e-05
1.430400e+01 1.695933e-05 -1.065204e-10 6.307287e-06 2.397029e-06
1.430800e+01 -2.121927e-05 1.788720e-10 -3.332078e-06 -3.307334e-05
1.431200e+01 4.147901e-05 -9.728026e-11 3.175099e-05 -3.133970e-05
1.431600e+01 5.324434e-05 -1.402153e-10 3.922281e-05 -7.435543e-06
1.432000e+01 6.107228e-05 2.347692e-11 6.341997e-05 -1.757056e-06
1.432400e+01 9.078471e-05 -2.914197e-11 8.787052e-05 -4.632948e-06
1.432800e+01 9.882397e-05 -1.173854e-10 8.708543e-05 2.725005e-05
1.433200e+01 4.078853e-05 1.239437e-10 5.318290e-05 3.576185e-05
1.433600e+01 4.177837e-05 9.229973e-11 5.100835e-05 2.705381e-05
1.434000e+01 6.641954e-05 -3.172925e-11 6.324662e-05 2.907788e-05
1.434400e+01 5.822909e-05 2.254562e-10 8.077471e-05 -1.122211e-05
1.434800e+01 5.711253e-05 1.284863e-10 6.996116e-05 -6.834036e-05
1.435200e+01 1.067243e-04 -2.805951e-10 7.866477e-05 -4.529874e-05
1.435600e+01 9.288328e-05 -1.686483e-11 9.119679e-05 -2.848732e-06
1.436000e+01 4.581052e-05 2.940940e-10 7.521993e-05 -5.537689e-06
1.436400e+01 9.620053e-05 5.624715e-11 1.018252e-04 2.556010e-05
1.436800e+01 1.136342e-04 1.818577e-10 1.318199e-04 5.936322e-05
1.437200e+01 1.905580e-05 4.519383e-10 6.424964e-05 6.637766e-06
1.437600e+01 6.080191e-05 -1.824456e-10 4.255736e-05 -3.050690e-05
1.438000e+01 1.178720e-04 -5.390804e-10 6.396401e-05 -1.551053e-05
1.438400e+01 8.521393e-05 -9.887022e-11 7.532691e-05 1.175832e-05
1.438800e+01 6.537528e-05 1.866569e-10 8.404096e-05 2.748757e-05
1.439200e+01 2.546904e-05 1.917822e-10 4.464727e-05 1.614410e-06
1.439600e+01 2.081709e-05 5.527749e-12 2.136987e-05 -2.145769e-05
1.440000e+01 2.094388e-05 -1.942201e-11 1.900168e-05 -3.772249e-05
1.440400e+01 2.022485e-05 -1.223628e-11 1.900122e-05 -2.650510e-05
1.440800e+01 1.239480e-05 5.779120e-11 1.817392e-05 9.421460e-06
1.441200e+01 7.204762e-06 2.455540e-10 3.176017e-05 3.677414e-05
1.441600e+01 -1.469952e-05 3.727023e-10 2.257070e-05 6.577960e-06
1.442000e+01 2.607716e-05 1.336350e-11 2.741351e-05 -1.114243e-05
1.442400e+01 6.422242e-05 -1.546102e-10 4.876140e-05 1.952219e-05
1.442800e+01 3.487910e-05 2.094802e-10 5.582711e-05 4.732878e-05
1.443200e+01 1.149056e-05 4.353896e-10 5.502952e-05 2.280377e-05
1.443600e+01 2.922543e-05 8.781170e-11 3.800660e-05 -2.762157e-05
1.444000e+01 5.419446e-05 -3.056165e-10 2.363281e-05 -3.906880e-05
1.444400e+01 5.542643e-05 -1.379365e-10 4.163278e-05 -2.554954e-05
1.444800e+01 7.065331e-05 -7.233543e-12 6.992996e-05 5.045486e-06
1.445200e+01 6.509245e-05 -1.980011e-11 6.311244e-05 4.072589e-05
1.445600e+01 1.376487e-05 1.877655e-10 3.254142e-05 2.911334e-05
1.446000e+01 -1.989685e-05 1.391581e-10 -5.981042e-06 -3.579904e-05
1.446400e+01 6.151275e-05 -3.873531e-10 2.277744e-05 -2.024441e-05
1.446800e+01 5.499043e-05 -8.926758e-11 4.606367e-05 1.427354e-05
1.447200e+01 -1.789994e-05 2.492914e-10 7.029201e-06 5.150112e-06
1.447600e+01 4.479812e-07 -6.233003e-11 -5.785022e-06 -5.205817e-06
1.448000e+01 5.235994e-05 -1.992709e-10 3.243285e-05 2.343737e-05
1.448400e+01 2.445135e-05 1.900252e-10 4.345387e-05 2.564307e-05
1.448800e+01 9.832373e-06 1.892735e-10 2.875972e-05 1.820706e-05
1.449200e+01 2.370706e-05 2.490034e-11 2.619709e-05 2.540799e-05
1.449600e+01 1.389929e-05 2.112331e-10 3.502259e-05 2.349688e-05
1.450000e+01 2.560190e-05 3.461815e-10 6.022005e-05 2.891384e-05
1.450400e+01 2.976429e-05 3.886952e-10 6.863381e-05 1.467729e-05
1.450800e+01 3.629940e-05 1.288057e-10 4.917997e-05 -1.377951e-05
1.451200e+01 1.051920e-04 -2.794574e-10 7.724621e-05 1.169199e-05
1.451600e+01 6.172659e-05 -9.207783e-12 6.080581e-05 6.958489e-06
1.452000e+01 3.754573e-05 3.380665e-11 4.092640e-05 -2.732721e-05
1.452400e+01 6.865834e-05 -3.170339e-10 3.695495e-05 -4.996017e-05
1.452800e+01 4.408739e-05 -3.483203e-10 9.255359e-06 -5.336937e-05
1.453200e+01 1.776734e-05 -1.988254e-10 -2.115204e-06 -3.102970e-05
1.453600e+01 3.548117e-05 -1.573105e-10 1.975012e-05 4.383142e-06
1.454000e+01 6.980861e-05 -4.821032e-11 6.498757e-05 3.220382e-05
1.454400e+01 5.941055e-05 1.664938e-10 7.605994e-05 4.029400e-05
1.454800e+01 3.329914e-05 2.774133e-10 6.104047e-05 2.065316e-05
1.455200e+01 2.873237e-05 9.092164e-11 3.782453e-05 -6.931792e-07
1.455600e+01 6.433741e-05 -7.325084e-11 5.701232e-05 -7.747616e-07
1.456000e+01 3.352694e-05 4.917793e-11 3.844473e-05 -9.127203e-06
1.456400e+01 2.661751e-05 4.066969e-11 3.068448e-05 -4.965992e-05
1.456800e+01 1.172494e-04 -3.015785e-10 8.709150e-05 -4.102114e-05
1.457200e+01 1.143388e-04 -1.613122e-10 9.820755e-05 -3.016267e-06
1.457600e+01 5.200606e-05 1.600294e-10 6.800900e-05 3.549663e-06
1.458000e+01 6.660470e-05 2.553315e-11 6.915801e-05 8.306003e-06
1.458400e+01 5.546761e-05 -4.451995e-11 5.101562e-05 6.247205e-06
1.458800e+01 4.280301e-05 -2.209806e-12 4.258203e-05 -2.346716e-05
1.459200e+01 7.376806e-05 -1.978532e-10 5.398274e-05 -5.014401e-05
1.459600e+01 1.103826e-04 -4.215916e-10 6.822345e-05 -4.621807e-05
1.460000e+01 1.424141e-04 -3.817181e-10 1.042423e-04 8.011638e-06
1.460400e+01 1.188965e-04 9.094562e-11 1.279911e-04 7.708155e-05
1.460800e+01 5.891716e-05 5.847337e-10 1.173905e-04 9.974132e-05
1.461200e+01 3.214282e-06 5.957949e-10 6.279377e-05 1.273950e-05
1.461600e+01 3.237861e-05 -9.749156e-11 2.262946e-05 -8.471184e-05
1.462000e+01 7.997368e-05 -5.179197e-10 2.818170e-05 -9.843420e-05
1.462400e+01 6.815913e-05 -3.004533e-10 3.811380e-05 -6.855722e-05
1.462800e+01 6.864402e-05 -1.881081e-10 4.983320e-05 -4.307373e-05
1.463200e+01 9.907094e-05 -2.852204e-10 7.054891e-05 -7.409622e-07
1.463600e+01 5.531684e-05 1.044458e-11 5.636130e-05 1.540954e-05
1.464000e+01 3.242109e-05 1.021288e-10 4.263398e-05 3.642183e-06
1.464400e+01 5.898806e-05 -2.478869e-10 3.419937e-05 -1.023221e-05
1.464800e+01 1.140463e-04 -4.791584e-10 6.613046e-05 9.113945e-06
1.465200e+01 1.283317e-04 -1.386976e-10 1.144620e-04 3.905821e-05
1.465600e+01 6.452935e-05 2.688059e-10 9.140994e-05 4.183433e-05
1.466000e+01 5.528643e-05 2.139424e-10 7.668067e-05 3.780588e-05
1.466400e+01 4.259165e-05 1.223437e-10 5.482602e-05 3.837103e-06
1.466800e+01 4.732688e-05 -6.303004e-11 4.102387e-05 -2.807021e-05
1.467200e+01 8.137181e-05 -2.295645e-10 5.841536e-05 -1.225036e-05
1.467600e+01 8.661382e-05 -2.252013e-11 8.436181e-05 3.802287e-05
1.468000e+01 7.831433e-05 4.155206e-10 1.198664e-04 9.531160e-05
1.468400e+01 -5.071558e-06 7.826979e-10 7.319823e-05 2.166362e-05
1.468800e+01 1.865606e-05 5.850515e-12 1.924111e-05 -7.433360e-05
1.469200e+01 1.215313e-04 -8.066802e-10 4.086325e-05 -8.550037e-05
1.469600e+01 1.006529e-04 -5.572626e-10 4.492661e-05 -5.708015e-05
1.470000e+01 3.855716e-05 -9.849267e-11 2.870790e-05 -7.570256e-05
1.470400e+01 8.630571e-05 -4.729878e-10 3.900692e-05 -4.518981e-05
1.470800e+01 1.485686e-04 -4.659031e-10 1.019783e-04 5.459434e-05
1.471200e+01 1.034731e-04 3.189391e-10 1.353670e-04 9.617103e-05
1.471600e+01 5.822154e-05 4.836660e-10 1.065881e-04 6.506051e-05
1.472000e+01 2.398831e-05 9.640956e-11 3.362927e-05 -2.169162e-05
1.472400e+01 4.544537e-05 -4.231514e-10 3.130232e-06 -5.671479e-05
1.472800e+01 5.464350e-05 -3.785527e-10 1.678824e-05 -1.984636e-05
1.473200e+01 1.802919e-05 1.446220e-10 3.249140e-05 -4.410146e-06
1.473600e+01 4.800407e-05 1.538436e-10 6.338843e-05 1.262650e-05
1.474000e+01 6.101990e-05 1.554159e-10 7.656150e-05 1.338328e-05
1.474400e+01 6.562198e-05 1.841414e-10 8.403612e-05 2.860203e-05
1.474800e+01 3.765789e-05 3.422981e-10 7.188770e-05 3.188794e-05
1.475200e+01 2.381427e-05 2.768644e-10 5.150071e-05 1.592543e-05
1.475600e+01 3.387519e-05 5.004725e-11 3.887992e-05 -2.200803e-06
1.476000e+01 2.845481e-05 2.241046e-11 3.069585e-05 -5.445504e-06
1.476400e+01 4.488336e-05 1.695711e-10 6.184047e-05 1.530112e-05
1.476800e+01 4.603419e-05 2.829847e-10 7.433266e-05 4.000866e-05
1.477200e+01 4.722235e-05 2.808904e-10 7.531139e-05 3.878492e-05
1.477600e+01 7.269249e-05 1.281705e-10 8.550954e-05 1.418045e-06
1.478000e+01 4.384606e-05 -1.446598e-10 2.938008e-05 -3.339714e-05
1.478400e+01 4.761374e-05 -2.804694e-10 1.956680e-05 6.394666e-06
1.478800e+01 1.707548e-05 1.576559e-10 3.284106e-05 2.241307e-05
1.479200e+01 -2.693365e-05 2.255239e-10 -4.381260e-06 -5.616548e-05
1.479600e+01 8.274089e-05 -5.272687e-10 3.001402e-05 -5.606285e-05
1.480000e+01 1.094179e-04 -3.660198e-10 7.281589e-05 -1.071193e-05
1.480400e+01 6.849504e-05 1.321661e-10 8.171165e-05 9.428355e-07
1.480800e+01 3.422708e-05 -2.861596e-12 3.394092e-05 -2.585894e-05
1.481200e+01 6.906371e-05 -4.084358e-10 2.822013e-05 7.264030e-06
1.481600e+01 3.080397e-05 5.164498e-11 3.596846e-05 5.728240e-05
1.482000e+01 -4.350920e-05 6.316223e-10 1.965303e-05 6.693514e-05
1.482400e+01 -8.132438e-05 5.392867e-10 -2.739570e-05 6.493376e-06
1.482800e+01 -1.885945e-05 -1.541317e-10 -3.427263e-05 -4.861279e-05
1.483200e+01 3.181010e-05 -4.238002e-10 -1.056992e-05 -7.172846e-05
1.483600e+01 2.758891e-05 -2.803678e-10 -4.478680e-07 -5.262345e-05
1.484000e+01 3.261946e-05 -1.517484e-10 1.744462e-05 9.367624e-06
1.484400e+01 6.275811e-06 1.049609e-10 1.677190e-05 3.850059e-05
1.484800e+01 -5.767053e-05 1.901817e-10 -3.865236e-05 6.487250e-06
1.485200e+01 -4.280274e-05 -1.927519e-10 -6.207793e-05 -7.356355e-07
1.485600e+01 -1.357381e-06 -3.130794e-10 -3.266532e-05 1.955498e-05
1.486000e+01 -2.176923e-06 -1.087860e-10 -1.305552e-05 3.337763e-05
1.486400e+01 -3.072933e-05 3.860225e-11 -2.686910e-05 3.694706e-05
1.486800e+01 -5.900785e-05 1.631958e-10 -4.268827e-05 5.176716e-05
1.487200e+01 -1.014720e-04 3.982126e-10 -6.165070e-05 5.227737e-05
1.487600e+01 -1.338841e-04 4.962966e-10 -8.425448e-05 3.107431e-05
1.488000e+01 -1.353399e-04 3.334687e-10 -1.019931e-04 -2.257901e-05
1.488400e+01 -4.739602e-05 -1.068605e-10 -5.808207e-05 -3.165903e-05
1.488800e+01 -2.922929e-05 -4.108698e-11 -3.333799e-05 -1.974529e-05
1.489200e+01 -3.956325e-05 1.795849e-10 -2.160476e-05 -1.546079e-05
1.489600e+01 -2.777971e-05 7.847223e-11 -1.993249e-05 -1.518300e-05
1.490000e+01 1.629097e-06 -1.822304e-10 -1.659394e-05 -7.145633e-07
1.490400e+01 2.079753e-05 -2.161537e-10 -8.178443e-07 1.194167e-05
1.490800e+01 3.590688e-05 -9.020159e-11 2.688672e-05 3.488360e-05
1.491200e+01 1.993263e-07 9.667447e-11 9.866773e-06 1.102134e-05
1.491600e+01 2.234519e-05 -1.637754e-10 5.967656e-06 -2.448081e-05
1.492000e+01 7.987440e-05 -3.436811e-10 4.550629e-05 -4.295263e-06
1.492400e+01 3.848290e-05 1.121999e-10 4.970290e-05 8.437934e-06
1.492800e+01 1.164873e-05 2.132224e-10 3.297097e-05 -1.146124e-05
1.493200e+01 5.832940e-05 -9.540967e-11 4.878843e-05 -6.244748e-07
1.493600e+01 3.224050e-05 1.019800e-10 4.243851e-05 -8.853194e-07
1.494000e+01 6.173073e-05 1.045027e-10 7.218099e-05 3.083308e-05
1.494400e+01 2.419328e-05 2.125742e-10 4.545070e-05 2.218782e-06
1.494800e+01 1.410342e-05 -1.144284e-10 2.660580e-06 -5.979911e-05
1.495200e+01 6.987975e-05 -5.380544e-10 1.607430e-05 -4.955518e-05
1.495600e+01 6.431127e-05 -1.390767e-10 5.040360e-05 1.061602e-05
1.496000e+01 -2.380560e-06 3.811682e-10 3.573626e-05 3.737812e-05
1.496400e+01 1.642633e-05 2.564693e-10 4.207326e-05 3.787605e-05
1.496800e+01 3.850930e-05 1.177969e-10 5.028899e-05 3.124246e-05
1.497200e+01 3.704356e-05 2.037022e-10 5.741378e-05 1.557672e-05
1.497600e+01 3.361474e-05 1.323704e-10 4.685178e-05 -4.404766e-06
1.498000e+01 1.358681e-05 -3.187413e-11 1.039940e-05 -2.152626e-05
1.498400e+01 4.679000e-06 -9.395474e-11 -4.716474e-06 -8.933515e-06
1.498800e+01 -1.066445e-05 1.037031e-10 -2.941402e-07 6.202803e-06
1.499200e+01 -4.815781e-05 1.563193e-10 -3.252588e-05 3.077647e-05
1.499600e+01 -7.387173e-05 2.140664e-10 -5.246509e-05 4.798374e-05
1.500000e+01 -9.081220e-05 3.975735e-10 -5.105485e-05 3.240058e-05
1.500400e+01 -1.455432e-04 3.323795e-10 -1.123053e-04 -1.582145e-05
1.500800e+01 -2.570721e-04 -1.105097e-10 -2.681231e-04 -8.150839e-05
1.501200e+01 -3.484393e-04 -6.429402e-10 -4.127333e-04 -7.582752e-05
1.501600e+01 -4.307603e-04 -4.637655e-10 -4.771368e-04 -4.647272e-05
1.502000e+01 -2.791895e-04 -2.630263e-10 -3.054921e-04 -4.976710e-06
1.502400e+01 5.619546e-07 -2.255029e-10 -2.198833e-05 2.087006e-05
1.502800e+01 1.973602e-04 -1.640701e-10 1.809532e-04 3.143711e-05
1.503200e+01 2.751407e-04 5.750623e-11 2.808913e-04 3.395910e-05
1.503600e+01 3.169531e-04 2.228669e-10 3.392397e-04 1.357733e-05
1.504000e+01 3.595511e-04 -6.334947e-13 3.594877e-04 9.768627e-06
1.504400e+01 3.248495e-04 6.672308e-12 3.255167e-04 2.084506e-05
1.504800e+01 2.576806e-04 2.933098e-10 2.870116e-04 1.774196e-05
1.505200e+01 2.616050e-04 3.419069e-10 2.957957e-04 2.962821e-05
1.505600e+01 2.282279e-04 3.875667e-10 2.669846e-04 4.573706e-05
1.506000e+01 5.187770e-05 4.888698e-10 1.007647e-04 -9.313236e-06
1.506400e+01 -2.089120e-05 1.267872e-12 -2.076442e-05 -6.000944e-05
1.506800e+01 4.898897e-05 -3.586815e-10 1.312082e-05 -3.095611e-05
1.507200e+01 1.350787e-05 9.959881e-11 2.346775e-05 -2.605082e-05
1.507600e+01 1.615586e-06 8.658840e-11 1.027443e-05 -3.165792e-05
1.508000e+01 1.226268e-05 -2.756405e-10 -1.530138e-05 -1.680769e-05
1.508400e+01 -1.072016e-05 -2.701389e-10 -3.773404e-05 2.539443e-05
1.508800e+01 -9.082660e-05 1.982578e-10 -7.100082e-05 1.766103e-05
1.509200e+01 -6.602740e-05 1.472866e-10 -5.129874e-05 -2.326556e-05
1.509600e+01 2.240186e-05 -3.270942e-10 -1.030756e-05 -2.515320e-05
1.510000e+01 -5.711364e-06 -2.397636e-10 -2.968772e-05 6.699190e-07
1.510400e+01 -9.801028e-05 1.808833e-10 -7.992195e-05 1.738696e-05
1.510800e+01 -1.052664e-04 2.818146e-10 -7.708492e-05 -3.715581e-06
1.511200e+01 -4.172731e-05 -3.029069e-11 -4.475638e-05 -3.869745e-05
1.511600e+01 1.710826e-05 -3.932608e-10 -2.221782e-05 -3.012059e-05
1.512000e+01 -4.472907e-05 -2.221902e-10 -6.694809e-05 -2.592715e-05
1.512400e+01 -6.504005e-05 -1.227586e-10 -7.731591e-05 2.976225e-06
1.512800e+01 -8.317870e-05 7.458936e-11 -7.571976e-05 3.285611e-06
1.513200e+01 -6.532226e-05 9.387218e-11 -5.593504e-05 1.312829e-05
1.513600e+01 -5.357186e-05 2.720580e-10 -2.636606e-05 4.919559e-05
1.514000e+01 -1.222908e-04 5.976891e-10 -6.252185e-05 2.413209e-05
1.514400e+01 -1.188118e-04 1.327599e-10 -1.055358e-04 -2.439033e-05
1.514800e+01 -4.372987e-05 -3.911020e-10 -8.284007e-05 1.316800e-05
1.515200e+01 -9.382694e-05 1.970045e-10 -7.412650e-05 -2.622315e-07
1.515600e+01 -7.661306e-05 1.523984e-10 -6.137322e-05 -3.396859e-05
1.516000e+01 -2.156676e-05 -2.826069e-10 -4.982744e-05 -1.836893e-05
1.516400e+01 -4.881066e-05 2.276849e-11 -4.653381e-05 1.658881e-05
1.516800e+01 -1.063070e-04 4.708687e-10 -5.922010e-05 1.663811e-05
1.517200e+01 -8.008883e-05 2.406053e-10 -5.602830e-05 -7.554243e-06
1.517600e+01 -5.488014e-05 -2.353623e-10 -7.841637e-05 -3.067063e-05
1.518000e+01 -8.340238e-05 -3.378181e-10 -1.171842e-04 -5.167348e-05
1.518400e+01 -1.094910e-04 -3.173282e-10 -1.412238e-04 -4.569057e-05
1.518800e+01 -9.246678e-05 -2.674458e-10 -1.192114e-04 -2.669318e-05
1.519200e+01 -7.820469e-05 -1.972791e-10 -9.793260e-05 -6.194258e-06
1.519600e+01 -1.035296e-04 -7.182994e-11 -1.107126e-04 -2.007527e-05
1.520000e+01 -9.507841e-05 -2.564705e-10 -1.207255e-04 -1.198737e-05
1.520400e+01 -1.091104e-04 -2.685117e-10 -1.359616e-04 1.197008e-05
1.520800e+01 -1.247489e-04 -7.743090e-11 -1.324920e-04 2.981791e-05
1.521200e+01 -1.313728e-04 1.870065e-10 -1.126722e-04 2.410193e-05
1.521600e+01 -1.482027e-04 2.812271e-10 -1.200800e-04 5.398327e-06
1.522000e+01 -1.325609e-04 6.501204e-11 -1.260597e-04 2.367016e-05
1.522400e+01 -1.777424e-04 2.046038e-10 -1.572820e-04 1.280017e-05
1.522800e+01 -1.736198e-04 1.720364e-10 -1.564162e-04 9.543847e-06
1.523200e+01 -1.406427e-04 2.148805e-11 -1.384939e-04 5.032703e-05
1.523600e+01 -1.608869e-04 2.439223e-10 -1.364947e-04 5.343330e-05
1.524000e+01 -2.004939e-04 2.442563e-10 -1.760682e-04 -1.015017e-05
1.524400e+01 -1.844517e-04 -3.004511e-10 -2.144968e-04 -6.932558e-05
1.524800e+01 -1.467318e-04 -6.268286e-10 -2.094147e-04 -3.955165e-05
1.525200e+01 -2.059022e-04 -2.023239e-10 -2.261346e-04 6.244632e-06
1.525600e+01 -2.667636e-04 2.546450e-11 -2.642171e-04 5.875987e-06
1.526000e+01 -2.265966e-04 -2.645302e-10 -2.530496e-04 -1.608182e-05
1.526400e+01 -1.790424e-04 -4.167801e-10 -2.207205e-04 -2.740248e-06
1.526800e+01 -2.191085e-04 -2.517242e-11 -2.216257e-04 2.298838e-05
1.527200e+01 -2.475341e-04 2.545694e-10 -2.220771e-04 1.614608e-05
1.527600e+01 -2.103190e-04 -7.894767e-11 -2.182137e-04 1.222789e-05
1.528000e+01 -2.192525e-04 -2.110426e-10 -2.403568e-04 -7.261519e-06
1.528400e+01 -2.166355e-04 -1.940131e-10 -2.360368e-04 3.794051e-06
1.528800e+01 -2.447354e-04 -4.915687e-12 -2.452270e-04 -9.301890e-06
1.529200e+01 -2.426221e-04 -1.900332e-10 -2.616254e-04 -1.093659e-05
1.529600e+01 -2.091746e-04 -3.047703e-10 -2.396517e-04 1.916346e-05
1.530000e+01 -2.231166e-04 7.591841e-11 -2.155248e-04 4.226110e-05
1.530400e+01 -2.133434e-04 3.354677e-10 -1.797966e-04 7.209849e-05
1.530800e+01 -1.862510e-04 3.761704e-10 -1.486339e-04 4.362816e-05
1.531200e+01 -1.745134e-04 -2.025395e-12 -1.747159e-04 -3.471113e-05
1.531600e+01 -1.418760e-04 -4.407031e-10 -1.859463e-04 -5.826403e-05
1.532000e+01 -1.288170e-04 -2.226011e-10 -1.510771e-04 -4.973376e-05
1.532400e+01 -9.989664e-05 -1.174261e-10 -1.116393e-04 -2.546737e-05
1.532800e+01 -8.872589e-05 -2.213499e-10 -1.108609e-04 -1.261333e-07
1.533200e+01 -9.749503e-05 -9.368947e-11 -1.068640e-04 2.882952e-05
1.533600e+01 -9.878897e-05 1.819235e-10 -8.059663e-05 2.188063e-05
1.534000e+01 -2.108695e-05 -4.455119e-11 -2.554207e-05 3.980670e-05
1.534400e+01 3.062485e-05 -4.680706e-11 2.594414e-05 6.630450e-05
1.534800e+01 -4.972210e-06 2.815177e-10 2.317956e-05 6.006305e-05
1.535200e+01 -7.115702e-05 4.558535e-10 -2.557167e-05 2.468663e-05
1.535600e+01 -6.192086e-05 2.658367e-10 -3.533719e-05 -1.414613e-05
1.536000e+01 -7.276880e-06 -3.293179e-11 -1.057006e-05 -2.805314e-05
1.536400e+01 -9.175199e-06 -1.459137e-11 -1.063434e-05 -3.014689e-05
1.536800e+01 -3.290982e-05 3.913254e-11 -2.899656e-05 -1.668055e-05
1.537200e+01 -7.902112e-06 3.435613e-11 -4.466499e-06 1.061184e-05
1.537600e+01 1.322209e-05 8.955299e-11 2.217739e-05 2.346370e-05
1.538000e+01 4.392151e-05 7.356169e-11 5.127768e-05 2.154752e-05
1.538400e+01 4.528622e-05 -2.597423e-12 4.502647e-05 -3.286324e-05
1.538800e+01 7.941390e-05 -5.541256e-10 2.400134e-05 -3.695662e-05
1.539200e+01 7.265786e-05 -5.279486e-10 1.986300e-05 2.759499e-06
1.539600e+01 3.493947e-05 -7.220459e-12 3.421742e-05 1.118506e-05
1.540000e+01 4.522414e-05 -8.080324e-11 3.714381e-05 -8.700599e-06
1.540400e+01 5.819346e-05 -3.445961e-10 2.373386e-05 -2.180454e-05
1.540800e+01 4.774064e-05 -2.476368e-10 2.297696e-05 1.356277e-05
1.541200e+01 -7.640527e-06 1.217461e-10 4.534085e-06 1.587649e-05
1.541600e+01 -1.972066e-05 -1.079237e-11 -2.079990e-05 -2.094191e-05
1.542000e+01 2.761550e-05 -3.232045e-10 -4.704947e-06 5.042910e-07
1.542400e+01 -7.613782e-06 1.486748e-10 7.253701e-06 3.527799e-06
1.542800e+01 -1.641643e-05 1.998351e-10 3.567081e-06 -3.477507e-05
1.543200e+01 2.787475e-05 -3.513623e-10 -7.261472e-06 -3.035573e-05
1.543600e+01 2.560670e-06 -1.708918e-10 -1.452851e-05 1.123768e-06
1.544000e+01 -1.686595e-05 2.843520e-10 1.156925e-05 3.316212e-05
1.544400e+01 -2.166935e-05 3.448843e-10 1.281909e-05 3.250847e-05
1.544800e+01 -3.266000e-05 8.621321e-11 -2.403868e-05 3.842973e-06
1.545200e+01 -2.212027e-05 -1.291927e-10 -3.503954e-05 3.743844e-06
1.545600e+01 -6.192806e-05 1.025508e-10 -5.167297e-05 5.326931e-06
1.546000e+01 -7.865265e-05 1.599330e-10 -6.265935e-05 -3.143615e-05
1.546400e+01 4.914136e-06 -3.566543e-10 -3.075129e-05 -3.964063e-05
1.546800e+01 7.725409e-06 -3.839061e-10 -3.066520e-05 -2.683183e-05
1.547200e+01 -1.948825e-05 -5.901208e-11 -2.538945e-05 -1.583329e-05
1.547600e+01 -3.622912e-05 -1.970901e-11 -3.820003e-05 -1.825264e-05
1.548000e+01 3.478860e-06 -2.142476e-10 -1.794590e-05 1.819079e-05
1.548400e+01 -4.779186e-05 2.090354e-10 -2.688832e-05 2.827998e-05
1.548800e+01 -1.010590e-04 4.296479e-10 -5.809418e-05 -9.027243e-06
1.549200e+01 -7.473979e-05 -8.651654e-11 -8.339145e-05 -2.954387e-05
1.549600e+01 -5.995501e-05 -2.836384e-10 -8.831885e-05 -2.690757e-05
1.550000e+01 -7.535292e-05 -5.926020e-11 -8.127894e-05 -1.219416e-05
1.550400e+01 -4.080977e-05 2.942698e-11 -3.786707e-05 2.713646e-05
1.550800e+01 -1.678417e-05 1.827256e-10 1.488384e-06 7.262620e-05
1.551200e+01 -1.080534e-04 4.464095e-10 -6.341249e-05 3.240302e-05
1.551600e+01 -1.277069e-04 2.581757e-11 -1.251251e-04 -4.196895e-05
1.552000e+01 -4.296675e-05 -4.405173e-10 -8.701848e-05 -4.124339e-05
1.552400e+01 -7.871179e-05 -9.664111e-11 -8.837591e-05 -8.314031e-06
1.552800e+01 -1.148890e-04 2.117309e-10 -9.371591e-05 3.202547e-06
1.553200e+01 -9.073814e-05 1.237453e-10 -7.836361e-05 2.454165e-05
1.553600e+01 -8.085781e-05 3.233004e-10 -4.852777e-05 4.848055e-05
1.554000e+01 -1.291951e-04 6.042147e-10 -6.877363e-05 -2.789862e-07
1.554400e+01 -1.226356e-04 9.912590e-11 -1.127230e-04 -6.764507e-05
1.554800e+01 -2.583121e-05 -4.636147e-10 -7.219268e-05 -6.919511e-05
1.555200e+01 -1.596509e-05 -2.253833e-10 -3.850342e-05 -4.977956e-06
1.555600e+01 -1.101063e-04 4.533582e-10 -6.477052e-05 1.755669e-05
1.556000e+01 -9.497468e-05 3.776012e-10 -5.721456e-05 1.413097e-05
1.556400e+01 -6.292158e-05 -3.761142e-11 -6.668273e-05 -1.364356e-05
1.556800e+01 -6.172722e-05 -3.111101e-10 -9.283823e-05 -1.346615e-05
1.557200e+01 -6.669427e-05 -1.458170e-10 -8.127597e-05 -2.181996e-07
1.557600e+01 -4.803023e-05 1.950467e-12 -4.783518e-05 3.035285e-05
1.558000e+01 -9.073010e-05 2.303988e-10 -6.769022e-05 1.091531e-05
1.558400e+01 -1.050717e-04 2.082746e-10 -8.424424e-05 -1.812642e-05
1.558800e+01 -9.684679e-05 1.774498e-10 -7.910181e-05 -1.294732e-05
1.559200e+01 -9.832655e-05 2.361702e-10 -7.470953e-05 -1.319949e-05
1.559600e+01 -7.641829e-05 6.081440e-11 -7.033685e-05 2.937282e-06
1.560000e+01 -9.468392e-05 1.514409e-10 -7.953982e-05 1.848556e-05
1.560400e+01 -1.193864e-04 3.464150e-10 -8.474490e-05 1.503272e-05
1.560800e+01 -1.104628e-04 1.795036e-10 -9.251245e-05 1.872683e-05
1.561200e+01 -9.373163e-05 1.710132e-11 -9.202150e-05 4.452966e-06
1.561600e+01 -6.823838e-05 -5.031558e-11 -7.326993e-05 1.226992e-05
1.562000e+01 -1.036352e-04 2.116595e-10 -8.246923e-05 1.509861e-06
1.562400e+01 -9.306365e-05 1.326004e-10 -7.980361e-05 4.386333e-07
1.562800e+01 -6.874105e-05 -9.017919e-11 -7.775897e-05 9.301758e-06
1.563200e+01 -5.753616e-05 -4.879837e-11 -6.241599e-05 2.291727e-06
1.563600e+01 -9.404551e-05 3.705290e-11 -9.034022e-05 4.118132e-06
1.564000e+01 -1.100670e-04 6.066432e-11 -1.040006e-04 1.682886e-05
1.564400e+01 -1.190866e-04 2.924220e-11 -1.161624e-04 -1.145699e-05
1.564800e+01 -7.239519e-05 -2.046264e-10 -9.285783e-05 -1.577282e-05
1.565200e+01 -7.054997e-05 -6.217581e-13 -7.061214e-05 7.083832e-06
1.565600e+01 -9.934554e-05 2.507262e-10 -7.427292e-05 3.887007e-05
1.566000e+01 -1.071661e-04 2.626105e-10 -8.090508e-05 4.629386e-05
1.566400e+01 -1.020363e-04 3.017569e-10 -7.186065e-05 2.326455e-05
1.566800e+01 -1.365846e-04 4.142469e-10 -9.515993e-05 -1.037415e-05
1.567200e+01 -1.079199e-04 1.902846e-10 -8.889139e-05 1.638681e-06
1.567600e+01 -8.021050e-05 7.116717e-11 -7.309378e-05 2.216987e-06
1.568000e+01 -5.070989e-05 -6.961618e-11 -5.767151e-05 3.011975e-06
1.568400e+01 -3.911083e-05 -1.134300e-10 -5.045382e-05 1.433500e-05
1.568800e+01 -4.611578e-05 3.657968e-11 -4.245781e-05 2.724556e-05
1.569200e+01 -7.791651e-05 1.325966e-10 -6.465684e-05 1.727993e-06
1.569600e+01 -8.608189e-05 -1.464425e-10 -1.007261e-04 -2.550315e-05
1.570000e+01 -8.827074e-05 -2.266751e-10 -1.109382e-04 -1.443985e-05
1.570400e+01 -1.057149e-04 7.986631e-11 -9.772824e-05 1.865079e-05
1.570800e+01 -9.327901e-05 2.196943e-10 -7.130959e-05 4.116062e-05
1.571200e+01 -8.355198e-05 1.444437e-10 -6.910761e-05 1.129615e-05
1.571600e+01 -6.888609e-05 -1.046660e-10 -7.935269e-05 -3.184365e-05
1.572000e+01 -4.721260e-05 -2.908247e-10 -7.629507e-05 -2.272236e-05
1.572400e+01 -6.715973e-05 -1.227639e-10 -7.943612e-05 2.085957e-05
1.572800e+01 -1.176138e-04 1.561733e-10 -1.019965e-04 1.247284e-05
1.573200e+01 -9.895754e-05 -1.206794e-10 -1.110255e-04 -1.585971e-05
1.573600e+01 -4.260390e-05 -3.615112e-10 -7.875502e-05 -2.018321e-05
1.574000e+01 -3.400787e-05 -1.875624e-10 -5.276411e-05 3.483904e-05
1.574400e+01 -1.075114e-04 2.944120e-10 -7.807019e-05 3.973870e-05
1.574800e+01 -1.055951e-04 4.770529e-11 -1.008246e-04 1.495853e-05
1.575200e+01 -7.589543e-05 -2.211322e-10 -9.800865e-05 8.192668e-06
1.575600e+01 -1.160711e-04 1.646233e-10 -9.960877e-05 -2.394200e-05
1.576000e+01 -7.766539e-05 6.647607e-11 -7.101778e-05 -2.181737e-05
1.576400e+01 -3.187678e-05 -8.234879e-11 -4.011166e-05 -6.859443e-06
1.576800e+01 -2.493662e-05 2.489067e-11 -2.244756e-05 4.877903e-06
1.577200e+01 -2.502896e-05 1.483262e-10 -1.019634e-05 3.025413e-05
1.577600e+01 -9.018513e-05 2.856662e-10 -6.161851e-05 8.723765e-06
1.578000e+01 -1.026371e-04 -7.153855e-11 -1.097910e-04 -6.121600e-05
1.578400e+01 -4.710979e-05 -6.897348e-10 -1.160833e-04 -7.074237e-05
1.578800e+01 -7.458542e-05 -4.714838e-10 -1.217338e-04 -6.438456e-05
1.579200e+01 -5.084835e-05 -3.754168e-10 -8.839003e-05 -3.203868e-05
1.579600e+01 -1.209740e-06 -4.166382e-10 -4.287356e-05 4.859606e-05
1.580000e+01 -6.902250e-05 1.314011e-10 -5.588239e-05 6.725947e-05
1.580400e+01 -1.355769e-04 2.775507e-10 -1.078218e-04 7.502194e-06
1.580800e+01 -1.619036e-04 -2.829427e-10 -1.901979e-04 -8.192495e-05
1.581200e+01 -9.526742e-05 -9.208638e-10 -1.873538e-04 -7.770767e-05
1.581600e+01 -1.107661e-04 -5.701004e-10 -1.677761e-04 -3.162991e-05
1.582000e+01 -1.557886e-04 -3.891294e-11 -1.596799e-04 1.081365e-05
1.582400e+01 -1.308995e-04 7.783315e-11 -1.231162e-04 5.401420e-05
1.582800e+01 -1.509367e-04 2.547965e-10 -1.254571e-04 5.378272e-05
1.583200e+01 -1.994412e-04 2.426637e-10 -1.751748e-04 -1.017161e-05
1.583600e+01 -1.302344e-04 -3.182234e-10 -1.620567e-04 -2.499275e-05
1.584000e+01 -1.538495e-04 -2.865881e-10 -1.825083e-04 -2.996511e-05
1.584400e+01 -1.230621e-04 -1.202968e-10 -1.350918e-04 2.528180e-05
1.584800e+01 -1.074772e-04 3.221868e-10 -7.525854e-05 5.573683e-05
1.585200e+01 -1.800223e-04 4.330099e-10 -1.367214e-04 -1.489630e-05
1.585600e+01 -1.015867e-04 -3.742500e-10 -1.390117e-04 -1.366687e-05
1.586000e+01 -1.143973e-04 -2.470564e-10 -1.391029e-04 1.126170e-06
1.586400e+01 -8.922952e-05 2.224215e-11 -8.700530e-05 2.016776e-05
1.586800e+01 -5.182438e-05 -4.422797e-11 -5.624717e-05 -2.140888e-06
1.587200e+01 -5.569480e-05 -2.992013e-10 -8.561493e-05 -4.541930e-05
1.587600e+01 -2.595638e-05 -4.312825e-10 -6.908464e-05 -3.388020e-05
1.588000e+01 -3.221544e-05 -2.079686e-10 -5.301230e-05 -1.732802e-05
1.588400e+01 -3.382260e-05 -1.855338e-10 -5.237598e-05 1.785520e-05
1.588800e+01 -1.891232e-05 -3.001999e-11 -2.191432e-05 6.816211e-05
1.589200e+01 -6.203450e-05 4.316389e-10 -1.887061e-05 5.471303e-05
1.589600e+01 -8.802565e-05 3.460153e-10 -5.342412e-05 -5.405095e-06
1.590000e+01 -4.358554e-05 -1.441138e-10 -5.799691e-05 -3.059037e-05
1.590400e+01 1.034100e-05 -2.134961e-10 -1.100861e-05 -8.647264e-06
1.590800e+01 -1.872029e-05 1.260146e-10 -6.118829e-06 -2.037463e-05
1.591200e+01 5.110601e-06 -2.266939e-11 2.843662e-06 -4.575540e-06
1.591600e+01 8.373689e-07 -2.098013e-12 6.275677e-07 -1.168458e-05
1.592000e+01 -9.972370e-06 -9.908278e-11 -1.988065e-05 -1.937551e-05
1.592400e+01 -2.867798e-05 -1.742834e-10 -4.610632e-05 -8.086069e-06
1.592800e+01 -5.288475e-05 -2.955906e-11 -5.584066e-05 -1.383326e-05
1.593200e+01 -7.617118e-06 -9.748694e-11 -1.736581e-05 -5.702728e-06
1.593600e+01 1.382600e-05 -2.769169e-11 1.105683e-05 2.317006e-05
1.594000e+01 -2.935646e-05 2.680970e-10 -2.546763e-06 2.311630e-05
1.594400e+01 -5.654125e-05 1.017313e-10 -4.636812e-05 -3.937509e-06
1.594800e+01 -5.693472e-05 -2.974244e-10 -8.667716e-05 -1.880570e-05
1.595200e+01 -9.151585e-05 -2.401012e-10 -1.155260e-04 1.605248e-05
1.595600e+01 -1.680156e-04 3.071110e-10 -1.373045e-04 2.271541e-05
1.596000e+01 -1.495926e-04 3.706991e-10 -1.125227e-04 -1.141805e-05
1.596400e+01 -1.646020e-04 -9.673303e-12 -1.655693e-04 -6.185407e-05
1.596800e+01 -2.290554e-04 -3.741660e-10 -2.664720e-04 -3.493287e-05
1.597200e+01 -3.841532e-04 5.437827e-11 -3.787153e-04 2.473848e-05
