1.000400e+01 4.630795e-05 -7.173213e-11 3.913474e-05 1.965756e-05
1.000800e+01 4.953972e-05 2.367652e-10 7.321624e-05 8.691070e-06
1.001200e+01 9.992268e-05 -3.164053e-10 6.828215e-05 -2.368389e-06
1.001600e+01 4.208732e-05 -1.605764e-10 2.602968e-05 -3.188954e-05
1.002000e+01 4.512760e-07 1.035645e-10 1.080773e-05 -2.244039e-05
1.002400e+01 -7.820610e-06 1.661754e-11 -6.158856e-06 9.349082e-06
1.002800e+01 2.414600e-05 -1.870311e-10 5.442891e-06 1.501539e-05
1.003200e+01 7.840261e-05 -2.790950e-10 5.049311e-05 1.799667e-06
1.003600e+01 7.062349e-05 -6.295445e-11 6.432804e-05 4.447995e-07
1.004000e+01 3.418008e-06 1.795321e-10 2.137122e-05 -1.278674e-05
1.004400e+01 1.997606e-05 -1.273759e-10 7.238475e-06 2.001794e-05
1.004800e+01 -3.764302e-06 4.894088e-11 1.129786e-06 3.968436e-05
1.005200e+01 1.162291e-05 1.400148e-10 2.562440e-05 -3.617372e-06
1.005600e+01 2.943162e-05 -2.242796e-10 7.003661e-06 -4.547025e-05
1.006000e+01 1.194181e-05 -3.143573e-11 8.798234e-06 -3.215221e-05
1.006400e+01 5.138317e-05 3.202134e-10 8.340451e-05 2.909935e-05
1.006800e+01 7.423142e-05 9.676155e-11 8.390757e-05 3.906768e-05
1.007200e+01 8.818854e-05 -4.832174e-10 3.986680e-05 1.026514e-05
1.007600e+01 3.270913e-05 -1.932189e-10 1.338724e-05 -1.624637e-05
1.008000e+01 -2.687184e-05 2.993814e-10 3.066302e-06 -3.646809e-05
1.008400e+01 -1.437301e-05 -1.145794e-11 -1.551880e-05 -2.573502e-05
1.008800e+01 6.600285e-05 -1.729380e-10 4.870905e-05 2.598569e-05
1.009200e+01 5.106349e-05 1.614432e-10 6.720781e-05 4.841264e-05
1.009600e+01 5.272403e-05 3.593409e-12 5.308337e-05 1.985474e-05
1.010000e+01 7.499316e-05 -2.131501e-10 5.367815e-05 -2.506712e-06
1.010400e+01 4.209723e-05 1.596972e-10 5.806695e-05 1.080231e-05
1.010800e+01 -1.540680e-05 4.110975e-10 2.570295e-05 -9.561917e-06
1.011200e+01 6.114450e-05 -1.624803e-10 4.489647e-05 -3.058630e-05
1.011600e+01 1.015994e-04 -1.500412e-10 8.659532e-05 -1.053781e-05
1.012000e+01 3.189260e-05 4.046174e-10 7.235434e-05 -1.362981e-06
1.012400e+01 5.334731e-05 2.469117e-11 5.581643e-05 4.483718e-07
1.012800e+01 6.241078e-05 -1.836702e-10 4.404376e-05 6.766084e-07
1.013200e+01 1.104515e-05 1.957917e-10 3.062432e-05 1.060337e-05
1.013600e+01 1.782995e-05 2.551171e-10 4.334165e-05 2.125970e-05
1.014000e+01 5.384756e-05 7.777640e-11 6.162520e-05 2.002518e-05
1.014400e+01 6.528992e-05 8.211013e-11 7.350093e-05 2.153336e-05
1.014800e+01 4.398822e-05 2.918512e-10 7.317334e-05 1.401419e-05
1.015200e+01 3.984533e-05 3.285788e-10 7.270321e-05 2.133095e-05
1.015600e+01 3.087785e-05 3.091319e-10 6.179104e-05 1.467804e-05
1.016000e+01 2.984945e-05 1.829341e-10 4.814286e-05 -1.297850e-05
1.016400e+01 1.892474e-05 1.361207e-10 3.253682e-05 -1.701816e-05
1.016800e+01 2.749506e-05 2.818349e-10 5.567855e-05 3.856176e-06
1.017200e+01 4.931572e-05 2.306330e-10 7.237902e-05 5.118775e-06
1.017600e+01 9.517983e-05 -8.976637e-11 8.620319e-05 -5.916197e-06
1.018000e+01 1.195979e-04 -2.651002e-11 1.169469e-04 -8.838834e-07
1.018400e+01 3.229235e-05 3.180670e-10 6.409905e-05 -2.836741e-06
1.018800e+01 -9.772533e-06 2.199118e-10 1.221865e-05 -2.095644e-05
1.019200e+01 4.806614e-05 6.088323e-11 5.415446e-05 -4.204129e-06
1.019600e+01 3.621536e-05 4.574793e-10 8.196329e-05 -2.371571e-06
1.020000e+01 1.639312e-05 3.806055e-10 5.445367e-05 -9.892775e-06
1.020400e+01 3.752451e-05 1.874955e-10 5.627405e-05 -1.475772e-05
1.020800e+01 2.271723e-05 3.620409e-10 5.892132e-05 -1.022366e-06
1.021200e+01 1.404764e-05 4.487577e-10 5.892342e-05 3.900451e-06
1.021600e+01 4.842194e-05 1.724734e-10 6.566928e-05 -1.943903e-06
1.022000e+01 5.575186e-05 2.097876e-10 7.673062e-05 -5.762276e-06
1.022400e+01 1.044829e-05 3.787430e-10 4.832259e-05 -1.917184e-05
1.022800e+01 3.926376e-05 1.654728e-10 5.581104e-05 -1.423600e-05
1.023200e+01 5.538718e-05 1.904296e-10 7.443014e-05 1.709296e-06
1.023600e+01 5.893221e-05 2.329886e-10 8.223107e-05 2.320921e-05
1.024000e+01 6.828364e-05 1.772875e-10 8.601238e-05 3.192632e-05
1.024400e+01 7.370656e-05 9.073775e-11 8.278033e-05 2.676620e-05
1.024800e+01 4.770591e-05 1.621973e-10 6.392564e-05 -4.526386e-06
1.025200e+01 -5.431895e-06 2.840131e-10 2.296942e-05 -2.515321e-05
1.025600e+01 -1.803530e-07 3.152217e-10 3.134181e-05 -1.325411e-06
1.026000e+01 1.775366e-05 3.372927e-10 5.148293e-05 -1.150348e-06
1.026400e+01 9.906616e-05 -8.974769e-12 9.816868e-05 -2.377901e-05
1.026800e+01 1.761871e-04 -1.100456e-10 1.651825e-04 1.221761e-05
1.027200e+01 6.327984e-05 3.976516e-10 1.030450e-04 2.558014e-05
1.027600e+01 7.443412e-06 -6.559533e-11 8.838788e-07 -1.800121e-05
1.028000e+01 3.418878e-05 -5.752861e-10 -2.333984e-05 -2.496132e-05
1.028400e+01 -1.531672e-05 1.791194e-10 2.595220e-06 -1.755807e-05
1.028800e+01 -3.076882e-06 1.889080e-10 1.581392e-05 -1.009860e-05
1.029200e+01 8.384730e-05 -4.227300e-10 4.157429e-05 -2.931448e-07
1.029600e+01 4.600195e-05 -2.562347e-10 2.037848e-05 -4.640073e-06
1.030000e+01 9.489306e-06 -4.426873e-12 9.046618e-06 1.469388e-05
1.030400e+01 -3.709996e-05 -2.588956e-11 -3.968892e-05 7.257295e-06
1.030800e+01 -2.780623e-05 -3.660328e-10 -6.440951e-05 -3.361598e-06
1.031200e+01 -5.706700e-06 -1.734287e-10 -2.304958e-05 1.962277e-05
1.031600e+01 -2.551269e-05 2.938814e-10 3.875454e-06 2.484784e-06
1.032000e+01 1.855051e-05 -1.923248e-10 -6.819643e-07 -1.407215e-05
1.032400e+01 8.020332e-05 -3.460333e-10 4.560000e-05 5.084712e-06
1.032800e+01 4.088063e-05 1.821943e-10 5.910006e-05 4.142473e-06
1.033200e+01 3.610280e-05 -3.630491e-11 3.247231e-05 -6.962167e-06
1.033600e+01 5.903122e-05 -3.589618e-10 2.313504e-05 -1.352724e-05
1.034000e+01 4.855808e-05 -1.754010e-10 3.101799e-05 -1.525884e-05
1.034400e+01 1.852090e-05 -1.012399e-10 8.396908e-06 -1.309717e-05
1.034800e+01 5.904413e-05 -2.767992e-10 3.136421e-05 -1.778549e-05
1.035200e+01 1.125458e-04 -3.751232e-10 7.503345e-05 -5.527363e-06
1.035600e+01 1.294171e-04 -1.934550e-10 1.100716e-04 1.320606e-05
1.036000e+01 1.938968e-04 -2.168779e-10 1.722090e-04 4.105441e-05
1.036400e+01 1.915687e-04 -2.439011e-10 1.671786e-04 3.518056e-05
1.036800e+01 8.504822e-05 -2.428642e-10 6.076179e-05 -2.321163e-05
1.037200e+01 5.115327e-05 -2.228843e-10 2.886485e-05 -4.473337e-05
1.037600e+01 7.186243e-05 1.197397e-10 8.383640e-05 -7.571264e-07
1.038000e+01 1.503687e-04 9.257904e-11 1.596267e-04 3.895772e-05
1.038400e+01 2.049576e-04 -3.990491e-10 1.650527e-04 2.151137e-05
1.038800e+01 1.485617e-04 -4.305993e-10 1.055017e-04 -1.791717e-05
1.039200e+01 8.764252e-05 -3.760329e-11 8.388219e-05 -1.757930e-05
1.039600e+01 1.079821e-04 6.217253e-11 1.141994e-04 2.028361e-05
1.040000e+01 1.389593e-04 -1.824116e-10 1.207181e-04 2.271785e-05
1.040400e+01 1.493571e-04 -4.399996e-10 1.053571e-04 -5.731629e-06
1.040800e+01 1.280450e-04 -1.488934e-10 1.131557e-04 -1.356852e-05
1.041200e+01 7.192846e-05 2.282471e-10 9.475317e-05 -7.258436e-06
1.041600e+01 5.429639e-05 -4.028886e-11 5.026751e-05 -6.243397e-06
1.042000e+01 7.517850e-05 -2.878933e-10 4.638917e-05 4.402715e-06
1.042400e+01 5.296760e-05 2.673021e-11 5.564062e-05 1.515877e-05
1.042800e+01 -2.531434e-07 5.483247e-11 5.230104e-06 1.463220e-05
1.043200e+01 -1.982856e-05 -1.746297e-10 -3.729153e-05 -3.345622e-05
1.043600e+01 3.920482e-06 -3.430201e-10 -3.038153e-05 -2.825765e-05
1.044000e+01 -1.038546e-04 1.451045e-10 -8.934415e-05 2.158054e-05
1.044400e+01 -2.341879e-04 1.124723e-10 -2.229406e-04 1.453203e-05
1.044800e+01 -3.012993e-04 -6.340389e-10 -3.647032e-04 -2.144694e-05
1.045200e+01 -3.066435e-04 -3.835536e-10 -3.449988e-04 2.506540e-05
1.045600e+01 -1.717838e-04 5.900927e-10 -1.127746e-04 5.217864e-05
1.046000e+01 1.447447e-04 -7.304482e-11 1.374402e-04 1.139798e-05
1.046400e+01 3.475769e-04 -7.108341e-10 2.764935e-04 -2.265240e-05
1.046800e+01 3.760478e-04 2.049175e-10 3.965395e-04 3.634263e-06
1.047200e+01 4.460861e-04 6.456197e-10 5.106481e-04 3.543561e-06
1.047600e+01 4.839066e-04 -3.572381e-10 4.481828e-04 -8.690443e-06
1.048000e+01 4.049681e-04 -4.037939e-10 3.645887e-04 8.770510e-06
1.048400e+01 3.306045e-04 3.191822e-10 3.625227e-04 2.266028e-05
1.048800e+01 3.026836e-04 2.598809e-11 3.052824e-04 -1.486754e-05
1.049200e+01 2.755133e-04 -6.596027e-10 2.095530e-04 -1.622004e-05
1.049600e+01 1.825384e-04 -8.148675e-11 1.743897e-04 3.746850e-05
1.050000e+01 9.035523e-05 4.538586e-10 1.357411e-04 2.934053e-05
1.050400e+01 1.241423e-04 -3.997791e-10 8.416444e-05 -2.657394e-05
1.050800e+01 1.708973e-04 -5.463072e-10 1.162666e-04 -2.095783e-05
1.051200e+01 6.388985e-05 4.424001e-10 1.081299e-04 2.462381e-06
1.051600e+01 1.233786e-05 1.809753e-10 3.043539e-05 1.022466e-05
1.052000e+01 4.355663e-05 -4.428674e-10 -7.301136e-07 1.319727e-05
1.052400e+01 2.442042e-05 2.879225e-11 2.729964e-05 -6.020377e-06
1.052800e+01 7.003238e-05 1.295107e-10 8.298345e-05 7.911250e-06
1.053200e+01 1.003720e-04 -3.516245e-11 9.685574e-05 8.830390e-06
1.053600e+01 5.436004e-05 -1.179886e-10 4.256118e-05 -2.163124e-05
1.054000e+01 2.907091e-05 -1.042377e-11 2.802853e-05 -1.622789e-05
1.054400e+01 2.275084e-06 3.722245e-10 3.949754e-05 1.265105e-05
1.054800e+01 8.580230e-05 1.228616e-10 9.808846e-05 4.090049e-05
1.055200e+01 1.152574e-04 -2.131801e-10 9.393940e-05 3.383120e-05
1.055600e+01 4.422552e-05 4.235197e-11 4.846072e-05 1.286628e-05
1.056000e+01 -7.619983e-05 3.764690e-10 -3.855293e-05 -2.529774e-05
1.056400e+01 -6.519212e-05 1.116345e-10 -5.402867e-05 -2.915451e-05
1.056800e+01 1.769148e-05 1.907688e-10 3.676836e-05 1.144168e-05
1.057200e+01 3.172196e-05 3.691727e-10 6.863923e-05 2.040492e-05
1.057600e+01 2.091320e-05 -1.049248e-11 1.986395e-05 -2.080647e-05
1.058000e+01 -9.711115e-07 -1.047889e-10 -1.145000e-05 -4.182084e-05
1.058400e+01 -9.882858e-06 3.460461e-10 2.472175e-05 -8.338586e-06
1.058800e+01 2.800313e-05 3.789044e-10 6.589357e-05 1.097487e-05
1.059200e+01 9.671200e-05 -2.369493e-10 7.301707e-05 1.435506e-05
1.059600e+01 6.220961e-05 -1.086795e-10 5.134165e-05 3.011707e-05
1.060000e+01 -2.419283e-05 5.078449e-10 2.659166e-05 1.410996e-05
1.060400e+01 5.141296e-06 1.357973e-10 1.872103e-05 -2.096653e-05
1.060800e+01 4.987234e-05 -1.392008e-10 3.595226e-05 -7.773469e-06
1.061200e+01 -3.287786e-05 5.075383e-10 1.787597e-05 -1.124035e-05
1.061600e+01 7.031249e-06 2.683561e-10 3.386686e-05 -2.368229e-05
1.062000e+01 5.110412e-05 -1.078986e-10 4.031426e-05 -7.349067e-06
1.062400e+01 -7.084088e-06 3.063755e-10 2.355346e-05 -2.372128e-06
1.062800e+01 -2.717093e-05 2.172492e-10 -5.446017e-06 -1.558197e-05
1.063200e+01 3.932818e-06 -1.422845e-10 -1.029563e-05 -1.846262e-05
1.063600e+01 2.418379e-05 -2.185336e-11 2.199846e-05 -1.405485e-06
1.064000e+01 -3.719304e-05 1.636666e-10 -2.082638e-05 -1.673323e-05
1.064400e+01 -3.756209e-05 -4.788642e-11 -4.235073e-05 -2.551389e-05
1.064800e+01 3.287990e-06 3.319516e-11 6.607506e-06 -1.951750e-05
1.065200e+01 9.514436e-06 8.474363e-11 1.798880e-05 -3.547856e-06
1.065600e+01 -3.065012e-05 -1.392283e-11 -3.204240e-05 -7.156812e-06
1.066000e+01 -5.366894e-05 -5.790002e-11 -5.945894e-05 -1.412551e-05
1.066400e+01 -2.087552e-05 7.839886e-11 -1.303564e-05 2.365327e-05
1.066800e+01 -2.745487e-05 2.479393e-10 -2.660938e-06 1.942671e-05
1.067200e+01 -2.947092e-05 -2.737751e-10 -5.684843e-05 -3.679782e-05
1.067600e+01 -5.502306e-05 -3.668947e-10 -9.171253e-05 -6.072515e-05
1.068000e+01 -1.464725e-04 3.456188e-10 -1.119106e-04 -4.829657e-05
1.068400e+01 -1.301338e-04 2.382671e-10 -1.063071e-04 -1.750783e-05
1.068800e+01 -7.483039e-05 -3.490820e-10 -1.097386e-04 1.072630e-06
1.069200e+01 -3.166232e-05 -3.843434e-10 -7.009666e-05 2.782713e-05
1.069600e+01 -6.240539e-05 8.203446e-11 -5.420195e-05 3.016861e-05
1.070000e+01 -1.024843e-04 -6.561309e-11 -1.090457e-04 -3.271711e-06
1.070400e+01 -8.042956e-05 -3.895184e-10 -1.193814e-04 7.964093e-07
1.070800e+01 -1.449855e-04 2.368305e-10 -1.213024e-04 3.141161e-05
1.071200e+01 -1.967441e-04 4.839806e-10 -1.483461e-04 1.485273e-05
1.071600e+01 -1.278081e-04 -3.489317e-10 -1.627013e-04 7.630480e-06
1.072000e+01 -1.167536e-04 -1.696431e-10 -1.337179e-04 2.592401e-05
1.072400e+01 -1.584640e-04 4.374696e-10 -1.147171e-04 3.130104e-05
1.072800e+01 -1.313087e-04 -2.276199e-11 -1.335849e-04 4.144180e-07
1.073200e+01 -8.986038e-05 -4.222367e-10 -1.320841e-04 -2.172501e-05
1.073600e+01 -1.513985e-04 1.280704e-10 -1.385914e-04 -4.417993e-05
1.074000e+01 -1.304333e-04 8.441231e-11 -1.219920e-04 -3.249313e-05
1.074400e+01 -6.948422e-05 -1.362553e-10 -8.310974e-05 -1.080188e-05
1.074800e+01 -6.047650e-05 -1.476776e-10 -7.524426e-05 1.168619e-05
1.075200e+01 -6.748070e-05 -1.024608e-10 -7.772679e-05 2.466301e-05
1.075600e+01 -2.222307e-06 -1.169569e-10 -1.391799e-05 3.959355e-05
1.076000e+01 3.511670e-05 6.963985e-12 3.581310e-05 2.203089e-05
1.076400e+01 2.565603e-05 1.800378e-11 2.745641e-05 2.774395e-06
1.076800e+01 -1.268600e-05 1.851431e-10 5.828313e-06 -4.139864e-06
1.077200e+01 3.732504e-05 2.374054e-10 6.106558e-05 3.316899e-05
1.077600e+01 6.952657e-05 3.019921e-10 9.972577e-05 2.728597e-05
1.078000e+01 8.709544e-05 -6.023221e-11 8.107222e-05 -5.338104e-06
1.078400e+01 1.015035e-04 -3.421453e-11 9.808202e-05 5.129550e-06
1.078800e+01 9.096308e-05 5.062392e-10 1.415870e-04 1.625768e-05
1.079200e+01 1.496900e-04 1.152069e-10 1.612107e-04 2.683815e-05
1.079600e+01 1.710247e-04 -2.288678e-10 1.481379e-04 3.535099e-05
1.080000e+01 1.351606e-04 1.331994e-10 1.484805e-04 4.206317e-05
1.080400e+01 8.799382e-05 3.835681e-10 1.263506e-04 -2.930120e-06
1.080800e+01 5.032114e-05 -8.668153e-11 4.165298e-05 -8.112333e-05
1.081200e+01 6.794286e-05 -2.164774e-10 4.629512e-05 -8.978097e-05
1.081600e+01 1.402256e-04 3.482814e-10 1.750537e-04 4.949280e-06
1.082000e+01 2.184196e-04 4.623568e-10 2.646553e-04 4.998584e-05
1.082400e+01 2.204841e-04 -4.294887e-10 1.775352e-04 1.141672e-05
1.082800e+01 1.828064e-04 -5.190503e-10 1.309014e-04 1.186280e-05
1.083200e+01 8.550765e-05 6.052784e-10 1.460355e-04 2.031786e-05
1.083600e+01 1.174187e-04 3.201664e-10 1.494353e-04 -7.978236e-06
1.084000e+01 1.887205e-04 -5.670820e-10 1.320123e-04 -4.577055e-05
1.084400e+01 1.271527e-04 -3.747499e-11 1.234052e-04 -3.175465e-05
1.084800e+01 7.480775e-05 7.180975e-10 1.466175e-04 1.558228e-05
1.085200e+01 1.367453e-04 1.777142e-10 1.545168e-04 1.045147e-05
1.085600e+01 2.032099e-04 -5.282795e-10 1.503820e-04 -2.630530e-05
1.086000e+01 2.112861e-04 -8.124492e-11 2.031616e-04 1.948151e-05
1.086400e+01 1.514462e-04 7.976264e-10 2.312088e-04 5.923744e-05
1.086800e+01 1.639947e-04 9.836895e-11 1.738316e-04 2.119762e-05
1.087200e+01 1.984534e-04 -6.020039e-10 1.382530e-04 -1.222514e-05
1.087600e+01 9.054745e-05 3.567429e-10 1.262217e-04 6.161247e-07
1.088000e+01 3.365503e-05 7.644138e-10 1.100964e-04 1.527344e-05
1.088400e+01 1.525083e-04 -1.773043e-10 1.347779e-04 1.242905e-05
1.088800e+01 1.522586e-04 -2.791288e-10 1.243457e-04 -1.311290e-05
1.089200e+01 6.980806e-05 3.086937e-10 1.006774e-04 -2.706416e-05
1.089600e+01 5.592812e-05 1.649111e-10 7.241923e-05 -2.583431e-05
1.090000e+01 1.382402e-04 -3.836353e-10 9.987671e-05 -6.245042e-06
1.090400e+01 1.514030e-04 -2.579392e-10 1.256091e-04 1.052741e-05
1.090800e+01 9.487404e-05 -6.301838e-13 9.481102e-05 -3.023153e-06
1.091200e+01 1.275284e-04 -2.421088e-10 1.033176e-04 -1.200385e-05
1.091600e+01 7.891522e-05 -2.182155e-10 5.709366e-05 -2.204988e-05
1.092000e+01 4.960977e-05 -1.589282e-10 3.371695e-05 -6.294790e-07
1.092400e+01 1.590006e-04 -1.108670e-10 1.479139e-04 6.577171e-05
1.092800e+01 2.345516e-04 8.907823e-11 2.434594e-04 7.575499e-05
1.093200e+01 2.179637e-04 -2.081867e-10 1.971451e-04 2.134435e-05
1.093600e+01 1.733744e-04 -2.927641e-10 1.440980e-04 -1.695638e-05
1.094000e+01 8.948952e-05 3.024799e-10 1.197375e-04 -2.839984e-05
1.094400e+01 3.082990e-05 3.078752e-10 6.161741e-05 -4.100854e-05
1.094800e+01 5.303577e-05 -2.785950e-10 2.517627e-05 -3.419308e-05
1.095200e+01 9.090747e-05 -2.267310e-10 6.823437e-05 2.012471e-05
1.095600e+01 1.313481e-04 1.665718e-10 1.480053e-04 4.622882e-05
1.096000e+01 1.885609e-04 -2.861229e-10 1.599486e-04 1.695614e-05
1.096400e+01 1.802244e-04 -6.096074e-10 1.192636e-04 -1.308845e-05
1.096800e+01 9.281202e-05 -1.771446e-11 9.104057e-05 -4.936361e-06
1.097200e+01 3.757844e-05 3.309922e-10 7.067766e-05 -2.396401e-06
1.097600e+01 1.196331e-04 -2.110742e-10 9.852567e-05 -6.621249e-06
1.098000e+01 1.584436e-04 -2.625581e-10 1.321878e-04 -1.810326e-05
1.098400e+01 1.424202e-04 3.748506e-11 1.461687e-04 -1.054006e-05
1.098800e+01 5.728792e-05 9.196851e-11 6.648477e-05 -1.401769e-05
1.099200e+01 2.532552e-05 -1.642126e-10 8.904259e-06 -5.751648e-05
1.099600e+01 1.150619e-04 -4.441059e-10 7.065132e-05 -3.080040e-05
1.100000e+01 1.390483e-04 1.329776e-10 1.523461e-04 5.402297e-06
1.100400e+01 1.746659e-04 -1.310209e-11 1.733557e-04 1.987157e-05
1.100800e+01 2.229044e-04 -4.684318e-10 1.760612e-04 2.950416e-05
1.101200e+01 1.753775e-04 -6.310863e-11 1.690666e-04 3.427854e-05
1.101600e+01 8.593812e-05 2.690128e-10 1.128394e-04 -2.084109e-05
1.102000e+01 7.798037e-05 -2.377751e-10 5.420286e-05 -5.361596e-05
1.102400e+01 6.149058e-05 -1.165049e-13 6.147893e-05 -2.809800e-05
1.102800e+01 6.832822e-05 4.619066e-10 1.145189e-04 1.594382e-05
1.103200e+01 1.315245e-04 7.667908e-11 1.391924e-04 3.833805e-05
1.103600e+01 1.511813e-04 -2.524292e-10 1.259384e-04 1.517561e-05
1.104000e+01 8.223991e-05 -1.216482e-11 8.102343e-05 -4.564572e-05
1.104400e+01 9.597127e-05 -3.761737e-11 9.220954e-05 -3.099949e-05
1.104800e+01 1.656202e-04 1.157496e-10 1.771952e-04 2.719806e-05
1.105200e+01 1.816255e-04 6.695007e-11 1.883206e-04 2.575454e-05
1.105600e+01 1.980745e-04 -4.310686e-10 1.549676e-04 1.698081e-05
1.106000e+01 9.620548e-05 -4.491948e-11 9.171353e-05 1.512286e-06
1.106400e+01 -1.762802e-05 1.761346e-10 -1.455743e-08 -4.879932e-05
1.106800e+01 4.689077e-05 -3.621219e-10 1.067858e-05 -4.329120e-05
1.107200e+01 7.843832e-05 1.575280e-10 9.419112e-05 -7.411886e-06
1.107600e+01 1.366285e-04 4.480887e-10 1.814374e-04 1.172094e-05
1.108000e+01 2.487122e-04 -2.459238e-10 2.241198e-04 2.413535e-05
1.108400e+01 2.031937e-04 -2.375103e-10 1.794427e-04 4.271401e-06
1.108800e+01 1.005724e-04 5.207237e-11 1.057796e-04 -2.749098e-05
1.109200e+01 7.286971e-05 1.003907e-11 7.387361e-05 -1.346871e-05
1.109600e+01 6.486112e-05 2.083736e-10 8.569848e-05 4.544863e-06
1.110000e+01 1.096132e-04 1.368984e-10 1.233030e-04 -3.102175e-06
1.110400e+01 1.032754e-04 -1.421737e-10 8.905800e-05 -4.111916e-05
1.110800e+01 9.017959e-05 -1.836822e-10 7.181137e-05 -4.168876e-05
1.111200e+01 9.300725e-05 2.069712e-10 1.137044e-04 3.202089e-07
1.111600e+01 1.304169e-04 2.143608e-10 1.518530e-04 4.979427e-05
1.112000e+01 1.343717e-04 -1.067564e-10 1.236961e-04 4.002976e-05
1.112400e+01 1.291883e-04 -2.667982e-10 1.025085e-04 1.161381e-05
1.112800e+01 1.167327e-04 8.890039e-11 1.256227e-04 1.077314e-05
1.113200e+01 9.578142e-05 3.368342e-10 1.294648e-04 2.332861e-06
1.113600e+01 8.077013e-05 3.828025e-11 8.459816e-05 -2.559174e-05
1.114000e+01 3.245114e-05 -1.289066e-10 1.956048e-05 -2.656750e-05
1.114400e+01 9.106018e-06 1.906730e-10 2.817332e-05 -4.819153e-06
1.114800e+01 1.090712e-04 2.087502e-10 1.299462e-04 2.522726e-05
1.115200e+01 1.647465e-04 -4.268794e-11 1.604777e-04 3.874423e-05
1.115600e+01 1.089306e-04 -4.138783e-11 1.047918e-04 1.239049e-05
1.116000e+01 7.515361e-05 9.957726e-11 8.511134e-05 2.243289e-05
1.116400e+01 4.870963e-05 5.161893e-10 1.003286e-04 1.922148e-05
1.116800e+01 1.110560e-04 1.954436e-10 1.306003e-04 -1.317402e-05
1.117200e+01 9.295929e-05 -1.248453e-10 8.047476e-05 -5.481725e-05
1.117600e+01 7.634847e-06 2.104458e-10 2.867942e-05 -5.052541e-05
1.118000e+01 7.153717e-05 4.374558e-10 1.152828e-04 2.285940e-05
1.118400e+01 1.718307e-04 1.906637e-10 1.908970e-04 7.869478e-05
1.118800e+01 1.832733e-04 -2.172089e-10 1.615524e-04 4.832602e-05
1.119200e+01 1.227392e-04 -1.180549e-10 1.109337e-04 -6.518140e-06
1.119600e+01 -2.239813e-06 4.443532e-10 4.219551e-05 -3.849583e-05
1.120000e+01 -3.916809e-07 2.905640e-10 2.866472e-05 -4.659651e-05
1.120400e+01 1.045658e-04 -2.362044e-10 8.094540e-05 -1.734902e-05
1.120800e+01 7.913326e-05 1.080894e-10 8.994220e-05 -3.255147e-06
1.121200e+01 6.255196e-05 2.520981e-10 8.776177e-05 7.396549e-07
1.121600e+01 1.276569e-04 -1.004513e-10 1.176117e-04 1.844603e-05
1.122000e+01 1.476278e-04 -1.299618e-10 1.346316e-04 4.278553e-05
1.122400e+01 8.080855e-05 1.629593e-10 9.710448e-05 4.135798e-05
1.122800e+01 7.407564e-05 1.590628e-10 8.998192e-05 3.661253e-05
1.123200e+01 7.228278e-05 1.315743e-10 8.544021e-05 2.014678e-05
1.123600e+01 6.718603e-05 1.573417e-10 8.292020e-05 -5.640939e-06
1.124000e+01 5.927590e-05 2.401049e-10 8.328639e-05 -2.239309e-05
1.124400e+01 3.955951e-05 2.979726e-10 6.935677e-05 -2.233776e-05
1.124800e+01 5.292662e-05 8.757505e-11 6.168413e-05 4.389386e-06
1.125200e+01 9.059996e-05 -6.105159e-12 8.998944e-05 2.282964e-05
1.125600e+01 9.804654e-05 6.060094e-12 9.865255e-05 2.965752e-06
1.126000e+01 9.337440e-05 -1.643050e-10 7.694389e-05 -2.797614e-06
1.126400e+01 9.055226e-05 -6.927035e-11 8.362522e-05 -5.822777e-06
1.126800e+01 1.073594e-04 -7.116938e-11 1.002425e-04 -3.445086e-05
1.127200e+01 1.274841e-04 -3.385500e-10 9.362913e-05 -2.787174e-05
1.127600e+01 1.188810e-04 -7.579962e-11 1.113010e-04 2.214602e-05
1.128000e+01 1.127326e-04 1.172838e-10 1.244610e-04 5.675943e-05
1.128400e+01 1.188396e-04 -2.251564e-10 9.632396e-05 1.890993e-05
1.128800e+01 1.191829e-04 -4.353483e-10 7.564809e-05 -1.492592e-05
1.129200e+01 5.784629e-05 9.478732e-11 6.732503e-05 -1.205455e-05
1.129600e+01 4.177092e-05 1.745037e-10 5.922129e-05 2.121883e-07
1.130000e+01 1.141109e-04 -4.136892e-10 7.274195e-05 1.761471e-05
1.130400e+01 1.070438e-04 -1.961941e-10 8.742439e-05 1.103513e-05
1.130800e+01 2.522439e-05 2.319559e-10 4.841998e-05 -2.602956e-05
1.131200e+01 7.720595e-05 -1.729328e-10 5.991267e-05 -1.917049e-05
1.131600e+01 9.903180e-05 -2.172617e-10 7.730562e-05 1.167473e-05
1.132000e+01 5.094961e-05 -2.912723e-11 4.803689e-05 -2.451956e-06
1.132400e+01 1.385387e-05 -3.459485e-10 -2.074099e-05 -3.674305e-05
1.132800e+01 7.479521e-06 -3.144348e-10 -2.396396e-05 -1.390322e-05
1.133200e+01 -5.467381e-06 2.096478e-10 1.549740e-05 1.692852e-05
1.133600e+01 4.916963e-05 -9.706589e-11 3.946304e-05 2.792706e-05
1.134000e+01 9.581241e-05 -4.540362e-10 5.040879e-05 2.580024e-05
1.134400e+01 8.267359e-05 -1.262757e-10 7.004602e-05 2.361252e-05
1.134800e+01 1.528241e-05 1.231773e-10 2.760014e-05 3.320920e-07
1.135200e+01 5.891754e-06 -2.729892e-10 -2.140717e-05 -3.005513e-05
1.135600e+01 2.619158e-05 -4.451053e-10 -1.831894e-05 -1.285410e-05
1.136000e+01 6.051121e-05 -2.801508e-12 6.023106e-05 4.265149e-05
1.136400e+01 5.880078e-05 1.221257e-10 7.101335e-05 3.727111e-05
1.136800e+01 7.811583e-05 -5.247340e-10 2.564244e-05 3.665676e-06
1.137200e+01 3.256784e-05 -3.786773e-10 -5.299883e-06 -1.933435e-05
1.137600e+01 -4.584146e-05 2.850356e-10 -1.733790e-05 -4.133909e-05
1.138000e+01 1.584539e-06 1.127647e-10 1.286101e-05 -4.007138e-05
1.138400e+01 5.135531e-05 -2.286005e-10 2.849526e-05 -2.911769e-05
1.138800e+01 4.049730e-05 -2.499911e-10 1.549819e-05 -2.366856e-05
1.139200e+01 6.183270e-05 -1.300442e-10 4.882829e-05 5.381187e-06
1.139600e+01 1.073520e-04 1.137470e-10 1.187267e-04 3.845555e-05
1.140000e+01 1.226893e-04 -2.508965e-11 1.201803e-04 7.134365e-06
1.140400e+01 1.563216e-04 -4.741469e-10 1.089069e-04 -2.011330e-05
1.140800e+01 9.353802e-05 4.627348e-11 9.816537e-05 -2.362336e-05
1.141200e+01 4.943787e-05 3.080765e-10 8.024553e-05 -1.946259e-05
1.141600e+01 1.286323e-04 -2.053080e-10 1.081015e-04 -5.496690e-07
1.142000e+01 1.510802e-04 -1.771650e-10 1.333637e-04 -7.246437e-07
1.142400e+01 1.430097e-04 -1.321094e-11 1.416886e-04 1.464441e-05
1.142800e+01 1.187760e-04 9.387869e-11 1.281638e-04 1.854156e-05
1.143200e+01 1.350380e-04 -1.504346e-10 1.199945e-04 1.647281e-05
1.143600e+01 1.019813e-04 -7.389026e-11 9.459232e-05 6.752028e-06
1.144000e+01 2.748497e-05 3.395788e-10 6.144285e-05 5.140355e-06
1.144400e+01 6.733422e-05 4.058103e-10 1.079152e-04 2.592191e-06
1.144800e+01 1.247230e-04 4.174980e-11 1.288980e-04 -3.359675e-05
1.145200e+01 1.205956e-04 -2.467316e-10 9.592246e-05 -2.005968e-05
1.145600e+01 3.580212e-05 3.147632e-10 6.727844e-05 -2.369381e-06
1.146000e+01 5.207260e-05 2.743189e-10 7.950449e-05 -2.051829e-05
1.146400e+01 1.167493e-04 -2.749335e-10 8.925593e-05 -3.058759e-05
1.146800e+01 1.166802e-04 -2.701691e-11 1.139785e-04 -1.280857e-05
1.147200e+01 1.097763e-04 1.940869e-10 1.291850e-04 2.076135e-05
1.147600e+01 4.861394e-05 -7.026904e-11 4.158703e-05 -6.555105e-07
1.148000e+01 -1.862237e-05 -2.992212e-10 -4.854449e-05 -3.821231e-05
1.148400e+01 -4.788736e-05 1.492734e-10 -3.296002e-05 -4.455133e-06
1.148800e+01 -8.073930e-05 6.625774e-10 -1.448156e-05 5.992073e-05
1.149200e+01 -1.747763e-04 2.535740e-10 -1.494189e-04 2.086959e-05
1.149600e+01 -3.176933e-04 -4.704002e-10 -3.647333e-04 -7.248970e-05
1.150000e+01 -4.878147e-04 4.995549e-11 -4.828191e-04 -9.061030e-05
1.150400e+01 -4.376621e-04 6.822490e-10 -3.694372e-04 -1.162447e-05
1.150800e+01 -9.595500e-05 1.590412e-10 -8.005088e-05 3.246407e-05
1.151200e+01 1.849415e-04 -6.255440e-10 1.223871e-04 8.358571e-06
1.151600e+01 2.850583e-04 -1.861881e-10 2.664395e-04 2.286861e-05
1.152000e+01 3.204667e-04 8.230579e-10 4.027725e-04 4.247978e-05
1.152400e+01 4.493196e-04 2.710360e-10 4.764232e-04 2.785765e-05
1.152800e+01 4.737059e-04 -3.855698e-10 4.351489e-04 2.702381e-05
1.153200e+01 3.389290e-04 4.988602e-10 3.888151e-04 2.847476e-05
1.153600e+01 2.809974e-04 6.778317e-10 3.487806e-04 3.369698e-05
1.154000e+01 2.884719e-04 -3.485189e-11 2.849867e-04 3.930553e-05
1.154400e+01 1.675998e-04 9.589161e-11 1.771889e-04 8.830897e-06
1.154800e+01 2.881661e-05 4.253872e-10 7.135534e-05 -2.446535e-05
1.155200e+01 7.617998e-06 2.480515e-10 3.242315e-05 -1.055480e-05
1.155600e+01 4.412947e-05 1.271299e-10 5.684247e-05 3.641231e-06
1.156000e+01 6.939926e-05 -2.565072e-12 6.914275e-05 -2.785351e-05
1.156400e+01 4.637347e-05 -2.131541e-10 2.505806e-05 -5.108140e-05
1.156800e+01 -2.823131e-05 -1.528689e-11 -2.976000e-05 -1.177469e-05
1.157200e+01 -5.037503e-05 2.736483e-10 -2.301020e-05 7.572245e-06
1.157600e+01 5.402768e-05 -2.283790e-10 3.118978e-05 5.500861e-07
1.158000e+01 7.796345e-05 -2.838299e-10 4.958046e-05 -2.833533e-07
1.158400e+01 2.342701e-05 3.186717e-10 5.529418e-05 1.395420e-05
1.158800e+01 -1.979304e-05 3.936818e-10 1.957515e-05 2.684304e-05
1.159200e+01 -2.636477e-05 2.005528e-11 -2.435924e-05 3.068718e-05
1.159600e+01 -1.328173e-05 9.822653e-11 -3.459076e-06 1.016058e-05
1.160000e+01 -2.167077e-05 3.127526e-10 9.604493e-06 1.118919e-06
1.160400e+01 -7.506161e-05 3.618683e-10 -3.887478e-05 -1.754642e-05
1.160800e+01 -8.590323e-05 5.570725e-11 -8.033251e-05 -3.343882e-05
1.161200e+01 -1.111621e-05 1.367430e-11 -9.748775e-06 1.439368e-05
1.161600e+01 -3.078409e-06 4.890871e-10 4.583030e-05 4.030597e-05
1.162000e+01 4.783812e-05 1.108297e-10 5.892109e-05 2.424860e-05
1.162400e+01 3.097994e-05 -2.808172e-10 2.898219e-06 2.099429e-06
1.162800e+01 -6.450583e-05 1.686571e-10 -4.764012e-05 -1.455927e-05
1.163200e+01 -9.804100e-05 3.486146e-10 -6.317954e-05 -2.594187e-05
1.163600e+01 -7.147826e-06 -8.948311e-11 -1.609614e-05 1.521695e-06
1.164000e+01 3.846033e-05 -1.070952e-11 3.738938e-05 4.070636e-05
1.164400e+01 -3.603358e-05 3.003786e-10 -5.995718e-06 2.951842e-05
1.164800e+01 -6.228134e-05 6.784237e-11 -5.549710e-05 -1.530948e-05
1.165200e+01 -2.660750e-05 -8.084483e-11 -3.469198e-05 -1.758728e-05
1.165600e+01 -3.234438e-06 1.916904e-10 1.593460e-05 -5.939970e-06
1.166000e+01 -6.681708e-06 -7.730318e-11 -1.441203e-05 -2.602063e-05
1.166400e+01 4.218591e-05 -4.912728e-10 -6.941371e-06 -3.614508e-06
1.166800e+01 -2.812738e-06 8.399746e-11 5.587008e-06 2.762200e-05
1.167200e+01 -3.727760e-05 8.019297e-11 -2.925830e-05 1.803635e-05
1.167600e+01 3.915729e-06 -6.178042e-10 -5.786469e-05 1.620365e-05
1.168000e+01 -4.297361e-05 -2.289793e-10 -6.587154e-05 1.825158e-06
1.168400e+01 -5.617755e-05 4.847274e-11 -5.133028e-05 -3.716789e-05
1.168800e+01 2.355427e-05 -4.806469e-10 -2.451042e-05 -1.265662e-05
1.169200e+01 2.294913e-05 6.799128e-12 2.362904e-05 7.258266e-06
1.169600e+01 -1.475650e-05 2.770973e-10 1.295324e-05 -2.909669e-05
1.170000e+01 -3.903983e-06 -3.046919e-10 -3.437317e-05 -4.283137e-05
1.170400e+01 -6.207391e-05 -1.480621e-10 -7.688012e-05 -2.371151e-05
1.170800e+01 -7.164795e-05 4.459088e-11 -6.718886e-05 -3.165403e-06
1.171200e+01 -1.607758e-05 -3.697768e-10 -5.305525e-05 -1.805123e-05
1.171600e+01 -1.176291e-05 -6.299382e-10 -7.475673e-05 -2.231405e-05
1.172000e+01 -8.866332e-05 -2.775910e-10 -1.164224e-04 2.902414e-06
1.172400e+01 -8.720027e-05 -1.793851e-10 -1.051388e-04 3.175885e-05
1.172800e+01 -9.353503e-05 -4.499341e-10 -1.385284e-04 -4.232551e-06
1.173200e+01 -8.133544e-05 -7.258424e-10 -1.539197e-04 -2.713901e-05
1.173600e+01 -9.221809e-05 -2.066206e-10 -1.128802e-04 -1.097369e-05
1.174000e+01 -1.085228e-04 1.155761e-10 -9.696521e-05 -4.820592e-06
1.174400e+01 -1.081769e-04 -3.777686e-10 -1.459537e-04 -1.893824e-05
1.174800e+01 -9.586235e-05 -5.742460e-10 -1.532870e-04 4.213819e-06
1.175200e+01 -1.487829e-04 8.511168e-12 -1.479318e-04 2.354706e-05
1.175600e+01 -1.629832e-04 -1.004581e-10 -1.730290e-04 1.865819e-05
1.176000e+01 -1.252193e-04 -6.003139e-10 -1.852507e-04 1.399311e-05
1.176400e+01 -1.544434e-04 -2.995715e-10 -1.844005e-04 2.689825e-06
1.176800e+01 -1.967599e-04 6.219651e-11 -1.905402e-04 -2.071172e-05
1.177200e+01 -1.648447e-04 -1.378525e-10 -1.786299e-04 -2.859077e-05
1.177600e+01 -1.298922e-04 -2.669170e-10 -1.565839e-04 -8.344859e-06
1.178000e+01 -1.816968e-04 -6.174184e-11 -1.878710e-04 -1.417560e-05
1.178400e+01 -1.880825e-04 -2.806077e-10 -2.161433e-04 -1.348131e-05
1.178800e+01 -1.455163e-04 -2.669073e-10 -1.722070e-04 2.118884e-05
1.179200e+01 -9.373391e-05 1.996690e-11 -9.173722e-05 3.391461e-05
1.179600e+01 -5.823819e-05 -2.859869e-10 -8.683689e-05 -1.283557e-05
1.180000e+01 -7.514371e-05 -4.773863e-10 -1.228823e-04 -4.722196e-05
1.180400e+01 -1.683709e-04 2.289250e-10 -1.454784e-04 -3.693377e-05
1.180800e+01 -1.587657e-04 3.028304e-10 -1.284827e-04 -2.433062e-05
1.181200e+01 -1.428650e-05 -5.485221e-10 -6.913871e-05 1.485944e-05
1.181600e+01 4.165430e-05 -3.534899e-10 6.305318e-06 6.414339e-05
1.182000e+01 2.184684e-05 2.092189e-10 4.276873e-05 5.364600e-05
1.182400e+01 8.505455e-05 -1.865810e-10 6.639645e-05 1.789814e-05
1.182800e+01 8.180267e-05 -2.146724e-10 6.033543e-05 8.075028e-07
1.183200e+01 -2.321010e-05 3.393923e-10 1.072912e-05 -1.508745e-05
1.183600e+01 -4.519727e-05 2.953706e-10 -1.566022e-05 -1.176043e-05
1.184000e+01 -4.619011e-06 7.188507e-11 2.569496e-06 1.835127e-05
1.184400e+01 4.827939e-05 7.419632e-11 5.569902e-05 4.017639e-05
1.184800e+01 1.268087e-04 5.753148e-11 1.325619e-04 3.210402e-05
1.185200e+01 1.077330e-04 1.100538e-10 1.187384e-04 -6.728316e-06
1.185600e+01 4.136129e-05 1.382626e-10 5.518755e-05 -3.066182e-05
1.186000e+01 6.238593e-05 1.064251e-10 7.302844e-05 1.762718e-05
1.186400e+01 7.759686e-05 2.603355e-10 1.036304e-04 6.782107e-05
1.186800e+01 1.084342e-04 1.116686e-10 1.196011e-04 6.057235e-05
1.187200e+01 1.173577e-04 -8.407291e-11 1.089504e-04 1.692035e-05
1.187600e+01 5.755318e-05 2.070786e-10 7.826104e-05 -1.284215e-05
1.188000e+01 2.441470e-05 4.793510e-10 7.234980e-05 2.690253e-06
1.188400e+01 7.944501e-05 3.573634e-10 1.151813e-04 2.363913e-05
1.188800e+01 8.044599e-05 9.930263e-11 9.037626e-05 1.084107e-05
1.189200e+01 5.018035e-05 1.611661e-10 6.629696e-05 -6.391135e-06
1.189600e+01 5.043687e-05 4.394323e-10 9.438011e-05 -1.026884e-06
1.190000e+01 1.847990e-05 4.215636e-10 6.063626e-05 -1.260379e-05
1.190400e+01 4.462131e-05 -3.173250e-11 4.144806e-05 -8.812773e-06
1.190800e+01 9.305292e-05 8.499247e-11 1.015522e-04 5.767784e-06
1.191200e+01 6.117208e-05 4.061050e-10 1.017826e-04 -4.578559e-06
1.191600e+01 2.817124e-05 1.782037e-10 4.599160e-05 -2.277524e-05
1.192000e+01 4.821267e-05 7.726524e-11 5.593919e-05 -1.101851e-05
1.192400e+01 7.302470e-05 4.303872e-10 1.160634e-04 1.398116e-05
1.192800e+01 6.304768e-05 4.239254e-10 1.054402e-04 7.732608e-06
1.193200e+01 4.891045e-05 2.999410e-11 5.190986e-05 -1.072966e-05
1.193600e+01 3.953190e-05 1.711780e-10 5.664970e-05 1.138534e-05
1.194000e+01 2.101255e-05 6.422694e-10 8.523949e-05 2.186133e-05
1.194400e+01 2.011470e-05 3.363915e-10 5.375385e-05 -6.721719e-06
1.194800e+01 1.881039e-05 5.160733e-11 2.397113e-05 -1.874261e-05
1.195200e+01 -1.807397e-05 5.605327e-10 3.797931e-05 6.208300e-06
1.195600e+01 -1.490101e-05 6.502476e-10 5.012375e-05 2.439324e-05
1.196000e+01 1.326488e-05 8.337500e-11 2.160238e-05 -5.177511e-06
1.196400e+01 -1.021577e-05 -1.104456e-10 -2.126033e-05 -3.754366e-05
1.196800e+01 1.601414e-05 2.187239e-10 3.788653e-05 4.357473e-07
1.197200e+01 3.827735e-05 5.307153e-10 9.134888e-05 3.844659e-05
1.197600e+01 2.932542e-05 1.799976e-10 4.732518e-05 8.928273e-06
1.198000e+01 4.322854e-06 -1.286998e-10 -8.547121e-06 -1.960219e-05
1.198400e+01 -5.055175e-05 3.924284e-10 -1.130890e-05 -2.072659e-05
1.198800e+01 -1.831116e-05 4.538262e-10 2.707145e-05 -1.165481e-05
1.199200e+01 6.338368e-05 -1.173596e-10 5.164772e-05 -1.243817e-05
1.199600e+01 6.158272e-05 -1.586287e-10 4.571984e-05 -2.027306e-05
1.200000e+01 5.630977e-05 1.895926e-10 7.526903e-05 1.313305e-05
1.200400e+01 4.643651e-05 3.981497e-10 8.625149e-05 1.923754e-05
1.200800e+01 7.398585e-05 -1.817659e-10 5.580927e-05 6.727080e-06
1.201200e+01 1.364660e-05 -2.618846e-10 -1.254186e-05 -9.997732e-06
1.201600e+01 -3.643263e-05 1.824609e-10 -1.818654e-05 -2.125636e-05
1.202000e+01 4.971262e-07 7.092290e-11 7.589416e-06 -3.013299e-05
1.202400e+01 4.414409e-05 -3.205104e-10 1.209306e-05 -4.319328e-05
1.202800e+01 3.503131e-05 -2.724440e-10 7.786904e-06 -5.149920e-05
1.203200e+01 2.273260e-05 -4.581956e-11 1.815065e-05 -1.189094e-05
1.203600e+01 -5.860010e-06 1.158324e-10 5.723231e-06 3.489184e-05
1.204000e+01 5.256187e-05 -1.676941e-10 3.579245e-05 4.887992e-05
1.204400e+01 1.016911e-04 -3.268109e-10 6.901004e-05 1.389230e-05
1.204800e+01 4.213197e-05 -4.008987e-11 3.812298e-05 -2.056498e-05
1.205200e+01 -1.632572e-06 2.370333e-10 2.207076e-05 -8.793188e-06
1.205600e+01 2.426894e-05 1.550885e-10 3.977779e-05 4.217027e-06
1.206000e+01 6.079321e-05 -2.260847e-10 3.818475e-05 -4.687537e-06
1.206400e+01 5.107293e-05 -2.274432e-10 2.832861e-05 -4.202063e-06
1.206800e+01 1.124261e-05 1.325428e-10 2.449689e-05 -7.945812e-06
1.207200e+01 1.778057e-05 -1.122857e-10 6.552003e-06 -3.546313e-05
1.207600e+01 5.987476e-05 -6.228369e-10 -2.408930e-06 -3.845293e-05
1.208000e+01 4.624325e-05 -2.475336e-10 2.148989e-05 -9.582002e-06
1.208400e+01 4.900363e-05 1.088072e-10 5.988435e-05 2.329505e-05
1.208800e+01 8.599503e-05 -2.983323e-10 5.616180e-05 3.556969e-06
1.209200e+01 1.033870e-04 -7.592412e-10 2.746291e-05 -1.583094e-05
1.209600e+01 4.152458e-05 -2.007387e-10 2.145071e-05 -1.354653e-05
1.210000e+01 1.541379e-05 1.594561e-10 3.135940e-05 -5.034555e-06
1.210400e+01 5.887550e-05 -3.313623e-10 2.573927e-05 -9.846930e-06
1.210800e+01 6.962943e-05 -6.041723e-10 9.212198e-06 -7.560307e-06
1.211200e+01 3.084930e-05 -1.886233e-10 1.198697e-05 6.233620e-06
1.211600e+01 3.609322e-05 -6.734972e-12 3.541972e-05 1.021728e-05
1.212000e+01 9.401486e-05 -4.186732e-10 5.214754e-05 1.192789e-06
1.212400e+01 1.028370e-04 -4.940138e-10 5.343567e-05 1.765503e-05
1.212800e+01 4.315512e-05 1.810367e-10 6.125879e-05 1.178599e-05
1.213200e+01 1.146254e-05 1.408262e-10 2.554515e-05 -2.397984e-05
1.213600e+01 2.526348e-05 -4.093803e-10 -1.567456e-05 -2.449753e-05
1.214000e+01 -2.409778e-05 -1.311276e-10 -3.721054e-05 -1.469937e-05
1.214400e+01 -6.366155e-07 2.534137e-11 1.897522e-06 2.076578e-05
1.214800e+01 7.525405e-05 -5.663510e-11 6.959054e-05 6.086087e-05
1.215200e+01 7.712172e-05 -6.819708e-11 7.030201e-05 5.559895e-05
1.215600e+01 6.131360e-05 -2.079837e-10 4.051523e-05 2.112566e-05
1.216000e+01 1.027958e-05 -5.126726e-11 5.152858e-06 -4.096820e-06
1.216400e+01 -3.959865e-05 3.056738e-10 -9.031270e-06 -5.662200e-06
1.216800e+01 -2.259420e-05 2.106848e-10 -1.525717e-06 -1.351161e-05
1.217200e+01 3.275662e-05 -2.551901e-10 7.237609e-06 -1.183478e-05
1.217600e+01 -3.628690e-06 -9.021040e-11 -1.264973e-05 -3.784692e-05
1.218000e+01 -2.162129e-05 -3.523193e-11 -2.514448e-05 -5.033139e-05
1.218400e+01 2.782373e-05 -1.411020e-10 1.371353e-05 -1.985520e-05
1.218800e+01 7.058658e-05 -1.088452e-10 5.970206e-05 1.724123e-05
1.219200e+01 1.221226e-04 -1.945464e-10 1.026680e-04 2.940379e-05
1.219600e+01 7.043645e-05 -2.009046e-10 5.034599e-05 1.237804e-05
1.220000e+01 3.092956e-06 -8.148452e-11 -5.055496e-06 -2.786612e-06
1.220400e+01 -2.042521e-05 1.012317e-11 -1.941290e-05 -8.306817e-06
1.220800e+01 -4.670007e-06 -5.761220e-11 -1.043123e-05 1.501067e-05
1.221200e+01 2.060508e-06 9.673375e-11 1.173388e-05 2.883463e-05
1.221600e+01 1.427812e-05 1.214541e-10 2.642353e-05 2.377471e-06
1.222000e+01 6.207146e-05 -8.534685e-11 5.353677e-05 1.043180e-05
1.222400e+01 3.634683e-06 3.337949e-10 3.701418e-05 2.450754e-05
1.222800e+01 -6.262928e-05 4.465466e-10 -1.797463e-05 -2.393364e-06
1.223200e+01 -4.372106e-05 -3.747866e-11 -4.746893e-05 -2.553652e-05
1.223600e+01 2.562449e-06 6.033819e-11 8.596268e-06 8.541573e-06
1.224000e+01 9.354542e-06 4.495570e-10 5.431024e-05 2.134008e-05
1.224400e+01 8.243162e-05 -1.891877e-10 6.351285e-05 3.992153e-05
1.224800e+01 1.676098e-05 -1.492713e-10 1.833844e-06 2.716916e-05
1.225200e+01 -6.694754e-05 3.184488e-10 -3.510266e-05 -2.142935e-05
1.225600e+01 -6.499214e-06 1.401137e-10 7.512153e-06 1.639288e-06
1.226000e+01 2.191861e-05 3.328675e-10 5.520537e-05 2.433298e-06
1.226400e+01 3.235349e-05 2.048870e-11 3.440236e-05 -3.852330e-05
1.226800e+01 2.404639e-05 -2.127220e-10 2.774188e-06 -3.565387e-05
1.227200e+01 -1.925875e-05 4.198762e-10 2.272887e-05 7.118235e-06
1.227600e+01 -8.311654e-06 3.486514e-10 2.655349e-05 4.085085e-05
1.228000e+01 1.176417e-05 -2.464155e-10 -1.287738e-05 1.469748e-05
1.228400e+01 4.312104e-05 -1.780326e-10 2.531777e-05 -5.227501e-06
1.228800e+01 1.923080e-05 5.140642e-10 7.063722e-05 1.087916e-06
1.229200e+01 5.723118e-05 2.991722e-10 8.714840e-05 1.574210e-05
1.229600e+01 7.042524e-05 -3.317131e-10 3.725393e-05 9.555632e-06
1.230000e+01 3.701130e-05 -1.506034e-10 2.195096e-05 1.664827e-05
1.230400e+01 -8.332037e-06 4.542921e-10 3.709717e-05 1.682753e-05
1.230800e+01 1.472942e-05 2.124024e-10 3.596966e-05 -2.747244e-06
1.231200e+01 1.113776e-05 -1.462669e-10 -3.488926e-06 -2.244347e-05
1.231600e+01 -1.432666e-05 8.504489e-11 -5.822174e-06 7.170303e-06
1.232000e+01 -5.863541e-05 4.341428e-10 -1.522113e-05 -3.766373e-06
1.232400e+01 3.530945e-05 -2.578187e-10 9.527585e-06 -1.428668e-05
1.232800e+01 8.768360e-05 -4.215898e-10 4.552462e-05 1.654194e-05
1.233200e+01 3.443942e-05 2.719040e-10 6.162982e-05 1.483934e-06
1.233600e+01 -8.709355e-06 9.544962e-12 -7.754859e-06 -4.412956e-05
1.234000e+01 7.697177e-05 -3.853037e-10 3.844139e-05 -3.011532e-06
1.234400e+01 6.364129e-05 2.914904e-10 9.279033e-05 1.504837e-05
1.234800e+01 3.453966e-05 -6.866103e-11 2.767356e-05 -3.058114e-05
1.235200e+01 3.246932e-05 -6.497800e-10 -3.250868e-05 -2.722701e-05
1.235600e+01 4.161780e-06 1.026782e-10 1.442960e-05 1.625059e-05
1.236000e+01 5.427759e-05 1.877375e-10 7.305134e-05 4.128957e-05
1.236400e+01 8.550768e-05 -4.566219e-10 3.984549e-05 2.201326e-05
1.236800e+01 5.655114e-05 -2.426470e-10 3.228644e-05 6.333113e-06
1.237200e+01 -8.382056e-06 4.710124e-10 3.871918e-05 4.979332e-07
1.237600e+01 3.812195e-05 2.050293e-10 5.862488e-05 -1.360244e-05
1.238000e+01 7.094640e-05 -3.434325e-10 3.660315e-05 -2.129794e-05
1.238400e+01 -3.593866e-05 -2.301035e-11 -3.823969e-05 -5.105817e-05
1.238800e+01 -1.060563e-04 -5.015118e-11 -1.110714e-04 -5.597873e-05
1.239200e+01 -3.411228e-05 -4.010507e-10 -7.421735e-05 2.497719e-05
1.239600e+01 6.101620e-05 -8.918764e-11 5.209744e-05 6.474029e-05
1.240000e+01 8.413101e-05 -2.707276e-10 5.705825e-05 7.953921e-06
1.240400e+01 6.189588e-05 -6.023163e-10 1.664258e-06 -4.300980e-06
1.240800e+01 -6.919994e-05 2.194264e-10 -4.725730e-05 -3.782662e-06
1.241200e+01 -1.177959e-04 1.313735e-10 -1.046585e-04 -2.968369e-05
1.241600e+01 -1.907592e-05 -6.255139e-10 -8.162730e-05 -1.791084e-05
1.242000e+01 -1.475473e-05 -1.076394e-10 -2.551867e-05 1.633873e-05
1.242400e+01 -5.620656e-05 2.730066e-10 -2.890590e-05 -9.638215e-06
1.242800e+01 8.248997e-06 -5.185811e-10 -4.360911e-05 -2.243935e-05
1.243200e+01 5.834973e-06 -2.991992e-10 -2.408495e-05 -1.265796e-06
1.243600e+01 -6.757357e-05 3.081724e-10 -3.675634e-05 -3.102099e-05
1.244000e+01 1.043890e-05 -4.047033e-10 -3.003143e-05 -2.218869e-05
1.244400e+01 2.916362e-05 -3.155222e-10 -2.388600e-06 1.829733e-05
1.244800e+01 1.897071e-05 1.479933e-10 3.377004e-05 2.116827e-05
1.245200e+01 5.539330e-05 -2.508660e-10 3.030670e-05 -1.664301e-06
1.245600e+01 2.869408e-05 -2.534753e-10 3.346543e-06 4.965758e-06
1.246000e+01 -2.918585e-05 4.002266e-10 1.083681e-05 1.255851e-05
1.246400e+01 1.408411e-05 2.784076e-10 4.192488e-05 -2.935080e-05
1.246800e+01 9.499980e-05 -3.293827e-10 6.206154e-05 -3.550698e-05
1.247200e+01 4.385640e-05 1.835682e-10 6.221321e-05 -2.206716e-05
1.247600e+01 4.064089e-05 3.104535e-10 7.168623e-05 -3.064434e-05
1.248000e+01 9.640068e-05 -3.828655e-10 5.811412e-05 -2.448756e-05
1.248400e+01 2.809562e-05 -2.007956e-10 8.016062e-06 -2.580897e-05
1.248800e+01 3.386862e-05 2.244555e-11 3.611318e-05 -3.319293e-06
1.249200e+01 1.018579e-04 -1.184849e-10 9.000942e-05 3.530506e-05
1.249600e+01 1.104947e-04 -2.086254e-10 8.963214e-05 2.641787e-07
1.250000e+01 1.376486e-04 -5.350179e-10 8.414685e-05 -1.875056e-05
1.250400e+01 8.990546e-05 7.601714e-12 9.066563e-05 1.408802e-05
1.250800e+01 3.791117e-05 4.929880e-10 8.720997e-05 -4.866510e-07
1.251200e+01 9.290200e-05 -3.158930e-10 6.131270e-05 -2.533206e-05
1.251600e+01 4.052365e-05 -1.947083e-10 2.105283e-05 -7.759612e-06
1.252000e+01 -6.810937e-05 7.963756e-10 1.152818e-05 3.786103e-06
1.252400e+01 -1.968125e-05 3.380649e-10 1.412523e-05 -3.854968e-06
1.252800e+01 6.236620e-05 -3.354615e-10 2.882005e-05 -1.489963e-05
1.253200e+01 1.937116e-05 1.330778e-10 3.267894e-05 -8.229059e-06
1.253600e+01 -2.638773e-05 4.438740e-10 1.799968e-05 1.137108e-05
1.254000e+01 2.092102e-06 -4.572043e-11 -2.479941e-06 2.814066e-05
1.254400e+01 -9.421457e-06 -1.671029e-10 -2.613175e-05 2.995477e-05
1.254800e+01 -5.213851e-05 2.064712e-10 -3.149140e-05 4.912474e-06
1.255200e+01 -1.281768e-04 2.252002e-10 -1.056568e-04 -2.279251e-05
1.255600e+01 -3.049164e-04 2.289278e-10 -2.820237e-04 -3.128781e-05
1.256000e+01 -4.891507e-04 3.302996e-10 -4.561208e-04 -4.137285e-05
1.256400e+01 -4.970485e-04 -3.689825e-12 -4.974175e-04 2.975278e-06
1.256800e+01 -3.200164e-04 1.407898e-10 -3.059374e-04 5.852135e-05
1.257200e+01 -4.256333e-05 1.994663e-10 -2.261669e-05 4.399029e-05
1.257600e+01 2.084472e-04 -2.152703e-10 1.869202e-04 7.500853e-06
1.258000e+01 2.826617e-04 1.100244e-10 2.936642e-04 8.847146e-06
1.258400e+01 2.918504e-04 6.271150e-10 3.545619e-04 1.514160e-06
1.258800e+01 3.320188e-04 8.187395e-11 3.402062e-04 9.879491e-06
1.259200e+01 3.059126e-04 1.089179e-11 3.070018e-04 1.824627e-05
1.259600e+01 2.357495e-04 4.029697e-10 2.760464e-04 4.466159e-06
1.260000e+01 2.186041e-04 2.065716e-10 2.392613e-04 3.797775e-06
1.260400e+01 1.866941e-04 1.766411e-10 2.043582e-04 9.144485e-06
1.260800e+01 5.496930e-05 3.606286e-10 9.103216e-05 1.102950e-05
1.261200e+01 -1.952881e-05 2.864771e-10 9.118895e-06 1.605143e-05
1.261600e+01 1.775457e-05 2.526629e-10 4.302086e-05 3.901234e-05
1.262000e+01 2.035342e-05 3.967228e-10 6.002570e-05 2.268718e-05
1.262400e+01 5.005716e-06 -5.254873e-12 4.480229e-06 -1.970840e-05
1.262800e+01 -3.694952e-05 -1.692798e-10 -5.387750e-05 2.155834e-06
1.263200e+01 -7.512827e-05 3.751465e-10 -3.761362e-05 4.423031e-05
1.263600e+01 -2.177478e-05 1.168084e-10 -1.009395e-05 5.239370e-05
1.264000e+01 4.357288e-05 -3.151415e-10 1.205873e-05 1.782939e-05
1.264400e+01 -2.398888e-05 8.613691e-11 -1.537518e-05 -3.069274e-05
1.264800e+01 -9.382869e-05 3.363306e-10 -6.019563e-05 -3.243614e-05
1.265200e+01 -7.935879e-05 1.540676e-10 -6.395203e-05 -2.403209e-06
1.265600e+01 5.462741e-06 -4.773659e-11 6.890824e-07 4.807414e-05
1.266000e+01 -1.126146e-05 1.811077e-10 6.849313e-06 1.632345e-05
1.266400e+01 -5.961748e-06 -8.799479e-11 -1.476123e-05 4.643836e-06
1.266800e+01 -8.571170e-05 2.041045e-10 -6.530125e-05 1.859878e-05
1.267200e+01 -1.278275e-04 2.892183e-10 -9.890565e-05 6.390106e-06
1.267600e+01 -7.543687e-05 -1.377874e-10 -8.921562e-05 -1.007581e-05
1.268000e+01 -3.039690e-05 8.737795e-11 -2.165911e-05 1.952446e-05
1.268400e+01 -4.844435e-05 4.093437e-10 -7.509977e-06 4.848753e-05
1.268800e+01 -6.527140e-05 -7.612741e-11 -7.288414e-05 4.654472e-06
1.269200e+01 -8.230307e-05 -4.531058e-10 -1.276136e-04 -4.912979e-05
1.269600e+01 -1.215529e-04 1.737702e-10 -1.041759e-04 -3.164802e-05
1.270000e+01 -1.092845e-04 5.692366e-10 -5.236081e-05 1.131497e-05
1.270400e+01 -1.147256e-05 -1.547760e-10 -2.695017e-05 4.088214e-05
1.270800e+01 -1.586888e-05 -3.909897e-10 -5.496785e-05 2.486618e-05
1.271200e+01 -8.472852e-05 -1.296365e-11 -8.602488e-05 -8.190907e-06
1.271600e+01 -1.005203e-04 1.915781e-11 -9.860456e-05 -1.943376e-05
1.272000e+01 -6.998400e-05 -2.228382e-10 -9.226782e-05 1.447650e-05
1.272400e+01 -5.199432e-05 -4.914038e-11 -5.690836e-05 2.140362e-05
1.272800e+01 -7.241829e-05 3.515660e-12 -7.206672e-05 -1.960401e-05
1.273200e+01 -5.120344e-05 -2.030397e-10 -7.150741e-05 -1.557115e-05
1.273600e+01 -7.964156e-05 5.640280e-11 -7.400128e-05 -3.320849e-05
1.274000e+01 -7.395710e-05 -2.806416e-10 -1.020213e-04 -4.779738e-05
1.274400e+01 -3.848532e-05 -3.748736e-10 -7.597268e-05 -1.481363e-05
1.274800e+01 -6.499945e-05 6.980301e-11 -5.801914e-05 6.001381e-06
1.275200e+01 -9.960419e-05 -2.549719e-10 -1.251014e-04 -1.056054e-05
1.275600e+01 -9.107842e-05 -5.420218e-10 -1.452806e-04 -2.146781e-05
1.276000e+01 -1.562719e-04 4.472167e-11 -1.517998e-04 -5.328049e-05
1.276400e+01 -1.806356e-04 -4.063911e-11 -1.846995e-04 -6.495271e-05
1.276800e+01 -1.550410e-04 -3.173227e-10 -1.867733e-04 -1.511843e-05
1.277200e+01 -1.213804e-04 -9.811729e-11 -1.311922e-04 4.558593e-05
1.277600e+01 -9.293376e-05 -2.492174e-10 -1.178555e-04 3.170641e-05
1.278000e+01 -7.845457e-05 -6.876546e-10 -1.472200e-04 -8.749751e-06
1.278400e+01 -1.080854e-04 -3.195753e-10 -1.400429e-04 -1.288156e-06
1.278800e+01 -1.842133e-04 1.712838e-10 -1.670849e-04 8.883411e-06
1.279200e+01 -1.559839e-04 -3.019166e-10 -1.861755e-04 -6.198288e-06
1.279600e+01 -1.230255e-04 -5.978165e-10 -1.828071e-04 -7.973250e-06
1.280000e+01 -2.067879e-04 -4.545237e-11 -2.113332e-04 -1.213947e-05
1.280400e+01 -2.750068e-04 2.060323e-11 -2.729464e-04 -4.778708e-05
1.280800e+01 -1.726498e-04 -6.210869e-10 -2.347585e-04 -7.268890e-06
1.281200e+01 -1.184478e-04 -2.098251e-10 -1.394303e-04 5.990503e-05
1.281600e+01 -1.453432e-04 3.393246e-11 -1.419499e-04 3.638066e-05
1.282000e+01 -1.663446e-04 -6.317654e-10 -2.295212e-04 3.849955e-06
1.282400e+01 -2.536213e-04 -2.645314e-10 -2.800745e-04 1.543897e-05
1.282800e+01 -2.365150e-04 2.520500e-10 -2.113100e-04 1.846728e-05
1.283200e+01 -1.484714e-04 -2.846944e-10 -1.769409e-04 -2.702097e-06
1.283600e+01 -1.891799e-04 -4.123997e-10 -2.304198e-04 -1.646020e-05
1.284000e+01 -2.452887e-04 6.649848e-11 -2.386388e-04 -6.981579e-06
1.284400e+01 -2.686702e-04 6.999777e-11 -2.616704e-04 -1.140891e-05
1.284800e+01 -2.042306e-04 -3.667046e-10 -2.409010e-04 -1.049743e-05
1.285200e+01 -1.912837e-04 -1.540114e-10 -2.066848e-04 4.086104e-06
1.285600e+01 -2.394795e-04 1.975650e-10 -2.197230e-04 4.915594e-06
1.286000e+01 -1.878465e-04 -1.252126e-10 -2.003678e-04 1.241611e-05
1.286400e+01 -1.120908e-04 -1.396214e-10 -1.260529e-04 3.558520e-05
1.286800e+01 -1.092108e-04 3.662497e-10 -7.258585e-05 1.397225e-05
1.287200e+01 -1.063115e-04 1.931876e-10 -8.699275e-05 -1.681969e-05
1.287600e+01 -1.263923e-04 2.390600e-13 -1.263684e-04 -1.350365e-05
1.288000e+01 -1.790212e-04 3.689325e-10 -1.421279e-04 -1.266984e-05
1.288400e+01 -1.391947e-04 3.557839e-10 -1.036163e-04 -3.822654e-06
1.288800e+01 -2.943381e-05 2.237884e-10 -7.054969e-06 1.405011e-05
1.289200e+01 -4.128409e-05 3.635867e-10 -4.925420e-06 -1.087902e-05
1.289600e+01 -9.877340e-06 1.270407e-10 2.826734e-06 -1.156908e-06
1.290000e+01 -3.478559e-05 3.187558e-10 -2.910012e-06 1.454810e-05
1.290400e+01 -1.704381e-05 3.077327e-10 1.372946e-05 1.509883e-05
1.290800e+01 -2.698863e-07 7.457845e-11 7.187959e-06 6.395906e-06
1.291200e+01 -5.715586e-05 2.787644e-10 -2.927942e-05 -3.644782e-05
1.291600e+01 -6.316784e-05 1.939468e-10 -4.377315e-05 -2.551914e-05
1.292000e+01 -2.966272e-05 3.494100e-10 5.278282e-06 1.582867e-05
1.292400e+01 5.826901e-05 3.155256e-10 8.982157e-05 1.951297e-05
1.292800e+01 9.628708e-05 -1.057464e-10 8.571245e-05 1.620858e-06
1.293200e+01 1.968914e-07 2.418225e-10 2.437914e-05 -2.083345e-05
1.293600e+01 -8.160736e-05 6.869627e-10 -1.291109e-05 -2.484479e-05
1.294000e+01 -3.924875e-05 3.080092e-10 -8.447832e-06 4.322021e-06
1.294400e+01 8.163363e-06 5.959358e-11 1.412272e-05 1.133029e-05
1.294800e+01 3.973533e-05 1.663788e-10 5.637321e-05 -1.537421e-05
1.295200e+01 7.599459e-05 1.822172e-10 9.421631e-05 1.252030e-05
1.295600e+01 2.975755e-05 5.017005e-10 7.992759e-05 2.619784e-05
1.296000e+01 3.637886e-06 2.102202e-10 2.465991e-05 -1.678864e-05
1.296400e+01 -1.206334e-05 -1.138766e-10 -2.345100e-05 -5.515683e-05
1.296800e+01 -7.444426e-05 3.691101e-10 -3.753325e-05 -4.028538e-05
1.297200e+01 -7.270955e-05 5.856037e-10 -1.414918e-05 6.630796e-06
1.297600e+01 -3.162101e-05 1.873757e-10 -1.288344e-05 -1.025963e-05
1.298000e+01 1.786252e-05 -2.032281e-10 -2.460283e-06 -2.081122e-05
1.298400e+01 -1.210188e-05 3.931886e-10 2.721698e-05 -2.375483e-06
1.298800e+01 -1.688059e-05 5.206417e-10 3.518358e-05 1.496730e-05
1.299200e+01 4.876355e-05 -2.028588e-10 2.847767e-05 1.228637e-06
1.299600e+01 3.191420e-05 -3.223383e-10 -3.196254e-07 8.545432e-06
1.300000e+01 -4.545320e-05 4.542802e-10 -2.518428e-08 2.197875e-05
1.300400e+01 -3.386350e-05 3.423279e-10 3.692917e-07 2.838213e-05
1.300800e+01 -2.303493e-05 -1.612111e-10 -3.915604e-05 7.902122e-06
1.301200e+01 -1.464302e-05 -2.946502e-11 -1.758952e-05 2.635127e-05
1.301600e+01 -2.737427e-05 5.928279e-10 3.190852e-05 2.911885e-05
1.302000e+01 -2.974390e-06 1.686859e-10 1.389420e-05 3.247167e-06
1.302400e+01 1.372647e-05 -3.513263e-10 -2.140616e-05 2.483637e-05
1.302800e+01 -4.011543e-05 2.503825e-10 -1.507718e-05 3.737044e-05
1.303200e+01 -2.736948e-05 2.100340e-10 -6.366088e-06 -1.357570e-05
1.303600e+01 4.550182e-05 -5.193786e-10 -6.436046e-06 -1.209136e-05
1.304000e+01 -3.645108e-05 9.872322e-11 -2.657876e-05 -3.851216e-06
1.304400e+01 -8.277736e-05 2.175692e-10 -6.102044e-05 -3.978376e-05
1.304800e+01 -7.961653e-06 -5.507980e-10 -6.304146e-05 -5.223392e-05
1.305200e+01 -2.628588e-05 -2.226966e-10 -4.855554e-05 -2.757027e-05
1.305600e+01 -3.276409e-05 9.369204e-11 -2.339489e-05 1.700478e-05
1.306000e+01 1.479225e-05 -3.977385e-10 -2.498161e-05 3.513143e-05
1.306400e+01 2.953203e-05 -6.259842e-10 -3.306639e-05 3.349225e-05
1.306800e+01 -3.602227e-05 -6.810258e-11 -4.283253e-05 1.385017e-05
1.307200e+01 -5.039401e-05 9.982849e-13 -5.029418e-05 1.606201e-06
1.307600e+01 -5.297528e-06 -2.640482e-10 -3.170235e-05 -1.948446e-05
1.308000e+01 2.125383e-05 -3.021063e-10 -8.956801e-06 -2.548658e-05
1.308400e+01 -1.411246e-05 -8.035960e-11 -2.214842e-05 -1.961310e-05
1.308800e+01 4.787932e-05 -2.147410e-10 2.640522e-05 3.406782e-05
1.309200e+01 5.204085e-05 -1.459542e-10 3.744544e-05 7.035866e-05
1.309600e+01 1.657743e-06 -2.517826e-10 -2.352052e-05 5.075130e-05
1.310000e+01 -4.972364e-05 -3.283480e-10 -8.255844e-05 2.301042e-06
1.310400e+01 -4.767727e-05 -8.447152e-11 -5.612443e-05 -4.585048e-05
1.310800e+01 2.060445e-05 -1.745825e-10 3.146200e-06 -1.693508e-05
1.311200e+01 6.124007e-06 -6.439665e-12 5.480040e-06 -4.987332e-06
1.311600e+01 1.593069e-05 -3.047564e-10 -1.454495e-05 -2.219333e-05
1.312000e+01 3.919397e-05 -6.332121e-10 -2.412724e-05 -2.046585e-05
1.312400e+01 5.193268e-05 -3.830417e-10 1.362851e-05 3.087546e-05
1.312800e+01 -6.489063e-06 -3.287616e-11 -9.776679e-06 2.886283e-05
1.313200e+01 8.866301e-06 -5.720783e-10 -4.834153e-05 -5.138031e-06
1.313600e+01 -1.110581e-05 -5.319081e-10 -6.429662e-05 -1.010728e-05
1.314000e+01 -4.489748e-05 1.207455e-10 -3.282293e-05 2.117839e-05
1.314400e+01 -2.721389e-05 5.256895e-11 -2.195699e-05 1.452755e-05
1.314800e+01 2.698250e-05 -5.612729e-10 -2.914479e-05 -5.494453e-05
1.315200e+01 7.049808e-05 -5.438026e-10 1.611781e-05 -4.308333e-05
1.315600e+01 4.775469e-05 3.729683e-10 8.505152e-05 6.418827e-06
1.316000e+01 7.147657e-05 -1.663674e-12 7.131021e-05 2.154482e-05
1.316400e+01 6.591369e-05 -7.247508e-10 -6.561393e-06 -2.446397e-05
1.316800e+01 2.899809e-05 -4.560357e-10 -1.660548e-05 -3.811720e-05
1.317200e+01 -3.246435e-06 1.410556e-10 1.085912e-05 -1.522319e-05
1.317600e+01 1.751970e-05 -1.543928e-10 2.080426e-06 -1.755054e-05
1.318000e+01 2.569402e-05 -6.301284e-10 -3.731882e-05 -5.719451e-05
1.318400e+01 -1.226118e-05 -3.571212e-10 -4.797331e-05 -5.067268e-05
1.318800e+01 -5.878722e-06 2.125292e-10 1.537420e-05 2.318856e-05
1.319200e+01 6.889678e-05 3.531050e-12 6.924989e-05 7.266144e-05
1.319600e+01 8.048930e-05 -6.020725e-10 2.028205e-05 3.063837e-05
1.320000e+01 7.411748e-05 -5.532619e-10 1.879129e-05 1.574197e-05
1.320400e+01 2.028637e-05 2.668561e-10 4.697198e-05 2.361754e-05
1.320800e+01 3.217742e-05 -4.902270e-11 2.727515e-05 3.056556e-06
1.321200e+01 1.258573e-04 -7.626725e-10 4.959008e-05 1.554915e-05
1.321600e+01 3.084278e-05 1.133333e-10 4.217611e-05 2.891047e-06
1.322000e+01 -2.725057e-06 3.216998e-10 2.944493e-05 -1.199772e-05
1.322400e+01 5.941340e-06 -2.492059e-10 -1.897925e-05 -1.852047e-05
1.322800e+01 -4.161471e-05 -2.358842e-10 -6.520313e-05 -2.685065e-05
1.323200e+01 -5.575115e-05 2.471664e-11 -5.327949e-05 -1.369626e-05
1.323600e+01 1.046218e-05 5.820600e-11 1.628278e-05 2.803232e-05
1.324000e+01 4.618121e-05 3.312141e-11 4.949335e-05 2.017622e-05
1.324400e+01 3.422524e-05 -2.428656e-10 9.938682e-06 -4.081826e-05
1.324800e+01 1.610509e-05 -2.388594e-10 -7.780858e-06 -4.047139e-05
1.325200e+01 -3.012419e-05 4.662903e-10 1.650484e-05 -1.413788e-05
1.325600e+01 -3.382219e-06 1.927295e-10 1.589073e-05 -1.108651e-05
1.326000e+01 6.902090e-05 -4.924967e-10 1.977123e-05 -4.386246e-06
1.326400e+01 3.729833e-05 -8.199861e-11 2.909847e-05 2.057065e-05
1.326800e+01 -3.706623e-05 3.489517e-10 -2.171062e-06 1.761407e-05
1.327200e+01 -8.396270e-05 -8.465767e-11 -9.242847e-05 -3.803064e-05
1.327600e+01 -7.500717e-06 -2.850075e-10 -3.600147e-05 -1.318180e-05
1.328000e+01 1.183271e-05 7.108064e-10 8.291334e-05 4.642010e-05
1.328400e+01 3.872943e-05 6.676339e-10 1.054928e-04 5.843644e-05
1.328800e+01 5.013212e-05 -1.673767e-10 3.339445e-05 3.604080e-05
1.329200e+01 -6.594472e-05 1.649271e-10 -4.945200e-05 4.566269e-07
1.329600e+01 -1.580531e-04 6.898620e-10 -8.906687e-05 -4.466957e-05
1.330000e+01 -5.789234e-05 3.671758e-10 -2.117477e-05 -4.645097e-05
1.330400e+01 -2.681284e-06 4.031684e-10 3.763556e-05 -1.974369e-05
1.330800e+01 -2.229431e-05 5.128014e-10 2.898582e-05 -6.827744e-06
1.331200e+01 -2.445943e-05 1.990579e-10 -4.553640e-06 -2.247884e-05
1.331600e+01 -5.702491e-05 1.184817e-10 -4.517675e-05 -4.629802e-05
1.332000e+01 -7.797510e-05 2.238095e-10 -5.559416e-05 -3.284294e-05
1.332400e+01 -2.391644e-05 1.989700e-10 -4.019438e-06 4.346784e-05
1.332800e+01 1.437891e-05 3.550786e-10 4.988677e-05 5.802639e-05
1.333200e+01 4.157126e-05 -5.136106e-11 3.643515e-05 5.265066e-07
1.333600e+01 2.163847e-05 -1.095385e-10 1.068462e-05 -2.405698e-05
1.334000e+01 -7.041086e-05 6.830950e-10 -2.101362e-06 -6.480779e-06
1.334400e+01 -1.155210e-04 5.690075e-10 -5.862028e-05 -2.193797e-05
1.334800e+01 -2.860997e-05 -2.327545e-10 -5.188542e-05 -3.360646e-05
1.335200e+01 -4.364706e-05 1.595004e-10 -2.769702e-05 -1.925972e-05
1.335600e+01 -1.113620e-04 5.611615e-10 -5.524588e-05 -1.955775e-05
1.336000e+01 -8.639741e-05 -1.087118e-10 -9.726859e-05 -2.750689e-05
1.336400e+01 -1.330594e-05 -2.163376e-10 -3.493971e-05 2.575615e-05
1.336800e+01 -3.557155e-05 5.641380e-10 2.084226e-05 7.957990e-05
1.337200e+01 -6.553483e-05 3.264346e-10 -3.289137e-05 6.097221e-05
1.337600e+01 -3.395179e-05 -2.871779e-10 -6.266958e-05 3.908414e-05
1.338000e+01 -1.044691e-04 3.524359e-10 -6.922556e-05 3.305521e-05
1.338400e+01 -1.242919e-04 6.354082e-10 -6.075111e-05 2.154423e-05
1.338800e+01 -9.805060e-05 1.465946e-10 -8.339113e-05 -4.411803e-06
1.339200e+01 -1.580070e-04 2.033822e-10 -1.376687e-04 -1.584284e-05
1.339600e+01 -1.422235e-04 5.064102e-10 -9.158250e-05 3.634106e-05
1.340000e+01 -1.261023e-04 4.298855e-10 -8.311371e-05 5.393048e-05
1.340400e+01 -8.780729e-05 -2.332058e-10 -1.111279e-04 2.446601e-05
1.340800e+01 -1.059641e-04 -2.367987e-10 -1.296440e-04 2.841420e-06
1.341200e+01 -1.165096e-04 2.156009e-10 -9.494950e-05 -6.732926e-07
1.341600e+01 -6.669756e-05 4.454339e-11 -6.224322e-05 1.048957e-05
1.342000e+01 -3.211201e-05 -2.070295e-10 -5.281496e-05 2.164342e-05
1.342400e+01 -3.726664e-05 7.790031e-11 -2.947661e-05 2.280724e-05
1.342800e+01 -1.068213e-04 3.619159e-10 -7.062968e-05 -4.751405e-06
1.343200e+01 -1.747791e-04 6.391356e-11 -1.683877e-04 -5.472811e-05
1.343600e+01 -1.538451e-04 -2.259704e-10 -1.764422e-04 -5.492318e-05
1.344000e+01 -4.473264e-05 2.283240e-10 -2.190024e-05 3.332018e-05
1.344400e+01 -9.203030e-06 6.191418e-10 5.271115e-05 5.349407e-05
1.344800e+01 2.289172e-05 -3.310766e-10 -1.021593e-05 -1.501289e-05
1.345200e+01 4.376950e-05 -5.837121e-10 -1.460171e-05 2.511070e-07
1.345600e+01 7.770179e-06 7.599484e-10 8.376502e-05 5.620446e-05
1.346000e+01 -8.722343e-06 4.748097e-10 3.875863e-05 2.855015e-05
1.346400e+01 4.323515e-05 -7.897992e-10 -3.574477e-05 -2.590828e-05
1.346800e+01 -4.402276e-05 8.415575e-11 -3.560718e-05 -2.479366e-05
1.347200e+01 -9.902719e-05 1.022775e-09 3.250347e-06 2.511376e-07
1.347600e+01 2.200677e-05 -1.268915e-10 9.317613e-06 -2.384194e-06
1.348000e+01 5.113763e-05 -8.023274e-10 -2.909511e-05 1.797315e-06
1.348400e+01 -8.635115e-05 2.830759e-10 -5.804356e-05 3.035343e-05
1.348800e+01 -1.043248e-04 6.112375e-10 -4.320108e-05 9.632633e-06
1.349200e+01 7.096177e-05 -5.199862e-10 1.896315e-05 -2.212671e-05
1.349600e+01 8.993729e-05 -5.072453e-10 3.921275e-05 -1.429387e-05
1.350000e+01 2.709058e-05 4.031644e-10 6.740703e-05 -5.721928e-06
1.350400e+01 4.029977e-05 1.224932e-10 5.254908e-05 -1.289229e-05
1.350800e+01 7.242156e-05 -4.790065e-10 2.452091e-05 1.080648e-06
1.351200e+01 1.752821e-06 -6.644254e-11 -4.891433e-06 3.739845e-06
1.351600e+01 -9.164586e-05 1.588523e-10 -7.576062e-05 -3.549436e-05
1.352000e+01 -3.131423e-05 -3.032270e-10 -6.163694e-05 -2.881458e-05
1.352400e+01 6.973783e-06 -1.231221e-10 -5.338427e-06 5.861276e-06
1.352800e+01 -2.381487e-05 1.998688e-11 -2.181618e-05 1.071168e-05
1.353200e+01 -1.048259e-05 -3.203782e-10 -4.252041e-05 3.716608e-05
1.353600e+01 -6.269017e-05 5.329502e-11 -5.736067e-05 1.676711e-05
1.354000e+01 -1.757648e-04 -4.400015e-11 -1.801648e-04 -5.325018e-05
1.354400e+01 -2.907377e-04 -4.600095e-10 -3.367387e-04 -5.640107e-05
1.354800e+01 -4.287612e-04 1.316408e-10 -4.155971e-04 -5.273349e-07
1.355200e+01 -5.090313e-04 2.893173e-10 -4.800996e-04 2.034587e-05
1.355600e+01 -3.527806e-04 -5.125452e-10 -4.040351e-04 6.485655e-06
1.356000e+01 -1.179786e-04 -4.093493e-10 -1.589135e-04 4.898702e-06
1.356400e+01 9.887255e-06 3.447584e-10 4.436309e-05 -2.258092e-05
1.356800e+01 1.628988e-04 -7.462962e-11 1.554358e-04 -2.579815e-05
1.357200e+01 3.387153e-04 -3.858426e-10 3.001311e-04 1.459678e-05
1.357600e+01 3.794778e-04 -1.214130e-12 3.793564e-04 2.609884e-05
1.358000e+01 3.522220e-04 -1.354931e-10 3.386727e-04 -2.017283e-05
1.358400e+01 3.373898e-04 -4.383182e-10 2.935580e-04 -1.968149e-05
1.358800e+01 2.437331e-04 7.772965e-11 2.515060e-04 -1.159897e-06
1.359200e+01 1.954794e-04 -8.875522e-11 1.866039e-04 -1.074844e-05
1.359600e+01 1.599369e-04 -6.128362e-10 9.865323e-05 -1.279236e-05
1.360000e+01 1.477654e-05 -1.001702e-10 4.759519e-06 -1.288602e-05
1.360400e+01 -9.715704e-05 1.370054e-10 -8.345651e-05 -4.096080e-05
1.360800e+01 -9.479221e-06 -5.317813e-10 -6.265735e-05 -2.471628e-05
1.361200e+01 3.554893e-05 -3.024745e-10 5.301475e-06 2.205946e-05
1.361600e+01 -2.256359e-05 5.684169e-11 -1.687942e-05 3.477602e-05
1.362000e+01 -6.449858e-05 -3.539371e-10 -9.989229e-05 8.609726e-06
1.362400e+01 -8.528238e-05 -4.178935e-10 -1.270717e-04 -2.089851e-05
1.362800e+01 -9.529440e-05 -3.950180e-11 -9.924458e-05 -1.799200e-05
1.363200e+01 -5.159565e-05 5.786494e-11 -4.580916e-05 1.959116e-05
1.363600e+01 -6.753536e-05 -2.743867e-11 -7.027923e-05 -6.355508e-06
1.364000e+01 -5.829562e-05 -5.204747e-10 -1.103431e-04 -2.739647e-07
1.364400e+01 -4.916263e-05 -4.206548e-11 -5.336918e-05 5.470797e-05
1.364800e+01 -2.445364e-05 4.740835e-10 2.295471e-05 7.234565e-05
1.365200e+01 -6.088338e-07 -1.267412e-10 -1.328295e-05 1.881054e-05
1.365600e+01 -4.791532e-05 -3.956681e-10 -8.748213e-05 -2.756293e-05
1.366000e+01 -1.689393e-04 3.233557e-10 -1.366038e-04 -3.493278e-05
1.366400e+01 -1.652746e-04 3.799292e-10 -1.272816e-04 -3.161360e-05
1.366800e+01 -2.520108e-05 -2.879114e-10 -5.399222e-05 9.046356e-07
1.367200e+01 -3.737387e-05 6.560852e-11 -3.081301e-05 -1.467874e-06
1.367600e+01 -1.161344e-04 2.349889e-10 -9.263556e-05 -1.484757e-05
1.368000e+01 -1.538808e-04 -1.225994e-10 -1.661407e-04 -1.198521e-05
1.368400e+01 -1.235098e-04 -1.601618e-10 -1.395260e-04 -1.180588e-05
1.368800e+01 -1.188946e-04 5.808529e-11 -1.130861e-04 -2.703204e-05
1.369200e+01 -9.684770e-05 4.698985e-11 -9.214872e-05 -4.816965e-06
1.369600e+01 -1.283637e-04 2.274989e-10 -1.056138e-04 7.683412e-06
1.370000e+01 -1.261468e-04 7.070011e-11 -1.190768e-04 -1.176848e-05
1.370400e+01 -5.227105e-05 -1.590960e-10 -6.818065e-05 -1.999690e-06
1.370800e+01 -5.983751e-05 3.991086e-10 -1.992665e-05 2.637237e-05
1.371200e+01 -1.415877e-04 6.343010e-10 -7.815757e-05 -2.045957e-06
1.371600e+01 -9.480827e-05 -1.368479e-10 -1.084931e-04 2.339130e-05
1.372000e+01 -1.454117e-04 4.244255e-10 -1.029692e-04 4.393613e-05
1.372400e+01 -2.401848e-04 7.356021e-10 -1.666246e-04 -1.152336e-05
1.372800e+01 -1.909268e-04 -1.714949e-10 -2.080763e-04 -6.295045e-05
1.373200e+01 -1.701394e-04 6.578850e-11 -1.635605e-04 -5.111247e-05
1.373600e+01 -2.596868e-04 8.276752e-10 -1.769193e-04 -3.283452e-05
1.374000e+01 -1.689894e-04 9.191687e-11 -1.597977e-04 -6.836409e-06
1.374400e+01 -6.548141e-05 -3.999361e-10 -1.054750e-04 3.497328e-05
1.374800e+01 -1.286047e-04 2.321245e-10 -1.053923e-04 3.807974e-05
1.375200e+01 -1.809049e-04 2.762452e-10 -1.532804e-04 -1.347337e-05
1.375600e+01 -1.473031e-04 -1.877928e-10 -1.660823e-04 -3.182091e-05
1.376000e+01 -1.671166e-04 8.851353e-11 -1.582653e-04 -2.282580e-05
1.376400e+01 -1.286256e-04 1.116040e-10 -1.174652e-04 5.270725e-06
1.376800e+01 -1.450246e-04 -8.950067e-11 -1.539747e-04 -3.782613e-06
1.377200e+01 -2.171392e-04 -2.062399e-10 -2.377632e-04 -4.582155e-05
1.377600e+01 -2.239470e-04 -2.385563e-10 -2.478027e-04 -1.377422e-05
1.378000e+01 -2.180192e-04 1.635302e-10 -2.016662e-04 4.024861e-05
1.378400e+01 -1.725357e-04 -9.813862e-11 -1.823496e-04 3.794333e-05
1.378800e+01 -2.002569e-04 -5.351957e-10 -2.537764e-04 -1.916676e-05
1.379200e+01 -2.655446e-04 -2.573598e-10 -2.912805e-04 -1.458607e-05
1.379600e+01 -2.744923e-04 3.878682e-10 -2.357054e-04 3.630888e-05
1.380000e+01 -1.979658e-04 6.103125e-11 -1.918627e-04 1.797887e-05
1.380400e+01 -1.895875e-04 -6.490545e-10 -2.544929e-04 -4.747514e-05
1.380800e+01 -2.775041e-04 -1.254378e-10 -2.900479e-04 -4.006932e-05
1.381200e+01 -3.161595e-04 5.621793e-10 -2.599416e-04 2.384575e-05
1.381600e+01 -2.192044e-04 -1.903836e-10 -2.382427e-04 5.384664e-05
1.382000e+01 -1.329885e-04 -8.693415e-10 -2.199227e-04 7.236800e-05
1.382400e+01 -2.228641e-04 2.127003e-11 -2.207371e-04 3.867102e-05
1.382800e+01 -2.483743e-04 1.786328e-10 -2.305110e-04 -8.558131e-06
1.383200e+01 -1.722512e-04 -3.161492e-10 -2.038661e-04 8.831249e-06
1.383600e+01 -2.137843e-04 5.707146e-11 -2.080771e-04 2.312558e-05
1.384000e+01 -2.540706e-04 1.046709e-10 -2.436035e-04 -6.637423e-06
1.384400e+01 -1.954563e-04 -3.366490e-10 -2.291212e-04 -3.942161e-07
1.384800e+01 -2.053159e-04 -2.739501e-11 -2.080554e-04 2.888103e-05
1.385200e+01 -1.818556e-04 7.196869e-11 -1.746587e-04 2.159347e-05
1.385600e+01 -9.328492e-05 -3.469779e-10 -1.279827e-04 1.752132e-05
1.386000e+01 -1.015430e-04 -3.025210e-11 -1.045682e-04 1.854237e-05
1.386400e+01 -1.582827e-04 1.821252e-10 -1.400701e-04 4.866060e-06
1.386800e+01 -1.369377e-04 -2.413533e-10 -1.610730e-04 -2.196217e-05
1.387200e+01 -1.011611e-04 -3.167152e-10 -1.328326e-04 -4.640717e-05
1.387600e+01 -3.721658e-05 -1.266328e-10 -4.987986e-05 -6.524999e-06
1.388000e+01 9.088279e-06 1.208856e-10 2.117683e-05 3.342420e-05
1.388400e+01 -6.853980e-06 -8.020590e-11 -1.487457e-05 3.933665e-06
1.388800e+01 -2.278925e-05 -5.343634e-10 -7.622559e-05 -1.393710e-05
1.389200e+01 -3.068234e-05 -7.453946e-11 -3.813628e-05 2.008398e-05
1.389600e+01 -1.364597e-05 4.176624e-10 2.812027e-05 4.362018e-05
1.390000e+01 5.899922e-05 -1.471053e-10 4.428870e-05 2.921667e-05
1.390400e+01 9.261623e-05 -4.687614e-10 4.574010e-05 -7.964201e-08
1.390800e+01 4.634372e-05 5.177610e-11 5.152133e-05 -1.403921e-05
1.391200e+01 1.470501e-06 1.855061e-10 2.002111e-05 -1.602759e-05
1.391600e+01 5.550510e-06 -2.854003e-10 -2.298952e-05 -3.075311e-05
1.392000e+01 7.564538e-05 -4.048505e-10 3.516033e-05 -9.442970e-06
1.392400e+01 7.374847e-05 2.580337e-10 9.955183e-05 3.041218e-05
1.392800e+01 3.642922e-05 2.890400e-10 6.533322e-05 2.338584e-05
1.393200e+01 8.640803e-05 -4.105117e-10 4.535686e-05 7.196911e-06
1.393600e+01 6.154471e-05 -1.255426e-10 4.899045e-05 -6.659168e-06
1.394000e+01 1.770778e-05 3.426462e-10 5.197240e-05 -2.459074e-05
1.394400e+01 4.099705e-05 7.094323e-11 4.809138e-05 -4.810440e-06
1.394800e+01 4.270087e-05 1.292141e-11 4.399301e-05 9.182295e-06
1.395200e+01 5.081492e-05 -8.347803e-11 4.246712e-05 -1.624822e-05
1.395600e+01 8.923073e-05 -2.936407e-10 5.986666e-05 -2.479058e-05
1.396000e+01 2.675533e-05 9.477987e-11 3.623332e-05 -2.720320e-05
1.396400e+01 2.511325e-05 -9.463830e-11 1.564942e-05 -7.130183e-07
1.396800e+01 8.621171e-05 -4.723952e-10 3.897220e-05 1.953785e-05
1.397200e+01 8.365649e-05 -2.852171e-10 5.513478e-05 1.050914e-05
1.397600e+01 3.576711e-05 4.586915e-12 3.622580e-05 -3.607511e-06
1.398000e+01 1.968900e-05 1.807794e-11 2.149680e-05 -2.424897e-06
1.398400e+01 -3.171984e-05 -3.178718e-11 -3.489856e-05 -1.954346e-05
1.398800e+01 1.268707e-05 -2.047844e-10 -7.791366e-06 1.202471e-06
1.399200e+01 5.340180e-05 1.133366e-10 6.473545e-05 2.003700e-05
1.399600e+01 1.166603e-04 6.220196e-11 1.228805e-04 2.061187e-05
1.400000e+01 1.045551e-04 -1.442261e-10 9.013250e-05 -1.051698e-05
1.400400e+01 2.847433e-05 2.731008e-11 3.120533e-05 -2.004637e-05
1.400800e+01 -3.417705e-05 3.171497e-10 -2.462077e-06 2.310204e-07
1.401200e+01 -3.778195e-06 1.280787e-10 9.029677e-06 5.465121e-06
1.401600e+01 2.595741e-05 -1.323509e-10 1.272232e-05 -2.644822e-05
1.402000e+01 -1.567153e-05 3.067537e-11 -1.260400e-05 -1.715040e-05
1.402400e+01 -2.023599e-05 4.714995e-10 2.691395e-05 2.998521e-05
1.402800e+01 3.399883e-05 1.538479e-10 4.938362e-05 2.546977e-05
1.403200e+01 1.030797e-04 -5.263741e-10 5.044229e-05 3.828488e-07
1.403600e+01 4.424524e-05 9.463405e-11 5.370864e-05 -1.888440e-05
1.404000e+01 -4.057284e-05 5.876863e-10 1.819579e-05 -3.554060e-05
1.404400e+01 3.143977e-06 -8.040207e-11 -4.896231e-06 -2.145894e-05
1.404800e+01 3.113237e-05 -2.187121e-10 9.261160e-06 3.543572e-06
1.405200e+01 1.872662e-05 1.492187e-10 3.364849e-05 1.457272e-05
1.405600e+01 7.134703e-05 -1.600933e-11 6.974610e-05 2.464201e-05
1.406000e+01 6.756320e-05 -3.128177e-11 6.443502e-05 5.417312e-06
1.406400e+01 -1.272574e-05 1.672032e-10 3.994583e-06 -1.658246e-05
1.406800e+01 -3.458421e-05 2.467157e-10 -9.912644e-06 -8.226973e-06
1.407200e+01 -4.641822e-05 2.421576e-10 -2.220246e-05 9.150626e-06
1.407600e+01 -4.387905e-05 1.777951e-10 -2.609954e-05 -7.655487e-06
1.408000e+01 2.370982e-05 4.339855e-11 2.804967e-05 -3.027762e-05
1.408400e+01 4.120238e-05 2.142640e-10 6.262879e-05 -7.719937e-06
1.408800e+01 3.471264e-05 4.726444e-10 8.197708e-05 2.518727e-05
1.409200e+01 4.053794e-05 2.210661e-10 6.264455e-05 1.949576e-05
1.409600e+01 5.321543e-05 -2.893222e-11 5.032220e-05 7.480262e-06
1.410000e+01 -1.112519e-05 4.034513e-10 2.921994e-05 -2.361770e-05
1.410400e+01 -6.414160e-05 4.326739e-10 -2.087420e-05 -5.956031e-05
1.410800e+01 -4.976732e-05 1.329308e-10 -3.647424e-05 -5.704673e-05
1.411200e+01 -2.672675e-05 4.033732e-10 1.361057e-05 -2.871805e-05
1.411600e+01 3.871767e-05 4.481523e-10 8.353290e-05 2.108544e-05
1.412000e+01 9.901586e-05 1.898603e-10 1.180019e-04 5.282255e-05
1.412400e+01 7.541612e-05 1.677757e-10 9.219369e-05 2.695453e-05
1.412800e+01 3.456222e-05 2.267826e-10 5.724049e-05 1.150425e-05
1.413200e+01 -3.372792e-05 5.461767e-10 2.088975e-05 -1.047039e-05
1.413600e+01 -1.913907e-05 4.619364e-10 2.705457e-05 -5.410274e-05
1.414000e+01 6.724281e-05 8.098800e-11 7.534161e-05 -2.914300e-05
1.414400e+01 4.524329e-05 5.393491e-10 9.917820e-05 1.383398e-05
1.414800e+01 3.418653e-05 5.582756e-10 9.001409e-05 3.447639e-06
1.415200e+01 8.265230e-05 -8.849887e-11 7.380242e-05 2.737336e-06
1.415600e+01 -2.805941e-06 2.164916e-10 1.884322e-05 -2.075526e-05
1.416000e+01 -3.786504e-05 2.470334e-10 -1.316170e-05 -2.074300e-05
1.416400e+01 5.020688e-05 1.065879e-11 5.127276e-05 -1.355477e-06
1.416800e+01 1.231042e-04 -2.878825e-11 1.202253e-04 3.353064e-05
1.417200e+01 1.111908e-04 7.729264e-11 1.189200e-04 3.819868e-05
1.417600e+01 6.297381e-05 -5.242164e-11 5.773165e-05 -6.294477e-06
1.418000e+01 -1.466620e-05 -1.635380e-10 -3.102000e-05 -4.736261e-05
1.418400e+01 -4.194017e-05 2.811410e-11 -3.912876e-05 -3.653936e-05
1.418800e+01 3.844723e-05 1.268120e-10 5.112844e-05 -3.836074e-06
1.419200e+01 1.493379e-04 -1.286000e-10 1.364779e-04 4.082455e-05
1.419600e+01 9.309130e-05 -1.045189e-11 9.204611e-05 -1.397575e-06
1.420000e+01 7.243543e-05 -3.938012e-10 3.305531e-05 -2.626920e-05
1.420400e+01 3.300536e-05 -1.435503e-10 1.865033e-05 1.594980e-05
1.420800e+01 -1.684035e-05 3.945182e-10 2.261147e-05 3.268726e-05
1.421200e+01 6.600056e-05 -2.279031e-10 4.321025e-05 2.241819e-05
1.421600e+01 1.352629e-04 -4.234197e-10 9.292089e-05 8.166202e-06
1.422000e+01 8.555288e-05 2.044174e-10 1.059946e-04 7.995052e-08
1.422400e+01 2.627156e-05 2.397511e-10 5.024667e-05 -2.708809e-05
1.422800e+01 1.590405e-05 -2.737450e-10 -1.147046e-05 -3.733068e-05
1.423200e+01 2.395306e-05 -1.229504e-10 1.165802e-05 4.947916e-06
1.423600e+01 7.876812e-05 1.290760e-10 9.167572e-05 5.695931e-05
1.424000e+01 1.386049e-04 -2.079988e-10 1.178051e-04 4.382047e-05
1.424400e+01 1.179031e-04 -5.355687e-10 6.434622e-05 7.318702e-06
1.424800e+01 3.340566e-05 -1.042860e-10 2.297706e-05 -2.198510e-05
1.425200e+01 1.261954e-05 4.863238e-11 1.748278e-05 -1.295082e-05
1.425600e+01 1.709902e-05 -1.466592e-10 2.433104e-06 -1.011891e-05
1.426000e+01 2.678618e-05 -3.759835e-10 -1.081217e-05 -1.685583e-05
1.426400e+01 1.187881e-04 -3.076393e-10 8.802417e-05 3.129081e-05
1.426800e+01 1.288184e-04 2.485922e-10 1.536776e-04 4.615320e-05
1.427200e+01 1.116015e-04 -8.282199e-11 1.033193e-04 8.565265e-06
1.427600e+01 8.734535e-05 -4.955175e-10 3.779359e-05 -5.723244e-06
1.428000e+01 4.101569e-05 8.395841e-11 4.941153e-05 1.839454e-05
1.428400e+01 5.492765e-05 2.675559e-10 8.168323e-05 1.843015e-05
1.428800e+01 1.479326e-04 -4.136231e-10 1.065703e-04 2.613141e-05
1.429200e+01 6.692984e-05 -1.063473e-10 5.629511e-05 7.082494e-06
1.429600e+01 -4.593930e-05 2.132986e-10 -2.460945e-05 -3.188354e-05
1.430000e+01 -2.854773e-05 -1.970327e-10 -4.825099e-05 -6.005049e-05
1.430400e+01 3.931138e-05 -3.365020e-10 5.661179e-06 -3.365980e-05
1.430800e+01 3.140432e-05 1.700205e-10 4.840636e-05 1.065123e-05
1.431200e+01 5.993806e-05 3.354416e-11 6.329248e-05 7.112137e-06
1.431600e+01 1.539920e-04 -6.830735e-10 8.568470e-05 1.735463e-05
1.432000e+01 9.196023e-05 -3.013985e-10 6.182038e-05 3.812104e-05
1.432400e+01 -1.432446e-05 7.378764e-11 -6.945697e-06 2.037739e-06
1.432800e+01 2.061090e-05 -4.955823e-10 -2.894733e-05 -4.406882e-05
1.433200e+01 -1.948152e-06 -3.549115e-10 -3.743930e-05 -4.218397e-05
1.433600e+01 -1.050280e-05 1.410396e-10 3.601152e-06 7.963044e-06
1.434000e+01 8.504832e-05 -9.834488e-11 7.521383e-05 3.299951e-05
1.434400e+01 1.752006e-04 -6.714157e-10 1.080591e-04 1.864982e-05
1.434800e+01 1.662356e-04 -5.303733e-10 1.131982e-04 -8.186015e-06
1.435200e+01 9.402187e-05 -7.415235e-11 8.660663e-05 -1.412210e-05
1.435600e+01 6.915073e-05 -8.821341e-11 6.032938e-05 7.134334e-06
1.436000e+01 8.034057e-05 -3.211257e-10 4.822801e-05 3.197746e-05
1.436400e+01 5.834655e-05 -2.638499e-10 3.196156e-05 5.276197e-06
1.436800e+01 7.993505e-05 -3.489039e-10 4.504466e-05 -9.892985e-06
1.437200e+01 7.030195e-05 -1.804415e-10 5.225780e-05 1.180202e-05
1.437600e+01 -3.689145e-05 2.873612e-11 -3.401784e-05 -5.513730e-06
1.438000e+01 -4.024088e-05 -4.239316e-10 -8.263403e-05 -1.455104e-05
1.438400e+01 3.920507e-05 -3.043943e-10 8.765639e-06 1.265872e-05
1.438800e+01 1.082356e-04 1.192803e-10 1.201636e-04 4.099264e-05
1.439200e+01 1.000141e-04 -1.353610e-10 8.647795e-05 2.519713e-05
1.439600e+01 3.508423e-05 -3.830484e-10 -3.220604e-06 -1.218781e-06
1.440000e+01 -5.714643e-05 2.636147e-11 -5.451028e-05 -4.452821e-06
1.440400e+01 -8.540832e-05 1.014761e-10 -7.526071e-05 -1.225012e-06
1.440800e+01 -5.345328e-06 -3.501035e-10 -4.035568e-05 7.157239e-06
1.441200e+01 8.701199e-06 -2.917388e-10 -2.047268e-05 6.562627e-06
1.441600e+01 -3.468587e-05 9.540279e-11 -2.514559e-05 -1.460624e-05
1.442000e+01 -1.949816e-05 -1.687147e-11 -2.118531e-05 -2.127998e-05
1.442400e+01 -2.577582e-06 -2.244555e-10 -2.502314e-05 -1.711787e-05
1.442800e+01 -1.880997e-05 -1.556406e-10 -3.437403e-05 -2.447364e-05
1.443200e+01 1.873472e-05 -1.015605e-10 8.578665e-06 -1.084820e-05
1.443600e+01 7.943169e-06 4.477028e-11 1.242020e-05 -1.167786e-05
1.444000e+01 3.239297e-05 -1.093697e-10 2.145601e-05 6.984691e-06
1.444400e+01 8.038831e-05 -5.740073e-11 7.464823e-05 3.582013e-05
1.444800e+01 7.007125e-05 6.344669e-11 7.641592e-05 1.064664e-05
1.445200e+01 7.181925e-05 -1.239550e-10 5.942374e-05 -2.969123e-05
1.445600e+01 5.962985e-05 9.984570e-11 6.961442e-05 -2.319932e-06
1.446000e+01 4.034403e-05 5.494010e-10 9.528413e-05 2.899667e-05
1.446400e+01 1.252885e-04 2.055041e-11 1.273435e-04 1.861964e-05
1.446800e+01 1.476402e-04 -2.516627e-10 1.224739e-04 2.936439e-06
1.447200e+01 4.420998e-05 3.813901e-10 8.234899e-05 -1.934896e-05
1.447600e+01 1.657103e-05 3.837469e-10 5.494572e-05 -1.886126e-05
1.448000e+01 6.810650e-05 2.915871e-11 7.102237e-05 -9.612053e-06
1.448400e+01 7.244773e-05 3.484997e-11 7.593272e-05 -1.227948e-05
1.448800e+01 6.232433e-05 1.314837e-10 7.547269e-05 6.283265e-06
1.449200e+01 2.569348e-05 2.730388e-10 5.299736e-05 5.536813e-06
1.449600e+01 5.341467e-05 7.422962e-11 6.083764e-05 -1.256632e-05
1.450000e+01 8.902739e-05 6.762699e-11 9.579008e-05 -9.592186e-06
1.450400e+01 1.971510e-05 4.604284e-10 6.575794e-05 -3.737006e-05
1.450800e+01 -4.248268e-06 1.236663e-10 8.118365e-06 -5.066340e-05
1.451200e+01 4.262360e-05 -4.127743e-11 3.849586e-05 3.509612e-06
1.451600e+01 2.566884e-05 4.417591e-10 6.984475e-05 5.836991e-05
1.452000e+01 3.133056e-05 3.370164e-10 6.503220e-05 4.707997e-05
1.452400e+01 1.331310e-04 -2.304840e-10 1.100826e-04 4.334860e-05
1.452800e+01 2.319512e-05 2.832449e-10 5.151960e-05 2.998884e-05
1.453200e+01 -1.051086e-04 6.790403e-10 -3.720453e-05 -3.084359e-05
1.453600e+01 -6.740097e-05 1.950388e-10 -4.789710e-05 -4.649855e-05
1.454000e+01 -1.096984e-04 4.139799e-10 -6.830043e-05 6.031593e-07
1.454400e+01 -2.753978e-04 7.637651e-10 -1.990213e-04 7.208498e-06
1.454800e+01 -4.138608e-04 1.128633e-11 -4.127322e-04 -2.243188e-05
1.455200e+01 -5.414594e-04 -1.235764e-10 -5.538170e-04 -5.833596e-05
1.455600e+01 -4.588490e-04 4.038728e-10 -4.184617e-04 -6.878177e-05
1.456000e+01 -9.046687e-05 2.463095e-10 -6.583592e-05 -2.507806e-05
1.456400e+01 2.458961e-04 5.996884e-12 2.464958e-04 3.321231e-05
1.456800e+01 3.220474e-04 1.984141e-10 3.418888e-04 3.296022e-05
1.457200e+01 3.031602e-04 1.841031e-10 3.215705e-04 -2.564279e-06
1.457600e+01 3.709361e-04 1.330742e-10 3.842435e-04 1.949722e-05
1.458000e+01 3.780509e-04 4.879684e-10 4.268477e-04 3.160632e-05
1.458400e+01 3.786479e-04 2.648927e-10 4.051372e-04 9.322031e-06
1.458800e+01 3.582393e-04 1.435666e-10 3.725959e-04 7.394864e-07
1.459200e+01 2.542383e-04 5.083097e-10 3.050693e-04 1.682680e-05
1.459600e+01 1.394596e-04 3.920702e-10 1.786666e-04 2.356714e-05
1.460000e+01 5.554613e-05 -5.401894e-11 5.014424e-05 2.319151e-07
1.460400e+01 -1.701634e-05 -2.835180e-12 -1.729985e-05 -2.795276e-05
1.460800e+01 -2.282345e-05 1.943799e-10 -3.385465e-06 -4.264183e-05
1.461200e+01 5.210636e-05 -9.076937e-11 4.302943e-05 -1.517441e-05
1.461600e+01 8.736243e-05 -1.072949e-10 7.663293e-05 4.092709e-05
1.462000e+01 8.608921e-07 2.466970e-10 2.553059e-05 1.825167e-05
1.462400e+01 -3.339270e-05 -1.828512e-10 -5.167783e-05 -3.478561e-05
1.462800e+01 4.438822e-06 -2.916775e-10 -2.472892e-05 -8.158279e-06
1.463200e+01 3.753140e-05 3.551824e-10 7.304964e-05 4.617081e-05
1.463600e+01 6.124794e-05 1.592046e-10 7.716840e-05 5.138433e-05
1.464000e+01 3.470479e-05 -2.562114e-10 9.083647e-06 3.895109e-05
1.464400e+01 -1.086054e-04 4.286294e-10 -6.574247e-05 1.356742e-06
1.464800e+01 -1.659900e-04 5.649048e-10 -1.094995e-04 -3.885941e-05
1.465200e+01 -6.009937e-05 -8.757426e-11 -6.885680e-05 -2.992625e-05
1.465600e+01 2.554387e-05 -9.733925e-11 1.580994e-05 3.390583e-05
1.466000e+01 6.522655e-06 2.826451e-10 3.478716e-05 3.144428e-05
1.466400e+01 6.675575e-05 -2.388083e-10 4.287492e-05 9.537517e-07
1.466800e+01 6.090130e-05 -2.894802e-10 3.195328e-05 -7.530877e-08
1.467200e+01 1.625363e-05 2.332891e-10 3.958253e-05 6.519215e-06
1.467600e+01 1.048847e-05 9.588914e-11 2.007738e-05 3.884524e-06
1.468000e+01 -1.260742e-05 -9.060710e-11 -2.166813e-05 -5.493810e-06
1.468400e+01 -4.841911e-05 1.738744e-10 -3.103166e-05 -4.469090e-06
1.468800e+01 -4.576768e-05 2.713026e-10 -1.863741e-05 -5.649460e-06
1.469200e+01 -1.801587e-05 -3.199299e-11 -2.121517e-05 -9.095865e-07
1.469600e+01 -1.289428e-05 -7.311213e-11 -2.020549e-05 1.358486e-05
1.470000e+01 -3.429338e-05 1.051001e-10 -2.378336e-05 7.947551e-06
1.470400e+01 -2.509487e-05 5.429388e-11 -1.966548e-05 -1.066420e-05
1.470800e+01 -2.438207e-06 -3.131481e-11 -5.569688e-06 -3.839012e-06
1.471200e+01 2.211504e-05 -2.085173e-11 2.002987e-05 1.782256e-05
1.471600e+01 -1.053428e-05 -7.321481e-11 -1.785576e-05 -1.451930e-05
1.472000e+01 -1.093785e-05 -3.493220e-10 -4.587004e-05 -3.357651e-05
1.472400e+01 -4.688692e-05 -3.035315e-11 -4.992223e-05 2.594669e-06
1.472800e+01 -5.862994e-05 2.666781e-10 -3.196213e-05 8.329028e-07
1.473200e+01 1.887555e-05 -3.965756e-10 -2.078201e-05 -2.061507e-05
1.473600e+01 5.581378e-06 -4.280031e-10 -3.721893e-05 -2.035084e-05
1.474000e+01 -4.489465e-05 1.713075e-10 -2.776391e-05 1.369708e-05
1.474400e+01 -8.353595e-05 2.010262e-10 -6.343333e-05 9.207428e-06
1.474800e+01 -6.226956e-05 -4.237244e-10 -1.046420e-04 -3.645644e-05
1.475200e+01 -5.431966e-05 -4.867647e-10 -1.029961e-04 -3.582448e-05
1.475600e+01 -9.091429e-05 1.382908e-10 -7.708521e-05 6.785262e-06
1.476000e+01 -6.346964e-05 9.121448e-12 -6.255750e-05 5.572147e-06
1.476400e+01 -1.341094e-05 -5.928175e-10 -7.269269e-05 -2.721329e-05
1.476800e+01 -5.976562e-05 -2.917565e-10 -8.894127e-05 -2.043820e-05
1.477200e+01 -9.619814e-05 1.280854e-10 -8.338960e-05 -5.013294e-06
1.477600e+01 -9.176555e-05 -4.668658e-10 -1.384521e-04 -3.519884e-05
1.478000e+01 -1.022933e-04 -9.142996e-10 -1.937233e-04 -3.612497e-05
1.478400e+01 -1.425315e-04 -1.597615e-10 -1.585077e-04 2.916028e-05
1.478800e+01 -1.103724e-04 1.610302e-10 -9.426933e-05 4.581898e-05
1.479200e+01 -3.068790e-05 -7.709157e-10 -1.077795e-04 5.196402e-06
1.479600e+01 -3.290416e-05 -7.454460e-10 -1.074488e-04 -5.285493e-06
1.480000e+01 -1.467662e-04 2.132273e-10 -1.254434e-04 -2.163787e-06
1.480400e+01 -1.263109e-04 -2.165393e-10 -1.479649e-04 6.250990e-06
1.480800e+01 -5.001599e-05 -8.318230e-10 -1.331983e-04 1.968890e-05
1.481200e+01 -1.009114e-04 -2.557231e-10 -1.264837e-04 7.391696e-06
1.481600e+01 -1.426677e-04 -1.612692e-11 -1.442803e-04 3.062928e-06
1.482000e+01 -1.353590e-04 -2.710157e-10 -1.624606e-04 1.737572e-05
1.482400e+01 -1.612143e-04 -1.934401e-10 -1.805583e-04 2.558040e-05
1.482800e+01 -1.742038e-04 -3.659418e-11 -1.778632e-04 9.222381e-06
1.483200e+01 -1.521913e-04 -2.030793e-10 -1.724992e-04 -3.944860e-06
1.483600e+01 -1.476724e-04 -2.956256e-10 -1.772350e-04 -1.903296e-05
1.484000e+01 -1.270220e-04 -3.283174e-10 -1.598537e-04 -1.819692e-05
1.484400e+01 -1.640329e-04 -1.411246e-10 -1.781454e-04 -2.053464e-05
1.484800e+01 -1.743921e-04 -1.012255e-10 -1.845146e-04 -2.113238e-05
1.485200e+01 -8.841736e-05 -2.532129e-10 -1.137387e-04 7.174548e-06
1.485600e+01 -6.432756e-06 -2.309173e-10 -2.952448e-05 2.698222e-05
1.486000e+01 2.938422e-05 -2.611837e-10 3.265846e-06 2.490956e-05
1.486400e+01 1.382592e-05 -2.072220e-10 -6.896280e-06 2.676769e-05
1.486800e+01 -6.024927e-06 3.024444e-11 -3.000483e-06 3.610054e-05
1.487200e+01 1.189765e-05 6.622562e-11 1.852021e-05 2.599770e-05
1.487600e+01 5.340648e-05 -1.486899e-10 3.853750e-05 8.180967e-06
1.488000e+01 2.873991e-05 1.523964e-11 3.026388e-05 -7.797439e-06
1.488400e+01 -1.002031e-05 3.438366e-10 2.436335e-05 -3.650964e-06
1.488800e+01 1.977935e-05 3.361517e-10 5.339452e-05 6.349196e-06
1.489200e+01 7.772178e-05 -2.021572e-11 7.570021e-05 9.287488e-06
1.489600e+01 8.355146e-05 -1.000874e-10 7.354272e-05 -1.101189e-05
1.490000e+01 8.040298e-05 8.796297e-11 8.919928e-05 -5.357550e-06
1.490400e+01 4.609733e-05 3.088464e-10 7.698197e-05 -3.008193e-06
1.490800e+01 1.135608e-04 -1.480255e-11 1.120805e-04 1.655593e-05
1.491200e+01 1.764372e-04 6.462156e-11 1.828993e-04 5.527640e-05
1.491600e+01 8.412773e-05 4.657827e-10 1.307060e-04 2.042931e-05
1.492000e+01 7.898726e-05 -2.161026e-11 7.682623e-05 -2.976455e-05
1.492400e+01 1.048301e-04 -6.088351e-11 9.874178e-05 2.456586e-06
1.492800e+01 6.519486e-05 7.005111e-10 1.352460e-04 3.891485e-05
1.493200e+01 7.502171e-05 4.393913e-10 1.189608e-04 1.433265e-05
1.493600e+01 1.038017e-04 -1.504944e-10 8.875228e-05 -4.622848e-05
1.494000e+01 5.910585e-05 1.368313e-10 7.278898e-05 -8.310681e-05
1.494400e+01 4.482843e-05 4.155672e-10 8.638515e-05 -5.705374e-05
1.494800e+01 1.120562e-04 1.270027e-10 1.247565e-04 5.945933e-06
1.495200e+01 1.394580e-04 -2.950499e-11 1.365075e-04 1.773218e-05
1.495600e+01 1.623895e-04 -1.330689e-10 1.490826e-04 1.429262e-05
1.496000e+01 1.330531e-04 1.005064e-10 1.431037e-04 1.611356e-05
1.496400e+01 6.135444e-05 3.234345e-10 9.369789e-05 -3.926048e-06
1.496800e+01 4.869517e-05 1.251633e-10 6.121150e-05 -7.938912e-06
1.497200e+01 7.243174e-05 3.154254e-10 1.039743e-04 1.893091e-05
1.497600e+01 6.066420e-05 7.064242e-10 1.313066e-04 -2.950202e-06
1.498000e+01 5.826354e-05 2.100813e-10 7.927167e-05 -4.016779e-05
1.498400e+01 5.834721e-05 -3.345075e-11 5.500214e-05 -1.354176e-05
1.498800e+01 2.673912e-05 6.207095e-10 8.881006e-05 1.389027e-05
1.499200e+01 4.464411e-05 3.809983e-10 8.274394e-05 2.310237e-06
1.499600e+01 1.312382e-04 -3.040320e-10 1.008350e-04 1.185228e-05
1.500000e+01 9.588149e-05 1.695342e-10 1.128349e-04 1.189201e-05
1.500400e+01 6.494116e-05 3.826664e-10 1.032078e-04 -1.508222e-05
1.500800e+01 7.384844e-05 -6.622758e-11 6.722568e-05 -3.290522e-05
1.501200e+01 6.512385e-05 -4.951794e-11 6.017206e-05 -1.345060e-05
1.501600e+01 7.436613e-05 1.661949e-10 9.098562e-05 3.073975e-05
1.502000e+01 9.852223e-05 8.367389e-11 1.068896e-04 4.090635e-05
1.502400e+01 9.618594e-05 -1.293327e-10 8.325268e-05 1.640656e-05
1.502800e+01 3.991973e-05 4.391690e-11 4.431142e-05 -1.560400e-05
1.503200e+01 8.334387e-06 2.593777e-10 3.427216e-05 -2.998961e-05
1.503600e+01 3.640278e-06 2.081701e-10 2.445729e-05 -3.573891e-05
1.504000e+01 2.919562e-05 1.782712e-11 3.097833e-05 -2.248318e-05
1.504400e+01 9.625715e-05 -6.416255e-11 8.984090e-05 1.321305e-05
1.504800e+01 1.198168e-04 -2.945594e-11 1.168712e-04 2.663141e-05
1.505200e+01 9.297927e-05 -9.965472e-11 8.301380e-05 -1.358190e-06
1.505600e+01 5.409769e-05 -1.476772e-10 3.932997e-05 -2.050568e-05
1.506000e+01 4.972769e-05 3.366573e-11 5.309427e-05 2.418731e-06
1.506400e+01 6.399399e-05 8.348090e-11 7.234208e-05 1.325490e-05
1.506800e+01 2.646937e-05 -2.311842e-10 3.350945e-06 -1.585017e-05
1.507200e+01 -6.719787e-06 -1.913184e-10 -2.585162e-05 -2.231676e-05
1.507600e+01 3.678625e-05 2.793804e-10 6.472429e-05 1.288962e-05
1.508000e+01 1.077030e-04 2.044603e-10 1.281490e-04 1.521255e-05
1.508400e+01 1.316233e-04 -3.754749e-10 9.407577e-05 -6.664633e-06
1.508800e+01 6.658845e-05 -8.758539e-11 5.782992e-05 8.974979e-06
1.509200e+01 3.195263e-06 5.657372e-10 5.976898e-05 2.792374e-05
1.509600e+01 2.422930e-05 1.054979e-10 3.477908e-05 3.200632e-06
1.510000e+01 6.163222e-05 -4.367099e-10 1.796123e-05 -5.355136e-05
1.510400e+01 6.950922e-05 -7.229765e-11 6.227945e-05 -3.473332e-05
1.510800e+01 4.832973e-05 5.600104e-10 1.043308e-04 1.727385e-05
1.511200e+01 8.173027e-05 -1.992705e-11 7.973756e-05 1.599655e-05
1.511600e+01 9.319362e-05 -6.647782e-10 2.671580e-05 -7.816348e-06
1.512000e+01 2.831844e-05 2.175771e-11 3.049421e-05 -5.556468e-06
1.512400e+01 4.294022e-05 3.840198e-10 8.134220e-05 1.689786e-05
1.512800e+01 4.854965e-05 -2.064261e-10 2.790704e-05 1.658605e-06
1.513200e+01 1.768779e-05 -3.618043e-10 -1.849264e-05 -2.743913e-05
1.513600e+01 6.788851e-05 2.093684e-10 8.882535e-05 2.151644e-05
1.514000e+01 7.302344e-05 5.967947e-10 1.327029e-04 4.615455e-05
1.514400e+01 6.905415e-05 -1.726388e-10 5.179027e-05 -4.203686e-05
1.514800e+01 1.476490e-04 -8.560312e-10 6.204592e-05 -3.250437e-05
1.515200e+01 7.386830e-05 5.300407e-10 1.268724e-04 2.411368e-05
1.515600e+01 6.486769e-05 5.368910e-10 1.185568e-04 2.144845e-06
1.516000e+01 1.476201e-04 -9.705326e-10 5.056689e-05 -3.237413e-06
1.516400e+01 7.839528e-05 -3.030145e-10 4.809384e-05 2.814437e-05
1.516800e+01 1.179919e-05 6.319943e-10 7.499862e-05 8.374761e-06
1.517200e+01 7.242848e-05 -3.529247e-10 3.713601e-05 -3.478760e-05
1.517600e+01 4.521887e-05 -5.399522e-10 -8.776353e-06 -5.939918e-05
1.518000e+01 1.590801e-05 2.528851e-10 4.119652e-05 -5.023710e-05
1.518400e+01 6.999710e-05 1.222657e-10 8.222367e-05 -2.066742e-05
1.518800e+01 1.257495e-04 -4.352386e-10 8.222568e-05 -8.282099e-06
1.519200e+01 1.105708e-04 -4.122550e-10 6.934532e-05 -1.063292e-05
1.519600e+01 4.407030e-05 -8.848884e-11 3.522141e-05 -1.228697e-05
1.520000e+01 4.108467e-05 -1.865867e-10 2.242600e-05 1.669529e-05
1.520400e+01 9.045359e-05 -3.337708e-10 5.707650e-05 4.715286e-05
1.520800e+01 7.929799e-05 -1.932353e-10 5.997446e-05 4.325641e-05
1.521200e+01 5.097739e-05 4.166697e-11 5.514409e-05 2.792455e-05
1.521600e+01 4.102385e-05 1.491447e-10 5.593832e-05 6.201380e-06
1.522000e+01 7.806438e-05 -8.700798e-11 6.936358e-05 9.184539e-07
1.522400e+01 5.691032e-05 -7.215242e-11 4.969507e-05 -2.370491e-05
1.522800e+01 -7.935904e-06 -7.589094e-11 -1.552500e-05 -4.972849e-05
1.523200e+01 1.098502e-05 -1.058670e-10 3.983155e-07 -2.362577e-05
1.523600e+01 5.590550e-05 1.363975e-10 6.954525e-05 2.672814e-05
1.524000e+01 1.034438e-04 -2.734650e-11 1.007092e-04 4.260952e-05
1.524400e+01 1.596768e-04 -5.756969e-10 1.021071e-04 5.064017e-05
1.524800e+01 1.114060e-04 -2.562647e-10 8.577948e-05 5.245472e-05
1.525200e+01 3.677379e-05 2.671475e-10 6.348854e-05 1.838688e-05
1.525600e+01 6.760919e-05 -5.447486e-11 6.216170e-05 -4.369241e-06
1.526000e+01 5.687655e-05 -1.126581e-11 5.574997e-05 -5.557011e-06
1.526400e+01 -2.903115e-05 3.542818e-10 6.397034e-06 -2.980593e-05
1.526800e+01 3.490400e-05 -9.028793e-11 2.587521e-05 -3.167334e-05
1.527200e+01 6.220706e-05 -1.444091e-10 4.776615e-05 3.167788e-06
1.527600e+01 1.605154e-05 2.425625e-10 4.030779e-05 3.982927e-05
1.528000e+01 3.704050e-05 8.388561e-12 3.787936e-05 3.976487e-05
1.528400e+01 8.518309e-05 -2.885484e-10 5.632825e-05 2.258630e-05
1.528800e+01 1.343598e-05 8.686946e-11 2.212292e-05 -1.707092e-05
1.529200e+01 4.048865e-05 6.059284e-11 4.654793e-05 -2.326620e-05
1.529600e+01 5.159282e-05 8.791087e-11 6.038391e-05 -1.265783e-05
1.530000e+01 8.766101e-06 2.147077e-10 3.023687e-05 -2.396728e-05
1.530400e+01 4.739747e-05 -1.142167e-10 3.597580e-05 -1.003150e-05
1.530800e+01 9.502588e-05 -7.166880e-11 8.785900e-05 2.252972e-05
1.531200e+01 1.847614e-05 2.538412e-10 4.386026e-05 1.954828e-05
1.531600e+01 -1.920876e-05 1.244901e-10 -6.759753e-06 2.969133e-07
1.532000e+01 -6.639186e-06 8.778483e-11 2.139297e-06 1.117539e-06
1.532400e+01 -2.571251e-05 3.088158e-10 5.169074e-06 -7.754486e-06
1.532800e+01 2.832637e-05 2.488668e-11 3.081504e-05 -2.667888e-06
1.533200e+01 5.588296e-05 -8.030570e-11 4.785239e-05 3.074449e-05
1.533600e+01 -1.779921e-05 2.659430e-10 8.795086e-06 1.449475e-05
1.534000e+01 2.028072e-05 -6.905313e-11 1.337540e-05 -3.095809e-05
1.534400e+01 8.435894e-05 -2.582743e-10 5.853151e-05 -3.449783e-05
1.534800e+01 6.829414e-05 1.896836e-10 8.726250e-05 2.910769e-06
1.535200e+01 2.477830e-05 1.946232e-10 4.424062e-05 1.299143e-05
1.535600e+01 5.084816e-06 -3.058875e-10 -2.550393e-05 -8.711108e-06
1.536000e+01 1.235612e-05 -2.194439e-10 -9.588273e-06 2.272609e-05
1.536400e+01 3.030443e-07 4.958117e-10 4.988422e-05 3.683002e-05
1.536800e+01 7.134423e-05 4.911709e-11 7.625594e-05 8.582622e-06
1.537200e+01 1.180301e-04 -4.234122e-10 7.568888e-05 3.587934e-07
1.537600e+01 6.434257e-05 3.443527e-10 9.877784e-05 3.611717e-05
1.538000e+01 -4.940927e-06 7.155599e-10 6.661506e-05 3.061176e-05
1.538400e+01 4.435192e-05 -1.875422e-10 2.559770e-05 -6.760155e-06
1.538800e+01 2.599755e-05 -2.210449e-10 3.893061e-06 -2.777220e-05
1.539200e+01 -2.992584e-05 4.436729e-10 1.444145e-05 -2.556458e-05
1.539600e+01 1.099489e-05 1.429269e-10 2.528758e-05 1.235339e-05
1.540000e+01 1.506731e-05 -2.044370e-10 -5.376397e-06 2.353680e-05
1.540400e+01 -3.018650e-06 -1.144774e-10 -1.446639e-05 -1.614934e-05
1.540800e+01 1.214173e-05 -8.911476e-11 3.230255e-06 -2.960233e-05
1.541200e+01 -2.470390e-05 3.248671e-11 -2.145523e-05 -3.651757e-05
1.541600e+01 -4.984945e-05 -1.902151e-10 -6.887096e-05 -5.220728e-05
1.542000e+01 -3.155111e-06 -3.554075e-10 -3.869586e-05 -1.720378e-05
1.542400e+01 -4.226955e-05 1.806394e-10 -2.420561e-05 2.740016e-05
1.542800e+01 -8.047706e-05 9.418887e-11 -7.105817e-05 1.231837e-05
1.543200e+01 -4.588219e-06 -5.233751e-10 -5.692573e-05 -8.112296e-06
1.543600e+01 2.379924e-05 -5.483667e-11 1.831558e-05 7.647868e-06
1.544000e+01 -3.342311e-05 5.206040e-10 1.863729e-05 1.506286e-05
1.544400e+01 1.001340e-06 -9.959085e-11 -8.957744e-06 1.974511e-05
1.544800e+01 -3.835881e-05 -2.904805e-10 -6.740686e-05 -1.501294e-05
1.545200e+01 -1.238943e-04 -5.227439e-11 -1.291218e-04 -4.106276e-05
1.545600e+01 -1.231366e-04 9.299212e-11 -1.138374e-04 -1.432947e-05
1.546000e+01 -7.627358e-05 1.232288e-10 -6.395070e-05 3.370921e-05
1.546400e+01 4.030894e-06 1.114535e-11 5.145429e-06 5.572933e-05
1.546800e+01 5.739816e-05 -2.031274e-11 5.536688e-05 4.366363e-05
1.547200e+01 1.723852e-05 1.064462e-10 2.788315e-05 -5.643434e-06
1.547600e+01 -3.628493e-05 -2.992658e-11 -3.927759e-05 -4.208141e-05
1.548000e+01 -1.954150e-05 -9.671438e-11 -2.921294e-05 -2.223434e-05
1.548400e+01 4.942939e-06 1.569904e-10 2.064198e-05 6.162256e-06
1.548800e+01 4.145696e-05 3.689558e-11 4.514651e-05 1.693863e-06
1.549200e+01 2.949837e-05 -3.092775e-10 -1.429383e-06 -2.092719e-05
1.549600e+01 2.187577e-05 -2.476221e-10 -2.886436e-06 -9.722929e-06
1.550000e+01 2.029565e-05 1.350976e-10 3.380541e-05 -1.814557e-06
1.550400e+01 9.531840e-05 -1.259704e-10 8.272137e-05 -2.450576e-06
1.550800e+01 1.144305e-04 -2.820928e-10 8.622119e-05 1.927749e-05
1.551200e+01 5.330457e-05 1.990721e-10 7.321178e-05 3.350663e-05
1.551600e+01 7.014993e-05 2.128845e-10 9.143839e-05 5.404676e-06
1.552000e+01 9.855648e-05 -7.589467e-11 9.096701e-05 -1.383295e-05
1.552400e+01 8.498998e-06 4.046018e-10 4.895918e-05 8.652963e-07
1.552800e+01 -1.614850e-05 6.601037e-10 4.986186e-05 4.849473e-06
1.553200e+01 5.115682e-05 6.657394e-11 5.781421e-05 -2.346039e-06
1.553600e+01 6.537852e-05 4.723346e-12 6.585085e-05 -2.868300e-06
1.554000e+01 1.069878e-05 4.038777e-10 5.108655e-05 -3.448013e-07
1.554400e+01 -5.032251e-06 2.805527e-10 2.302302e-05 -1.982494e-05
1.554800e+01 5.160417e-05 -1.100631e-10 4.059786e-05 -2.275079e-05
1.555200e+01 6.202532e-05 5.686004e-11 6.771133e-05 1.688149e-06
1.555600e+01 3.006326e-05 2.284091e-10 5.290417e-05 1.200157e-05
1.556000e+01 5.025471e-05 -1.097719e-10 3.927751e-05 2.375936e-05
1.556400e+01 -1.374489e-05 1.972416e-11 -1.177248e-05 -9.268972e-06
1.556800e+01 -9.809836e-05 1.515143e-10 -8.294693e-05 -5.515627e-05
1.557200e+01 -7.100155e-05 4.407071e-11 -6.659448e-05 -2.689992e-05
1.557600e+01 -6.778301e-05 2.812877e-10 -3.965423e-05 2.047929e-05
1.558000e+01 -1.556563e-04 2.010912e-10 -1.355472e-04 1.771992e-05
1.558400e+01 -2.876257e-04 -1.018328e-10 -2.978090e-04 -7.570774e-06
1.558800e+01 -3.980848e-04 5.819812e-11 -3.922650e-04 -6.925854e-06
1.559200e+01 -4.736388e-04 2.335780e-10 -4.502810e-04 3.561254e-06
1.559600e+01 -2.807688e-04 -1.376406e-10 -2.945328e-04 2.033887e-05
1.560000e+01 1.859111e-05 -1.963360e-10 -1.042495e-06 1.631969e-05
1.560400e+01 1.698729e-04 1.372763e-10 1.836005e-04 -1.839844e-05
1.560800e+01 2.258182e-04 2.742376e-10 2.532420e-04 -4.777191e-05
1.561200e+01 3.404113e-04 1.539558e-10 3.558068e-04 -3.227077e-05
1.561600e+01 4.485162e-04 1.634384e-11 4.501506e-04 2.799545e-05
1.562000e+01 3.888415e-04 1.289638e-10 4.017379e-04 3.309059e-05
1.562400e+01 3.154579e-04 -5.324890e-11 3.101330e-04 2.039757e-05
1.562800e+01 2.495100e-04 5.216250e-11 2.547263e-04 1.691671e-05
1.563200e+01 2.035916e-04 1.153357e-10 2.151252e-04 7.779774e-06
1.563600e+01 9.368788e-05 -1.301869e-10 8.066919e-05 -2.607932e-05
1.564000e+01 1.810438e-05 -1.703682e-10 1.067556e-06 -2.635661e-05
1.564400e+01 2.556674e-06 2.304885e-10 2.560552e-05 2.415713e-05
1.564800e+01 4.195252e-05 2.527437e-10 6.722689e-05 3.405690e-05
1.565200e+01 1.203734e-04 -3.715898e-10 8.321437e-05 5.906378e-06
1.565600e+01 2.626670e-05 -2.350579e-10 2.760917e-06 -2.192157e-05
1.566000e+01 -1.048551e-04 2.810015e-10 -7.675499e-05 -4.367736e-05
1.566400e+01 -2.598867e-05 -4.058457e-11 -3.004713e-05 -2.641689e-05
1.566800e+01 8.924457e-05 -1.928443e-10 6.996014e-05 2.369092e-05
1.567200e+01 4.976254e-05 1.265683e-10 6.241937e-05 3.339522e-05
1.567600e+01 -4.956767e-05 -1.368326e-10 -6.325093e-05 -7.401390e-06
1.568000e+01 -8.494112e-05 -3.836224e-10 -1.233034e-04 -2.666433e-05
1.568400e+01 -9.361731e-05 9.496996e-11 -8.412031e-05 7.363775e-06
1.568800e+01 -5.963477e-05 3.111939e-10 -2.851538e-05 3.533319e-05
1.569200e+01 4.189981e-06 -1.713745e-10 -1.294746e-05 1.606921e-06
1.569600e+01 8.606886e-06 -3.498409e-10 -2.637720e-05 -3.152438e-05
1.570000e+01 -5.040890e-05 2.072708e-10 -2.968181e-05 -1.391212e-05
1.570400e+01 -1.098368e-04 3.460562e-10 -7.523118e-05 -2.939929e-05
1.570800e+01 -9.029845e-06 -5.643081e-10 -6.546066e-05 -2.137648e-05
1.571200e+01 3.361161e-05 -3.037444e-10 3.237172e-06 4.823069e-05
1.571600e+01 7.234416e-06 5.095293e-10 5.818735e-05 8.651198e-05
1.572000e+01 1.782471e-05 -9.815333e-11 8.009372e-06 2.083041e-05
1.572400e+01 -4.659636e-06 -6.920442e-10 -7.386405e-05 -4.333666e-05
1.572800e+01 -1.217821e-04 2.359580e-10 -9.818628e-05 -3.135173e-05
1.573200e+01 -1.180971e-04 6.080785e-10 -5.728923e-05 8.370991e-06
1.573600e+01 -3.325021e-06 -3.092255e-10 -3.424757e-05 1.731765e-05
1.574000e+01 -8.852966e-06 -5.409326e-10 -6.294622e-05 8.235443e-06
1.574400e+01 -3.973752e-05 1.780048e-10 -2.193704e-05 4.350386e-05
1.574800e+01 1.112572e-05 4.792285e-10 5.904857e-05 4.261727e-05
1.575200e+01 9.052136e-05 -4.232561e-10 4.819575e-05 -3.270316e-06
1.575600e+01 2.401606e-05 -5.142128e-10 -2.740522e-05 -3.203601e-05
1.576000e+01 -1.156162e-04 4.228453e-10 -7.333166e-05 -4.647123e-05
1.576400e+01 -1.045061e-04 1.562857e-10 -8.887752e-05 -4.035988e-05
1.576800e+01 -3.248808e-06 -5.627926e-10 -5.952807e-05 -9.906537e-06
1.577200e+01 1.854723e-05 -2.419700e-10 -5.649762e-06 2.386802e-06
1.577600e+01 -1.370775e-05 -1.155275e-10 -2.526050e-05 -4.575343e-06
1.578000e+01 -2.785003e-05 -4.619368e-10 -7.404371e-05 -1.279973e-05
1.578400e+01 -5.157906e-05 -4.200918e-10 -9.358824e-05 -1.292882e-05
1.578800e+01 -7.243802e-05 -1.938230e-10 -9.182032e-05 4.941870e-06
1.579200e+01 -3.255719e-05 -1.573246e-10 -4.828965e-05 1.850795e-05
1.579600e+01 -7.295178e-06 -2.677365e-10 -3.406882e-05 -2.990903e-06
1.580000e+01 -3.232733e-05 -3.697710e-10 -6.930443e-05 -3.353978e-05
1.580400e+01 -9.298509e-05 -1.473587e-10 -1.077210e-04 -2.239359e-05
1.580800e+01 -1.510150e-04 2.024283e-10 -1.307722e-04 7.193728e-06
1.581200e+01 -1.424140e-04 2.165077e-11 -1.402489e-04 -6.003212e-06
1.581600e+01 -5.817898e-05 -5.131134e-10 -1.094903e-04 9.990216e-06
1.582000e+01 -4.352621e-05 -1.451314e-10 -5.803935e-05 5.056046e-05
1.582400e+01 -9.508032e-05 1.426013e-10 -8.082019e-05 3.033994e-05
1.582800e+01 -7.692911e-05 -4.613843e-10 -1.230675e-04 -2.664208e-06
1.583200e+01 -1.292921e-04 -2.203845e-10 -1.513305e-04 -5.336956e-06
1.583600e+01 -1.930239e-04 3.430991e-10 -1.587140e-04 3.853094e-06
1.584000e+01 -1.187690e-04 -1.602434e-10 -1.347933e-04 2.362179e-05
1.584400e+01 -1.121672e-04 -3.831410e-10 -1.504813e-04 -2.476582e-07
1.584800e+01 -1.292178e-04 -1.187842e-10 -1.410962e-04 -5.702580e-07
1.585200e+01 -1.598371e-04 2.078035e-10 -1.390568e-04 2.690879e-05
1.585600e+01 -1.795869e-04 3.132644e-11 -1.764542e-04 5.950015e-06
1.586000e+01 -1.166350e-04 -4.615040e-10 -1.627854e-04 -1.721233e-05
1.586400e+01 -8.996137e-05 -1.559882e-10 -1.055602e-04 1.934918e-05
1.586800e+01 -1.656946e-04 3.677213e-10 -1.289224e-04 1.180197e-05
1.587200e+01 -1.146613e-04 -3.172106e-10 -1.463824e-04 -1.088099e-05
1.587600e+01 -9.405620e-05 -3.606382e-10 -1.301200e-04 -9.855620e-07
1.588000e+01 -1.344233e-04 2.935616e-10 -1.050671e-04 9.388685e-06
1.588400e+01 -8.126662e-05 -8.073884e-11 -8.934050e-05 -8.937782e-06
1.588800e+01 -5.866169e-05 -5.451858e-10 -1.131803e-04 -1.721966e-05
1.589200e+01 -1.265174e-04 1.424019e-10 -1.122772e-04 2.150745e-06
1.589600e+01 -1.175170e-04 6.034194e-10 -5.717508e-05 2.924540e-07
1.590000e+01 1.653530e-05 -6.694235e-11 9.841064e-06 -1.048262e-06
1.590400e+01 4.872912e-05 -1.559657e-10 3.313256e-05 -2.781898e-06
1.590800e+01 -8.655930e-05 3.129410e-10 -5.526520e-05 -2.333344e-05
1.591200e+01 -1.013362e-04 1.420332e-10 -8.713287e-05 -2.741034e-05
1.591600e+01 2.457099e-05 -8.884123e-11 1.568687e-05 8.700479e-06
1.592000e+01 5.978037e-05 1.733331e-10 7.711368e-05 1.723675e-05
1.592400e+01 9.045057e-05 1.059085e-10 1.010414e-04 3.285032e-06
1.592800e+01 1.002634e-04 7.286926e-11 1.075503e-04 -4.922415e-06
1.593200e+01 7.218250e-05 2.705908e-10 9.924158e-05 -3.521441e-06
1.593600e+01 7.733965e-05 2.162265e-10 9.896231e-05 -3.028156e-06
1.594000e+01 1.168589e-04 7.692707e-11 1.245516e-04 -3.312888e-07
1.594400e+01 1.420101e-04 1.148212e-10 1.534923e-04 1.471205e-05
1.594800e+01 1.087003e-04 2.213840e-10 1.308387e-04 -3.165129e-06
1.595200e+01 1.221164e-04 3.479312e-11 1.255957e-04 -1.226789e-05
1.595600e+01 1.339857e-04 1.832045e-10 1.523062e-04 -4.047120e-06
1.596000e+01 1.371977e-04 2.424958e-10 1.614473e-04 6.504231e-06
1.596400e+01 1.364951e-04 2.156827e-11 1.386519e-04 2.723747e-05
1.596800e+01 1.139523e-04 1.611576e-10 1.300681e-04 2.027163e-05
1.597200e+01 1.181155e-04 2.251335e-10 1.406288e-04 -2.479525e-05
1.597600e+01 1.543593e-04 4.941326e-11 1.593006e-04 -2.470498e-05
1.598000e+01 8.522865e-05 4.147028e-10 1.266989e-04 -1.497100e-05
1.598400e+01 6.862879e-05 3.133359e-10 9.996238e-05 -2.015441e-05
1.598800e+01 1.125318e-04 -6.151132e-11 1.063806e-04 -2.694839e-05
