0.000000000000000000e+00 2.527152526973959219e-03 7.879445164694418371e-03
4.000000000000000083e-03 2.694662617651380140e-03 7.118647383642609516e-03
8.000000000000000167e-03 2.877243290148778516e-03 6.414535027825218547e-03
1.200000000000000025e-02 2.961851942230989566e-03 5.665667759169598812e-03
1.600000000000000033e-02 3.068079496514037816e-03 4.943597356044027689e-03
2.000000000000000042e-02 2.388433291316960708e-03 1.731555855914384580e-03
2.400000000000000050e-02 2.484448339296590168e-03 1.441914570061851976e-03
2.800000000000000058e-02 2.564695653549438608e-03 1.141388863750907295e-03
3.200000000000000067e-02 2.674102370521530807e-03 8.702583547971587223e-04
3.599999999999999728e-02 2.811129819408292405e-03 6.419805326857639912e-04
4.000000000000000083e-02 2.230620086051305836e-03 -1.740855410362468318e-03
4.399999999999999745e-02 2.266538918413814850e-03 -1.815728482044173635e-03
4.800000000000000100e-02 2.314333445843925162e-03 -1.873279122897504936e-03
5.199999999999999761e-02 2.426322958696583345e-03 -1.827507115815500335e-03
5.600000000000000117e-02 2.519927814497823718e-03 -1.785576240223203399e-03
5.999999999999999778e-02 2.042049168966720164e-03 -3.517578862537569517e-03
6.400000000000000133e-02 2.055120563088622294e-03 -3.359365573899143059e-03
6.800000000000000488e-02 2.113048091611111675e-03 -3.192950442626223389e-03
7.199999999999999456e-02 2.209634421133355002e-03 -2.982901315601394453e-03
7.599999999999999811e-02 2.261586765274678588e-03 -2.769698860919859833e-03
8.000000000000000167e-02 1.854369530346202961e-03 -3.979470477212329257e-03
8.400000000000000522e-02 1.916352402159072175e-03 -3.628301556023750488e-03
8.799999999999999489e-02 1.941164600651499456e-03 -3.348526532918171938e-03
9.199999999999999845e-02 1.997610733347459505e-03 -3.055563646111691348e-03
9.600000000000000200e-02 2.024592761998766140e-03 -2.775550760972303726e-03
1.000000000000000056e-01 1.679436912721464026e-03 -3.658720992418824924e-03
1.039999999999999952e-01 1.712022122369145742e-03 -3.285212629258853385e-03
1.079999999999999988e-01 1.707483124805178869e-03 -2.928320801323688275e-03
1.120000000000000023e-01 1.725976343766860406e-03 -2.575229241715987997e-03
1.160000000000000059e-01 1.776480688926852835e-03 -2.219709341736967548e-03
1.199999999999999956e-01 1.559969441416718524e-03 -2.713715734886705967e-03
1.239999999999999991e-01 1.554442734821733256e-03 -2.331698408248907006e-03
1.280000000000000027e-01 1.561925294061689961e-03 -1.969919066574312566e-03
1.320000000000000062e-01 1.554504450293268123e-03 -1.659105871738513751e-03
1.360000000000000098e-01 1.501087964895346039e-03 -1.408341538881785569e-03
1.400000000000000133e-01 1.308411823503270992e-03 -1.733284835476388243e-03
1.439999999999999891e-01 1.324387065899161999e-03 -1.369993754958703965e-03
1.479999999999999927e-01 1.343260854726654888e-03 -1.019150890675219693e-03
1.519999999999999962e-01 1.338904406519304032e-03 -7.217827761640354094e-04
1.559999999999999998e-01 1.359507835607839249e-03 -4.329387499748050855e-04
1.600000000000000033e-01 1.204254796834441834e-03 -5.917819518589599159e-04
1.640000000000000069e-01 1.164551823104555432e-03 -3.617414329002499400e-04
1.680000000000000104e-01 1.132562210223650272e-03 -1.513543318789284473e-04
1.719999999999999862e-01 1.112501344938957503e-03 8.199921944827317773e-05
1.759999999999999898e-01 1.112107353325775087e-03 3.327575114349000038e-04
1.799999999999999933e-01 1.006793953201631960e-03 3.146510132557681669e-04
1.839999999999999969e-01 9.863747908195551715e-04 5.102570869183306775e-04
1.880000000000000004e-01 1.006381761094516389e-03 7.244023467055542070e-04
1.920000000000000040e-01 9.506425318748854122e-04 8.683551308915833959e-04
1.960000000000000075e-01 8.648695166404539317e-04 9.340647279784153626e-04
2.000000000000000111e-01 8.227441829424851985e-04 9.599503837472036063e-04
2.039999999999999869e-01 8.360440329158876603e-04 1.088396430857591730e-03
2.079999999999999905e-01 8.158073922564728448e-04 1.220730161772813627e-03
2.119999999999999940e-01 7.967530049553113143e-04 1.314934205244179966e-03
2.159999999999999976e-01 8.158242581512282999e-04 1.397500694121979817e-03
2.200000000000000011e-01 7.966214365428355869e-04 1.494769713057347068e-03
2.240000000000000047e-01 7.230550601573896034e-04 1.489130881635856735e-03
2.280000000000000082e-01 6.934567068304144663e-04 1.504126368646343864e-03
2.320000000000000118e-01 6.888147914112296771e-04 1.566492925515480502e-03
2.359999999999999876e-01 6.688404543593057944e-04 1.582167994157446028e-03
2.399999999999999911e-01 6.926713896570740317e-04 1.737027836550712745e-03
2.439999999999999947e-01 6.897967967867478078e-04 1.724566949486822359e-03
2.479999999999999982e-01 6.754757732578786601e-04 1.667815477301989391e-03
2.520000000000000018e-01 6.414323566597830272e-04 1.597522248667822536e-03
2.560000000000000053e-01 6.053314032707223392e-04 1.524698974145570962e-03
2.600000000000000089e-01 6.864257341256273150e-04 1.729183708291357879e-03
2.640000000000000124e-01 6.771540628713310951e-04 1.682815170910514089e-03
2.680000000000000160e-01 5.829480422889319214e-04 1.563998684765049605e-03
2.720000000000000195e-01 5.134968175759364265e-04 1.447340007995610769e-03
2.760000000000000231e-01 4.942651469306781533e-04 1.370922928553844388e-03
2.800000000000000266e-01 5.841300792904636054e-04 1.609496940793881141e-03
2.839999999999999747e-01 5.545128368352669410e-04 1.502537577719106681e-03
2.879999999999999782e-01 4.999054349435673060e-04 1.381953904220826687e-03
2.919999999999999818e-01 4.444214405141678603e-04 1.222635798282559324e-03
2.959999999999999853e-01 4.165036235949821095e-04 1.062034705807523866e-03
2.999999999999999889e-01 5.004457436726674705e-04 1.308783296177616498e-03
3.039999999999999925e-01 4.267094317415477830e-04 1.161790385533127560e-03
3.079999999999999960e-01 3.450670233374731298e-04 1.007023282849400488e-03
3.119999999999999996e-01 3.254666423423476103e-04 9.102893859640037028e-04
3.160000000000000031e-01 3.140829824220433262e-04 8.276425822993578900e-04
3.200000000000000067e-01 3.767587912207892857e-04 1.055388372754650483e-03
3.240000000000000102e-01 2.724269012696004921e-04 8.473712290893308137e-04
3.280000000000000138e-01 2.201933662158928810e-04 6.656833117580339149e-04
3.320000000000000173e-01 2.235535093347216487e-04 5.305192475236928610e-04
3.360000000000000209e-01 1.781316760715417327e-04 3.802820152960738310e-04
3.400000000000000244e-01 2.454915457197199809e-04 6.065190729229079716e-04
3.439999999999999725e-01 2.152514034416397586e-04 4.524606868228384722e-04
3.479999999999999760e-01 1.825867934321182278e-04 3.491267524252794760e-04
3.519999999999999796e-01 1.142489181160431469e-04 2.359741667270983149e-04
3.559999999999999831e-01 4.701199136040224477e-05 1.065463657282757681e-04
3.599999999999999867e-01 1.208051278940524241e-04 3.535882247513150558e-04
3.639999999999999902e-01 9.456442001790315958e-05 1.842972409482864838e-04
3.679999999999999938e-01 3.497616876416522521e-06 -2.776709686308057213e-06
3.719999999999999973e-01 -5.372028046122179960e-05 -1.612250176578354012e-04
3.760000000000000009e-01 -5.831412753750024564e-05 -2.278867951112658154e-04
3.800000000000000044e-01 -1.812948732026297533e-05 4.450646848875718467e-05
3.840000000000000080e-01 -7.356179538956910476e-05 -1.018445545992353201e-04
3.880000000000000115e-01 -6.985372770591990663e-05 -1.771117029761050941e-04
3.920000000000000151e-01 -1.178867584248957916e-04 -2.975683969430323794e-04
3.960000000000000187e-01 -1.993200228142487363e-04 -4.399206824821200830e-04
4.000000000000000222e-01 -1.474666413539485607e-04 -2.333934614950662081e-04
4.040000000000000258e-01 -1.701155092927082735e-04 -3.620793745988200763e-04
4.079999999999999738e-01 -1.665613239427755649e-04 -4.208958739519164387e-04
4.119999999999999774e-01 -2.084772908655139556e-04 -4.918791682368898847e-04
4.159999999999999809e-01 -2.846510555885122234e-04 -6.066080124320755683e-04
4.199999999999999845e-01 -2.185978140661099943e-04 -3.644727157093940561e-04
4.239999999999999880e-01 -2.439025199578997039e-04 -4.472331142847185215e-04
4.279999999999999916e-01 -2.652943559227154656e-04 -5.126517828778849508e-04
4.319999999999999951e-01 -3.079039557317108907e-04 -5.913847864078186677e-04
4.359999999999999987e-01 -3.608642575128032559e-04 -6.495983830739708023e-04
4.400000000000000022e-01 -3.078777198328745343e-04 -4.096620384843776674e-04
4.440000000000000058e-01 -2.976640203064053218e-04 -4.721476775447986589e-04
4.480000000000000093e-01 -3.028223077110534780e-04 -5.373758101976732577e-04
4.520000000000000129e-01 -3.616785696157971729e-04 -6.454698216378206834e-04
4.560000000000000164e-01 -4.134127304252733170e-04 -7.073289116503772740e-04
4.600000000000000200e-01 -3.848763128209311385e-04 -5.220414802238493995e-04
4.640000000000000235e-01 -4.349758765006098734e-04 -6.334788983396379570e-04
4.680000000000000271e-01 -4.185057791275079587e-04 -6.533171015583116121e-04
4.719999999999999751e-01 -4.088178070011516262e-04 -6.555585534999932218e-04
4.759999999999999787e-01 -4.534111950423627127e-04 -6.665211012474660289e-04
4.799999999999999822e-01 -4.433306276657514311e-04 -4.721643615297588356e-04
4.839999999999999858e-01 -4.406231637206439885e-04 -4.889059965816722024e-04
4.879999999999999893e-01 -4.781147268976159619e-04 -5.276978442368825909e-04
4.919999999999999929e-01 -5.661682276658202553e-04 -6.133927350896548752e-04
4.959999999999999964e-01 -6.042945547926804493e-04 -6.248894843979234653e-04
5.000000000000000000e-01 -5.129310436214153980e-04 -3.715994471798563675e-04
5.040000000000000036e-01 -4.783314316614240783e-04 -3.778035463965161546e-04
5.080000000000000071e-01 -4.776174207044418829e-04 -4.053361155593738748e-04
5.120000000000000107e-01 -5.212783215295683972e-04 -4.464409614190312345e-04
5.160000000000000142e-01 -5.860877364674745710e-04 -5.085417956580975084e-04
5.200000000000000178e-01 -5.710546262243657500e-04 -3.385309679086671961e-04
5.240000000000000213e-01 -5.869408567184830356e-04 -3.313008872300300342e-04
5.280000000000000249e-01 -5.930546674146205087e-04 -3.137318154375153987e-04
5.320000000000000284e-01 -6.187667985312381809e-04 -3.311641228999973106e-04
5.360000000000000320e-01 -6.368759937983146545e-04 -3.412738416565022073e-04
5.400000000000000355e-01 -5.815537049154777217e-04 -1.750226829919481462e-04
5.440000000000000391e-01 -5.915393873522727369e-04 -1.658140730018992526e-04
5.480000000000000426e-01 -6.394703898770926886e-04 -2.051232082204007816e-04
5.520000000000000462e-01 -6.677506232174572906e-04 -2.397993998502722626e-04
5.560000000000000497e-01 -6.802133420730324849e-04 -2.457252414316445565e-04
5.600000000000000533e-01 -6.472111092866398175e-04 -1.070109240841033663e-04
5.639999999999999458e-01 -7.000551140655601572e-04 -1.389478522161299097e-04
5.679999999999999494e-01 -7.221391541414620783e-04 -1.765010752862045129e-04
5.719999999999999529e-01 -7.396302731118631129e-04 -1.826738377726738294e-04
5.759999999999999565e-01 -7.525586470539402271e-04 -1.568326574220026929e-04
5.799999999999999600e-01 -7.238867737820821107e-04 -3.030256704816149371e-05
5.839999999999999636e-01 -7.269177922444517836e-04 -1.172733242954523695e-05
5.879999999999999671e-01 -7.675564334087998106e-04 -2.223959957820425651e-05
5.919999999999999707e-01 -7.775980583489524103e-04 -1.671481080624801470e-05
5.959999999999999742e-01 -7.897567525285230762e-04 -2.716563151260223657e-05
5.999999999999999778e-01 -8.106397869168836942e-04 1.149621609302592257e-06
6.039999999999999813e-01 -8.027772414239335401e-04 4.662450642588905728e-05
6.079999999999999849e-01 -7.872539971932800097e-04 8.616540059790052690e-05
6.119999999999999885e-01 -7.944600462820545573e-04 9.656020202275904653e-05
6.159999999999999920e-01 -8.117209610775826846e-04 9.717637592772240200e-05
6.199999999999999956e-01 -8.145718063468088133e-04 1.076971364736585551e-04
6.239999999999999991e-01 -8.208047741392433339e-04 1.072803835908986989e-04
6.280000000000000027e-01 -8.171533248241239118e-04 1.111515360315598036e-04
6.320000000000000062e-01 -7.914803621437883777e-04 1.380380600588217079e-04
6.360000000000000098e-01 -8.043325168214652317e-04 1.432926402542461280e-04
6.400000000000000133e-01 -8.580451474169943984e-04 9.823585045176881950e-05
6.440000000000000169e-01 -8.987986947706676699e-04 1.025283481547893726e-04
6.480000000000000204e-01 -8.911570169986367165e-04 1.556028229157834951e-04
6.520000000000000240e-01 -8.839296343505411574e-04 1.703961545541778999e-04
6.560000000000000275e-01 -8.758650975035387485e-04 1.588607143256191704e-04
6.600000000000000311e-01 -8.767517063248278855e-04 1.139440080694748084e-04
6.640000000000000346e-01 -9.094021841424081544e-04 1.285177268277161531e-04
6.680000000000000382e-01 -9.535560104387846457e-04 1.127223817836932107e-04
6.720000000000000417e-01 -9.428169324975469194e-04 1.349812951919649752e-04
6.760000000000000453e-01 -9.288840930071519397e-04 1.782185778954795781e-04
6.800000000000000488e-01 -9.334582429138885140e-04 1.511442970993690882e-04
6.840000000000000524e-01 -9.572331504401274116e-04 1.518209958084329122e-04
6.879999999999999449e-01 -9.531900141200403418e-04 1.612638453880436442e-04
6.919999999999999485e-01 -9.504936016508772935e-04 1.591406098079290311e-04
6.959999999999999520e-01 -9.411733799181994488e-04 1.494776717693934950e-04
6.999999999999999556e-01 -9.456461744228356232e-04 7.795410050241766001e-05
7.039999999999999591e-01 -9.478939736826994629e-04 9.865841275161769106e-05
7.079999999999999627e-01 -9.613690518537086139e-04 1.306791619423337564e-04
7.119999999999999662e-01 -9.501951885537672504e-04 1.836021568012231777e-04
7.159999999999999698e-01 -9.439506325624405112e-04 2.316703316447384824e-04
7.199999999999999734e-01 -9.829101196059059423e-04 1.067510314975292975e-04
7.239999999999999769e-01 -9.988075612001926472e-04 7.205281488233666453e-05
7.279999999999999805e-01 -1.006431465608755883e-03 7.132303762586628441e-05
7.319999999999999840e-01 -1.000808278917192894e-03 1.083288099937167360e-04
7.359999999999999876e-01 -9.811483555041897175e-04 1.716634954452079577e-04
7.399999999999999911e-01 -1.040848001641006375e-03 9.394578360100145123e-05
7.439999999999999947e-01 -1.081329709855056477e-03 8.346245781556842268e-05
7.479999999999999982e-01 -1.097006113860112941e-03 5.014589817277231040e-05
7.520000000000000018e-01 -1.073225134333618365e-03 4.285529723393796523e-05
7.560000000000000053e-01 -1.063095667709464771e-03 8.458310218952409506e-05
7.600000000000000089e-01 -1.115090137153500150e-03 -9.376691605717925944e-06
7.640000000000000124e-01 -1.090522851369172446e-03 6.972149987049139981e-05
7.680000000000000160e-01 -1.082691998259645945e-03 1.233036867829909731e-04
7.720000000000000195e-01 -1.105131579552897291e-03 1.072783993187057856e-04
7.760000000000000231e-01 -1.105117462157408992e-03 6.650213769449122019e-05
7.800000000000000266e-01 -1.101642063977876498e-03 -5.180433338778499687e-05
7.840000000000000302e-01 -1.072573554620894843e-03 1.954435409412994093e-06
7.880000000000000338e-01 -1.062128625692005876e-03 4.009205858822558811e-05
7.920000000000000373e-01 -1.031504314413520754e-03 8.563757144303833552e-05
7.960000000000000409e-01 -1.013890157874041678e-03 1.080603505400349115e-04
8.000000000000000444e-01 -1.053745119629943133e-03 -1.072881765006230262e-05
8.040000000000000480e-01 -1.064304863926963029e-03 -2.217361801577712350e-05
8.080000000000000515e-01 -1.035074383852638454e-03 4.669324861808798511e-06
8.120000000000000551e-01 -1.009207486321258250e-03 3.724033195064727032e-05
8.159999999999999476e-01 -9.740770459077432693e-04 6.882284197916721383e-05
8.199999999999999512e-01 -1.017881518557788717e-03 -6.127857314775429201e-05
8.239999999999999547e-01 -1.027353925227209031e-03 -5.971805498022658872e-05
8.279999999999999583e-01 -1.015379857473617132e-03 -3.293691666648021412e-05
8.319999999999999618e-01 -1.005823000064601843e-03 -5.385115450689649403e-06
8.359999999999999654e-01 -9.755362416100302062e-04 3.983908219053021579e-05
8.399999999999999689e-01 -1.022636078140451085e-03 -6.534063856529631078e-05
8.439999999999999725e-01 -1.012996020607538628e-03 -4.111617241974589753e-05
8.479999999999999760e-01 -9.999782425080714580e-04 -3.420147471435738926e-05
8.519999999999999796e-01 -1.008570596076947216e-03 -3.092210507218121055e-06
8.559999999999999831e-01 -1.025125627841426195e-03 -1.185516428742174126e-05
8.599999999999999867e-01 -1.043876247920374773e-03 -1.238060059193850045e-04
8.639999999999999902e-01 -1.038315118053608497e-03 -7.399665471198753341e-05
8.679999999999999938e-01 -1.045738283318622518e-03 -3.979634009533269072e-05
8.719999999999999973e-01 -1.033973358120538746e-03 -2.830338760938305644e-06
8.760000000000000009e-01 -1.056446425588029826e-03 5.535821303168429421e-06
8.800000000000000044e-01 -1.139366053657295784e-03 -1.133853864273980685e-04
8.840000000000000080e-01 -1.111253735469944041e-03 -5.544395699689186557e-05
8.880000000000000115e-01 -1.107811028146986039e-03 -3.969634501929257585e-05
8.920000000000000151e-01 -1.159675632690822461e-03 1.278932297167818550e-05
8.960000000000000187e-01 -1.292722900511822717e-03 5.019342847922098842e-05
9.000000000000000222e-01 -1.499898326646728272e-03 -1.052909554537115268e-04
9.040000000000000258e-01 -1.473593587650644547e-03 -9.241282258067468622e-05
9.080000000000000293e-01 -1.228254580945427202e-03 -6.361768768073825203e-05
9.120000000000000329e-01 -9.901319166436774091e-04 -3.133352291873170545e-05
9.160000000000000364e-01 -8.237898788538218671e-04 1.697202077596698548e-06
9.200000000000000400e-01 -7.396042572556097610e-04 -7.148993158941114201e-05
9.240000000000000435e-01 -6.755172623593164996e-04 -4.125896961429083905e-05
9.280000000000000471e-01 -7.035977826926574641e-04 -5.571259773911166051e-06
9.320000000000000506e-01 -7.814446222192849472e-04 -5.340968356271370053e-06
9.360000000000000542e-01 -7.637006032293377610e-04 7.090340431509584685e-06
9.399999999999999467e-01 -7.861509262139509133e-04 -7.027553814796264823e-05
9.439999999999999503e-01 -8.650512586335866970e-04 -4.821288441048422464e-05
9.479999999999999538e-01 -9.986693458879612739e-04 -3.179617285218171732e-05
9.519999999999999574e-01 -1.033220032376254947e-03 -8.433872785643732023e-06
9.559999999999999609e-01 -1.019566439541586683e-03 -6.604488063406058744e-06
9.599999999999999645e-01 -1.005174067303828047e-03 -5.421327880650324537e-05
9.639999999999999680e-01 -1.029342834339716170e-03 -3.956423017375751834e-05
9.679999999999999716e-01 -1.087303906937648864e-03 -6.412430811327790429e-05
9.719999999999999751e-01 -1.101465907850386053e-03 -5.387870460728906775e-05
9.759999999999999787e-01 -1.067399708323319612e-03 -1.213629779712645324e-05
9.799999999999999822e-01 -1.056515701106509712e-03 -5.611589203960997855e-05
9.839999999999999858e-01 -1.034679686200078034e-03 -1.647532901008999263e-05
9.879999999999999893e-01 -1.051555322722672178e-03 1.391824467461202032e-05
9.919999999999999929e-01 -1.090768705976542406e-03 1.480355964525715927e-05
9.959999999999999964e-01 -1.071251530605275273e-03 6.824955251491061708e-06
1.000000000000000000e+00 -1.061755992959446167e-03 -6.735603832498424201e-05
1.004000000000000004e+00 -1.044034383409859091e-03 -2.234207873776822520e-05
1.008000000000000007e+00 -1.069385605314861990e-03 2.828792640149594307e-05
1.012000000000000011e+00 -1.082116593370113832e-03 8.792904761500707530e-05
1.016000000000000014e+00 -1.050859373806393732e-03 8.637382091154094128e-05
1.020000000000000018e+00 -1.028485500236540982e-03 -2.492678307086863455e-05
1.024000000000000021e+00 -1.028998648958193759e-03 -5.388060576485553268e-05
1.028000000000000025e+00 -1.082296428305508200e-03 -6.729843750888765772e-05
1.032000000000000028e+00 -1.102539640440947924e-03 -5.108485953285662009e-05
1.036000000000000032e+00 -1.062713258176408489e-03 -1.294003732254982376e-05
1.040000000000000036e+00 -1.016114561964767508e-03 -5.064065184314298619e-06
1.044000000000000039e+00 -1.039483384954113408e-03 -7.665706657974835866e-06
1.048000000000000043e+00 -1.057414629465190919e-03 7.946974007046249421e-06
1.052000000000000046e+00 -1.066447180331645764e-03 3.751518177482314888e-05
1.056000000000000050e+00 -1.065970158179095975e-03 5.015373746833386284e-05
1.060000000000000053e+00 -1.056882342646313973e-03 -7.110528919152152020e-06
1.064000000000000057e+00 -1.035857229584638897e-03 4.896400877585313255e-08
1.068000000000000060e+00 -1.022491264579135015e-03 2.586849601742659884e-05
1.072000000000000064e+00 -1.023563510013367813e-03 1.165921485662351006e-05
1.076000000000000068e+00 -1.041610361049907308e-03 -6.578104819363823070e-06
1.080000000000000071e+00 -1.024891994151054444e-03 -1.361035750025530902e-06
1.084000000000000075e+00 -1.013350370444159390e-03 3.131600612823210724e-05
1.088000000000000078e+00 -1.046179853587255945e-03 -4.771866475520220787e-07
1.092000000000000082e+00 -1.062323851807361625e-03 -2.036447555434023414e-05
1.096000000000000085e+00 -1.027744162096377693e-03 3.097800509383555085e-05
1.100000000000000089e+00 -9.925804354909452398e-04 9.446543589284460321e-05
1.104000000000000092e+00 -9.891130887823983316e-04 1.198645153836907108e-04
1.108000000000000096e+00 -1.044763855234096851e-03 5.007160426655416131e-05
1.112000000000000099e+00 -1.053815741669954448e-03 -5.373281486487613833e-06
1.116000000000000103e+00 -1.031222761153271963e-03 8.325534572529731653e-06
1.120000000000000107e+00 -1.016567996104880125e-03 2.755868842436958634e-05
1.124000000000000110e+00 -1.003278765419702689e-03 2.988925892389784352e-05
1.127999999999999892e+00 -1.048651976071179447e-03 -2.321165128136383265e-05
1.131999999999999895e+00 -1.054296160012770101e-03 -3.996927092372161785e-05
1.135999999999999899e+00 -1.050203442570414114e-03 -3.445016981908351574e-05
1.139999999999999902e+00 -1.062152708231960292e-03 -5.474820891446553897e-05
1.143999999999999906e+00 -1.048211026524962196e-03 -4.764857797175863028e-05
1.147999999999999909e+00 -1.023711670555412477e-03 -1.681494168386426694e-05
1.151999999999999913e+00 -1.028229497120438209e-03 6.768463787630357373e-06
1.155999999999999917e+00 -1.061826132497515436e-03 -2.120503181399580872e-06
1.159999999999999920e+00 -1.054194739567689909e-03 1.838045014487117680e-05
1.163999999999999924e+00 -1.019201081442348486e-03 2.744442175116541452e-05
1.167999999999999927e+00 -9.859853242405308953e-04 3.737391232843695506e-05
1.171999999999999931e+00 -9.834113950778300504e-04 4.139235929887292065e-05
1.175999999999999934e+00 -9.938518029711678782e-04 3.823371732698785294e-05
1.179999999999999938e+00 -9.902506465595760886e-04 3.799969398126352109e-05
1.183999999999999941e+00 -9.580855244995458049e-04 2.279060963728167326e-05
1.187999999999999945e+00 -9.115108286924198397e-04 3.420265703661234800e-05
1.191999999999999948e+00 -8.752193998730220612e-04 6.311698549314845481e-05
1.195999999999999952e+00 -8.687286383594346835e-04 6.726873862675023777e-05
1.199999999999999956e+00 -9.188689394237822394e-04 2.029095905288673540e-05
1.203999999999999959e+00 -9.380668446581814923e-04 -6.541637033857667098e-05
1.207999999999999963e+00 -8.740151029614407104e-04 -9.045708293254142718e-05
1.211999999999999966e+00 -8.053121918673015371e-04 -3.637213519126893606e-05
1.215999999999999970e+00 -7.737177430562284641e-04 1.317943280521426870e-05
1.219999999999999973e+00 -7.269185016331910490e-04 8.129602694527789325e-05
1.223999999999999977e+00 -7.379253581787022535e-04 4.882770927976818389e-05
1.227999999999999980e+00 -7.336697082804000949e-04 7.540927971457579917e-07
1.231999999999999984e+00 -7.226332445901923699e-04 -2.744158415622863505e-05
1.235999999999999988e+00 -7.536736808633235718e-04 -7.331196728331211261e-05
1.239999999999999991e+00 -7.252250009619577503e-04 -2.665528773621631101e-05
1.243999999999999995e+00 -6.856158774001127297e-04 8.830653791076644398e-06
1.247999999999999998e+00 -6.180412792807812817e-04 3.523591930488641043e-05
1.252000000000000002e+00 -6.210996982913452764e-04 4.662586450716925957e-06
1.256000000000000005e+00 -6.403969706506585898e-04 -2.394732198156050652e-05
1.260000000000000009e+00 -6.431939074938743377e-04 -3.340527242767023873e-06
1.264000000000000012e+00 -6.274372093131729174e-04 7.385650772649211802e-06
1.268000000000000016e+00 -5.817358840044188194e-04 3.292477342123219491e-05
1.272000000000000020e+00 -5.420509246784090129e-04 2.191674270545175397e-05
1.276000000000000023e+00 -5.693420675308011802e-04 -2.559052593316835794e-05
1.280000000000000027e+00 -6.082287380504676835e-04 -2.281576660130677121e-05
1.284000000000000030e+00 -5.978932774165576650e-04 -1.764471681489706890e-06
1.288000000000000034e+00 -5.672939344623547904e-04 1.864716439671957818e-05
1.292000000000000037e+00 -5.568085159467881136e-04 5.136223252954620651e-06
1.296000000000000041e+00 -5.807090871099827465e-04 -3.896161500821409946e-07
1.300000000000000044e+00 -5.972119300553173186e-04 -2.415428868908610436e-06
1.304000000000000048e+00 -5.924727089486963270e-04 -3.471605761251858103e-05
1.308000000000000052e+00 -5.792800931617212270e-04 -2.760173988256252726e-05
1.312000000000000055e+00 -5.617763849818706518e-04 -1.920818830156572905e-05
1.316000000000000059e+00 -5.463245443046415564e-04 -2.543983001351107201e-06
1.320000000000000062e+00 -5.386034326185258755e-04 2.035134966467461433e-05
1.324000000000000066e+00 -5.372379604805657205e-04 -2.165717377681043233e-05
1.328000000000000069e+00 -5.067591235350419688e-04 -4.394829014675113473e-05
1.332000000000000073e+00 -5.147703513826344755e-04 -5.601499615796722036e-05
1.336000000000000076e+00 -5.617247099983724767e-04 -8.774201247627814982e-05
1.340000000000000080e+00 -5.547581015117935763e-04 -2.738508056910689037e-05
1.344000000000000083e+00 -5.507994822269060130e-04 5.867748093529507851e-06
1.348000000000000087e+00 -5.228816038456342991e-04 2.230759605533130452e-05
1.352000000000000091e+00 -4.799667464505055921e-04 2.946680925749323374e-05
1.356000000000000094e+00 -4.830609454090809907e-04 -8.564070965678742227e-06
1.360000000000000098e+00 -4.705757308939970585e-04 3.502174493126915158e-05
1.364000000000000101e+00 -4.776590379744064039e-04 2.408998761172378522e-05
1.368000000000000105e+00 -5.163036269815143072e-04 -2.798450960585804301e-05
1.372000000000000108e+00 -5.389318760869322555e-04 -6.620545110760012088e-05
1.375999999999999890e+00 -5.120727586067686833e-04 -3.719281662489253053e-05
1.379999999999999893e+00 -4.874501006636200754e-04 2.734941538858330729e-05
1.383999999999999897e+00 -4.690647697306066124e-04 5.740377263351973704e-05
1.387999999999999901e+00 -4.775825287155238317e-04 6.707056490236587196e-05
1.391999999999999904e+00 -4.888522444935149668e-04 4.491814326256398829e-05
1.395999999999999908e+00 -4.766144700935437775e-04 6.041316402084325591e-06
1.399999999999999911e+00 -4.937479367988211344e-04 -3.199559426549683879e-05
1.403999999999999915e+00 -5.005150943001041713e-04 -9.849591779802553844e-05
1.407999999999999918e+00 -4.387939055181379962e-04 -6.991837305838845176e-05
1.411999999999999922e+00 -3.940085369834496758e-04 -2.045792757864023422e-06
1.415999999999999925e+00 -3.936407983861717956e-04 1.418332973846933195e-05
1.419999999999999929e+00 -4.050510192749653265e-04 1.574531913648500578e-05
1.423999999999999932e+00 -4.179010434419632249e-04 -8.121329596541498701e-06
1.427999999999999936e+00 -4.030662280060438342e-04 8.497426041648498664e-06
1.431999999999999940e+00 -3.918560117154040344e-04 -1.679594720484166034e-06
1.435999999999999943e+00 -3.884361928603433426e-04 -7.141797649496785044e-06
1.439999999999999947e+00 -3.614442889355013832e-04 4.575083904041752806e-05
1.443999999999999950e+00 -3.304460639284935485e-04 7.886970750791287197e-05
1.447999999999999954e+00 -3.263385127206513275e-04 9.060894308150615540e-05
1.451999999999999957e+00 -3.409461446359759508e-04 4.593347262617742072e-05
1.455999999999999961e+00 -3.679650739201825206e-04 -3.788291347668062362e-05
1.459999999999999964e+00 -4.067262323866141786e-04 -1.137615322606791728e-04
1.463999999999999968e+00 -3.725994031834735203e-04 -8.074885089818850453e-05
1.467999999999999972e+00 -3.402698931600741977e-04 -2.515663157389595240e-05
1.471999999999999975e+00 -3.290720474889540360e-04 -1.895457097913217487e-05
1.475999999999999979e+00 -3.012486151898611294e-04 1.049532260373509422e-05
1.479999999999999982e+00 -2.696894030852183466e-04 8.082693463544934486e-05
1.483999999999999986e+00 -3.087125015755544681e-04 4.020346867655897569e-05
1.487999999999999989e+00 -2.897936495203439714e-04 -5.727346933230096595e-07
1.491999999999999993e+00 -2.758976231450646741e-04 -1.393731416100456082e-05
1.495999999999999996e+00 -2.742412266829197145e-04 5.215374379888545599e-06
1.500000000000000000e+00 -2.500701682947301715e-04 5.506824362113436276e-05
1.504000000000000004e+00 -2.595612169219303463e-04 2.530675175123539352e-05
1.508000000000000007e+00 -2.768847464649964508e-04 -2.621274382517458601e-06
1.512000000000000011e+00 -2.581660853591182057e-04 -3.971307457108381932e-06
1.516000000000000014e+00 -2.345763115063764510e-04 -2.894533971171054230e-05
1.520000000000000018e+00 -2.289584072418534926e-04 -1.648440800183486595e-05
1.524000000000000021e+00 -2.534528237900617043e-04 -1.508757277155191628e-05
1.528000000000000025e+00 -2.449173499646863398e-04 -3.136045172938560029e-06
1.532000000000000028e+00 -1.900210853606716719e-04 3.934137493340039541e-05
1.536000000000000032e+00 -1.611902622705341139e-04 6.468898510317022145e-05
1.540000000000000036e+00 -1.942365935563203068e-04 2.569784747285241424e-05
1.544000000000000039e+00 -2.326200175035142957e-04 -4.458919128618449296e-05
1.548000000000000043e+00 -2.211357478429934941e-04 -3.480330742434369800e-05
1.552000000000000046e+00 -2.082443364208480280e-04 -3.196423108252575884e-06
1.556000000000000050e+00 -2.266186417306735015e-04 -2.450743059768026498e-05
1.560000000000000053e+00 -2.106390383463307633e-04 -3.613335254269677812e-05
1.564000000000000057e+00 -1.823838055774731827e-04 -2.574409589245186291e-05
1.568000000000000060e+00 -1.932051097725307506e-04 -3.832742324283577189e-05
1.572000000000000064e+00 -1.988788386448922898e-04 -3.693977018760859519e-05
1.576000000000000068e+00 -1.781295267143856366e-04 1.437263281738310726e-05
1.580000000000000071e+00 -1.203685414720947111e-04 7.174435874492601437e-05
1.584000000000000075e+00 -8.263904497194598674e-05 5.292913465453856476e-05
1.588000000000000078e+00 -1.357354685193741767e-04 -2.289705433804233711e-05
1.592000000000000082e+00 -1.820456974806782576e-04 -8.986257534799580967e-05
1.596000000000000085e+00 -1.676872459473161925e-04 -8.287461930870516880e-05
1.600000000000000089e+00 -9.706185756218959292e-05 2.972326220700047635e-05
1.604000000000000092e+00 -1.022341199544536482e-04 6.874805463252147471e-05
1.608000000000000096e+00 -1.001492731708139106e-04 5.431386917084851434e-05
1.612000000000000099e+00 -1.071502961041317627e-04 1.394262407958687009e-05
1.616000000000000103e+00 -9.926646239118781974e-05 4.411612719157165599e-06
1.620000000000000107e+00 -9.164446488593095807e-05 2.342300348764268930e-05
1.624000000000000110e+00 -8.767933145217859546e-05 1.331131680799260701e-05
1.627999999999999892e+00 -5.565387195550943448e-05 1.793945432039179195e-05
1.631999999999999895e+00 -3.579344707781080174e-05 2.984251761246450364e-05
1.635999999999999899e+00 -4.372562448015928721e-05 2.567687517480389664e-05
1.639999999999999902e+00 -6.929599558535101027e-05 4.003835393277054797e-06
1.643999999999999906e+00 -8.837810277542295116e-05 7.086914947366722043e-06
1.647999999999999909e+00 -7.566384465412769793e-05 1.428723249193719664e-05
1.651999999999999913e+00 -4.763402612027652647e-05 -3.808755927866725367e-06
1.655999999999999917e+00 -2.586566297031781829e-05 -3.033479960768061006e-05
1.659999999999999920e+00 1.432981109564359397e-05 -9.295865365289813858e-06
1.663999999999999924e+00 1.105148159799386360e-05 1.662138229817959953e-05
1.667999999999999927e+00 -3.457146164861959179e-05 3.299093262311228503e-06
1.671999999999999931e+00 -7.856443813031764535e-05 -4.741022573476871550e-05
1.675999999999999934e+00 -7.801858326686306861e-05 -5.116166779121199016e-05
1.679999999999999938e+00 -1.970617415781346806e-06 1.216639292048037762e-05
1.683999999999999941e+00 5.640281654058275449e-05 6.021673487262859764e-05
1.687999999999999945e+00 5.467028400352323718e-05 3.118826735268995427e-05
1.691999999999999948e+00 5.389158803963016067e-06 -3.854571055528870478e-05
1.695999999999999952e+00 -2.360747150985721980e-05 -7.141275286459034487e-05
1.699999999999999956e+00 -8.577455379236078735e-08 -3.802874823116753799e-05
1.703999999999999959e+00 3.749035465538953749e-05 2.590679274902993979e-05
1.707999999999999963e+00 2.363258202311540592e-05 4.901256860027002163e-05
1.711999999999999966e+00 5.984259814088680696e-06 3.800002544636109836e-05
1.715999999999999970e+00 -1.278801096663993633e-05 1.416108577286032828e-07
1.719999999999999973e+00 -2.919083165582345859e-05 -4.518441779007355307e-05
1.723999999999999977e+00 -1.023868184831071045e-05 -3.293121464642654873e-05
1.727999999999999980e+00 1.037426617569510631e-05 3.409461514436704007e-05
1.731999999999999984e+00 2.710532889913655381e-06 6.427055546475251538e-05
1.735999999999999988e+00 -2.758677337692694020e-06 5.115626603899111236e-05
1.739999999999999991e+00 -2.036721154692893061e-05 1.100298280213543085e-05
1.743999999999999995e+00 -2.929849964779654558e-05 -4.265653774825701512e-05
1.747999999999999998e+00 -2.783550461897004347e-05 -8.771401701905612097e-05
1.752000000000000002e+00 1.927978451284564316e-05 -5.402991231670084375e-05
1.756000000000000005e+00 7.340319159904682420e-05 -1.933219042908372674e-05
1.760000000000000009e+00 1.044064244841887146e-04 2.179762529569286391e-05
1.764000000000000012e+00 1.166522717255731340e-04 5.566858508364771200e-05
1.768000000000000016e+00 1.091228085194854015e-04 4.963655084854917178e-05
1.772000000000000020e+00 9.480515035598692248e-05 1.729545742988508367e-05
1.776000000000000023e+00 1.030946441457589348e-04 -1.453178623385404370e-05
1.780000000000000027e+00 1.133489337746278376e-04 -3.485810196857344763e-05
1.784000000000000030e+00 1.506109576990720877e-04 -4.709285297278262484e-05
1.788000000000000034e+00 1.952453309154910321e-04 -1.656312030160830913e-05
1.792000000000000037e+00 2.017007054916374368e-04 8.929532703555143229e-06
1.796000000000000041e+00 1.969814360895891258e-04 -3.788481970714313737e-06
1.800000000000000044e+00 1.877075771672239368e-04 -3.604361791169471209e-05
1.804000000000000048e+00 1.863529561912274143e-04 -4.021571712870410342e-05
1.808000000000000052e+00 2.132468014743146205e-04 3.198853066743786604e-06
1.812000000000000055e+00 2.304354144316353296e-04 4.624413487820513491e-05
1.816000000000000059e+00 2.444235259483892387e-04 6.948553968511592214e-05
1.820000000000000062e+00 2.330019699771298809e-04 2.717114702907483283e-05
1.824000000000000066e+00 2.164608188730713994e-04 -1.548190190834673939e-05
1.828000000000000069e+00 1.916270202612114235e-04 -5.388081291316062008e-05
1.832000000000000073e+00 1.644039221528191433e-04 -6.657767581396832786e-05
1.836000000000000076e+00 2.003674109800549885e-04 -2.042530973974535912e-05
1.840000000000000080e+00 2.374472735508811980e-04 -3.986330065176835451e-06
1.844000000000000083e+00 2.356546646750827588e-04 -2.659376030678483535e-06
1.848000000000000087e+00 2.486870042611179742e-04 4.656679043327906578e-05
1.852000000000000091e+00 1.936860721358705346e-04 4.322942176101449559e-05
1.856000000000000094e+00 1.596349615617094844e-04 3.569123141055800070e-05
1.860000000000000098e+00 1.767367901468961105e-04 3.941369419410695315e-05
1.864000000000000101e+00 1.666561365833945491e-04 4.780543510137102997e-05
1.868000000000000105e+00 2.100917952870088061e-05 -3.217880491699518723e-05
1.872000000000000108e+00 -1.367095624096135585e-04 -7.684943173217166916e-05
1.875999999999999890e+00 -1.872134285003569534e-04 -3.055007430815507853e-05
1.879999999999999893e+00 -1.210455738653456418e-04 2.680615954548587948e-06
1.883999999999999897e+00 1.239931376127709000e-04 1.142668402617849322e-05
1.887999999999999901e+00 3.766889039011479096e-04 -2.632102251659294425e-06
1.891999999999999904e+00 5.310165678478922287e-04 9.807082534417542398e-06
1.895999999999999908e+00 5.850741092123518247e-04 5.792025373445522616e-06
1.899999999999999911e+00 6.102074364465708131e-04 -2.357159924164145453e-05
1.903999999999999915e+00 6.221487080504551747e-04 5.229799032474054881e-06
1.907999999999999918e+00 5.775114740349755055e-04 3.047179804589042877e-05
1.911999999999999922e+00 5.374550469871036034e-04 2.348919457616052052e-05
1.915999999999999925e+00 5.268244800774750164e-04 9.216224381688476201e-06
1.919999999999999929e+00 4.543339867798868218e-04 -4.656717720444498217e-05
1.923999999999999932e+00 3.457783150646332186e-04 -6.104264554549126488e-05
1.927999999999999936e+00 2.906706899195939824e-04 -2.774618008144986222e-05
1.931999999999999940e+00 3.335214425935836705e-04 1.541211489499726803e-05
1.935999999999999943e+00 3.764934773228052929e-04 4.825497816375830723e-05
1.939999999999999947e+00 2.999270075669300639e-04 4.902557081684356809e-06
1.943999999999999950e+00 2.224611613326504150e-04 -3.060136401666715164e-05
1.947999999999999954e+00 2.171899329509671965e-04 -2.367817340247910853e-05
1.951999999999999957e+00 3.190537870911068323e-04 6.138415136365527307e-05
1.955999999999999961e+00 3.542138385866080096e-04 7.032477790211047019e-05
1.959999999999999964e+00 3.191870822275809372e-04 2.991432730826867249e-05
1.963999999999999968e+00 2.791662548923649358e-04 2.086444925161263153e-05
1.967999999999999972e+00 2.486266372869786693e-04 4.755806659984072685e-07
1.971999999999999975e+00 2.647819151541636702e-04 -3.590833998214495120e-05
1.975999999999999979e+00 2.903536017581092470e-04 -2.985002183118290551e-05
1.979999999999999982e+00 2.829054742712717942e-04 -1.071376534190379366e-05
1.983999999999999986e+00 2.540950675147437676e-04 -1.217020769760664609e-06
1.987999999999999989e+00 2.515476116850267089e-04 1.432911198767120598e-05
1.991999999999999993e+00 3.203422909641938637e-04 4.607260737664418683e-05
1.995999999999999996e+00 3.347140726785100820e-04 1.151304361974481436e-05
2.000000000000000000e+00 2.949429260331827216e-04 -3.572425975422117620e-05
2.004000000000000004e+00 2.922752745757774143e-04 -2.164862213123415003e-05
2.008000000000000007e+00 2.902682773402538914e-04 -8.884493285608708701e-06
2.012000000000000011e+00 2.888785388890819663e-04 -1.437901880795820097e-05
2.016000000000000014e+00 3.037408900798166432e-04 1.150119837802262249e-05
2.020000000000000018e+00 3.274217790146381106e-04 3.893222681463143404e-05
2.024000000000000021e+00 3.186603027064277018e-04 2.402211772172801058e-05
2.028000000000000025e+00 3.110164879046673565e-04 4.908493518470017191e-07
2.032000000000000028e+00 3.256724122692370815e-04 -7.367669293333295699e-06
2.036000000000000032e+00 3.113754910704110259e-04 -3.390980725460359356e-05
2.040000000000000036e+00 3.010455634799538336e-04 -6.048920244611606715e-05
2.044000000000000039e+00 2.920624565900813868e-04 -4.925712882474663932e-05
2.048000000000000043e+00 3.087903266763937027e-04 -9.971848571238937914e-07
2.052000000000000046e+00 3.257360597812217207e-04 3.135502238702579349e-05
2.056000000000000050e+00 3.477118248887092647e-04 5.757257649167245051e-05
2.060000000000000053e+00 3.819151130113892329e-04 6.672912768678981605e-05
2.064000000000000057e+00 3.606017512418616859e-04 4.998466697664841879e-05
2.068000000000000060e+00 3.085323576329296520e-04 5.849417793176273398e-06
2.072000000000000064e+00 2.878890241812709122e-04 3.343376887594955679e-06
2.076000000000000068e+00 3.057941493172759576e-04 1.179054004098465590e-05
2.080000000000000071e+00 2.944898240906481442e-04 -3.774389778288476509e-05
2.084000000000000075e+00 2.511370725574106188e-04 -9.106356092186640124e-05
2.088000000000000078e+00 2.465444407422151475e-04 -6.952365991717574661e-05
2.092000000000000082e+00 2.634937488692734022e-04 -3.108143297646195782e-05
2.096000000000000085e+00 2.937146237815727685e-04 -6.497089936199988647e-06
2.100000000000000089e+00 2.712431479126629170e-04 -1.917017852455425123e-05
2.104000000000000092e+00 2.279762215590822386e-04 -3.057546393974864955e-05
2.108000000000000096e+00 2.735171583401357930e-04 3.427907297949798896e-05
2.112000000000000099e+00 2.904188845934349843e-04 6.213750269487509762e-05
2.116000000000000103e+00 2.449433375676070214e-04 -8.148309937787019314e-06
2.120000000000000107e+00 2.467035790424827171e-04 -4.951155227041701410e-05
2.124000000000000110e+00 2.666914375535250946e-04 -3.395323468124961081e-05
2.128000000000000114e+00 2.785349418767611956e-04 -1.360472681766009757e-05
2.132000000000000117e+00 2.667972191716300504e-04 -1.568668507638730725e-05
2.136000000000000121e+00 2.656452311976531533e-04 2.699194924339839250e-05
2.140000000000000124e+00 2.349711777002570941e-04 4.410118012788075430e-05
2.144000000000000128e+00 2.325598663328395260e-04 1.227179961237373195e-05
2.148000000000000131e+00 2.536802513715087290e-04 -3.218648316473954741e-05
2.152000000000000135e+00 2.799846734325966827e-04 -1.713894115150742971e-05
2.156000000000000139e+00 3.028840632460607415e-04 2.144787549548634920e-05
2.160000000000000142e+00 3.025101326585914437e-04 2.723794440680515655e-05
2.164000000000000146e+00 2.937106125926274816e-04 5.761546840785010969e-06
2.168000000000000149e+00 2.940078515682271131e-04 -1.759276256367744951e-05
2.172000000000000153e+00 3.174418630166954999e-04 7.182404514304587234e-06
2.176000000000000156e+00 3.288126613740386468e-04 3.020467247983318952e-05
2.180000000000000160e+00 3.640891181899327789e-04 5.254170986562793275e-05
2.184000000000000163e+00 3.951272130014055759e-04 2.334094845470470453e-05
2.188000000000000167e+00 4.594115522055194391e-04 9.856201391235653285e-06
2.192000000000000171e+00 5.072176671827547008e-04 2.449737264074215601e-05
2.196000000000000174e+00 5.140911891934668229e-04 2.560543176344578985e-05
2.200000000000000178e+00 4.624491883342712233e-04 -1.305984466615123172e-05
2.204000000000000181e+00 4.476178586381581673e-04 -2.253762609304534644e-05
2.208000000000000185e+00 4.592754883416501409e-04 -2.512784452143889714e-05
2.212000000000000188e+00 4.858367496822671807e-04 -2.512813028720276305e-05
2.216000000000000192e+00 4.759526115263769267e-04 -3.814434331564526008e-05
2.220000000000000195e+00 5.022370582795870984e-04 -1.213785092155799526e-05
2.224000000000000199e+00 5.544123664304593298e-04 3.317477769341325961e-05
2.228000000000000203e+00 5.397870536762769790e-04 1.193235631114351862e-05
2.232000000000000206e+00 5.095556524598262617e-04 -2.754725025301883414e-05
2.236000000000000210e+00 4.928596031852016616e-04 -3.250101247680305089e-05
2.240000000000000213e+00 5.230037771092770679e-04 1.393758358100060375e-05
2.244000000000000217e+00 5.541036233759397524e-04 8.077755671305749210e-05
2.248000000000000220e+00 5.572178117523507099e-04 7.009103458607982625e-05
2.251999999999999780e+00 5.515360195475713925e-04 2.265672354182783411e-06
2.255999999999999783e+00 5.692113217900804985e-04 -3.120849254256966747e-05
2.259999999999999787e+00 5.874097582994101344e-04 -3.011961675637476275e-06
2.263999999999999790e+00 5.883371430401080531e-04 -4.016682491257354155e-06
2.267999999999999794e+00 5.528362972136134385e-04 -3.682093746849895077e-05
2.271999999999999797e+00 5.173488280687463248e-04 -5.070819169557274183e-05
2.275999999999999801e+00 5.060368150788459611e-04 -2.392797408677958338e-05
2.279999999999999805e+00 5.527883239775985670e-04 5.411067510629120512e-05
2.283999999999999808e+00 5.725827051713891372e-04 7.556196981632706214e-05
2.287999999999999812e+00 5.308208644286816196e-04 -3.234865532753518022e-06
2.291999999999999815e+00 5.089063158830743052e-04 -6.786406866823788402e-05
2.295999999999999819e+00 5.279289560871636405e-04 -3.328856642385250047e-05
2.299999999999999822e+00 5.435547275204539487e-04 1.719393373096224890e-05
2.303999999999999826e+00 5.555198440605783536e-04 1.365256650923737580e-05
2.307999999999999829e+00 5.674657984031384857e-04 2.846132873157808037e-06
2.311999999999999833e+00 5.411470227087173540e-04 1.394598985923240268e-06
2.315999999999999837e+00 5.097838054319688223e-04 -1.666505077356057821e-05
2.319999999999999840e+00 5.153688074245461577e-04 -3.210972895349831934e-05
2.323999999999999844e+00 5.344424769265357974e-04 -2.635165984866655699e-05
2.327999999999999847e+00 5.632694255181080849e-04 2.210415027673229524e-05
2.331999999999999851e+00 5.498981844546566803e-04 3.265383866884610196e-05
2.335999999999999854e+00 5.228360608664839922e-04 9.847596021994810790e-06
2.339999999999999858e+00 5.171183306915060843e-04 1.200822395761910321e-05
2.343999999999999861e+00 5.168826683894414253e-04 2.566113019798732362e-05
2.347999999999999865e+00 5.271671253288800216e-04 3.475834409630280372e-05
2.351999999999999869e+00 5.224561643085787058e-04 2.288358042929071505e-05
2.355999999999999872e+00 5.027729801422326384e-04 -4.076643397986389185e-06
2.359999999999999876e+00 4.897839036126301789e-04 -2.232902820511394344e-05
2.363999999999999879e+00 5.051569303320274391e-04 -2.921828352034647606e-05
2.367999999999999883e+00 5.142964078335782391e-04 -3.072443526442865218e-05
2.371999999999999886e+00 5.318128694789444602e-04 9.263668293921030589e-06
2.375999999999999890e+00 5.308071153474566315e-04 1.106732274092000549e-05
2.379999999999999893e+00 5.327999090660024122e-04 -1.655008496401556194e-05
2.383999999999999897e+00 5.304801860172133005e-04 9.302380110701249395e-06
2.387999999999999901e+00 5.207231087168504718e-04 3.707398569576009662e-05
2.391999999999999904e+00 4.666482570081999411e-04 -1.120342755846940912e-05
2.395999999999999908e+00 4.480799339067297179e-04 -5.713642566813354341e-05
2.399999999999999911e+00 4.810020156219033073e-04 -4.879925548207865351e-05
2.403999999999999915e+00 5.141009534856857792e-04 -2.685909631234830610e-05
2.407999999999999918e+00 5.178140648449718530e-04 -1.127952442480010631e-05
2.411999999999999922e+00 5.064314260700029588e-04 1.469058757028913302e-06
2.415999999999999925e+00 5.387194649020213971e-04 4.038624963235063452e-05
2.419999999999999929e+00 5.574227095903763838e-04 3.189292746018674717e-05
2.423999999999999932e+00 5.581231799791183017e-04 2.082573097050080298e-06
2.427999999999999936e+00 5.683043606162024256e-04 3.607078803925058263e-06
2.431999999999999940e+00 5.235313409557815515e-04 -1.519886774293216183e-05
2.435999999999999943e+00 4.868995394330137756e-04 -3.112582940842063080e-05
2.439999999999999947e+00 5.064438105385036951e-04 1.110677151697609760e-05
2.443999999999999950e+00 5.316914112672890391e-04 1.603218406549095269e-05
2.447999999999999954e+00 5.480797339299599193e-04 1.300837172930582472e-05
2.451999999999999957e+00 5.292226380112291170e-04 -1.043942153874486335e-05
2.455999999999999961e+00 5.166448869083476760e-04 -1.173679867532321970e-05
2.459999999999999964e+00 5.127424601896776561e-04 9.838053826252038771e-06
2.463999999999999968e+00 5.141771392257454007e-04 -5.477883245600086202e-06
2.467999999999999972e+00 5.275496604309423427e-04 -4.865190723356864232e-06
2.471999999999999975e+00 5.353863399507911500e-04 8.331780490137448628e-06
2.475999999999999979e+00 5.135697154354550891e-04 -8.882067779318140660e-06
2.479999999999999982e+00 5.392812975839773870e-04 1.690712036166838178e-06
2.483999999999999986e+00 5.844743478782437641e-04 5.778207118804720721e-05
2.487999999999999989e+00 5.623299627854674290e-04 5.626451168308915774e-05
2.491999999999999993e+00 5.400446672809440908e-04 3.867393456126637439e-05
2.495999999999999996e+00 5.322993548769277238e-04 2.549751765194130433e-05
2.500000000000000000e+00 5.262401526353046536e-04 -1.918361078972546390e-05
2.504000000000000004e+00 5.457930222226358786e-04 -4.743238609533868627e-05
2.508000000000000007e+00 5.457729308347389644e-04 -4.802178193806850063e-05
2.512000000000000011e+00 5.493568456579688659e-04 -1.641791526591010108e-06
2.516000000000000014e+00 5.637202235591845956e-04 4.317468385458936070e-05
2.520000000000000018e+00 5.442868597579759125e-04 4.339817814533378481e-05
2.524000000000000021e+00 5.101262583657977922e-04 1.701434277793623351e-05
2.528000000000000025e+00 5.321372702211932043e-04 2.090845514045534047e-05
2.532000000000000028e+00 5.533703775511395178e-04 9.567989212764195622e-06
2.536000000000000032e+00 5.595707580646888321e-04 -7.607630232011807842e-06
2.540000000000000036e+00 5.444337429312816898e-04 -2.625814324111346753e-05
2.544000000000000039e+00 5.084786032984435706e-04 -6.058960794892796070e-05
2.548000000000000043e+00 5.120832215482942328e-04 -5.315273388360543835e-05
2.552000000000000046e+00 5.083631849097249673e-04 -3.647368009380295078e-05
2.556000000000000050e+00 5.114870537368416134e-04 -3.992199552158416909e-06
2.560000000000000053e+00 5.175199504183049595e-04 3.449856914540645015e-05
2.564000000000000057e+00 5.359834564685837105e-04 3.473981778034458863e-05
2.568000000000000060e+00 5.205801779109059304e-04 -8.894360652434623525e-06
2.572000000000000064e+00 5.326836526591243858e-04 -2.082642912375885942e-05
2.576000000000000068e+00 5.338392148945127029e-04 -1.368482888383081956e-05
2.580000000000000071e+00 5.254549990143182791e-04 -1.036772431030443651e-05
2.584000000000000075e+00 5.532731107973340489e-04 2.111127926150121380e-05
2.588000000000000078e+00 5.662019745440837869e-04 3.744700617889981507e-05
2.592000000000000082e+00 5.188072616003292165e-04 -8.449533569400461362e-06
2.596000000000000085e+00 4.866643196667395726e-04 -4.329675939905520878e-05
2.600000000000000089e+00 5.060141733501836514e-04 -2.290118460624004370e-05
2.604000000000000092e+00 5.033148619525090826e-04 -8.664636516133863311e-06
2.608000000000000096e+00 4.933506571009602711e-04 -4.154898641472697180e-06
2.612000000000000099e+00 5.215047480990207731e-04 2.864847658886805504e-05
2.616000000000000103e+00 5.221917177170563341e-04 4.172607726227416770e-05
2.620000000000000107e+00 4.917180560286502902e-04 4.794729615822265049e-07
2.624000000000000110e+00 5.050657961979809893e-04 -1.651622789503458903e-05
2.628000000000000114e+00 5.429756122422210165e-04 1.111146285359574461e-05
2.632000000000000117e+00 5.273459366342171531e-04 2.382811831755819051e-06
2.636000000000000121e+00 5.121449994857085741e-04 -2.816202535981184474e-05
2.640000000000000124e+00 5.283316854921100633e-04 -1.408439196797768393e-05
2.644000000000000128e+00 5.308237816602236724e-04 -8.265227658448776091e-07
2.648000000000000131e+00 4.849857946865643895e-04 -3.154118339339836963e-05
2.652000000000000135e+00 4.791036574594926471e-04 -3.354732810000587301e-05
2.656000000000000139e+00 5.115914192646759708e-04 6.312627724626127294e-06
2.660000000000000142e+00 5.121021515077663587e-04 1.787832887432512928e-05
2.664000000000000146e+00 5.096286014430811365e-04 2.730222636072710240e-05
2.668000000000000149e+00 4.829123444038640437e-04 1.961740509225889291e-05
2.672000000000000153e+00 5.019591256936991111e-04 -4.491446901151624492e-06
2.676000000000000156e+00 5.075575996068167322e-04 -1.518008738913321587e-05
2.680000000000000160e+00 4.912910008931274056e-04 -1.649642818792300080e-05
2.684000000000000163e+00 4.798156653354371617e-04 -1.854561088122749264e-05
2.688000000000000167e+00 4.741979034822768808e-04 -1.003004198810604340e-05
2.692000000000000171e+00 5.007939231420783241e-04 3.744825447968994981e-05
2.696000000000000174e+00 5.171159139895056735e-04 2.427640254231684823e-05
2.700000000000000178e+00 4.852113949581036436e-04 -2.167696579211531225e-05
2.704000000000000181e+00 4.564000665751942313e-04 -3.244431335927878165e-05
2.708000000000000185e+00 4.532038858505013017e-04 -1.816361547185738363e-05
2.712000000000000188e+00 4.665303215721322517e-04 3.976227025279127246e-06
2.716000000000000192e+00 4.798042003040681072e-04 1.210003331152395045e-05
2.720000000000000195e+00 4.415795950293957594e-04 -7.158097939680234751e-06
2.724000000000000199e+00 4.118026958157692185e-04 1.465867687940529979e-05
2.728000000000000203e+00 4.056900643855081558e-04 4.397789847074066690e-05
2.732000000000000206e+00 3.928130387777864236e-04 2.133452782691243953e-05
2.736000000000000210e+00 4.089140819990498793e-04 -1.560241738288951213e-05
2.740000000000000213e+00 4.258765758008065572e-04 -3.152050893488414106e-05
2.744000000000000217e+00 4.001609348145137657e-04 -3.147973408603023198e-05
2.748000000000000220e+00 3.475896880476133321e-04 -2.769719654957880365e-05
2.751999999999999780e+00 3.721965948362347784e-04 1.918954131212121102e-05
2.755999999999999783e+00 4.060362684426228668e-04 5.899554797382786694e-05
2.759999999999999787e+00 3.933007217694483725e-04 4.253602358823734144e-05
2.763999999999999790e+00 3.505090392230639663e-04 -1.103096186277606415e-05
2.767999999999999794e+00 3.707013427426167048e-04 -3.819347132522498843e-05
2.771999999999999797e+00 4.132342905764583023e-04 -1.386038039914811900e-05
2.775999999999999801e+00 4.269429438611846103e-04 1.684964203304408035e-05
2.779999999999999805e+00 4.230928154532550721e-04 9.881765208008915007e-06
2.783999999999999808e+00 4.383628076305614695e-04 1.988300796876032826e-05
2.787999999999999812e+00 4.467158049764597652e-04 3.191969001732332606e-05
2.791999999999999815e+00 4.654962740665087215e-04 4.276515646986066982e-05
2.795999999999999819e+00 4.468329422778900806e-04 -1.978715901660391123e-07
2.799999999999999822e+00 4.510066054558639365e-04 -2.549282260502029729e-05
2.803999999999999826e+00 4.272696983840766757e-04 -3.580784067453770538e-05
2.807999999999999829e+00 4.416960820878504000e-04 -9.658795780738741589e-07
2.811999999999999833e+00 4.635530049454415834e-04 1.739936310720276689e-05
2.815999999999999837e+00 4.763124737272497050e-04 2.069715855529973735e-05
2.819999999999999840e+00 4.575097255336721901e-04 -4.389894093477893699e-05
2.823999999999999844e+00 4.292813791088743373e-04 -7.671467484379305448e-05
2.827999999999999847e+00 4.572916658563425801e-04 -2.496123525432842873e-05
2.831999999999999851e+00 4.555754798664399881e-04 8.213949620799291881e-06
2.835999999999999854e+00 4.475767270592471026e-04 2.014362292367329291e-05
2.839999999999999858e+00 4.772545297394619672e-04 4.691407086028710527e-05
2.843999999999999861e+00 4.697259708433387110e-04 3.400790508600243028e-05
2.847999999999999865e+00 4.319822314868784654e-04 -2.194092188772304654e-07
2.851999999999999869e+00 4.528783216652462339e-04 1.072122117101620012e-05
2.855999999999999872e+00 4.468683347025946377e-04 1.484241505641175707e-05
2.859999999999999876e+00 4.428729009405130818e-04 1.258317355836305111e-05
2.863999999999999879e+00 4.325605951702965837e-04 -1.952952934412065359e-06
2.867999999999999883e+00 4.010014247746847781e-04 -4.166390808084489148e-06
2.871999999999999886e+00 3.034337881256104889e-04 -3.312474225289907401e-05
2.875999999999999890e+00 2.873585324445422683e-04 -9.046500011634826474e-06
2.879999999999999893e+00 3.031550554690233025e-04 1.570671409503205670e-05
2.883999999999999897e+00 2.340756033824101007e-04 2.508641625888810681e-05
2.887999999999999901e+00 7.847982619345163029e-05 -9.789322016888669964e-07
2.891999999999999904e+00 -5.640803838362864515e-05 -4.799104711903941206e-05
2.895999999999999908e+00 -5.205964576051692259e-05 -5.544184914305499707e-05
2.899999999999999911e+00 1.620335334001793979e-04 -1.940934850028536201e-05
2.903999999999999915e+00 4.676643409636911056e-04 4.182539766951653862e-05
2.907999999999999918e+00 6.566053558045182193e-04 6.263198054523618353e-05
2.911999999999999922e+00 7.161536746874910689e-04 4.726751351986036926e-05
2.915999999999999925e+00 7.538236928249590066e-04 1.255297534843970821e-05
2.919999999999999929e+00 7.352212805378216922e-04 -1.327852123070505343e-05
2.923999999999999932e+00 6.676014621347111213e-04 -2.631642247203739855e-05
2.927999999999999936e+00 6.572674030025201430e-04 -2.344658423885002965e-05
2.931999999999999940e+00 6.820732932514942141e-04 1.165393641020440946e-05
2.935999999999999943e+00 5.879998047824003000e-04 -1.439543121321014707e-05
2.939999999999999947e+00 4.273744613622380232e-04 -3.103608785824914440e-05
2.943999999999999950e+00 3.331725463512716931e-04 -2.782809962493018100e-05
2.947999999999999954e+00 3.642318063917100420e-04 1.301067236388938504e-05
2.951999999999999957e+00 4.570764443226177061e-04 6.532238033269464168e-05
2.955999999999999961e+00 4.492957410359076044e-04 6.734645851095583536e-05
2.959999999999999964e+00 3.341486845907237768e-04 3.426434548448132407e-05
2.963999999999999968e+00 2.716158647231111571e-04 9.869451070522218550e-06
2.967999999999999972e+00 2.726419853113330196e-04 -1.411789923378816081e-05
2.971999999999999975e+00 3.019287698568777641e-04 -5.409606993636614493e-05
2.975999999999999979e+00 3.436906945584484725e-04 -5.037074532597556634e-05
2.979999999999999982e+00 3.243022043459986722e-04 -1.737312162914937018e-05
2.983999999999999986e+00 2.918355155887662343e-04 5.999226671271100479e-06
2.987999999999999989e+00 3.251017593039147230e-04 2.846100980667036910e-05
2.991999999999999993e+00 3.554342809054123332e-04 8.863430463431487679e-06
2.995999999999999996e+00 3.331877114104802554e-04 -6.919152733628597685e-06
3.000000000000000000e+00 2.987644525946206637e-04 6.637349649916597186e-06
3.004000000000000004e+00 2.852323436692189604e-04 1.385496443460923931e-05
3.008000000000000007e+00 2.938693979558704475e-04 -1.498123764855566506e-06
3.012000000000000011e+00 2.853003167938182789e-04 -3.853281124739192682e-06
3.016000000000000014e+00 3.120227838645632263e-04 1.875070869832766188e-05
3.020000000000000018e+00 3.232716630302210877e-04 3.268387377173073574e-05
3.024000000000000021e+00 3.377398925010363325e-04 2.285508888818460772e-05
3.028000000000000025e+00 3.483491535975490353e-04 9.809125710401907087e-06
3.032000000000000028e+00 3.638520244239829764e-04 2.452370339911290068e-05
3.036000000000000032e+00 3.617188805035926940e-04 5.746383572735438755e-05
3.040000000000000036e+00 3.161377535420630295e-04 3.761008572004756343e-05
3.044000000000000039e+00 2.792185942534348942e-04 3.778901368594802023e-06
3.048000000000000043e+00 2.651953940156013124e-04 -2.789306168993764182e-05
3.052000000000000046e+00 2.525386509190381389e-04 -7.418521606287856206e-05
3.056000000000000050e+00 2.483304172867186908e-04 -7.496067124310092523e-05
3.060000000000000053e+00 2.770764488714702275e-04 -2.744899462828579199e-05
3.064000000000000057e+00 3.004692964608512962e-04 2.222735305723050420e-05
3.068000000000000060e+00 3.043848411380129654e-04 3.497889926993863490e-05
3.072000000000000064e+00 2.743914823909099007e-04 1.682282202300810616e-07
3.076000000000000068e+00 2.393612010427180101e-04 -3.616501185054509171e-05
3.080000000000000071e+00 2.131737057044805705e-04 -4.011483194575851566e-05
3.084000000000000075e+00 2.004911931898887439e-04 -3.141998025249212510e-05
3.088000000000000078e+00 2.076332042483578194e-04 -2.017160057694715615e-05
3.092000000000000082e+00 2.194591996513774624e-04 -7.001307750855582628e-06
3.096000000000000085e+00 2.303967627130187000e-04 -7.314566750549256934e-06
3.100000000000000089e+00 2.162107327568053654e-04 -7.640426862691416873e-06
3.104000000000000092e+00 2.078430506048862029e-04 -2.585325224716201578e-06
3.108000000000000096e+00 2.097424688990852620e-04 2.379088387689209668e-06
3.112000000000000099e+00 2.066610503022913499e-04 8.686613919013312144e-06
3.116000000000000103e+00 2.056860448340513297e-04 1.018138978962249104e-05
3.120000000000000107e+00 1.810153777265082213e-04 -7.054941067214531417e-06
3.124000000000000110e+00 1.605833709205995233e-04 -3.881068898831446307e-05
3.128000000000000114e+00 1.634399996488320058e-04 -2.716356915158586375e-05
3.132000000000000117e+00 1.523079469377780720e-04 1.063062439420872553e-05
3.136000000000000121e+00 1.216510115493397770e-04 -1.604346332389932648e-06
3.140000000000000124e+00 1.120482359418340857e-04 -2.595304901080732157e-05
3.144000000000000128e+00 1.446568279928615083e-04 3.797024824651908398e-06
3.148000000000000131e+00 1.168448999477164272e-04 -1.573746246093518989e-05
3.152000000000000135e+00 9.675618363114688904e-05 -3.427374216032843428e-05
3.156000000000000139e+00 1.176355587795357115e-04 -1.273226470907639458e-05
3.160000000000000142e+00 1.680569798373520482e-04 2.543985836385349750e-05
3.164000000000000146e+00 1.285609547075463655e-04 5.439218806585000956e-06
3.168000000000000149e+00 6.809452645099380345e-05 -5.520054772887854913e-05
3.172000000000000153e+00 1.158915016947515981e-04 -2.754268832562743082e-05
3.176000000000000156e+00 1.273585968794923337e-04 -5.399509931369879232e-06
3.180000000000000160e+00 1.286494876347826994e-04 7.044568895870331221e-06
3.184000000000000163e+00 1.329265537090720904e-04 1.218239227330313939e-05
3.188000000000000167e+00 1.466049994548861699e-04 1.655960099585728981e-05
3.192000000000000171e+00 1.433545258119049725e-04 5.321437552578190034e-06
3.196000000000000174e+00 1.722932944669086327e-04 6.054886287674091009e-06
3.200000000000000178e+00 2.186399629666460035e-04 1.016849225382736049e-05
3.204000000000000181e+00 2.384183022112631013e-04 -6.316694535499290127e-07
3.208000000000000185e+00 2.218816242590149494e-04 -1.531472088253974065e-05
3.212000000000000188e+00 2.314129002651128776e-04 -1.805767586912709216e-06
3.216000000000000192e+00 2.528136948850994467e-04 4.313700543699061722e-05
3.220000000000000195e+00 3.076765796821542744e-04 7.726730882630083997e-05
3.224000000000000199e+00 2.995319353080369822e-04 3.791208474544074594e-05
3.228000000000000203e+00 2.535637126137806454e-04 -4.290473965740742663e-05
3.232000000000000206e+00 2.675133878184301323e-04 -4.502283973159232984e-05
3.236000000000000210e+00 2.477341435390840985e-04 -6.835257901492213471e-05
3.240000000000000213e+00 2.603887789710193222e-04 -7.295881490630587527e-05
3.244000000000000217e+00 3.338265886912372086e-04 -2.869506913809459621e-06
3.248000000000000220e+00 3.548114706406381848e-04 5.729218394875327646e-05
3.251999999999999780e+00 3.303969303187191415e-04 4.514487008895559661e-05
3.255999999999999783e+00 3.153239934112070310e-04 1.983234432477965582e-05
3.259999999999999787e+00 3.175308557328345859e-04 6.657079505672880276e-06
3.263999999999999790e+00 3.509670637694437077e-04 3.059568695569122568e-05
3.267999999999999794e+00 3.590734976728657095e-04 6.000814620762708583e-05
3.271999999999999797e+00 3.323805378837696553e-04 4.467605594334142781e-05
3.275999999999999801e+00 3.025820164607495089e-04 3.176381626425193851e-06
3.279999999999999805e+00 2.987788979575408755e-04 -7.631676095514848145e-08
3.283999999999999808e+00 2.896962726665014507e-04 5.387735325754885315e-07
3.287999999999999812e+00 2.707328790763459869e-04 -1.139961024381624762e-05
3.291999999999999815e+00 2.335183185728803925e-04 -3.952776350096298978e-05
3.295999999999999819e+00 2.445460161770484156e-04 -3.964180874272350868e-05
3.299999999999999822e+00 2.837631726576811484e-04 -2.749791599915613431e-07
3.303999999999999826e+00 3.421599506931930889e-04 5.914415980510208198e-05
3.307999999999999829e+00 3.625827764778064423e-04 9.436970102872629723e-05
3.311999999999999833e+00 3.080119241033463240e-04 5.642717416520196157e-05
3.315999999999999837e+00 1.922142435517741935e-04 -1.898422291300174729e-05
3.319999999999999840e+00 1.698974623584886975e-04 -3.095496552782018716e-05
3.323999999999999844e+00 2.033493028424418459e-04 -4.097898390452818371e-05
3.327999999999999847e+00 2.504040429181641093e-04 -3.961181453967966713e-05
3.331999999999999851e+00 2.700036943949035532e-04 -2.358233308300325195e-05
3.335999999999999854e+00 2.705799556528010468e-04 4.778862962226782275e-06
3.339999999999999858e+00 2.816262198762770064e-04 2.949705732677440964e-05
3.343999999999999861e+00 2.537706559590260881e-04 2.637373386598502979e-05
3.347999999999999865e+00 2.076090742488590250e-04 1.208405184925939303e-05
3.351999999999999869e+00 1.930988489641531549e-04 -7.025247076944849344e-06
3.355999999999999872e+00 1.981118267987564676e-04 -1.729256393443392320e-05
3.359999999999999876e+00 2.265607087931643514e-04 8.915849351195966388e-06
3.363999999999999879e+00 2.816531968835132719e-04 4.831070635376985751e-05
3.367999999999999883e+00 2.611920770003244539e-04 5.511857368986171883e-05
3.371999999999999886e+00 1.897475816290725527e-04 -1.548762904368395217e-05
3.375999999999999890e+00 2.030610572964590128e-04 -1.288678880949297442e-05
3.379999999999999893e+00 2.275805603959328777e-04 1.791237607031485700e-05
3.383999999999999897e+00 2.426361581698195126e-04 3.621699730641351897e-05
3.387999999999999901e+00 2.422928722772627259e-04 4.266946192087745778e-05
3.391999999999999904e+00 1.922196276473248306e-04 2.511039064935947107e-05
3.395999999999999908e+00 1.793747599100591072e-04 1.461032837107085961e-05
3.399999999999999911e+00 2.114329574367037083e-04 5.724740679297417279e-06
3.403999999999999915e+00 2.015489905342963386e-04 -4.503831616377836300e-05
3.407999999999999918e+00 2.199380178925056269e-04 -4.909717127317989803e-05
3.411999999999999922e+00 2.235815283861112993e-04 2.393754814124570221e-06
3.415999999999999925e+00 2.476550138043220515e-04 4.657935783024061969e-05
3.419999999999999929e+00 2.344338559914442403e-04 4.095398959897938031e-05
3.423999999999999932e+00 1.918274073587772355e-04 -6.853192582221283408e-06
3.427999999999999936e+00 1.707997116894165624e-04 -1.999675926138508325e-05
3.431999999999999940e+00 1.630805478256256195e-04 -5.494278149521299119e-06
3.435999999999999943e+00 1.870838009216174366e-04 -9.648668568297240756e-06
3.439999999999999947e+00 1.992900343372191823e-04 -4.894876454568630855e-05
3.443999999999999950e+00 2.005553156860333242e-04 -5.621973216307955216e-05
3.447999999999999954e+00 2.209127434705958533e-04 -1.482274937927518751e-05
3.451999999999999957e+00 2.119945199156038861e-04 -5.546241842708926234e-06
3.455999999999999961e+00 2.267060788395869797e-04 -1.027751468075247798e-05
3.459999999999999964e+00 2.155032489433709628e-04 -3.482119799920744733e-05
3.463999999999999968e+00 2.142106908017243330e-04 -1.450543279202566638e-05
3.467999999999999972e+00 2.256260948668386526e-04 1.690560586314473693e-05
3.471999999999999975e+00 2.075152360145345433e-04 1.485124864983430117e-05
3.475999999999999979e+00 2.063255365100406997e-04 1.739178137115908332e-05
3.479999999999999982e+00 1.830068103395733994e-04 -2.241715042229109410e-05
3.483999999999999986e+00 1.806624849228368292e-04 -4.400763310900663395e-05
3.487999999999999989e+00 1.738628422754469761e-04 -5.268459994494217440e-05
3.491999999999999993e+00 1.793409452809273190e-04 -3.689737640568559440e-05
3.495999999999999996e+00 1.976694169849986754e-04 2.939442399492851979e-06
3.500000000000000000e+00 2.071424308516862543e-04 3.295048258749210446e-05
3.504000000000000004e+00 2.163597472671177928e-04 4.926544155386987362e-05
3.508000000000000007e+00 1.993628319521616686e-04 1.208513965207770847e-05
3.512000000000000011e+00 1.841454272572475731e-04 -3.543932657967908202e-05
3.516000000000000014e+00 2.114815154815393610e-04 -1.629779800276680898e-05
3.520000000000000018e+00 1.542492564285452203e-04 -3.518890223988596817e-05
3.524000000000000021e+00 1.571674158623479975e-04 -8.057899416284011805e-06
3.528000000000000025e+00 1.662863999924498067e-04 1.253699662682118556e-05
3.532000000000000028e+00 1.686160007476411116e-04 9.444998477322769182e-06
3.536000000000000032e+00 1.698655485383669108e-04 5.196835315268552900e-06
3.540000000000000036e+00 1.735760891662913952e-04 2.279621786924749697e-06
3.544000000000000039e+00 1.435422858460771978e-04 -5.520029937384223113e-05
3.548000000000000043e+00 1.783305665882628879e-04 -3.780485840543702932e-05
3.552000000000000046e+00 2.202741324653785223e-04 2.531650959634761583e-05
3.556000000000000050e+00 2.271544121186676161e-04 5.072513992842939140e-05
3.560000000000000053e+00 1.725044306381059587e-04 1.055044981252219633e-05
3.564000000000000057e+00 1.306340332006617529e-04 -1.526545704628713574e-05
3.568000000000000060e+00 1.058363949519457490e-04 -2.842287949928299590e-05
3.572000000000000064e+00 1.182301757373293769e-04 -2.393698775331731595e-05
3.576000000000000068e+00 1.463329933004594836e-04 -2.107327192050985126e-05
3.580000000000000071e+00 1.739695495281330141e-04 -3.975318996053295904e-06
3.584000000000000075e+00 1.549574438047987383e-04 1.359584540258547391e-05
3.588000000000000078e+00 1.587295708880786496e-04 8.969753310335305943e-06
3.592000000000000082e+00 1.789656329437993470e-04 3.253482812136113295e-06
3.596000000000000085e+00 1.536523623091425657e-04 8.386706772613257887e-06
3.600000000000000089e+00 1.208941183874145345e-04 1.144567080668588380e-05
3.604000000000000092e+00 8.041793820850644877e-05 -1.716586677744130112e-05
3.608000000000000096e+00 9.404517258157758070e-05 -2.106214762264161863e-05
3.612000000000000099e+00 1.362775790474519651e-04 1.903421708863698483e-05
3.616000000000000103e+00 1.369051152160214477e-04 4.285014398915288112e-05
3.620000000000000107e+00 1.387927199040556885e-04 3.883752533819917875e-05
3.624000000000000110e+00 1.352207731721295878e-04 1.353630636715878333e-05
3.628000000000000114e+00 9.882136991604749507e-05 -4.974194803480437734e-05
3.632000000000000117e+00 8.772693759776927381e-05 -3.965440558169373522e-05
3.636000000000000121e+00 1.053659145922917849e-04 1.607613530864416505e-05
3.640000000000000124e+00 9.577637809972905597e-05 2.886937104198365468e-05
3.644000000000000128e+00 5.971776283416177554e-05 -3.619984590173387083e-06
3.648000000000000131e+00 8.815054636736541433e-05 -1.186273669486378245e-06
3.652000000000000135e+00 1.356105805146950007e-04 3.372433237715299957e-05
3.656000000000000139e+00 1.169699687358112793e-04 2.387019127057292086e-05
3.660000000000000142e+00 9.393756769244560208e-05 -6.713138902528632441e-06
3.664000000000000146e+00 5.448503319722791639e-05 -4.165251386789884866e-05
3.668000000000000149e+00 3.971322904704467459e-05 -4.565614958688766757e-05
3.672000000000000153e+00 6.360687335096870676e-05 -1.884874144343215297e-05
3.676000000000000156e+00 9.679296173813332264e-05 3.749261222907167187e-06
3.680000000000000160e+00 1.020619915378877496e-04 2.216083393519708300e-05
3.684000000000000163e+00 8.737742856630340395e-05 1.865714876508677114e-05
3.688000000000000167e+00 5.522141956777310126e-05 -8.337774746835487576e-06
3.692000000000000171e+00 6.086736235702618509e-05 -3.709230209155587875e-06
3.696000000000000174e+00 4.425103018456169184e-05 -1.411771952676997863e-05
3.700000000000000178e+00 4.872537299385209142e-05 2.324342686941406363e-07
3.704000000000000181e+00 5.276372040147494065e-05 2.299877104204528717e-05
3.708000000000000185e+00 1.705701390827030046e-05 2.528805661771155240e-05
3.712000000000000188e+00 2.467670553864185866e-05 4.171766832548788817e-05
3.716000000000000192e+00 4.543221129162536498e-05 3.763896092936755894e-05
3.720000000000000195e+00 4.969995779080426177e-05 2.048999619692837149e-06
3.724000000000000199e+00 7.126213226196434361e-05 -7.380274052653436141e-07
3.728000000000000203e+00 6.560083463753956488e-05 -5.939727707883739852e-06
3.732000000000000206e+00 6.742479246865629942e-05 1.020408674682640457e-05
3.736000000000000210e+00 4.592694696822123226e-05 2.942891189380879898e-05
3.740000000000000213e+00 1.766979163371822998e-06 5.397207328556102622e-06
3.744000000000000217e+00 -2.576614162941371272e-05 -3.735432487257284200e-05
3.748000000000000220e+00 5.975737844731804994e-06 -3.198958344241241967e-05
3.751999999999999780e+00 5.927011887561694429e-06 -7.248169264553356257e-06
3.755999999999999783e+00 -2.475559899507908201e-05 -3.724727713982262754e-06
3.759999999999999787e+00 -1.798815971987640475e-05 1.154450467536074994e-05
3.763999999999999790e+00 -2.664383367168625893e-05 2.592667383407000223e-05
3.767999999999999794e+00 -5.056782096266953483e-05 2.848663778829702692e-05
3.771999999999999797e+00 -1.006528859265223532e-04 -1.365587510888805804e-05
3.775999999999999801e+00 -1.448601529289950888e-04 -5.797025434521064640e-05
3.779999999999999805e+00 -1.030158091415665902e-04 -1.888088841495022744e-05
3.783999999999999808e+00 -4.961179200158715309e-05 3.684447273141590383e-05
3.787999999999999812e+00 -3.213407592601818629e-05 5.636364002663989055e-05
3.791999999999999815e+00 -5.271477404982800169e-05 2.259273170209403054e-06
3.795999999999999819e+00 -6.689207941401721462e-05 -3.422098843138493909e-05
3.799999999999999822e+00 -4.430640025507636217e-05 -1.164234860310866980e-05
3.803999999999999826e+00 -1.399353082003716985e-05 2.450953584270213433e-05
3.807999999999999829e+00 -2.913848616452123272e-05 1.072699512927564270e-05
3.811999999999999833e+00 9.589323422666683831e-06 3.516524242204430487e-05
3.815999999999999837e+00 3.050257108122066013e-06 2.817482402987451221e-05
3.819999999999999840e+00 3.629222430508262718e-06 2.409168872439699529e-05
3.823999999999999844e+00 9.297026856816782966e-06 2.704366560838020907e-05
3.827999999999999847e+00 2.871475655485815923e-05 1.019162534993691110e-05
3.831999999999999851e+00 2.452190842946908747e-05 -3.926219544368501039e-05
3.835999999999999854e+00 3.246681811508534822e-06 -5.557563507543439551e-05
3.839999999999999858e+00 3.860490236304752246e-05 1.632276182165849878e-05
3.843999999999999861e+00 3.204121523838792453e-05 5.059036247727509883e-05
3.847999999999999865e+00 1.325813890047983171e-05 2.355761921870415927e-05
3.851999999999999869e+00 -2.072645790849050819e-05 -4.638176336032832648e-05
3.855999999999999872e+00 -8.960535852309936178e-06 -7.122007185176923026e-05
3.859999999999999876e+00 4.263951229595167032e-06 -3.503760860128103530e-05
3.863999999999999879e+00 5.042623396925599028e-06 -1.440991157289213399e-05
3.867999999999999883e+00 2.150717981986063402e-05 1.050778836083185128e-05
3.871999999999999886e+00 -3.605920670994852353e-06 1.574646046763364225e-05
3.875999999999999890e+00 -3.091542204585192530e-05 8.267612637984139885e-06
3.879999999999999893e+00 -9.033592872446751030e-05 -4.728411951494028578e-05
3.883999999999999897e+00 -8.516211678604763838e-05 -4.900876618048136677e-05
3.887999999999999901e+00 -8.775476707488221047e-05 -7.510323091703382006e-06
3.891999999999999904e+00 -1.006801035188994444e-04 2.348511297280336319e-05
3.895999999999999908e+00 -1.102428982960243227e-04 1.370573476014818313e-05
3.899999999999999911e+00 -1.033427902922361537e-04 2.058437474563696876e-05
3.903999999999999915e+00 -1.636373976625716598e-04 3.514606870090187244e-05
3.907999999999999918e+00 -3.411376712103949193e-04 1.636071686304736670e-05
3.911999999999999922e+00 -4.955728603913075753e-04 -3.834325837302237757e-06
3.915999999999999925e+00 -5.228347837351154503e-04 -4.117519765869781100e-05
3.919999999999999929e+00 -3.150461312748366826e-04 -3.471549776914653477e-05
3.923999999999999932e+00 -6.601181094271254667e-05 -3.303726479755351541e-05
3.927999999999999936e+00 1.124049388366036363e-04 1.165665598256995187e-05
3.931999999999999940e+00 2.046827867689642716e-04 4.553724897284680274e-05
3.935999999999999943e+00 2.823393194673710633e-04 5.058031543770470434e-05
3.939999999999999947e+00 2.722014814343434730e-04 2.071063754375239638e-05
3.943999999999999950e+00 2.104611390647328226e-04 -1.207792876278108376e-05
3.947999999999999954e+00 2.039603562719564814e-04 -1.765246363092398967e-05
3.951999999999999957e+00 2.216087542092594548e-04 7.268358783018579491e-06
3.955999999999999961e+00 1.655186984848225763e-04 9.610973091058760241e-06
3.959999999999999964e+00 1.392594957965514473e-05 9.867471065055982035e-07
3.963999999999999968e+00 -6.948215869208120075e-05 2.258393717682378450e-06
3.967999999999999972e+00 -9.082419504056839558e-05 8.569797724813022342e-06
3.971999999999999975e+00 -6.063393934189749928e-05 2.238619969202494195e-05
3.975999999999999979e+00 -4.044457627004140502e-05 3.550993344731625010e-05
3.979999999999999982e+00 -1.025874706359572610e-04 1.085263474701074802e-05
3.983999999999999986e+00 -1.615364344777155169e-04 -7.340144169895443273e-06
3.987999999999999989e+00 -1.550694232880576290e-04 -6.110234851933375955e-06
3.991999999999999993e+00 -1.416414074803475543e-04 -2.390837869959895097e-05
3.995999999999999996e+00 -1.059898835189853537e-04 -1.533935025402853888e-07
4.000000000000000000e+00 -1.646614376109717664e-04 -2.275408784001475479e-05
4.003999999999999559e+00 -1.884350277764754362e-04 -2.526242199842185980e-05
4.008000000000000007e+00 -1.437508499176262655e-04 4.080339483335239609e-05
4.011999999999999567e+00 -1.109341558872358645e-04 5.946806116895478957e-05
4.016000000000000014e+00 -1.518863675810112857e-04 -2.614398785028680586e-06
4.019999999999999574e+00 -2.009090762018933573e-04 -4.189644993225916786e-05
4.024000000000000021e+00 -1.899373757291150243e-04 -1.775850416317485667e-05
4.027999999999999581e+00 -1.559834547422745982e-04 3.405958789092792236e-07
4.032000000000000028e+00 -1.041407863289626118e-04 2.213314844205046376e-05
4.035999999999999588e+00 -1.074126665574763904e-04 1.290239949682739300e-05
4.040000000000000036e+00 -1.656483278023437107e-04 -2.083867579617039331e-05
4.043999999999999595e+00 -1.944289844691722688e-04 -4.598475811223666211e-05
4.048000000000000043e+00 -1.747720660381041433e-04 -2.961346661143915990e-05
4.051999999999999602e+00 -1.595256419984764768e-04 -8.053516772723272451e-06
4.056000000000000050e+00 -1.548308258641097176e-04 1.862185225585409856e-05
4.059999999999999609e+00 -1.503900299690538787e-04 2.330286894528008459e-05
4.064000000000000057e+00 -1.635978571672736827e-04 1.248021099143531238e-05
4.067999999999999616e+00 -1.825934842627542642e-04 -1.953546340674809274e-05
4.072000000000000064e+00 -2.032081643625560598e-04 -4.278155838459934388e-05
4.075999999999999623e+00 -1.724245574286554952e-04 5.290401559712785460e-06
4.080000000000000071e+00 -1.734769354998038878e-04 2.655355168566379446e-05
4.083999999999999631e+00 -2.055215445134874266e-04 -1.084221991347346755e-05
4.088000000000000078e+00 -2.259596061249402198e-04 -2.345730895659876140e-05
4.091999999999999638e+00 -2.129590364393689158e-04 -1.100759968116926458e-05
4.096000000000000085e+00 -2.396055827961131204e-04 -1.330522888361661961e-05
4.099999999999999645e+00 -2.516008798458319777e-04 -2.740681455362452382e-05
4.104000000000000092e+00 -2.302173759748019186e-04 -2.790841343981943963e-05
4.107999999999999652e+00 -2.227351716409775009e-04 -1.432761664502137824e-05
4.112000000000000099e+00 -2.411279325214029214e-04 -5.652694162884623315e-06
4.115999999999999659e+00 -2.544119296920736113e-04 -8.932576748253963104e-06
4.120000000000000107e+00 -2.352367127483406220e-04 9.722299741709113834e-06
4.123999999999999666e+00 -2.072448185062727250e-04 4.422494757707525208e-05
4.128000000000000114e+00 -2.179404443882768452e-04 3.232449452642522590e-05
4.131999999999999673e+00 -2.508554145719015167e-04 6.376503018707117926e-06
4.136000000000000121e+00 -2.919482562533593970e-04 -9.396697841821220748e-06
4.139999999999999680e+00 -2.878354398283366859e-04 1.023432709811449793e-05
4.144000000000000128e+00 -3.019234720117515728e-04 1.759285280309594993e-05
4.147999999999999687e+00 -3.133910551015882178e-04 -1.671469398915603145e-05
4.152000000000000135e+00 -3.087157310229496810e-04 -4.301669710676053694e-05
4.155999999999999694e+00 -3.224217194142955868e-04 -4.642740265158967717e-05
4.160000000000000142e+00 -3.182663879111595115e-04 -1.979701009152326965e-05
4.163999999999999702e+00 -2.894096345620139035e-04 2.472548265305449082e-05
4.168000000000000149e+00 -3.155988166065901786e-04 4.779698614504192895e-05
4.171999999999999709e+00 -3.099891578501954691e-04 4.331399923083736555e-05
4.176000000000000156e+00 -3.042653835135175622e-04 -5.145325405863871365e-08
4.179999999999999716e+00 -3.270582541295611700e-04 -3.817686853586496826e-05
4.184000000000000163e+00 -3.407688441171823220e-04 -2.778112308431960942e-05
4.187999999999999723e+00 -3.342533890176578896e-04 -1.114250346759033582e-05
4.192000000000000171e+00 -3.205113391710716483e-04 -1.537859586317203700e-05
4.195999999999999730e+00 -2.893833253214895184e-04 1.034765780582933269e-05
4.200000000000000178e+00 -2.385494468411790848e-04 5.476144567058506470e-05
4.203999999999999737e+00 -2.113550622050683380e-04 6.908517163798459366e-05
4.208000000000000185e+00 -2.479282809651990388e-04 1.538689001608063521e-05
4.211999999999999744e+00 -3.104684807331998804e-04 -5.567860034501804676e-05
4.216000000000000192e+00 -3.137977675535596014e-04 -5.504091679451593612e-05
4.219999999999999751e+00 -2.553022542235614759e-04 6.427717776562056752e-06
4.224000000000000199e+00 -2.241164598163952260e-04 3.177869271196607565e-05
4.227999999999999758e+00 -2.215128315623266907e-04 1.220752946224360662e-05
4.232000000000000206e+00 -2.142356752655453416e-04 -1.060980993972534416e-05
4.235999999999999766e+00 -1.757712793700884455e-04 -1.405383559393880459e-05
4.240000000000000213e+00 -1.487330078634218689e-04 -2.517861631910776399e-05
4.243999999999999773e+00 -1.561179222801662694e-04 -3.313259201598151948e-05
4.248000000000000220e+00 -1.515461247037146013e-04 -8.919178811599091567e-06
4.251999999999999780e+00 -1.215353037594310820e-04 4.221232821428532806e-05
4.256000000000000227e+00 -1.022356099101240053e-04 5.937040207326616334e-05
4.259999999999999787e+00 -1.019611227576858880e-04 3.180537699507505486e-05
4.264000000000000234e+00 -1.198078206951375000e-04 3.032078151924862774e-06
4.267999999999999794e+00 -1.129484431648799999e-04 -3.908907081934791198e-06
4.272000000000000242e+00 -1.430216248041850456e-04 -3.984471736659615912e-05
4.275999999999999801e+00 -1.164108763447593110e-04 -1.378846609955143893e-05
4.280000000000000249e+00 -1.149817948758398748e-04 7.423236328348011101e-06
4.283999999999999808e+00 -9.762167678861448264e-05 6.944094550163695112e-07
4.288000000000000256e+00 -5.085411648191982424e-05 2.344845986040291379e-05
4.291999999999999815e+00 -6.102866417297336609e-05 5.442071804431873041e-05
4.296000000000000263e+00 -9.585327418481468268e-05 3.784110343214807222e-05
4.299999999999999822e+00 -1.286533407751669312e-04 -4.626984095266247366e-06
4.304000000000000270e+00 -1.301209145199600393e-04 -3.097445120207880401e-05
4.307999999999999829e+00 -1.094484465503478191e-04 -1.023678126684644891e-05
4.312000000000000277e+00 -7.756638753327503783e-05 1.289464566148763401e-05
4.315999999999999837e+00 -8.171999528981187895e-05 1.394212963122728976e-05
4.320000000000000284e+00 -1.109506663426947261e-04 -5.540245981475242819e-06
4.323999999999999844e+00 -1.501892036905521451e-04 -2.326383048172436888e-05
4.328000000000000291e+00 -1.771301707232919825e-04 -4.347965809150128460e-05
4.331999999999999851e+00 -1.797510345395435011e-04 -4.243206628463827654e-05
4.336000000000000298e+00 -1.601581719669136167e-04 4.955338893961020886e-06
4.339999999999999858e+00 -1.421624530230010961e-04 3.578600509130616008e-05
4.344000000000000306e+00 -1.640201227181957043e-04 5.261537866656956671e-05
4.347999999999999865e+00 -1.983745393211570375e-04 3.342730971365519109e-05
4.352000000000000313e+00 -2.337191372773290878e-04 -4.607978196565717412e-05
4.355999999999999872e+00 -1.899110889339548913e-04 -7.705033108486360215e-05
4.360000000000000320e+00 -1.572809707056502856e-04 -5.360598539629843226e-05
4.363999999999999879e+00 -1.629925254064196118e-04 6.110232758024437742e-06
4.368000000000000327e+00 -1.781553297217032192e-04 5.122680871534365490e-05
4.371999999999999886e+00 -1.674134368955009693e-04 7.931997530206174522e-05
4.376000000000000334e+00 -1.640596527480127419e-04 6.110886189069310499e-05
4.379999999999999893e+00 -1.821400532988895135e-04 -1.248685094726880196e-06
4.384000000000000341e+00 -1.597151738146075346e-04 -3.569727835939203516e-05
4.387999999999999901e+00 -1.918415437398375469e-04 -5.108892194065365119e-05
4.392000000000000348e+00 -1.832059105580988157e-04 1.024232897906887347e-06
4.395999999999999908e+00 -1.690474668050712375e-04 4.162324274620424560e-05
4.400000000000000355e+00 -1.643600353636766461e-04 2.393583979417453935e-05
4.403999999999999915e+00 -2.206453230560530992e-04 -3.610943752491971217e-05
4.408000000000000362e+00 -2.293550267472912736e-04 -4.959610457602648575e-05
4.411999999999999922e+00 -2.235575525034155916e-04 -1.877144407287232298e-05
4.416000000000000369e+00 -2.412752936550020583e-04 -9.515511859361052160e-09
4.419999999999999929e+00 -2.253631816016780215e-04 1.291387204143060682e-06
4.424000000000000377e+00 -2.404722973508220359e-04 -2.737201312300478669e-05
4.427999999999999936e+00 -2.315430703513954606e-04 -2.170669240805555227e-05
4.432000000000000384e+00 -2.542414654868559772e-04 -1.376799372990699669e-05
4.435999999999999943e+00 -2.791639959045331813e-04 -1.402681990917381986e-05
4.440000000000000391e+00 -2.369325327969609566e-04 -1.002042717718116810e-06
4.443999999999999950e+00 -1.725520570605801622e-04 3.248530097005310430e-05
4.448000000000000398e+00 -1.718003882722315609e-04 3.202736673579688554e-05
4.451999999999999957e+00 -2.077147352136311429e-04 2.717080269193845966e-05
4.456000000000000405e+00 -2.404242994768462764e-04 2.797112221407513697e-05
4.459999999999999964e+00 -2.219189986035654649e-04 3.020250612225240487e-05
4.464000000000000412e+00 -1.907867270854897966e-04 1.107877902946348433e-05
4.467999999999999972e+00 -2.139642993427557152e-04 -2.821044245128535277e-05
4.472000000000000419e+00 -2.293443489141527023e-04 -2.466958816313432972e-05
4.475999999999999979e+00 -2.418128410150217249e-04 -1.649818573960353798e-05
4.480000000000000426e+00 -2.454017723456589084e-04 -8.548096869776281050e-06
4.483999999999999986e+00 -2.639732603323791094e-04 1.543026425158998165e-07
4.488000000000000433e+00 -2.480209471642758848e-04 -2.358425658993722803e-05
4.491999999999999993e+00 -2.095391417127052242e-04 -9.551768720128883477e-06
4.496000000000000441e+00 -1.988310884560361234e-04 2.222967028226819640e-05
4.500000000000000000e+00 -2.316696358021902956e-04 1.056985412354383913e-05
4.503999999999999559e+00 -2.504304301662049021e-04 -1.276829749408399075e-06
4.508000000000000007e+00 -2.293119919407191531e-04 3.041937998593142729e-05
4.511999999999999567e+00 -2.578584442184885146e-04 3.436090883367182939e-06
4.516000000000000014e+00 -2.739268456895594707e-04 -3.238801744301212488e-05
4.519999999999999574e+00 -2.669461667936191200e-04 -3.259813682420428511e-05
4.524000000000000021e+00 -2.377658932393473948e-04 3.776593833590126529e-06
4.527999999999999581e+00 -2.185519772794265888e-04 2.681926284422090484e-05
4.532000000000000028e+00 -2.507247369768440468e-04 1.189155074616420120e-05
4.535999999999999588e+00 -2.788507780785907356e-04 -1.070460596492131012e-05
4.540000000000000036e+00 -2.647229432081611017e-04 1.287747722139811926e-05
4.543999999999999595e+00 -2.737432715183711119e-04 -6.853542907873249896e-06
4.548000000000000043e+00 -2.692846448866560174e-04 -2.830356243505414377e-05
4.551999999999999602e+00 -2.494640357405492688e-04 -5.768780976309491609e-06
4.556000000000000050e+00 -2.326528630551924113e-04 1.968925731338812675e-05
4.559999999999999609e+00 -2.417675981793323116e-04 3.924418040963049812e-05
4.564000000000000057e+00 -2.374246289693197106e-04 6.342310935640314341e-05
4.567999999999999616e+00 -2.722619043234740565e-04 2.353667950141207345e-05
4.572000000000000064e+00 -2.790584440474606367e-04 -3.498289649938315217e-06
4.575999999999999623e+00 -2.747720726238774567e-04 2.295812639937234868e-08
4.580000000000000071e+00 -2.836825936847338597e-04 -5.764304419875362873e-06
4.583999999999999631e+00 -2.843580903943251806e-04 -4.212052191347274807e-06
4.588000000000000078e+00 -2.685911499332438706e-04 4.540853198643639863e-06
4.591999999999999638e+00 -2.569623669837640262e-04 -1.033350531159260345e-06
4.596000000000000085e+00 -2.515560317251801020e-04 -1.482602866690430129e-05
4.599999999999999645e+00 -2.628378588476958468e-04 -1.806427624565452534e-06
4.604000000000000092e+00 -2.504637377773734049e-04 1.571561705038449340e-05
4.607999999999999652e+00 -2.495615963642873036e-04 1.398690123591530402e-05
4.612000000000000099e+00 -2.580854783652414275e-04 5.557431252911658818e-06
4.615999999999999659e+00 -2.761706954795886400e-04 -3.710711774054529906e-06
4.620000000000000107e+00 -2.806833169767306664e-04 -2.643907477142893315e-06
4.623999999999999666e+00 -2.635256048207106809e-04 1.659278097101722726e-06
4.628000000000000114e+00 -2.997609610071375183e-04 -3.825163796189982320e-05
4.631999999999999673e+00 -3.062870274682895550e-04 -4.680481419660193187e-05
4.636000000000000121e+00 -2.761640406979738206e-04 -2.154266689042023123e-05
4.639999999999999680e+00 -2.561659297669029926e-04 1.354281595237576797e-05
4.644000000000000128e+00 -2.369365154254853695e-04 3.357687362920918185e-05
4.647999999999999687e+00 -2.512762475170190720e-04 2.982174893390430488e-05
4.652000000000000135e+00 -2.752165629411444940e-04 1.030173846571723623e-05
4.655999999999999694e+00 -2.686452544211921493e-04 9.079177701742131874e-07
4.660000000000000142e+00 -2.667692226384242235e-04 1.256379531982047715e-05
4.663999999999999702e+00 -2.795841552104558550e-04 1.431185071067751313e-05
4.668000000000000149e+00 -2.626207513762383308e-04 7.717301870172949734e-06
4.671999999999999709e+00 -2.641487706383854276e-04 -3.349158716345800659e-05
4.676000000000000156e+00 -3.289372636126034377e-04 -8.139575322205856635e-05
4.679999999999999716e+00 -3.558139195563684589e-04 -7.679824740010539905e-05
4.684000000000000163e+00 -3.345085738349318455e-04 -3.232978394997717463e-05
4.687999999999999723e+00 -3.217724227226498616e-04 5.290583321875242282e-06
4.692000000000000171e+00 -3.342833328116625582e-04 1.289287921745649585e-05
4.695999999999999730e+00 -3.408958221714041134e-04 2.091808475240179119e-06
4.700000000000000178e+00 -3.559604587277226373e-04 -5.688465732750458100e-06
4.703999999999999737e+00 -3.612895816381614519e-04 1.118716957096804066e-05
4.708000000000000185e+00 -3.853810055790352963e-04 -9.627488564118256981e-06
4.711999999999999744e+00 -3.522374685554025757e-04 1.890273788756512279e-05
4.716000000000000192e+00 -3.462680105028919037e-04 2.739050595021827906e-05
4.719999999999999751e+00 -3.554272106288492794e-04 8.425722612796803825e-06
4.724000000000000199e+00 -3.566039612513753057e-04 -4.321118619334982455e-05
4.727999999999999758e+00 -2.981593895475919808e-04 -5.151284515331337234e-06
4.732000000000000206e+00 -2.927068128607153690e-04 2.998561712584283406e-05
4.735999999999999766e+00 -2.862164291767896459e-04 3.816648165079058129e-05
4.740000000000000213e+00 -2.819269820005559013e-04 1.368840413114484766e-05
4.743999999999999773e+00 -3.052862825603279364e-04 -2.862216145878199766e-05
4.748000000000000220e+00 -3.158097907804123007e-04 -4.539835252656324694e-05
4.751999999999999780e+00 -2.688042797391251848e-04 -4.032371694883962472e-06
4.756000000000000227e+00 -2.382997619773264807e-04 5.621628733997903189e-05
4.759999999999999787e+00 -2.546541370875424811e-04 6.360777933874874372e-05
4.764000000000000234e+00 -2.472511337551587312e-04 5.210376678539720006e-05
4.767999999999999794e+00 -2.374302218765461702e-04 2.773971819132001684e-05
4.772000000000000242e+00 -2.179804870441093582e-04 -2.853402214553023846e-06
4.775999999999999801e+00 -2.320821868236655245e-04 -5.528084659506789299e-05
4.780000000000000249e+00 -2.333460049972672738e-04 -7.197414340155180838e-05
4.783999999999999808e+00 -2.325270446938946405e-04 -2.252152682535769489e-05
4.788000000000000256e+00 -2.522144780432780935e-04 -7.772449860414800009e-06
4.791999999999999815e+00 -2.354002199079557260e-04 3.981962486382325077e-06
4.796000000000000263e+00 -1.999739788017333676e-04 1.515211537985335281e-05
4.799999999999999822e+00 -2.200815315121857816e-04 9.569487446450519052e-06
4.804000000000000270e+00 -2.559979559836360525e-04 -2.958803290584172938e-05
4.807999999999999829e+00 -2.469472472223896062e-04 -1.813141932355927686e-05
4.812000000000000277e+00 -2.372105230428136102e-04 8.643623131289733416e-06
4.815999999999999837e+00 -2.270520825969146804e-04 2.851616432065878410e-05
4.820000000000000284e+00 -2.015940474838794397e-04 7.405180360679696427e-05
4.823999999999999844e+00 -2.380219575912147006e-04 7.910082414702364112e-05
4.828000000000000291e+00 -3.081494385001559656e-04 3.098350040262703423e-05
4.831999999999999851e+00 -3.545750566709427723e-04 -5.194705188324522056e-05
4.836000000000000298e+00 -3.809950219021808276e-04 -8.972807194209506836e-05
4.839999999999999858e+00 -4.236800100384084818e-04 -6.614313823471667619e-05
4.844000000000000306e+00 -5.393915145763000405e-04 -3.208304263821515399e-05
4.847999999999999865e+00 -6.342790638225646004e-04 1.838350239258638443e-05
4.852000000000000313e+00 -6.163122287896866764e-04 6.131131445458651145e-05
4.855999999999999872e+00 -3.980650332028468487e-04 5.737928351759191838e-05
4.860000000000000320e+00 -1.779737410991385712e-04 8.578621191820850117e-06
4.863999999999999879e+00 -5.661468569664303779e-05 -4.412290979179047008e-05
4.868000000000000327e+00 5.804111813645546102e-05 -1.748022122835517645e-05
4.871999999999999886e+00 1.341747950470169976e-04 2.712784520226395408e-05
4.876000000000000334e+00 1.285033552115406007e-04 4.339128418276459921e-05
4.879999999999999893e+00 5.234596473648647888e-05 1.300146665396504243e-05
4.884000000000000341e+00 4.867888012141324632e-05 4.345604914025609393e-06
4.887999999999999901e+00 1.829717311759742390e-05 -9.696417824895194707e-06
4.892000000000000348e+00 -3.758042789057240322e-05 2.314561997310635714e-06
4.895999999999999908e+00 -1.520528297141074110e-04 5.290562277796255932e-06
4.900000000000000355e+00 -2.271917563948384607e-04 8.209868750766304235e-07
4.903999999999999915e+00 -2.232379463322590465e-04 -2.515186107790948962e-05
4.908000000000000362e+00 -1.820945496117783928e-04 -6.010463056675105710e-06
4.911999999999999922e+00 -1.886641185725469445e-04 -3.189134657056445351e-06
4.916000000000000369e+00 -2.496592070402266542e-04 -1.588033494389217857e-05
4.919999999999999929e+00 -2.719439015919866373e-04 -1.525993972280312370e-05
4.924000000000000377e+00 -2.530334247206293273e-04 -2.527017158525944244e-05
4.927999999999999936e+00 -2.374763034242506512e-04 -2.736482508497707714e-05
4.932000000000000384e+00 -2.427546676567913988e-04 -1.665976507700044849e-05
4.935999999999999943e+00 -2.690624749862745215e-04 -3.399665078886783767e-06
4.940000000000000391e+00 -2.708355428276830088e-04 3.180325861624574532e-06
4.943999999999999950e+00 -2.766851566835497453e-04 -3.551154300552509652e-06
4.948000000000000398e+00 -2.559679884234555619e-04 1.180662916945429003e-05
4.951999999999999957e+00 -2.578293394511225935e-04 1.228530185946586135e-05
4.956000000000000405e+00 -2.825395758256254628e-04 7.297982015122132758e-06
4.959999999999999964e+00 -2.857764664938018759e-04 1.696149239026971040e-05
4.964000000000000412e+00 -2.597507843495221787e-04 3.790961711729720407e-05
4.967999999999999972e+00 -2.354944698928384443e-04 3.087273403592206392e-05
4.972000000000000419e+00 -2.502532522421273362e-04 -1.968498572949960862e-05
4.975999999999999979e+00 -2.886426126714085392e-04 -4.223919201159600151e-05
4.980000000000000426e+00 -2.986043809419867794e-04 -2.679508082546696218e-05
4.983999999999999986e+00 -2.675815724599844977e-04 -1.222019274987232722e-05
4.988000000000000433e+00 -2.216104560352933641e-04 1.305625406912466290e-05
4.991999999999999993e+00 -2.105710967517318436e-04 4.408247888536937723e-05
4.996000000000000441e+00 -2.168308250844214896e-04 6.892182866132350581e-05
5.000000000000000000e+00 -2.436253982178063584e-04 3.911094672796895232e-05
5.003999999999999559e+00 -2.289191433344386461e-04 1.319963921508681014e-05
5.008000000000000007e+00 -2.265377571260599973e-04 1.505463503365528434e-05
5.011999999999999567e+00 -2.774685122492173348e-04 -1.187205598918912777e-05
5.016000000000000014e+00 -2.888582734337011553e-04 -5.317422769701588090e-05
5.019999999999999574e+00 -2.981989282293135693e-04 -1.162651372826486133e-04
5.024000000000000021e+00 -2.796011904161115167e-04 -9.077662709847102390e-05
5.027999999999999581e+00 -2.848303160551621531e-04 -4.490006433228229955e-05
5.032000000000000028e+00 -2.687845526077437376e-04 -1.647596661426574527e-05
5.035999999999999588e+00 -2.927883955263860466e-04 -1.002953836048888252e-05
5.040000000000000036e+00 -3.031180504868703882e-04 -9.605715247068065166e-06
5.043999999999999595e+00 -2.756763878080585963e-04 1.459329060071826731e-05
5.048000000000000043e+00 -2.669979278670474017e-04 2.425248658051742904e-06
5.051999999999999602e+00 -2.677887482236630725e-04 -5.080391127253926069e-07
5.056000000000000050e+00 -2.576758196978288888e-04 2.800977602872976692e-05
5.059999999999999609e+00 -2.755457397407129450e-04 3.615736155659717466e-05
5.064000000000000057e+00 -3.090286825570633697e-04 5.088093432011713127e-06
5.067999999999999616e+00 -2.961017280561891243e-04 -8.158335467776108658e-06
5.072000000000000064e+00 -2.787605905641326654e-04 1.133080775096739586e-05
5.075999999999999623e+00 -2.991273224932048270e-04 6.920226970732376492e-06
5.080000000000000071e+00 -3.192797747861241507e-04 8.256507374590982005e-06
5.083999999999999631e+00 -3.330729422403400715e-04 1.983938676909972619e-05
5.088000000000000078e+00 -3.104803349925447397e-04 4.156055949496296852e-05
5.091999999999999638e+00 -3.311096066999335143e-04 1.761758518321910268e-05
5.096000000000000085e+00 -3.210357411045241627e-04 1.885239441249773326e-05
5.099999999999999645e+00 -3.377036395019470728e-04 -8.627711896561820389e-06
5.104000000000000092e+00 -3.531766124465837578e-04 -1.912587454170499145e-05
5.107999999999999652e+00 -3.656188192208921950e-04 -4.241230636105083993e-05
5.112000000000000099e+00 -3.664768113989193732e-04 -5.519365994545251175e-05
5.115999999999999659e+00 -3.562911231177767779e-04 -4.743534536144494322e-05
5.120000000000000107e+00 -3.332592815181191753e-04 -1.378617188569604827e-05
5.123999999999999666e+00 -3.345339730279298530e-04 2.567339785627437384e-05
5.128000000000000114e+00 -3.327554283575670903e-04 4.425515710465835939e-05
5.131999999999999673e+00 -3.194410872897147425e-04 4.035086301946947139e-05
5.136000000000000121e+00 -2.904709427194632318e-04 3.369883171534658633e-05
5.139999999999999680e+00 -2.450800498498674029e-04 4.512814632713729556e-05
5.144000000000000128e+00 -2.496126716183673334e-04 4.720169353583279840e-05
5.147999999999999687e+00 -2.421261513061498524e-04 2.079721803479591080e-05
5.152000000000000135e+00 -2.089805542348919436e-04 9.596354647915673587e-06
5.155999999999999694e+00 -1.949538569413864918e-04 -1.284477940817499116e-05
5.160000000000000142e+00 -1.578351731458007526e-04 -1.572938796322774109e-05
5.163999999999999702e+00 -1.650755231796986072e-04 -2.980997636883348875e-05
5.168000000000000149e+00 -1.427574947870635636e-04 -6.657343176976793850e-06
5.171999999999999709e+00 -1.260277953664824379e-04 -6.153593507453656550e-06
5.176000000000000156e+00 -7.935502336040989454e-05 1.101628606925086920e-05
5.179999999999999716e+00 -6.949236878742458051e-05 3.288834178209246975e-05
5.184000000000000163e+00 -9.066145387647341102e-05 2.047719954053110218e-05
5.187999999999999723e+00 -9.350434032584364213e-05 6.848432112044143929e-06
5.192000000000000171e+00 -7.173267525912081939e-05 -8.300810170700555164e-07
5.195999999999999730e+00 -2.956567276042006479e-05 1.328665605744956648e-05
5.200000000000000178e+00 -1.954561329463034143e-05 1.363422246237908134e-05
5.203999999999999737e+00 -3.284038938269630395e-05 -1.404897040331666409e-05
5.208000000000000185e+00 -7.523202267558348462e-05 -3.973428878862482531e-05
5.211999999999999744e+00 -5.979022883993092717e-05 -1.629807982966160416e-05
5.216000000000000192e+00 -5.744709605982867127e-05 2.359854600400991865e-06
5.219999999999999751e+00 -1.808072554626131187e-05 4.275682506767438718e-05
5.224000000000000199e+00 7.526644107516098107e-06 5.881525342921132404e-05
5.227999999999999758e+00 -3.182337039845645725e-05 2.094524026672250975e-05
5.232000000000000206e+00 -4.298572545639728890e-05 -2.098400196945462631e-05
5.235999999999999766e+00 -4.176018188618421456e-05 -4.484995221742038227e-05
5.240000000000000213e+00 -4.490938002979150329e-05 -6.030866926559607375e-05
5.243999999999999773e+00 -5.089776054906708830e-05 -4.336229739998679450e-05
5.248000000000000220e+00 -3.878950518620606381e-05 3.059765837036719270e-06
5.251999999999999780e+00 -2.350755619818831635e-05 2.231237384327158429e-06
5.256000000000000227e+00 -3.134664233489867518e-06 -1.265705308796255478e-05
