0.000000000000000000e+00 -8.856007000000000809e-03 -1.426228999999999995e-03
4.000000000000000083e-03 -8.836244999999999516e-03 -1.476136999999999979e-03
8.000000000000000167e-03 -8.800904999999999492e-03 -1.473396999999999988e-03
1.200000000000000025e-02 -8.797828000000000592e-03 -1.446086999999999980e-03
1.600000000000000033e-02 -8.839514999999999179e-03 -1.441229999999999942e-03
2.000000000000000042e-02 -8.834418000000000132e-03 -1.449259999999999958e-03
2.400000000000000050e-02 -8.779653000000000110e-03 -1.427768000000000049e-03
2.800000000000000058e-02 -8.745516000000000054e-03 -1.428344999999999919e-03
3.200000000000000067e-02 -8.741093000000000127e-03 -1.448634999999999983e-03
3.599999999999999728e-02 -8.697434000000000415e-03 -1.420122999999999915e-03
4.000000000000000083e-02 -8.674836999999999479e-03 -1.394592000000000054e-03
4.399999999999999745e-02 -8.705080000000000456e-03 -1.412765999999999978e-03
4.800000000000000100e-02 -8.726572000000000148e-03 -1.451952000000000060e-03
5.199999999999999761e-02 -8.790376000000000786e-03 -1.505899999999999904e-03
5.600000000000000117e-02 -8.818888000000000421e-03 -1.507389999999999945e-03
5.999999999999999778e-02 -8.720369000000000384e-03 -1.424738999999999953e-03
6.400000000000000133e-02 -8.698828999999999936e-03 -1.409737000000000099e-03
6.800000000000000488e-02 -8.757921000000000109e-03 -1.465558999999999959e-03
7.199999999999999456e-02 -8.802637000000000309e-03 -1.478925999999999982e-03
7.599999999999999811e-02 -8.805135999999999866e-03 -1.473012000000000106e-03
8.000000000000000167e-02 -8.761094000000000520e-03 -1.465029999999999978e-03
8.400000000000000522e-02 -8.728158999999999224e-03 -1.436519000000000034e-03
8.799999999999999489e-02 -8.679789000000000254e-03 -1.405987000000000035e-03
9.199999999999999845e-02 -8.682818000000000133e-03 -1.437240000000000002e-03
9.600000000000000200e-02 -8.731765000000000707e-03 -1.456952999999999981e-03
1.000000000000000056e-01 -8.781288999999999415e-03 -1.465848000000000064e-03
1.039999999999999952e-01 -8.800904999999999492e-03 -1.458827999999999904e-03
1.079999999999999988e-01 -8.829369000000000106e-03 -1.456664000000000092e-03
1.120000000000000023e-01 -8.894712000000000798e-03 -1.493013999999999973e-03
1.160000000000000059e-01 -8.962361999999999759e-03 -1.486955999999999998e-03
1.199999999999999956e-01 -9.034290999999999849e-03 -1.431421999999999903e-03
1.239999999999999991e-01 -9.177476000000000383e-03 -1.421757999999999963e-03
1.280000000000000027e-01 -9.296092000000000591e-03 -1.440845999999999967e-03
1.320000000000000062e-01 -9.189160000000000036e-03 -1.435412999999999967e-03
1.360000000000000098e-01 -8.850428999999999935e-03 -1.440557000000000079e-03
1.400000000000000133e-01 -8.603292999999999704e-03 -1.463443999999999943e-03
1.439999999999999891e-01 -8.550451000000000579e-03 -1.473012000000000106e-03
1.479999999999999927e-01 -8.490927000000000544e-03 -1.447432999999999923e-03
1.519999999999999962e-01 -8.420392000000000501e-03 -1.419064999999999953e-03
1.559999999999999998e-01 -8.407457999999999598e-03 -1.405746999999999943e-03
1.600000000000000033e-01 -8.457654000000000213e-03 -1.437480000000000094e-03
1.640000000000000069e-01 -8.521697999999999426e-03 -1.460750999999999933e-03
1.680000000000000104e-01 -8.566222000000000072e-03 -1.456952999999999981e-03
1.719999999999999862e-01 -8.654066000000000189e-03 -1.477723999999999921e-03
1.759999999999999898e-01 -8.729601000000000027e-03 -1.453731999999999898e-03
1.799999999999999933e-01 -8.760662000000000657e-03 -1.442432000000000002e-03
1.839999999999999969e-01 -8.783884999999999957e-03 -1.481906999999999973e-03
1.880000000000000004e-01 -8.777826000000000725e-03 -1.462048999999999987e-03
1.920000000000000040e-01 -8.744362000000000315e-03 -1.407044999999999997e-03
1.960000000000000075e-01 -8.741621999999999240e-03 -1.409352999999999908e-03
2.000000000000000111e-01 -8.828600000000000683e-03 -1.464982999999999997e-03
2.039999999999999869e-01 -8.848362000000000241e-03 -1.470752000000000084e-03
2.079999999999999905e-01 -8.794414999999999871e-03 -1.419881999999999915e-03
2.119999999999999940e-01 -8.747150000000000411e-03 -1.400987000000000022e-03
2.159999999999999976e-01 -8.782297999999999147e-03 -1.435557000000000066e-03
2.200000000000000011e-01 -8.818694999999999659e-03 -1.455703000000000032e-03
2.240000000000000047e-01 -8.838937999999999309e-03 -1.452144999999999955e-03
2.280000000000000082e-01 -8.859853000000000867e-03 -1.444692000000000025e-03
2.320000000000000118e-01 -8.834946999999999245e-03 -1.429258000000000091e-03
2.359999999999999876e-01 -8.839995999999999271e-03 -1.462963000000000067e-03
2.399999999999999911e-01 -8.866969000000000586e-03 -1.488446000000000040e-03
2.439999999999999947e-01 -8.839562999999999934e-03 -1.485753000000000030e-03
2.479999999999999982e-01 -8.806723000000000676e-03 -1.437576000000000088e-03
2.520000000000000018e-01 -8.788501000000000646e-03 -1.403486999999999920e-03
2.560000000000000053e-01 -8.819561000000000067e-03 -1.416612999999999943e-03
2.600000000000000089e-01 -8.844322999999999421e-03 -1.436566999999999922e-03
2.640000000000000124e-01 -8.824033000000000224e-03 -1.440316999999999986e-03
2.680000000000000160e-01 -8.831100999999999188e-03 -1.427478999999999944e-03
2.720000000000000195e-01 -8.891057000000000821e-03 -1.449500000000000051e-03
2.760000000000000231e-01 -8.921781999999999629e-03 -1.473349000000000100e-03
2.800000000000000266e-01 -8.834754000000000218e-03 -1.422094000000000049e-03
2.839999999999999747e-01 -8.735803999999999792e-03 -1.348386000000000029e-03
2.879999999999999782e-01 -8.722676999999999861e-03 -1.357810000000000093e-03
2.919999999999999818e-01 -8.808020999999999212e-03 -1.421565000000000068e-03
2.959999999999999853e-01 -8.892403999999999586e-03 -1.442960999999999983e-03
2.999999999999999889e-01 -8.886296999999999599e-03 -1.426806000000000081e-03
3.039999999999999925e-01 -8.869132999999999531e-03 -1.433681999999999925e-03
3.079999999999999960e-01 -8.852400999999999326e-03 -1.440220999999999993e-03
3.119999999999999996e-01 -8.863266999999999327e-03 -1.438585999999999945e-03
3.160000000000000031e-01 -8.889085999999999169e-03 -1.443779000000000069e-03
3.200000000000000067e-01 -8.913222999999999632e-03 -1.460462999999999952e-03
3.240000000000000102e-01 -8.907069000000000097e-03 -1.470848000000000077e-03
3.280000000000000138e-01 -8.896971000000000046e-03 -1.461857000000000000e-03
3.320000000000000173e-01 -8.917068999999999690e-03 -1.440604999999999967e-03
3.360000000000000209e-01 -8.975390999999999231e-03 -1.472098000000000026e-03
3.400000000000000244e-01 -8.979575000000000057e-03 -1.459308999999999997e-03
3.439999999999999725e-01 -8.916589000000000806e-03 -1.417766999999999899e-03
3.479999999999999760e-01 -8.911107999999999182e-03 -1.444404000000000044e-03
3.519999999999999796e-01 -8.961159999999999265e-03 -1.468637000000000067e-03
3.559999999999999831e-01 -8.985681000000000571e-03 -1.451278999999999980e-03
3.599999999999999867e-01 -8.954477000000000617e-03 -1.425700000000000014e-03
3.639999999999999902e-01 -8.979575000000000057e-03 -1.456232000000000013e-03
3.679999999999999938e-01 -8.979238000000000497e-03 -1.461471999999999901e-03
3.719999999999999973e-01 -8.958562999999999249e-03 -1.426661999999999982e-03
3.760000000000000009e-01 -9.005970999999999768e-03 -1.426853999999999970e-03
3.800000000000000044e-01 -9.048089999999999952e-03 -1.445316999999999999e-03
3.840000000000000080e-01 -9.051840999999999707e-03 -1.448922999999999964e-03
3.880000000000000115e-01 -9.063092000000000023e-03 -1.448634999999999983e-03
3.920000000000000151e-01 -9.080207999999999335e-03 -1.461471999999999901e-03
3.960000000000000187e-01 -9.072708000000000508e-03 -1.444884999999999919e-03
4.000000000000000222e-01 -9.030685000000000101e-03 -1.423536999999999893e-03
4.040000000000000258e-01 -9.007220999999999284e-03 -1.449308000000000063e-03
4.079999999999999738e-01 -9.037753000000000800e-03 -1.482196000000000078e-03
4.119999999999999774e-01 -9.057706000000000437e-03 -1.494455999999999909e-03
4.159999999999999809e-01 -9.043762999999999802e-03 -1.464933999999999984e-03
4.199999999999999845e-01 -9.005202000000000345e-03 -1.408439000000000045e-03
4.239999999999999880e-01 -8.994719999999999452e-03 -1.410458999999999975e-03
4.279999999999999916e-01 -9.025395999999999766e-03 -1.459308999999999997e-03
4.319999999999999951e-01 -9.031021000000000187e-03 -1.472098000000000026e-03
4.359999999999999987e-01 -9.064917999999999934e-03 -1.477676000000000033e-03
4.400000000000000022e-01 -9.059388999999999290e-03 -1.490081000000000088e-03
4.440000000000000058e-01 -8.933994000000000657e-03 -1.448826999999999971e-03
4.480000000000000093e-01 -8.778354999999999839e-03 -1.379253999999999897e-03
4.520000000000000129e-01 -8.812251999999999585e-03 -1.389688000000000034e-03
4.560000000000000164e-01 -8.904086999999999766e-03 -1.440076999999999894e-03
4.600000000000000200e-01 -8.932215000000000293e-03 -1.470511999999999991e-03
4.640000000000000235e-01 -8.914953999999999240e-03 -1.484311000000000094e-03
4.680000000000000271e-01 -8.864324999999999288e-03 -1.471569999999999953e-03
4.719999999999999751e-01 -8.836293000000000272e-03 -1.454067999999999984e-03
4.759999999999999787e-01 -8.876105000000000453e-03 -1.458106999999999936e-03
4.799999999999999822e-01 -8.929186000000000414e-03 -1.479599000000000062e-03
4.839999999999999858e-01 -8.883701000000000791e-03 -1.469213999999999937e-03
4.879999999999999893e-01 -8.835140000000000007e-03 -1.422815000000000017e-03
4.919999999999999929e-01 -8.785566999999999335e-03 -1.409544999999999895e-03
4.959999999999999964e-01 -8.825378000000000042e-03 -1.457193000000000073e-03
5.000000000000000000e-01 -8.905770000000000353e-03 -1.495418000000000094e-03
5.040000000000000036e-01 -8.854515999999999776e-03 -1.458492000000000035e-03
5.080000000000000071e-01 -8.785904000000000630e-03 -1.441662999999999929e-03
5.120000000000000107e-01 -8.817012000000000807e-03 -1.465270999999999978e-03
5.160000000000000142e-01 -8.889759000000000549e-03 -1.499071999999999948e-03
5.200000000000000178e-01 -8.928560999999999789e-03 -1.509698000000000073e-03
5.240000000000000213e-01 -8.880287000000000597e-03 -1.488350000000000046e-03
5.280000000000000249e-01 -8.838986000000000065e-03 -1.460078000000000070e-03
5.320000000000000284e-01 -8.813213999999999770e-03 -1.430124000000000065e-03
5.360000000000000320e-01 -8.860333999999999224e-03 -1.431278000000000021e-03
5.400000000000000355e-01 -8.959956999999999297e-03 -1.483493999999999915e-03
5.440000000000000391e-01 -8.931829999999999978e-03 -1.491811999999999912e-03
5.480000000000000426e-01 -8.800376999999999852e-03 -1.442480000000000108e-03
5.520000000000000462e-01 -8.766624000000000638e-03 -1.419305000000000046e-03
5.560000000000000497e-01 -8.866535999999999515e-03 -1.468780999999999949e-03
5.600000000000000533e-01 -8.943562000000000387e-03 -1.505707000000000009e-03
5.639999999999999458e-01 -8.947840999999999781e-03 -1.497773999999999894e-03
5.679999999999999494e-01 -8.881152999999999270e-03 -1.447432999999999923e-03
5.719999999999999529e-01 -8.840861000000000205e-03 -1.461087999999999927e-03
5.759999999999999565e-01 -8.852785000000000168e-03 -1.485994000000000030e-03
5.799999999999999600e-01 -8.896634999999999960e-03 -1.501572000000000063e-03
5.839999999999999636e-01 -8.883989000000000122e-03 -1.496619999999999938e-03
5.879999999999999671e-01 -8.844611000000000486e-03 -1.461857000000000000e-03
5.919999999999999707e-01 -8.866825000000000054e-03 -1.461857000000000000e-03
5.959999999999999742e-01 -8.934137999999999455e-03 -1.486906999999999986e-03
5.999999999999999778e-01 -8.950774999999999357e-03 -1.467098000000000013e-03
6.039999999999999813e-01 -8.893124999999999988e-03 -1.447816999999999897e-03
6.079999999999999849e-01 -8.838553000000000728e-03 -1.452722000000000041e-03
6.119999999999999885e-01 -8.851197999999999358e-03 -1.479070000000000081e-03
6.159999999999999920e-01 -8.914520999999999903e-03 -1.486137999999999912e-03
6.199999999999999956e-01 -8.947745000000000004e-03 -1.500418000000000108e-03
6.239999999999999991e-01 -8.946399000000000712e-03 -1.505466999999999916e-03
6.280000000000000027e-01 -8.900672999999999571e-03 -1.466040000000000051e-03
6.320000000000000062e-01 -8.900096999999999176e-03 -1.457818000000000048e-03
6.360000000000000098e-01 -8.926877999999999203e-03 -1.477868000000000020e-03
6.400000000000000133e-01 -8.907597999999999211e-03 -1.475079000000000017e-03
6.440000000000000169e-01 -8.913656000000000704e-03 -1.474501999999999931e-03
6.480000000000000204e-01 -8.864998000000000669e-03 -1.466040000000000051e-03
6.520000000000000240e-01 -8.821002999999999136e-03 -1.429162000000000097e-03
6.560000000000000275e-01 -8.871007999999999671e-03 -1.422862999999999906e-03
6.600000000000000311e-01 -8.921828999999999177e-03 -1.472339000000000026e-03
6.640000000000000346e-01 -8.917022000000000143e-03 -1.505274000000000022e-03
6.680000000000000382e-01 -8.891730999999999940e-03 -1.473445000000000093e-03
6.720000000000000417e-01 -8.861343000000000691e-03 -1.434018000000000011e-03
6.760000000000000453e-01 -8.904761000000000620e-03 -1.473396999999999988e-03
6.800000000000000488e-01 -8.906155000000000668e-03 -1.524987999999999908e-03
6.840000000000000524e-01 -8.848119999999999249e-03 -1.492533000000000097e-03
6.879999999999999449e-01 -8.839754999999999488e-03 -1.449116000000000076e-03
6.919999999999999485e-01 -8.884085999999999372e-03 -1.441423000000000053e-03
6.959999999999999520e-01 -8.897692999999999922e-03 -1.428825000000000104e-03
6.999999999999999556e-01 -8.908367000000000369e-03 -1.448346000000000095e-03
7.039999999999999591e-01 -8.875143000000000268e-03 -1.450221999999999926e-03
7.079999999999999627e-01 -8.854805000000000315e-03 -1.460174000000000064e-03
7.119999999999999662e-01 -8.878604999999999484e-03 -1.486282000000000011e-03
7.159999999999999698e-01 -8.852448000000000608e-03 -1.464164999999999911e-03
7.199999999999999734e-01 -8.843121000000000662e-03 -1.452865999999999923e-03
7.239999999999999769e-01 -8.858025999999999747e-03 -1.476136999999999979e-03
7.279999999999999805e-01 -8.863074000000000299e-03 -1.477339000000000039e-03
7.319999999999999840e-01 -8.919280999999999390e-03 -1.490561999999999963e-03
7.359999999999999876e-01 -8.929763000000000284e-03 -1.479358999999999969e-03
7.399999999999999911e-01 -8.850573999999999941e-03 -1.430124000000000065e-03
7.439999999999999947e-01 -8.805665000000000714e-03 -1.428585000000000011e-03
7.479999999999999982e-01 -8.847400000000000056e-03 -1.447816999999999897e-03
7.520000000000000018e-01 -8.876441000000000539e-03 -1.458251000000000035e-03
7.560000000000000053e-01 -8.862016999999999811e-03 -1.468347999999999962e-03
7.600000000000000089e-01 -8.868844000000000727e-03 -1.501331999999999970e-03
7.640000000000000124e-01 -8.845331999999999154e-03 -1.506331999999999983e-03
7.680000000000000160e-01 -8.785904000000000630e-03 -1.448395000000000108e-03
7.720000000000000195e-01 -8.775085999999999650e-03 -1.421373000000000081e-03
7.760000000000000231e-01 -8.808839000000000599e-03 -1.438826000000000037e-03
7.800000000000000266e-01 -8.844562999999999731e-03 -1.459164999999999898e-03
7.840000000000000302e-01 -8.866488000000000494e-03 -1.441807000000000028e-03
7.880000000000000338e-01 -8.860477999999999757e-03 -1.426373000000000094e-03
7.920000000000000373e-01 -8.859805000000000111e-03 -1.451182999999999987e-03
7.960000000000000409e-01 -8.857063999999999562e-03 -1.481569999999999979e-03
8.000000000000000444e-01 -8.900289000000000464e-03 -1.511140000000000009e-03
8.040000000000000480e-01 -8.903606999999999147e-03 -1.512438999999999971e-03
8.080000000000000515e-01 -8.809656000000000778e-03 -1.435075999999999973e-03
8.120000000000000551e-01 -8.749506000000000644e-03 -1.401034999999999911e-03
8.159999999999999476e-01 -8.798646000000000245e-03 -1.444884999999999919e-03
8.199999999999999512e-01 -8.893942000000000167e-03 -1.483734000000000008e-03
8.239999999999999547e-01 -8.892260000000000789e-03 -1.483252999999999915e-03
8.279999999999999583e-01 -8.816099000000000852e-03 -1.447289000000000041e-03
8.319999999999999618e-01 -8.814656000000000574e-03 -1.422478999999999931e-03
8.359999999999999654e-01 -8.872978999999999589e-03 -1.438873999999999926e-03
8.399999999999999689e-01 -8.844371000000000177e-03 -1.432672000000000069e-03
8.439999999999999725e-01 -8.772056999999999771e-03 -1.417141999999999924e-03
8.479999999999999760e-01 -8.769555999999999532e-03 -1.432047000000000094e-03
8.519999999999999796e-01 -8.821627999999999761e-03 -1.433777999999999919e-03
8.559999999999999831e-01 -8.862352999999999897e-03 -1.455078000000000057e-03
8.599999999999999867e-01 -8.870526000000000105e-03 -1.493109999999999967e-03
8.639999999999999902e-01 -8.823983999999999994e-03 -1.474550999999999943e-03
8.679999999999999938e-01 -8.830378999999999312e-03 -1.465848000000000064e-03
8.719999999999999973e-01 -8.848313000000000011e-03 -1.474934999999999918e-03
8.760000000000000009e-01 -8.827012999999999873e-03 -1.461857000000000000e-03
8.800000000000000044e-01 -8.817879000000000689e-03 -1.453971999999999990e-03
8.840000000000000080e-01 -8.847448000000000812e-03 -1.487964999999999947e-03
8.880000000000000115e-01 -8.806868000000000682e-03 -1.461712999999999901e-03
8.920000000000000151e-01 -8.799654999999999977e-03 -1.453010000000000022e-03
8.960000000000000187e-01 -8.881392999999999580e-03 -1.472915999999999895e-03
9.000000000000000222e-01 -8.886345999999999828e-03 -1.456760999999999993e-03
9.040000000000000258e-01 -8.795087000000000044e-03 -1.427382999999999950e-03
9.080000000000000293e-01 -8.766816000000000192e-03 -1.435653000000000059e-03
9.120000000000000329e-01 -8.811964999999999729e-03 -1.445268999999999894e-03
9.160000000000000364e-01 -8.872691000000000258e-03 -1.457001000000000086e-03
9.200000000000000400e-01 -8.869949999999999710e-03 -1.467386999999999901e-03
9.240000000000000435e-01 -8.799991999999999537e-03 -1.464260999999999905e-03
9.280000000000000471e-01 -8.746622000000000771e-03 -1.439788000000000005e-03
9.320000000000000506e-01 -8.792394999999999725e-03 -1.432382999999999964e-03
9.360000000000000542e-01 -8.863219000000000306e-03 -1.439451000000000012e-03
9.399999999999999467e-01 -8.876345000000000762e-03 -1.455750999999999920e-03
9.439999999999999503e-01 -8.824897999999999423e-03 -1.473684999999999969e-03
9.479999999999999538e-01 -8.808645999999999837e-03 -1.470511999999999991e-03
9.519999999999999574e-01 -8.858074000000000503e-03 -1.476377999999999979e-03
9.559999999999999609e-01 -8.932359000000000826e-03 -1.484022999999999896e-03
9.599999999999999645e-01 -8.874036999999999550e-03 -1.457289000000000067e-03
9.639999999999999680e-01 -8.791530000000000525e-03 -1.446711999999999955e-03
9.679999999999999716e-01 -8.780038000000000425e-03 -1.439979999999999993e-03
9.719999999999999751e-01 -8.803356999999999502e-03 -1.445221000000000006e-03
9.759999999999999787e-01 -8.847832999999999393e-03 -1.465703999999999965e-03
9.799999999999999822e-01 -8.886633999999999159e-03 -1.489408000000000008e-03
9.839999999999999858e-01 -8.924569999999999725e-03 -1.509937999999999949e-03
9.879999999999999893e-01 -8.940484999999999752e-03 -1.480608999999999918e-03
9.919999999999999929e-01 -8.927262000000000045e-03 -1.451472000000000092e-03
9.959999999999999964e-01 -8.920915999999999221e-03 -1.472194999999999927e-03
1.000000000000000000e+00 -8.903126000000000789e-03 -1.463443999999999943e-03
1.004000000000000004e+00 -8.892739999999999673e-03 -1.456952999999999981e-03
1.008000000000000007e+00 -8.904182999999999543e-03 -1.460944000000000045e-03
1.012000000000000011e+00 -8.920099000000000777e-03 -1.442383999999999897e-03
1.016000000000000014e+00 -8.918126999999999652e-03 -1.448875000000000076e-03
1.020000000000000018e+00 -8.883316999999999949e-03 -1.467098000000000013e-03
1.024000000000000021e+00 -8.820378000000000246e-03 -1.452818000000000035e-03
1.028000000000000025e+00 -8.835186999999999555e-03 -1.462963000000000067e-03
1.032000000000000028e+00 -8.855045000000000624e-03 -1.456328000000000006e-03
1.036000000000000032e+00 -8.890528999999999446e-03 -1.462577999999999968e-03
1.040000000000000036e+00 -8.908991999999999259e-03 -1.482723999999999934e-03
1.044000000000000039e+00 -8.883604999999999280e-03 -1.485032000000000062e-03
1.048000000000000043e+00 -8.808695000000000067e-03 -1.437288000000000107e-03
1.052000000000000046e+00 -8.789559000000000608e-03 -1.407526000000000090e-03
1.056000000000000050e+00 -8.785230999999999249e-03 -1.437288000000000107e-03
1.060000000000000053e+00 -8.788788999999999976e-03 -1.495706000000000075e-03
1.064000000000000057e+00 -8.813743000000000619e-03 -1.517871999999999971e-03
1.068000000000000060e+00 -8.807107999999999257e-03 -1.501139000000000076e-03
1.072000000000000064e+00 -8.778691999999999399e-03 -1.467002000000000020e-03
1.076000000000000068e+00 -8.812347999999999362e-03 -1.483205000000000027e-03
1.080000000000000071e+00 -8.855045000000000624e-03 -1.521959000000000029e-03
1.084000000000000075e+00 -8.805376000000000175e-03 -1.500659000000000107e-03
1.088000000000000078e+00 -8.696713000000000013e-03 -1.431855000000000107e-03
1.092000000000000082e+00 -8.739457000000000822e-03 -1.426373000000000094e-03
1.096000000000000085e+00 -8.834898000000000751e-03 -1.470607999999999985e-03
1.100000000000000089e+00 -8.870045999999999486e-03 -1.497773999999999894e-03
1.104000000000000092e+00 -8.831195999999999491e-03 -1.475703999999999991e-03
1.108000000000000096e+00 -8.777874999999999220e-03 -1.446135000000000085e-03
1.112000000000000099e+00 -8.732148999999999814e-03 -1.421228999999999982e-03
1.116000000000000103e+00 -8.776673000000000460e-03 -1.440461000000000085e-03
1.120000000000000107e+00 -8.847544000000000589e-03 -1.463396000000000054e-03
1.124000000000000110e+00 -8.882499000000000297e-03 -1.446999999999999936e-03
1.127999999999999892e+00 -8.919378000000000375e-03 -1.454067999999999984e-03
1.131999999999999895e+00 -8.912213000000000426e-03 -1.478541000000000100e-03
1.135999999999999899e+00 -8.980055000000000676e-03 -1.493879000000000040e-03
1.139999999999999902e+00 -9.149637999999999868e-03 -1.512583000000000070e-03
1.143999999999999906e+00 -9.296765999999999711e-03 -1.509408999999999968e-03
1.147999999999999909e+00 -9.353933999999999513e-03 -1.467867000000000087e-03
1.151999999999999913e+00 -9.179688000000000084e-03 -1.456328000000000006e-03
1.155999999999999917e+00 -8.852304000000000075e-03 -1.460944000000000045e-03
1.159999999999999920e+00 -8.636660000000000864e-03 -1.445606000000000104e-03
1.163999999999999924e+00 -8.570019999999999374e-03 -1.436807000000000015e-03
1.167999999999999927e+00 -8.465683999999999362e-03 -1.429354000000000085e-03
1.171999999999999931e+00 -8.398900000000000809e-03 -1.424354000000000071e-03
1.175999999999999934e+00 -8.436499000000000081e-03 -1.441133999999999948e-03
1.179999999999999938e+00 -8.507996000000000308e-03 -1.470752000000000084e-03
1.183999999999999941e+00 -8.612811999999999205e-03 -1.498013999999999986e-03
1.187999999999999945e+00 -8.691087999999999592e-03 -1.483925999999999995e-03
1.191999999999999948e+00 -8.724743999999999555e-03 -1.459068999999999904e-03
1.195999999999999952e+00 -8.710031999999999497e-03 -1.421661000000000062e-03
1.199999999999999956e+00 -8.736380000000000187e-03 -1.426806000000000081e-03
1.203999999999999959e+00 -8.785470999999999558e-03 -1.467771000000000093e-03
1.207999999999999963e+00 -8.850188000000000152e-03 -1.496331000000000050e-03
1.211999999999999966e+00 -8.856535000000000449e-03 -1.482627999999999941e-03
1.215999999999999970e+00 -8.834464999999999679e-03 -1.441182000000000053e-03
1.219999999999999973e+00 -8.856823999999999253e-03 -1.461761000000000007e-03
1.223999999999999977e+00 -8.879374000000000641e-03 -1.493926999999999929e-03
1.227999999999999980e+00 -8.976448999999999193e-03 -1.524315000000000045e-03
1.231999999999999984e+00 -8.970054999999999348e-03 -1.489840000000000088e-03
1.235999999999999988e+00 -8.826195999999999695e-03 -1.390312000000000102e-03
1.239999999999999991e+00 -8.722966000000000400e-03 -1.365695000000000103e-03
1.243999999999999995e+00 -8.772969999999999727e-03 -1.451903999999999955e-03
1.247999999999999998e+00 -8.820041000000000686e-03 -1.466906000000000026e-03
1.252000000000000002e+00 -8.833168000000000616e-03 -1.441854999999999916e-03
1.256000000000000005e+00 -8.864083999999999505e-03 -1.435892999999999935e-03
1.260000000000000009e+00 -8.912213000000000426e-03 -1.463443999999999943e-03
1.264000000000000012e+00 -8.916396000000000044e-03 -1.456087000000000006e-03
1.268000000000000016e+00 -8.847350999999999827e-03 -1.418680000000000071e-03
1.272000000000000020e+00 -8.859036000000000688e-03 -1.450174000000000038e-03
1.276000000000000023e+00 -8.909040000000000015e-03 -1.485753000000000030e-03
1.280000000000000027e+00 -8.909184000000000547e-03 -1.454549000000000076e-03
1.284000000000000030e+00 -8.859275999999999263e-03 -1.420026999999999921e-03
1.288000000000000034e+00 -8.823935999999999238e-03 -1.421612999999999957e-03
1.292000000000000037e+00 -8.857544999999999655e-03 -1.442480000000000108e-03
1.296000000000000041e+00 -8.934426000000000520e-03 -1.490561999999999963e-03
1.300000000000000044e+00 -8.948658999999999433e-03 -1.496523999999999945e-03
1.304000000000000048e+00 -8.887980000000000186e-03 -1.450317999999999920e-03
1.308000000000000052e+00 -8.801770000000000427e-03 -1.400554000000000035e-03
1.312000000000000055e+00 -8.822157000000000610e-03 -1.420363000000000007e-03
1.316000000000000059e+00 -8.890481000000000425e-03 -1.454404999999999977e-03
1.320000000000000062e+00 -8.944379000000000565e-03 -1.473059999999999994e-03
1.324000000000000066e+00 -8.929233999999999435e-03 -1.454067999999999984e-03
1.328000000000000069e+00 -8.908271000000000592e-03 -1.448250000000000101e-03
1.332000000000000073e+00 -8.898124999999999785e-03 -1.446037999999999967e-03
1.336000000000000076e+00 -8.928465000000000013e-03 -1.441327000000000060e-03
1.340000000000000080e+00 -8.927502999999999828e-03 -1.447865999999999910e-03
1.344000000000000083e+00 -8.886441999999999605e-03 -1.438201000000000063e-03
1.348000000000000087e+00 -8.888508999999999299e-03 -1.436758999999999909e-03
1.352000000000000091e+00 -8.957361000000000489e-03 -1.463731999999999924e-03
1.356000000000000094e+00 -8.972122000000000777e-03 -1.449404000000000057e-03
1.360000000000000098e+00 -8.985681000000000571e-03 -1.427911999999999931e-03
1.364000000000000101e+00 -8.974381999999999499e-03 -1.423872999999999979e-03
1.368000000000000105e+00 -8.952168999999999405e-03 -1.405601999999999937e-03
1.372000000000000108e+00 -8.987171999999999869e-03 -1.418680000000000071e-03
1.375999999999999890e+00 -9.023954000000000697e-03 -1.447095999999999929e-03
1.379999999999999893e+00 -9.000057000000000543e-03 -1.466087999999999940e-03
1.383999999999999897e+00 -8.960677999999999699e-03 -1.461616999999999908e-03
1.387999999999999901e+00 -8.952408999999999714e-03 -1.462289999999999987e-03
1.391999999999999904e+00 -8.972074000000000021e-03 -1.436807000000000015e-03
1.395999999999999908e+00 -8.992316000000000198e-03 -1.431180999999999903e-03
1.399999999999999911e+00 -9.025685000000000305e-03 -1.438777999999999932e-03
1.403999999999999915e+00 -9.065975999999999896e-03 -1.454645000000000070e-03
1.407999999999999918e+00 -9.061216000000000409e-03 -1.441807000000000028e-03
1.411999999999999922e+00 -9.050205999999999876e-03 -1.417045999999999931e-03
1.415999999999999925e+00 -9.066746000000000527e-03 -1.421324999999999976e-03
1.419999999999999929e+00 -9.076601999999999587e-03 -1.431084999999999909e-03
1.423999999999999932e+00 -9.032319000000000458e-03 -1.402573000000000058e-03
1.427999999999999936e+00 -8.999961000000000766e-03 -1.397908999999999914e-03
1.431999999999999940e+00 -9.007364999999999816e-03 -1.408776000000000039e-03
1.435999999999999943e+00 -9.050878999999999522e-03 -1.430508000000000040e-03
1.439999999999999947e+00 -9.049099999999999158e-03 -1.448297999999999990e-03
1.443999999999999950e+00 -9.021019999999999386e-03 -1.444308000000000050e-03
1.447999999999999954e+00 -8.930917000000000022e-03 -1.380167000000000069e-03
1.451999999999999957e+00 -8.908559999999999396e-03 -1.364011999999999950e-03
1.455999999999999961e+00 -8.954283999999999855e-03 -1.408102999999999959e-03
1.459999999999999964e+00 -8.961880999999999667e-03 -1.444404000000000044e-03
1.463999999999999968e+00 -8.918366999999999961e-03 -1.424401999999999960e-03
1.467999999999999972e+00 -8.865477999999999553e-03 -1.388244999999999974e-03
1.471999999999999975e+00 -8.843745000000000078e-03 -1.384349999999999904e-03
1.475999999999999979e+00 -8.834803000000000447e-03 -1.376608999999999992e-03
1.479999999999999982e+00 -8.831676999999999583e-03 -1.399351999999999974e-03
1.483999999999999986e+00 -8.810665999999999984e-03 -1.458202999999999930e-03
1.487999999999999989e+00 -8.773403000000000798e-03 -1.458876000000000010e-03
1.491999999999999993e+00 -8.800712999999999939e-03 -1.441854999999999916e-03
1.495999999999999996e+00 -8.788357000000000113e-03 -1.414593000000000014e-03
1.500000000000000000e+00 -8.748544999999999933e-03 -1.380696000000000050e-03
1.504000000000000004e+00 -8.740948999999999594e-03 -1.369060999999999976e-03
1.508000000000000007e+00 -8.740948999999999594e-03 -1.375743999999999925e-03
1.512000000000000011e+00 -8.754170000000000354e-03 -1.405362000000000061e-03
1.516000000000000014e+00 -8.741139999999999674e-03 -1.422815000000000017e-03
1.520000000000000018e+00 -8.748064999999999314e-03 -1.433152999999999944e-03
1.524000000000000021e+00 -8.751284999999999273e-03 -1.405795000000000048e-03
1.528000000000000025e+00 -8.806002000000000274e-03 -1.412477999999999997e-03
1.532000000000000028e+00 -8.791337999999999236e-03 -1.407477999999999984e-03
1.536000000000000032e+00 -8.685798999999999256e-03 -1.357569000000000093e-03
1.540000000000000036e+00 -8.686904999999999974e-03 -1.386513999999999932e-03
1.544000000000000039e+00 -8.717917999999999848e-03 -1.449116000000000076e-03
1.548000000000000043e+00 -8.688443000000000555e-03 -1.415746999999999969e-03
1.552000000000000046e+00 -8.680413999999999144e-03 -1.367329999999999934e-03
1.556000000000000050e+00 -8.723928000000000585e-03 -1.370888000000000011e-03
1.560000000000000053e+00 -8.734264999999999737e-03 -1.394063000000000073e-03
1.564000000000000057e+00 -8.721042999999999504e-03 -1.406179000000000023e-03
1.568000000000000060e+00 -8.711474999999999774e-03 -1.414881999999999902e-03
1.572000000000000064e+00 -8.704405999999999602e-03 -1.411179999999999943e-03
1.576000000000000068e+00 -8.743640999999999913e-03 -1.423392000000000103e-03
1.580000000000000071e+00 -8.753834000000000268e-03 -1.438922999999999938e-03
1.584000000000000075e+00 -8.701811000000000268e-03 -1.420700000000000001e-03
1.588000000000000078e+00 -8.696040999999999840e-03 -1.411228000000000048e-03
1.592000000000000082e+00 -8.729360999999999718e-03 -1.420171000000000020e-03
1.596000000000000085e+00 -8.808069999999999442e-03 -1.443105999999999989e-03
1.600000000000000089e+00 -8.819897999999999627e-03 -1.448395000000000108e-03
1.604000000000000092e+00 -8.696425000000000682e-03 -1.375263000000000050e-03
1.608000000000000096e+00 -8.625841999999999885e-03 -1.337134999999999930e-03
1.612000000000000099e+00 -8.687001999999999224e-03 -1.369060999999999976e-03
1.616000000000000103e+00 -8.725946999999999523e-03 -1.375647999999999932e-03
1.620000000000000107e+00 -8.714984000000000272e-03 -1.376945999999999986e-03
1.624000000000000110e+00 -8.704550999999999608e-03 -1.399833000000000067e-03
1.627999999999999892e+00 -8.697820000000000204e-03 -1.389880000000000022e-03
1.631999999999999895e+00 -8.711378000000000524e-03 -1.377235000000000091e-03
1.635999999999999899e+00 -8.749266000000000335e-03 -1.397716999999999926e-03
1.639999999999999902e+00 -8.745564000000000809e-03 -1.405121999999999968e-03
1.643999999999999906e+00 -8.715993999999999478e-03 -1.383628999999999935e-03
1.647999999999999909e+00 -8.733640000000000847e-03 -1.379879000000000088e-03
1.651999999999999913e+00 -8.762537000000000798e-03 -1.381513999999999919e-03
1.655999999999999917e+00 -8.741814000000000529e-03 -1.364252999999999950e-03
1.659999999999999920e+00 -8.679212000000000385e-03 -1.344876000000000058e-03
1.663999999999999924e+00 -8.672673000000000534e-03 -1.358868000000000055e-03
1.667999999999999927e+00 -8.677961999999999135e-03 -1.403535000000000026e-03
1.671999999999999931e+00 -8.723543000000000269e-03 -1.406853000000000010e-03
1.675999999999999934e+00 -8.728879999999999625e-03 -1.384110000000000028e-03
1.679999999999999938e+00 -8.682528999999999594e-03 -1.382427000000000092e-03
1.683999999999999941e+00 -8.631803999999999866e-03 -1.373869000000000002e-03
1.687999999999999945e+00 -8.657286999999999622e-03 -1.389061999999999936e-03
1.691999999999999948e+00 -8.746478000000000239e-03 -1.440702000000000085e-03
1.695999999999999952e+00 -8.805040000000000089e-03 -1.440173000000000104e-03
1.699999999999999956e+00 -8.720225999999999325e-03 -1.365261999999999899e-03
1.703999999999999959e+00 -8.625410000000000021e-03 -1.348049000000000035e-03
1.707999999999999963e+00 -8.610793000000000266e-03 -1.365118000000000017e-03
1.711999999999999966e+00 -8.641084000000000265e-03 -1.369397000000000062e-03
1.715999999999999970e+00 -8.680270000000000347e-03 -1.393485999999999987e-03
1.719999999999999973e+00 -8.696762000000000242e-03 -1.427815999999999938e-03
1.723999999999999977e+00 -8.658393000000000339e-03 -1.414448999999999915e-03
1.727999999999999980e+00 -8.657671999999999937e-03 -1.398678999999999895e-03
1.731999999999999984e+00 -8.690800000000000261e-03 -1.390360999999999897e-03
1.735999999999999988e+00 -8.719697000000000212e-03 -1.388773999999999955e-03
1.739999999999999991e+00 -8.633151000000000366e-03 -1.345693000000000019e-03
1.743999999999999995e+00 -8.568577000000000832e-03 -1.325788000000000053e-03
1.747999999999999998e+00 -8.580838000000000354e-03 -1.348000999999999930e-03
1.752000000000000002e+00 -8.658538000000000345e-03 -1.379397999999999996e-03
1.756000000000000005e+00 -8.706570999999999755e-03 -1.401756000000000096e-03
1.760000000000000009e+00 -8.701185999999999643e-03 -1.393004999999999894e-03
1.764000000000000012e+00 -8.667912999999999313e-03 -1.393293999999999999e-03
1.768000000000000016e+00 -8.654689999999999606e-03 -1.384735000000000002e-03
1.772000000000000020e+00 -8.660941000000000126e-03 -1.369589999999999957e-03
1.776000000000000023e+00 -8.634449000000000637e-03 -1.357233000000000007e-03
1.780000000000000027e+00 -8.613004000000000493e-03 -1.368723999999999982e-03
1.784000000000000030e+00 -8.625169000000000238e-03 -1.391178000000000076e-03
1.788000000000000034e+00 -8.639736999999999764e-03 -1.420410999999999896e-03
1.792000000000000037e+00 -8.624880999999999173e-03 -1.412477999999999997e-03
1.796000000000000041e+00 -8.592906000000000849e-03 -1.387091000000000018e-03
1.800000000000000044e+00 -8.630120999999999279e-03 -1.390937999999999983e-03
1.804000000000000048e+00 -8.661518999999999469e-03 -1.397428999999999946e-03
1.808000000000000052e+00 -8.620312999999999240e-03 -1.375455999999999944e-03
1.812000000000000055e+00 -8.555306999999999842e-03 -1.352473000000000087e-03
1.816000000000000059e+00 -8.578050000000000258e-03 -1.368003000000000014e-03
1.820000000000000062e+00 -8.649690999999999283e-03 -1.419689999999999928e-03
1.824000000000000066e+00 -8.698156000000000290e-03 -1.451182999999999987e-03
1.828000000000000069e+00 -8.703013000000000762e-03 -1.418825000000000077e-03
1.832000000000000073e+00 -8.580261000000000485e-03 -1.342038999999999949e-03
1.836000000000000076e+00 -8.547469999999999721e-03 -1.325163000000000079e-03
1.840000000000000080e+00 -8.639881999999999770e-03 -1.390600999999999990e-03
1.844000000000000083e+00 -8.626948000000000602e-03 -1.369156999999999970e-03
1.848000000000000087e+00 -8.580165000000000708e-03 -1.327470999999999990e-03
1.852000000000000091e+00 -8.589252000000000345e-03 -1.356559999999999927e-03
1.856000000000000094e+00 -8.621369999999999728e-03 -1.385600999999999977e-03
1.860000000000000098e+00 -8.622044000000000583e-03 -1.383003999999999961e-03
1.864000000000000101e+00 -8.605552000000000687e-03 -1.397573000000000044e-03
1.868000000000000105e+00 -8.617331000000000643e-03 -1.406083000000000029e-03
1.872000000000000108e+00 -8.652863999999999695e-03 -1.397236000000000051e-03
1.875999999999999890e+00 -8.688539999999999805e-03 -1.395842000000000003e-03
1.879999999999999893e+00 -8.638197999999999710e-03 -1.358435000000000068e-03
1.883999999999999897e+00 -8.544585999999999848e-03 -1.330210999999999980e-03
1.887999999999999901e+00 -8.587954999999999547e-03 -1.387811999999999987e-03
1.891999999999999904e+00 -8.623534000000000407e-03 -1.427045999999999957e-03
1.895999999999999908e+00 -8.589540999999999149e-03 -1.395456999999999904e-03
1.899999999999999911e+00 -8.576655000000000736e-03 -1.379975000000000082e-03
1.903999999999999915e+00 -8.597330000000000250e-03 -1.392044000000000050e-03
1.907999999999999918e+00 -8.607089999999999533e-03 -1.389110000000000041e-03
1.911999999999999922e+00 -8.629641000000000395e-03 -1.385984999999999951e-03
1.915999999999999925e+00 -8.630939000000000666e-03 -1.381176999999999926e-03
1.919999999999999929e+00 -8.602523000000000808e-03 -1.396707000000000070e-03
1.923999999999999932e+00 -8.564970999999999349e-03 -1.406083000000000029e-03
1.927999999999999936e+00 -8.539632999999999599e-03 -1.372523000000000059e-03
1.931999999999999940e+00 -8.585310000000000510e-03 -1.383581000000000047e-03
1.935999999999999943e+00 -8.628390999999999145e-03 -1.405554000000000048e-03
1.939999999999999947e+00 -8.624400000000000815e-03 -1.411371999999999930e-03
1.943999999999999950e+00 -8.622813000000000005e-03 -1.413680000000000058e-03
1.947999999999999954e+00 -8.624400000000000815e-03 -1.406275999999999924e-03
1.951999999999999957e+00 -8.596849999999999631e-03 -1.383918000000000040e-03
1.955999999999999961e+00 -8.570163999999999907e-03 -1.405505999999999943e-03
1.959999999999999964e+00 -8.605022999999999839e-03 -1.424691000000000065e-03
1.963999999999999968e+00 -8.629641000000000395e-03 -1.405266000000000067e-03
1.967999999999999972e+00 -8.598532000000000744e-03 -1.376225000000000018e-03
1.971999999999999975e+00 -8.566703000000000165e-03 -1.383869999999999935e-03
1.975999999999999979e+00 -8.573386000000000548e-03 -1.407093000000000102e-03
1.979999999999999982e+00 -8.613677999999999613e-03 -1.416324999999999962e-03
1.983999999999999986e+00 -8.615648999999999530e-03 -1.427768000000000049e-03
1.987999999999999989e+00 -8.617859999999999757e-03 -1.408823999999999927e-03
1.991999999999999993e+00 -8.630939000000000666e-03 -1.387283999999999913e-03
1.995999999999999996e+00 -8.678827000000000069e-03 -1.426084999999999896e-03
2.000000000000000000e+00 -8.684740999999999295e-03 -1.441807000000000028e-03
2.004000000000000004e+00 -8.615793000000000063e-03 -1.375696000000000037e-03
2.008000000000000007e+00 -8.558865000000000570e-03 -1.345260999999999939e-03
2.012000000000000011e+00 -8.593098999999999876e-03 -1.374926999999999963e-03
2.016000000000000014e+00 -8.664787999999999657e-03 -1.399110999999999974e-03
2.020000000000000018e+00 -8.686423999999999881e-03 -1.406083000000000029e-03
2.024000000000000021e+00 -8.698109000000000743e-03 -1.419689999999999928e-03
2.028000000000000025e+00 -8.700078999999999452e-03 -1.421277000000000087e-03
2.032000000000000028e+00 -8.635458999999999843e-03 -1.391033999999999977e-03
2.036000000000000032e+00 -8.585551000000000293e-03 -1.367713999999999909e-03
2.040000000000000036e+00 -8.605695999999999485e-03 -1.386033000000000057e-03
2.044000000000000039e+00 -8.617619999999999447e-03 -1.413776000000000052e-03
2.048000000000000043e+00 -8.654353999999999519e-03 -1.429979000000000059e-03
2.052000000000000046e+00 -8.688347000000000778e-03 -1.422335000000000049e-03
2.056000000000000050e+00 -8.638295000000000695e-03 -1.413294999999999959e-03
2.060000000000000053e+00 -8.538334999999999328e-03 -1.395168999999999923e-03
2.064000000000000057e+00 -8.529392000000000224e-03 -1.383581000000000047e-03
2.068000000000000060e+00 -8.523044999999999927e-03 -1.390841000000000082e-03
2.072000000000000064e+00 -8.518332999999999461e-03 -1.398871000000000099e-03
2.076000000000000068e+00 -8.529775999999999331e-03 -1.398486000000000000e-03
2.080000000000000071e+00 -8.515497000000000344e-03 -1.416565000000000055e-03
2.084000000000000075e+00 -8.503332000000000598e-03 -1.433248999999999938e-03
2.088000000000000078e+00 -8.548238999999999144e-03 -1.435749000000000053e-03
2.092000000000000082e+00 -8.548287999999999373e-03 -1.413776000000000052e-03
2.096000000000000085e+00 -8.474146000000000109e-03 -1.392475999999999913e-03
2.100000000000000089e+00 -8.455827000000000829e-03 -1.384590999999999903e-03
2.104000000000000092e+00 -8.467992000000000574e-03 -1.395409000000000016e-03
2.108000000000000096e+00 -8.497321000000000388e-03 -1.406516000000000016e-03
2.112000000000000099e+00 -8.501359999999999473e-03 -1.393101000000000105e-03
2.116000000000000103e+00 -8.507802999999999546e-03 -1.394688000000000047e-03
2.120000000000000107e+00 -8.586078999999999933e-03 -1.420410999999999896e-03
2.124000000000000110e+00 -8.604590999999999976e-03 -1.437768999999999983e-03
2.128000000000000114e+00 -8.544104000000000282e-03 -1.404015999999999901e-03
2.132000000000000117e+00 -8.435200999999999810e-03 -1.347424000000000061e-03
2.136000000000000121e+00 -8.396206999999999282e-03 -1.347953000000000042e-03
2.140000000000000124e+00 -8.463905000000000733e-03 -1.380504000000000063e-03
2.144000000000000128e+00 -8.564008999999999164e-03 -1.408053999999999946e-03
2.148000000000000131e+00 -8.591800999999999605e-03 -1.411036000000000061e-03
2.152000000000000135e+00 -8.635313999999999837e-03 -1.428922000000000005e-03
2.156000000000000139e+00 -8.731957000000000260e-03 -1.445941999999999974e-03
2.160000000000000142e+00 -8.886200999999999822e-03 -1.444163000000000044e-03
2.164000000000000146e+00 -8.992363999999999219e-03 -1.410699000000000067e-03
2.168000000000000149e+00 -8.930195999999999620e-03 -1.370839999999999906e-03
2.172000000000000153e+00 -8.672337000000000448e-03 -1.371031999999999893e-03
2.176000000000000156e+00 -8.414045000000000205e-03 -1.387907999999999980e-03
2.180000000000000160e+00 -8.291342000000000156e-03 -1.403439000000000032e-03
2.184000000000000163e+00 -8.310622999999999622e-03 -1.429066000000000104e-03
2.188000000000000167e+00 -8.287687999999999652e-03 -1.446711999999999955e-03
2.192000000000000171e+00 -8.196093999999999255e-03 -1.431084999999999909e-03
2.196000000000000174e+00 -8.139597999999999625e-03 -1.394110999999999961e-03
2.200000000000000178e+00 -8.181429000000000479e-03 -1.413151000000000077e-03
2.204000000000000181e+00 -8.279609999999999748e-03 -1.417094000000000036e-03
2.208000000000000185e+00 -8.325430999999999457e-03 -1.379493999999999989e-03
2.212000000000000188e+00 -8.392745000000000066e-03 -1.371128000000000104e-03
2.216000000000000192e+00 -8.387553000000000716e-03 -1.380216000000000082e-03
2.220000000000000195e+00 -8.430826000000000639e-03 -1.402189000000000083e-03
2.224000000000000199e+00 -8.497417999999999638e-03 -1.426853999999999970e-03
2.228000000000000203e+00 -8.572520000000000140e-03 -1.452336999999999942e-03
2.232000000000000206e+00 -8.619111000000000480e-03 -1.443826999999999958e-03
2.236000000000000210e+00 -8.552037999999999654e-03 -1.396948000000000070e-03
2.240000000000000213e+00 -8.477849000000000843e-03 -1.376994000000000091e-03
2.244000000000000217e+00 -8.447797999999999419e-03 -1.396082000000000095e-03
2.248000000000000220e+00 -8.452750000000000194e-03 -1.384014000000000034e-03
2.251999999999999780e+00 -8.494052000000000199e-03 -1.382282999999999993e-03
2.255999999999999783e+00 -8.534919999999999660e-03 -1.411179999999999943e-03
2.259999999999999787e+00 -8.542373000000000674e-03 -1.412814000000000084e-03
2.263999999999999790e+00 -8.549442000000000846e-03 -1.391562999999999958e-03
2.267999999999999794e+00 -8.552037999999999654e-03 -1.401899999999999978e-03
2.271999999999999797e+00 -8.528236999999999277e-03 -1.412477999999999997e-03
2.275999999999999801e+00 -8.542757999999999255e-03 -1.414209000000000039e-03
2.279999999999999805e+00 -8.570885000000000309e-03 -1.430028000000000072e-03
2.283999999999999808e+00 -8.545979000000000422e-03 -1.435796999999999941e-03
2.287999999999999812e+00 -8.480781999999999210e-03 -1.401756000000000096e-03
2.291999999999999815e+00 -8.508138999999999633e-03 -1.401611999999999997e-03
2.295999999999999819e+00 -8.571366999999999875e-03 -1.418921000000000071e-03
2.299999999999999822e+00 -8.538623000000000393e-03 -1.404304000000000099e-03
2.303999999999999826e+00 -8.492176000000000585e-03 -1.390696999999999984e-03
2.307999999999999829e+00 -8.493954999999999214e-03 -1.397044000000000064e-03
2.311999999999999833e+00 -8.545979000000000422e-03 -1.406179000000000023e-03
2.315999999999999837e+00 -8.530592999999999509e-03 -1.409833000000000093e-03
2.319999999999999840e+00 -8.509100999999999818e-03 -1.415026000000000001e-03
2.323999999999999844e+00 -8.535737999999999312e-03 -1.410795000000000061e-03
2.327999999999999847e+00 -8.565500000000000197e-03 -1.422190000000000043e-03
2.331999999999999851e+00 -8.533862999999999172e-03 -1.401130999999999904e-03
2.335999999999999854e+00 -8.487128999999999507e-03 -1.362474000000000020e-03
2.339999999999999858e+00 -8.529488000000000000e-03 -1.370598999999999906e-03
2.343999999999999861e+00 -8.564779999999999269e-03 -1.401322999999999892e-03
2.347999999999999865e+00 -8.532035999999999787e-03 -1.422670999999999918e-03
2.351999999999999869e+00 -8.567183000000000784e-03 -1.439163000000000031e-03
2.355999999999999872e+00 -8.571702999999999961e-03 -1.440365000000000091e-03
2.359999999999999876e+00 -8.542854000000000766e-03 -1.447289000000000041e-03
2.363999999999999879e+00 -8.551411999999999555e-03 -1.446182999999999974e-03
2.367999999999999883e+00 -8.598147999999999902e-03 -1.448395000000000108e-03
2.371999999999999886e+00 -8.619351000000000790e-03 -1.425363999999999928e-03
2.375999999999999890e+00 -8.594782000000000463e-03 -1.378532999999999929e-03
2.379999999999999893e+00 -8.559249999999999151e-03 -1.373964999999999995e-03
2.383999999999999897e+00 -8.531313999999999911e-03 -1.414881999999999902e-03
2.387999999999999901e+00 -8.531554999999999694e-03 -1.431661999999999995e-03
2.391999999999999904e+00 -8.578433999999999365e-03 -1.424354000000000071e-03
2.395999999999999908e+00 -8.606417999999999360e-03 -1.425651999999999909e-03
2.399999999999999911e+00 -8.639015999999999362e-03 -1.435316999999999973e-03
2.403999999999999915e+00 -8.666326000000000238e-03 -1.418247999999999991e-03
2.407999999999999918e+00 -8.642525999999999334e-03 -1.389880000000000022e-03
2.411999999999999922e+00 -8.648440000000000294e-03 -1.397861000000000025e-03
2.415999999999999925e+00 -8.689933999999999853e-03 -1.454500999999999971e-03
2.419999999999999929e+00 -8.692386999999999336e-03 -1.477676000000000033e-03
2.423999999999999932e+00 -8.598051000000000652e-03 -1.415699000000000081e-03
2.427999999999999936e+00 -8.582377000000000408e-03 -1.373964999999999995e-03
2.431999999999999940e+00 -8.663778000000000451e-03 -1.400072999999999943e-03
2.435999999999999943e+00 -8.721715999999999150e-03 -1.441327000000000060e-03
2.439999999999999947e+00 -8.724648999999999252e-03 -1.434450999999999999e-03
2.443999999999999950e+00 -8.680991000000000749e-03 -1.424979000000000046e-03
2.447999999999999954e+00 -8.693444999999999298e-03 -1.437719999999999970e-03
2.451999999999999957e+00 -8.716474999999999571e-03 -1.416228000000000061e-03
2.455999999999999961e+00 -8.708205000000000112e-03 -1.422431000000000043e-03
2.459999999999999964e+00 -8.674548000000000675e-03 -1.450366000000000025e-03
2.463999999999999968e+00 -8.575934000000000335e-03 -1.400458000000000041e-03
2.467999999999999972e+00 -8.553527999999999479e-03 -1.388052999999999986e-03
2.471999999999999975e+00 -8.630409999999999818e-03 -1.443585999999999958e-03
2.475999999999999979e+00 -8.650843999999999548e-03 -1.463731999999999924e-03
2.479999999999999982e+00 -8.601561000000000623e-03 -1.451039000000000105e-03
2.483999999999999986e+00 -8.479676000000000227e-03 -1.405746999999999943e-03
2.487999999999999989e+00 -8.406639999999999946e-03 -1.386754999999999932e-03
2.491999999999999993e+00 -8.509437999999999377e-03 -1.440220999999999993e-03
2.495999999999999996e+00 -8.544489000000000598e-03 -1.463780999999999936e-03
2.500000000000000000e+00 -8.512083000000000149e-03 -1.454692999999999958e-03
2.504000000000000004e+00 -8.491887999999999520e-03 -1.434740000000000104e-03
2.508000000000000007e+00 -8.501793000000000544e-03 -1.433440999999999925e-03
2.512000000000000011e+00 -8.471117000000000230e-03 -1.422094000000000049e-03
2.516000000000000014e+00 -8.446115000000000567e-03 -1.412237999999999905e-03
2.520000000000000018e+00 -8.456307999999999186e-03 -1.430700999999999935e-03
2.524000000000000021e+00 -8.472126999999999436e-03 -1.476522000000000077e-03
2.528000000000000025e+00 -8.462269999999999168e-03 -1.494600000000000008e-03
2.532000000000000028e+00 -8.448231000000000490e-03 -1.476040999999999985e-03
2.536000000000000032e+00 -8.426065999999999417e-03 -1.452144999999999955e-03
2.540000000000000036e+00 -8.441788000000000416e-03 -1.459019999999999892e-03
2.544000000000000039e+00 -8.528815000000000354e-03 -1.507775000000000044e-03
2.548000000000000043e+00 -8.485542000000000432e-03 -1.474983000000000023e-03
2.552000000000000046e+00 -8.353558999999999984e-03 -1.398341999999999901e-03
2.556000000000000050e+00 -8.382888999999999272e-03 -1.401130999999999904e-03
2.560000000000000053e+00 -8.448712000000000583e-03 -1.436854999999999903e-03
2.564000000000000057e+00 -8.441884000000000193e-03 -1.456038999999999901e-03
2.568000000000000060e+00 -8.420247999999999969e-03 -1.433922000000000018e-03
2.572000000000000064e+00 -8.446739999999999457e-03 -1.430124000000000065e-03
2.576000000000000068e+00 -8.470876999999999921e-03 -1.469454000000000029e-03
2.580000000000000071e+00 -8.454576999999999579e-03 -1.465799999999999959e-03
2.584000000000000075e+00 -8.388658000000000226e-03 -1.425892999999999909e-03
2.588000000000000078e+00 -8.396014999999999728e-03 -1.423248000000000004e-03
2.592000000000000082e+00 -8.446980999999999240e-03 -1.465752000000000070e-03
2.596000000000000085e+00 -8.500880000000000589e-03 -1.503399000000000098e-03
2.600000000000000089e+00 -8.499388999999999555e-03 -1.489648000000000101e-03
2.604000000000000092e+00 -8.437702000000000049e-03 -1.444643999999999920e-03
2.608000000000000096e+00 -8.447028999999999996e-03 -1.432672000000000069e-03
2.612000000000000099e+00 -8.486840000000000703e-03 -1.466810000000000032e-03
2.616000000000000103e+00 -8.454193000000000471e-03 -1.455174000000000051e-03
2.620000000000000107e+00 -8.434095000000000827e-03 -1.448057999999999897e-03
2.624000000000000110e+00 -8.452846999999999444e-03 -1.448587000000000095e-03
2.628000000000000114e+00 -8.470540000000000361e-03 -1.442048000000000028e-03
2.632000000000000117e+00 -8.473905999999999800e-03 -1.429258000000000091e-03
2.636000000000000121e+00 -8.437702000000000049e-03 -1.419979000000000033e-03
2.640000000000000124e+00 -8.432557000000000247e-03 -1.440653000000000072e-03
2.644000000000000128e+00 -8.474386000000000418e-03 -1.451472000000000092e-03
2.648000000000000131e+00 -8.499388999999999555e-03 -1.450991000000000000e-03
2.652000000000000135e+00 -8.499051999999999996e-03 -1.433634000000000037e-03
2.656000000000000139e+00 -8.442365000000000286e-03 -1.401852000000000089e-03
2.660000000000000142e+00 -8.428325000000000400e-03 -1.410650999999999962e-03
2.664000000000000146e+00 -8.482655999999999877e-03 -1.443875000000000063e-03
2.668000000000000149e+00 -8.538766999999999191e-03 -1.481473999999999985e-03
2.672000000000000153e+00 -8.570019999999999374e-03 -1.496523999999999945e-03
2.676000000000000156e+00 -8.514294000000000376e-03 -1.473349000000000100e-03
2.680000000000000160e+00 -8.408611999999999337e-03 -1.425122999999999928e-03
2.684000000000000163e+00 -8.399860999999999786e-03 -1.411853000000000023e-03
2.688000000000000167e+00 -8.472030999999999659e-03 -1.447961999999999904e-03
2.692000000000000171e+00 -8.492753999999999928e-03 -1.461471999999999901e-03
2.696000000000000174e+00 -8.457990999999999773e-03 -1.450174000000000038e-03
2.700000000000000178e+00 -8.456164000000000389e-03 -1.462963000000000067e-03
2.704000000000000181e+00 -8.466502000000000749e-03 -1.473780999999999963e-03
2.708000000000000185e+00 -8.471117000000000230e-03 -1.461761000000000007e-03
2.712000000000000188e+00 -8.475397000000000833e-03 -1.442383999999999897e-03
2.716000000000000192e+00 -8.461259999999999962e-03 -1.415507000000000093e-03
2.720000000000000195e+00 -8.436258000000000298e-03 -1.403870999999999895e-03
2.724000000000000199e+00 -8.450875000000000054e-03 -1.432672000000000069e-03
2.728000000000000203e+00 -8.466645000000000074e-03 -1.451182999999999987e-03
2.732000000000000206e+00 -8.471934999999999882e-03 -1.443489999999999964e-03
2.736000000000000210e+00 -8.446643999999999680e-03 -1.435316999999999973e-03
2.740000000000000213e+00 -8.385629000000000347e-03 -1.414113000000000045e-03
2.744000000000000217e+00 -8.428951000000000499e-03 -1.418488000000000084e-03
2.748000000000000220e+00 -8.457703000000000443e-03 -1.432576000000000075e-03
2.751999999999999780e+00 -8.448423000000000044e-03 -1.437047000000000107e-03
2.755999999999999783e+00 -8.498283000000000573e-03 -1.479646999999999950e-03
2.759999999999999787e+00 -8.524870999999999838e-03 -1.503303000000000104e-03
2.763999999999999790e+00 -8.494916999999999399e-03 -1.461279999999999914e-03
2.767999999999999794e+00 -8.466357000000000743e-03 -1.437335999999999996e-03
2.771999999999999797e+00 -8.479050000000000128e-03 -1.472578999999999902e-03
2.775999999999999801e+00 -8.449095999999999690e-03 -1.487821000000000065e-03
2.779999999999999805e+00 -8.446019000000000790e-03 -1.480561000000000030e-03
2.783999999999999808e+00 -8.476021999999999723e-03 -1.477580000000000039e-03
2.787999999999999812e+00 -8.463712999999999445e-03 -1.449741000000000050e-03
2.791999999999999815e+00 -8.488811000000000620e-03 -1.467675000000000099e-03
2.795999999999999819e+00 -8.537325000000000122e-03 -1.523016000000000083e-03
2.799999999999999822e+00 -8.525737999999999719e-03 -1.530179999999999908e-03
2.803999999999999826e+00 -8.500350999999999740e-03 -1.506717000000000082e-03
2.807999999999999829e+00 -8.468954000000000759e-03 -1.464501999999999905e-03
2.811999999999999833e+00 -8.436114999999999239e-03 -1.434065999999999900e-03
2.815999999999999837e+00 -8.420632000000000811e-03 -1.440557000000000079e-03
2.819999999999999840e+00 -8.451788999999999483e-03 -1.455654999999999926e-03
2.823999999999999844e+00 -8.494196000000000732e-03 -1.453347000000000016e-03
2.827999999999999847e+00 -8.530256999999999423e-03 -1.472098000000000026e-03
2.831999999999999851e+00 -8.551315999999999778e-03 -1.515803999999999936e-03
2.835999999999999854e+00 -8.528430000000000039e-03 -1.524940000000000019e-03
2.839999999999999858e+00 -8.513428999999999441e-03 -1.522006999999999917e-03
2.843999999999999861e+00 -8.520303999999999378e-03 -1.544557000000000005e-03
2.847999999999999865e+00 -8.475108000000000294e-03 -1.507293999999999952e-03
2.851999999999999869e+00 -8.432797000000000556e-03 -1.487580999999999973e-03
2.855999999999999872e+00 -8.493330999999999797e-03 -1.532921000000000023e-03
2.859999999999999876e+00 -8.527757000000000392e-03 -1.537441000000000068e-03
2.863999999999999879e+00 -8.519149999999999640e-03 -1.523882000000000058e-03
2.867999999999999883e+00 -8.481455000000000591e-03 -1.491235000000000043e-03
2.871999999999999886e+00 -8.458856000000000708e-03 -1.471473000000000052e-03
2.875999999999999890e+00 -8.502225000000000407e-03 -1.492966000000000085e-03
2.879999999999999893e+00 -8.510929000000000411e-03 -1.505851000000000108e-03
2.883999999999999897e+00 -8.489052000000000403e-03 -1.502293999999999938e-03
2.887999999999999901e+00 -8.473088000000000147e-03 -1.488589999999999922e-03
2.891999999999999904e+00 -8.508764999999999731e-03 -1.499841000000000021e-03
2.895999999999999908e+00 -8.547084999999999405e-03 -1.506717000000000082e-03
2.899999999999999911e+00 -8.502994999999999304e-03 -1.498062000000000091e-03
2.903999999999999915e+00 -8.491985000000000505e-03 -1.519409999999999901e-03
2.907999999999999918e+00 -8.543863999999999972e-03 -1.545181999999999979e-03
2.911999999999999922e+00 -8.551845000000000627e-03 -1.512583000000000070e-03
2.915999999999999925e+00 -8.496791999999999540e-03 -1.461712999999999901e-03
2.919999999999999929e+00 -8.478137999999999647e-03 -1.503832000000000085e-03
2.923999999999999932e+00 -8.546460000000000515e-03 -1.583021999999999901e-03
2.927999999999999936e+00 -8.613245000000000276e-03 -1.588550999999999895e-03
2.931999999999999940e+00 -8.575261000000000688e-03 -1.527006999999999930e-03
2.935999999999999943e+00 -8.463665000000000424e-03 -1.479791000000000049e-03
2.939999999999999947e+00 -8.453472000000000069e-03 -1.495273999999999995e-03
2.943999999999999950e+00 -8.504532999999999884e-03 -1.547825999999999976e-03
2.947999999999999954e+00 -8.521746999999999655e-03 -1.550471000000000097e-03
2.951999999999999957e+00 -8.516601999999999853e-03 -1.526959000000000042e-03
2.955999999999999961e+00 -8.499005000000000448e-03 -1.524266000000000032e-03
2.959999999999999964e+00 -8.513523999999999745e-03 -1.535277000000000039e-03
2.963999999999999968e+00 -8.543959999999999749e-03 -1.552538000000000008e-03
2.967999999999999972e+00 -8.579010999999999235e-03 -1.569655000000000095e-03
2.971999999999999975e+00 -8.594109000000000817e-03 -1.559028999999999970e-03
2.975999999999999979e+00 -8.606561000000000419e-03 -1.561480999999999980e-03
2.979999999999999982e+00 -8.572184000000000054e-03 -1.567636000000000073e-03
2.983999999999999986e+00 -8.494484000000000062e-03 -1.529123000000000071e-03
2.987999999999999989e+00 -8.520978000000000233e-03 -1.524940000000000019e-03
2.991999999999999993e+00 -8.590887000000000176e-03 -1.551335999999999948e-03
2.995999999999999996e+00 -8.629928999999999725e-03 -1.572875999999999962e-03
3.000000000000000000e+00 -8.662960000000000799e-03 -1.592396999999999953e-03
3.004000000000000004e+00 -8.610407999999999951e-03 -1.546335999999999935e-03
3.008000000000000007e+00 -8.573146000000000239e-03 -1.516428999999999911e-03
3.012000000000000011e+00 -8.613581999999999836e-03 -1.541047000000000033e-03
3.016000000000000014e+00 -8.633775999999999257e-03 -1.534844000000000052e-03
3.020000000000000018e+00 -8.639736999999999764e-03 -1.533641999999999991e-03
3.024000000000000021e+00 -8.657095000000000068e-03 -1.568261000000000047e-03
3.028000000000000025e+00 -8.617572000000000426e-03 -1.542392999999999976e-03
3.032000000000000028e+00 -8.609639000000000528e-03 -1.529652000000000052e-03
3.036000000000000032e+00 -8.629400000000000612e-03 -1.579031000000000054e-03
3.040000000000000036e+00 -8.618389000000000605e-03 -1.589368000000000074e-03
3.044000000000000039e+00 -8.602475000000000052e-03 -1.565615999999999926e-03
3.048000000000000043e+00 -8.614207000000000461e-03 -1.538066000000000043e-03
3.052000000000000046e+00 -8.627621000000000248e-03 -1.492244999999999900e-03
3.056000000000000050e+00 -8.633630999999999250e-03 -1.519746999999999895e-03
3.060000000000000053e+00 -8.550787000000000665e-03 -1.603264000000000078e-03
3.064000000000000057e+00 -8.517276000000000707e-03 -1.611774000000000063e-03
3.068000000000000060e+00 -8.536892000000000785e-03 -1.602062000000000017e-03
3.072000000000000064e+00 -8.524342000000000724e-03 -1.580762000000000096e-03
3.076000000000000068e+00 -8.517612000000000794e-03 -1.575521000000000083e-03
3.080000000000000071e+00 -8.544489000000000598e-03 -1.593695000000000007e-03
3.084000000000000075e+00 -8.552614999999999523e-03 -1.572540000000000092e-03
3.088000000000000078e+00 -8.534919999999999660e-03 -1.546094999999999935e-03
3.092000000000000082e+00 -8.512227000000000682e-03 -1.564126000000000101e-03
3.096000000000000085e+00 -8.527372000000000077e-03 -1.585089000000000029e-03
3.100000000000000089e+00 -8.518285000000000440e-03 -1.572154999999999993e-03
3.104000000000000092e+00 -8.467366999999999949e-03 -1.546527999999999922e-03
3.108000000000000096e+00 -8.463520999999999891e-03 -1.546768000000000014e-03
3.112000000000000099e+00 -8.497177999999999329e-03 -1.554653999999999932e-03
3.116000000000000103e+00 -8.520303999999999378e-03 -1.565472000000000044e-03
3.120000000000000107e+00 -8.526650999999999675e-03 -1.591532000000000103e-03
3.124000000000000110e+00 -8.504677999999999891e-03 -1.583166000000000000e-03
3.128000000000000114e+00 -8.471694999999999573e-03 -1.546384000000000040e-03
3.132000000000000117e+00 -8.477126999999999232e-03 -1.522534999999999991e-03
3.136000000000000121e+00 -8.563673000000000812e-03 -1.558836999999999983e-03
3.140000000000000124e+00 -8.660990000000000355e-03 -1.601196000000000043e-03
3.144000000000000128e+00 -8.667335999999999444e-03 -1.584127000000000061e-03
3.148000000000000131e+00 -8.608196999999999724e-03 -1.565952999999999920e-03
3.152000000000000135e+00 -8.559393999999999683e-03 -1.564028999999999983e-03
3.156000000000000139e+00 -8.676424000000000289e-03 -1.561529000000000085e-03
3.160000000000000142e+00 -8.890047999999999354e-03 -1.558163999999999903e-03
3.164000000000000146e+00 -9.000249999999999570e-03 -1.569847000000000083e-03
3.168000000000000149e+00 -8.975294999999999454e-03 -1.601533000000000036e-03
3.172000000000000153e+00 -8.776673000000000460e-03 -1.633314000000000077e-03
3.176000000000000156e+00 -8.492658000000000151e-03 -1.631103000000000067e-03
3.180000000000000160e+00 -8.268839999999999524e-03 -1.575280000000000083e-03
3.184000000000000163e+00 -8.248454000000000549e-03 -1.556337000000000085e-03
3.188000000000000167e+00 -8.273841000000000528e-03 -1.594560999999999982e-03
3.192000000000000171e+00 -8.204556000000000002e-03 -1.584607999999999937e-03
3.196000000000000174e+00 -8.165899000000000768e-03 -1.529748000000000045e-03
3.200000000000000178e+00 -8.242347000000000562e-03 -1.532921000000000023e-03
3.204000000000000181e+00 -8.336394000000000443e-03 -1.555855999999999992e-03
3.208000000000000185e+00 -8.426209000000000476e-03 -1.603311999999999966e-03
3.212000000000000188e+00 -8.492128999999999303e-03 -1.624035000000000019e-03
3.216000000000000192e+00 -8.499100000000000751e-03 -1.597253999999999991e-03
3.220000000000000195e+00 -8.505976000000000162e-03 -1.600426999999999969e-03
3.224000000000000199e+00 -8.520256000000000357e-03 -1.616919000000000082e-03
3.228000000000000203e+00 -8.578001999999999502e-03 -1.607782999999999999e-03
3.232000000000000206e+00 -8.663633999999999918e-03 -1.624755999999999987e-03
3.236000000000000210e+00 -8.690270999999999413e-03 -1.606292999999999957e-03
3.240000000000000213e+00 -8.611755000000000451e-03 -1.565472000000000044e-03
3.244000000000000217e+00 -8.546460000000000515e-03 -1.569029999999999904e-03
3.248000000000000220e+00 -8.554346000000000866e-03 -1.597782000000000065e-03
3.251999999999999780e+00 -8.598483999999999988e-03 -1.623649999999999920e-03
3.255999999999999783e+00 -8.644353999999999927e-03 -1.648795999999999899e-03
3.259999999999999787e+00 -8.591704999999999828e-03 -1.615476000000000021e-03
3.263999999999999790e+00 -8.535449000000000508e-03 -1.558644000000000088e-03
3.267999999999999794e+00 -8.583914999999999254e-03 -1.563067999999999923e-03
3.271999999999999797e+00 -8.637237000000000733e-03 -1.590618000000000023e-03
3.275999999999999801e+00 -8.651133000000000087e-03 -1.609898999999999922e-03
3.279999999999999805e+00 -8.613677999999999613e-03 -1.595667000000000049e-03
3.283999999999999808e+00 -8.605503000000000458e-03 -1.587637000000000033e-03
3.287999999999999812e+00 -8.641420999999999825e-03 -1.600379000000000081e-03
3.291999999999999815e+00 -8.642525999999999334e-03 -1.582925000000000000e-03
3.295999999999999819e+00 -8.603003999999999166e-03 -1.566240999999999901e-03
3.299999999999999822e+00 -8.596031999999999978e-03 -1.582251999999999921e-03
3.303999999999999826e+00 -8.617572000000000426e-03 -1.575568999999999971e-03
3.307999999999999829e+00 -8.646565000000000153e-03 -1.580040000000000004e-03
3.311999999999999833e+00 -8.690944000000000794e-03 -1.625092999999999980e-03
3.315999999999999837e+00 -8.686760999999999441e-03 -1.649421999999999998e-03
3.319999999999999840e+00 -8.634209000000000328e-03 -1.622977000000000057e-03
3.323999999999999844e+00 -8.635890999999999706e-03 -1.626630999999999910e-03
3.327999999999999847e+00 -8.604397999999999214e-03 -1.599946000000000094e-03
3.331999999999999851e+00 -8.555404000000000828e-03 -1.558693000000000101e-03
3.335999999999999854e+00 -8.564731000000000774e-03 -1.568020000000000047e-03
3.339999999999999858e+00 -8.641180999999999515e-03 -1.605955999999999963e-03
3.343999999999999861e+00 -8.693588000000000357e-03 -1.616053000000000107e-03
3.347999999999999865e+00 -8.686521000000000867e-03 -1.579607999999999924e-03
3.351999999999999869e+00 -8.648681000000000077e-03 -1.581675000000000051e-03
3.355999999999999872e+00 -8.662384000000000403e-03 -1.625717999999999955e-03
3.359999999999999876e+00 -8.655411999999999481e-03 -1.623216999999999932e-03
3.363999999999999879e+00 -8.656998000000000817e-03 -1.614418000000000060e-03
3.367999999999999883e+00 -8.679259999999999406e-03 -1.622832999999999958e-03
3.371999999999999886e+00 -8.691424999999999151e-03 -1.614851000000000047e-03
3.375999999999999890e+00 -8.694454000000000765e-03 -1.606100000000000062e-03
3.379999999999999893e+00 -8.674355999999999386e-03 -1.616725999999999970e-03
3.383999999999999897e+00 -8.706811000000000064e-03 -1.643652000000000004e-03
3.387999999999999901e+00 -8.784749999999999157e-03 -1.649132999999999892e-03
3.391999999999999904e+00 -8.795183999999999294e-03 -1.653701000000000042e-03
3.395999999999999908e+00 -8.748544999999999933e-03 -1.647978999999999937e-03
3.399999999999999911e+00 -8.741621999999999240e-03 -1.614659000000000059e-03
3.403999999999999915e+00 -8.759025999999999618e-03 -1.603360000000000072e-03
3.407999999999999918e+00 -8.748064999999999314e-03 -1.599850000000000100e-03
3.411999999999999922e+00 -8.746958000000000857e-03 -1.609465999999999935e-03
3.415999999999999925e+00 -8.768978999999999663e-03 -1.606341000000000062e-03
3.419999999999999929e+00 -8.820763000000000562e-03 -1.633265999999999971e-03
3.423999999999999932e+00 -8.858315000000000286e-03 -1.673028999999999922e-03
3.427999999999999936e+00 -8.855045000000000624e-03 -1.662162999999999922e-03
3.431999999999999940e+00 -8.827781999999999296e-03 -1.620380999999999948e-03
3.435999999999999943e+00 -8.773787999999999379e-03 -1.575954000000000070e-03
3.439999999999999947e+00 -8.779027999999999485e-03 -1.584848999999999937e-03
3.443999999999999950e+00 -8.812973999999999461e-03 -1.611966000000000050e-03
3.447999999999999954e+00 -8.765517999999999921e-03 -1.614706999999999948e-03
3.451999999999999957e+00 -8.788980999999999530e-03 -1.647065999999999981e-03
3.455999999999999961e+00 -8.825714999999999602e-03 -1.646391999999999994e-03
3.459999999999999964e+00 -8.792203000000000171e-03 -1.617640000000000050e-03
3.463999999999999968e+00 -8.750613000000000835e-03 -1.581193999999999959e-03
3.467999999999999972e+00 -8.737727000000000688e-03 -1.599128999999999915e-03
3.471999999999999975e+00 -8.749315000000000564e-03 -1.659469999999999912e-03
3.475999999999999979e+00 -8.775470999999999966e-03 -1.692935000000000013e-03
3.479999999999999982e+00 -8.778018999999999752e-03 -1.683943999999999936e-03
3.483999999999999986e+00 -8.664979999999999211e-03 -1.602013999999999912e-03
3.487999999999999989e+00 -8.553720000000000767e-03 -1.542633000000000068e-03
3.491999999999999993e+00 -8.585214000000000734e-03 -1.600714999999999950e-03
3.495999999999999996e+00 -8.662431999999999424e-03 -1.682789999999999980e-03
3.500000000000000000e+00 -8.685462999999999170e-03 -1.687212999999999907e-03
3.504000000000000004e+00 -8.623774000000000717e-03 -1.626726999999999904e-03
3.508000000000000007e+00 -8.600744000000000444e-03 -1.603311999999999966e-03
3.512000000000000011e+00 -8.603773000000000323e-03 -1.628073999999999971e-03
3.516000000000000014e+00 -8.536507000000000470e-03 -1.607878999999999992e-03
3.520000000000000018e+00 -8.487321000000000795e-03 -1.574366999999999911e-03
3.524000000000000021e+00 -8.546267999999999226e-03 -1.616919000000000082e-03
3.528000000000000025e+00 -8.603292999999999704e-03 -1.652643000000000081e-03
3.532000000000000028e+00 -8.598290999999999226e-03 -1.638506999999999984e-03
3.536000000000000032e+00 -8.528574000000000571e-03 -1.594946000000000081e-03
3.540000000000000036e+00 -8.533719000000000374e-03 -1.616246000000000002e-03
3.544000000000000039e+00 -8.556941999999999673e-03 -1.658556999999999957e-03
3.548000000000000043e+00 -8.552422000000000496e-03 -1.640671000000000013e-03
3.552000000000000046e+00 -8.554442000000000643e-03 -1.619804000000000079e-03
3.556000000000000050e+00 -8.602283000000000499e-03 -1.650095000000000077e-03
3.560000000000000053e+00 -8.620793999999999332e-03 -1.664230000000000050e-03
3.564000000000000057e+00 -8.602089999999999737e-03 -1.633555000000000076e-03
3.568000000000000060e+00 -8.578146000000000035e-03 -1.597637999999999966e-03
3.572000000000000064e+00 -8.553335999999999925e-03 -1.574415000000000016e-03
3.576000000000000068e+00 -8.520784999999999471e-03 -1.557009999999999948e-03
3.580000000000000071e+00 -8.504196999999999798e-03 -1.593119000000000045e-03
3.584000000000000075e+00 -8.538383000000000084e-03 -1.624418999999999993e-03
3.588000000000000078e+00 -8.622381000000000142e-03 -1.667403999999999935e-03
3.592000000000000082e+00 -8.626755999999999314e-03 -1.654326000000000017e-03
3.596000000000000085e+00 -8.564251000000000155e-03 -1.625909999999999942e-03
3.600000000000000089e+00 -8.513140000000000637e-03 -1.613552999999999992e-03
3.604000000000000092e+00 -8.557037999999999450e-03 -1.623698000000000025e-03
3.608000000000000096e+00 -8.598483999999999988e-03 -1.627497000000000102e-03
3.612000000000000099e+00 -8.619207000000000257e-03 -1.635815000000000099e-03
3.616000000000000103e+00 -8.599156999999999634e-03 -1.640814999999999895e-03
3.620000000000000107e+00 -8.546652999999999542e-03 -1.631920000000000029e-03
3.624000000000000110e+00 -8.581029999999999908e-03 -1.622736000000000057e-03
3.628000000000000114e+00 -8.657046999999999312e-03 -1.640575000000000019e-03
3.632000000000000117e+00 -8.658634000000000122e-03 -1.637016999999999943e-03
3.636000000000000121e+00 -8.599829999999999280e-03 -1.614130000000000079e-03
3.640000000000000124e+00 -8.587954999999999547e-03 -1.637496999999999911e-03
3.644000000000000128e+00 -8.583290999999999837e-03 -1.615621000000000028e-03
3.648000000000000131e+00 -8.538525999999999408e-03 -1.571097000000000032e-03
3.652000000000000135e+00 -8.544153000000000511e-03 -1.598648000000000039e-03
3.656000000000000139e+00 -8.635890999999999706e-03 -1.660769000000000091e-03
3.660000000000000142e+00 -8.601321000000000314e-03 -1.619177999999999980e-03
3.664000000000000146e+00 -8.510399999999999562e-03 -1.551913000000000034e-03
3.668000000000000149e+00 -8.508042999999999856e-03 -1.533113000000000010e-03
3.672000000000000153e+00 -8.584684999999999885e-03 -1.579511999999999930e-03
3.676000000000000156e+00 -8.632333000000000714e-03 -1.638651000000000083e-03
3.680000000000000160e+00 -8.626467999999999983e-03 -1.633122000000000089e-03
3.684000000000000163e+00 -8.599301000000000167e-03 -1.617544000000000056e-03
3.688000000000000167e+00 -8.605120000000000824e-03 -1.607927000000000098e-03
3.692000000000000171e+00 -8.609158000000000435e-03 -1.603119000000000072e-03
3.696000000000000174e+00 -8.593243999999999883e-03 -1.606774000000000049e-03
3.700000000000000178e+00 -8.550739999999999383e-03 -1.608407999999999973e-03
3.704000000000000181e+00 -8.573288999999999563e-03 -1.617158999999999958e-03
3.708000000000000185e+00 -8.584684999999999885e-03 -1.609322000000000053e-03
3.712000000000000188e+00 -8.592858000000000093e-03 -1.635334000000000006e-03
3.716000000000000192e+00 -8.560691999999999954e-03 -1.623553999999999926e-03
3.720000000000000195e+00 -8.527612000000000386e-03 -1.599706000000000001e-03
3.724000000000000199e+00 -8.543815999999999217e-03 -1.604032999999999935e-03
3.728000000000000203e+00 -8.600503000000000661e-03 -1.616341999999999996e-03
3.732000000000000206e+00 -8.621465999999999505e-03 -1.628602000000000044e-03
3.736000000000000210e+00 -8.602475000000000052e-03 -1.634613000000000038e-03
3.740000000000000213e+00 -8.601561000000000623e-03 -1.628457999999999945e-03
3.744000000000000217e+00 -8.532180000000000319e-03 -1.576001999999999958e-03
3.748000000000000220e+00 -8.462847000000000772e-03 -1.550326000000000091e-03
3.751999999999999780e+00 -8.515737000000000653e-03 -1.603889000000000052e-03
3.755999999999999783e+00 -8.568241000000000746e-03 -1.626054000000000041e-03
3.759999999999999787e+00 -8.570404999999999690e-03 -1.614994999999999929e-03
3.763999999999999790e+00 -8.568625999999999326e-03 -1.606196999999999963e-03
3.767999999999999794e+00 -8.551797999999999345e-03 -1.606821999999999938e-03
3.771999999999999797e+00 -8.593290999999999430e-03 -1.634852999999999914e-03
3.775999999999999801e+00 -8.625505000000000325e-03 -1.669712000000000062e-03
3.779999999999999805e+00 -8.589684999999999682e-03 -1.646247999999999895e-03
3.783999999999999808e+00 -8.516987000000000169e-03 -1.583166000000000000e-03
3.787999999999999812e+00 -8.487417000000000572e-03 -1.565280000000000057e-03
3.791999999999999815e+00 -8.493475000000000330e-03 -1.588166000000000013e-03
3.795999999999999819e+00 -8.539536999999999822e-03 -1.603023000000000078e-03
3.799999999999999822e+00 -8.576125999999999888e-03 -1.576385999999999933e-03
3.803999999999999826e+00 -8.578818999999999681e-03 -1.573165000000000067e-03
3.807999999999999829e+00 -8.557663000000000075e-03 -1.585665999999999898e-03
3.811999999999999833e+00 -8.570404999999999690e-03 -1.610090999999999909e-03
3.815999999999999837e+00 -8.571221000000000395e-03 -1.633265999999999971e-03
3.819999999999999840e+00 -8.548191999999999596e-03 -1.646391999999999994e-03
3.823999999999999844e+00 -8.543574999999999434e-03 -1.624131000000000012e-03
3.827999999999999847e+00 -8.536748000000000253e-03 -1.599513000000000107e-03
3.831999999999999851e+00 -8.568386000000000752e-03 -1.604610000000000021e-03
3.835999999999999854e+00 -8.565549000000000426e-03 -1.606676999999999932e-03
3.839999999999999858e+00 -8.515737000000000653e-03 -1.603552000000000059e-03
3.843999999999999861e+00 -8.530160999999999646e-03 -1.623265000000000038e-03
3.847999999999999865e+00 -8.611034000000000049e-03 -1.647306000000000074e-03
3.851999999999999869e+00 -8.600359000000000129e-03 -1.625188999999999974e-03
3.855999999999999872e+00 -8.522804000000000144e-03 -1.603985000000000046e-03
3.859999999999999876e+00 -8.472319000000000724e-03 -1.576193999999999946e-03
3.863999999999999879e+00 -8.484724000000000779e-03 -1.552105000000000021e-03
3.867999999999999883e+00 -8.561894000000000449e-03 -1.577781000000000105e-03
3.871999999999999886e+00 -8.597762000000000113e-03 -1.622303999999999977e-03
3.875999999999999890e+00 -8.560066999999999329e-03 -1.635430000000000000e-03
3.879999999999999893e+00 -8.499388999999999555e-03 -1.593311000000000033e-03
3.883999999999999897e+00 -8.495157999999999182e-03 -1.569078000000000009e-03
3.887999999999999901e+00 -8.523670000000000552e-03 -1.584078999999999956e-03
3.891999999999999904e+00 -8.608052999999999191e-03 -1.621966999999999983e-03
3.895999999999999908e+00 -8.616466999999999182e-03 -1.606676999999999932e-03
3.899999999999999911e+00 -8.517129999999999493e-03 -1.554124999999999951e-03
3.903999999999999915e+00 -8.464241000000000820e-03 -1.570231999999999965e-03
3.907999999999999918e+00 -8.525113000000000829e-03 -1.614369999999999954e-03
3.911999999999999922e+00 -8.602379000000000275e-03 -1.630766000000000073e-03
3.915999999999999925e+00 -8.614158000000000232e-03 -1.621630999999999897e-03
3.919999999999999929e+00 -8.556941999999999673e-03 -1.604849999999999896e-03
3.923999999999999932e+00 -8.530545000000000488e-03 -1.607734999999999893e-03
3.927999999999999936e+00 -8.525641000000000469e-03 -1.596196000000000030e-03
3.931999999999999940e+00 -8.552469999999999517e-03 -1.605908000000000075e-03
3.935999999999999943e+00 -8.508764999999999731e-03 -1.597590000000000078e-03
3.939999999999999947e+00 -8.501744999999999788e-03 -1.593262999999999928e-03
3.943999999999999950e+00 -8.558191999999999189e-03 -1.606676999999999932e-03
3.947999999999999954e+00 -8.616466999999999182e-03 -1.619034000000000098e-03
3.951999999999999957e+00 -8.599637999999999727e-03 -1.597206000000000103e-03
3.955999999999999961e+00 -8.515399999999999359e-03 -1.583021999999999901e-03
3.959999999999999964e+00 -8.490878000000000314e-03 -1.592541999999999959e-03
3.963999999999999968e+00 -8.563529000000000280e-03 -1.622352000000000082e-03
3.967999999999999972e+00 -8.606898999999999453e-03 -1.635381999999999895e-03
3.971999999999999975e+00 -8.552950999999999609e-03 -1.610523999999999897e-03
3.975999999999999979e+00 -8.535737999999999312e-03 -1.611245000000000082e-03
3.979999999999999982e+00 -8.564395000000000688e-03 -1.624755999999999987e-03
3.983999999999999986e+00 -8.589252000000000345e-03 -1.609322000000000053e-03
3.987999999999999989e+00 -8.568241000000000746e-03 -1.573502000000000060e-03
3.991999999999999993e+00 -8.535498000000000737e-03 -1.580281000000000003e-03
3.995999999999999996e+00 -8.543095000000000550e-03 -1.608503999999999967e-03
4.000000000000000000e+00 -8.512466999999999256e-03 -1.581338999999999965e-03
4.003999999999999559e+00 -8.498522999999999147e-03 -1.548883999999999938e-03
4.008000000000000007e+00 -8.532276000000000096e-03 -1.569510999999999996e-03
4.011999999999999567e+00 -8.597954999999999140e-03 -1.637592999999999905e-03
4.016000000000000014e+00 -8.610167999999999641e-03 -1.632689000000000102e-03
4.019999999999999574e+00 -8.529873000000000316e-03 -1.552585999999999897e-03
4.024000000000000021e+00 -8.487704999999999902e-03 -1.546815999999999903e-03
4.027999999999999581e+00 -8.530785000000000798e-03 -1.612495000000000031e-03
4.032000000000000028e+00 -8.573482000000000325e-03 -1.642498000000000048e-03
4.035999999999999588e+00 -8.562086999999999476e-03 -1.618457000000000012e-03
4.040000000000000036e+00 -8.561173000000000047e-03 -1.613505000000000104e-03
4.043999999999999595e+00 -8.585453999999999308e-03 -1.614034000000000085e-03
4.048000000000000043e+00 -8.599397999999999417e-03 -1.603311999999999966e-03
4.051999999999999602e+00 -8.609926999999999858e-03 -1.579511999999999930e-03
4.056000000000000050e+00 -8.593147000000000632e-03 -1.561144999999999894e-03
4.059999999999999609e+00 -8.591896999999999382e-03 -1.593744000000000020e-03
4.064000000000000057e+00 -8.628294999999999368e-03 -1.631295000000000054e-03
4.067999999999999616e+00 -8.642286000000000759e-03 -1.614802999999999942e-03
4.072000000000000064e+00 -8.603003999999999166e-03 -1.582876999999999895e-03
4.075999999999999623e+00 -8.565164000000000111e-03 -1.583021999999999901e-03
4.080000000000000071e+00 -8.581945000000000545e-03 -1.594656999999999976e-03
4.083999999999999631e+00 -8.644786999999999264e-03 -1.611966000000000050e-03
4.088000000000000078e+00 -8.690127000000000615e-03 -1.613985999999999980e-03
4.091999999999999638e+00 -8.648536000000000071e-03 -1.580568999999999984e-03
4.096000000000000085e+00 -8.584684999999999885e-03 -1.580762000000000096e-03
4.099999999999999645e+00 -8.569442999999999505e-03 -1.610523999999999897e-03
4.104000000000000092e+00 -8.583386000000000141e-03 -1.616533999999999983e-03
4.107999999999999652e+00 -8.577136000000000829e-03 -1.585809999999999997e-03
4.112000000000000099e+00 -8.589878000000000444e-03 -1.586050999999999997e-03
4.115999999999999659e+00 -8.622427999999999690e-03 -1.634035999999999952e-03
4.120000000000000107e+00 -8.619111000000000480e-03 -1.643266999999999905e-03
4.123999999999999666e+00 -8.514679000000000691e-03 -1.566530000000000006e-03
4.128000000000000114e+00 -8.480733000000000715e-03 -1.551384000000000053e-03
4.131999999999999673e+00 -8.521073000000000536e-03 -1.628073999999999971e-03
4.136000000000000121e+00 -8.530497999999999206e-03 -1.622687999999999952e-03
4.139999999999999680e+00 -8.505350999999999537e-03 -1.579270999999999930e-03
4.144000000000000128e+00 -8.514294000000000376e-03 -1.579223000000000042e-03
4.147999999999999687e+00 -8.505784000000000608e-03 -1.588454999999999902e-03
4.152000000000000135e+00 -8.500880000000000589e-03 -1.596292000000000023e-03
4.155999999999999694e+00 -8.513668999999999751e-03 -1.615572000000000015e-03
4.160000000000000142e+00 -8.500301999999999511e-03 -1.590569999999999918e-03
4.163999999999999702e+00 -8.476693999999999896e-03 -1.565472000000000044e-03
4.168000000000000149e+00 -8.509775000000000672e-03 -1.588839000000000093e-03
4.171999999999999709e+00 -8.563480999999999524e-03 -1.637929999999999898e-03
4.176000000000000156e+00 -8.551315999999999778e-03 -1.636246999999999962e-03
4.179999999999999716e+00 -8.518476999999999993e-03 -1.590714000000000017e-03
4.184000000000000163e+00 -8.486742999999999718e-03 -1.566530000000000006e-03
4.187999999999999723e+00 -8.492225000000000815e-03 -1.581916000000000051e-03
4.192000000000000171e+00 -8.555164000000000518e-03 -1.629901000000000006e-03
4.195999999999999730e+00 -8.656181000000000639e-03 -1.669616000000000069e-03
4.200000000000000178e+00 -8.678346999999999450e-03 -1.650575000000000046e-03
4.203999999999999737e+00 -8.628487000000000656e-03 -1.596388000000000017e-03
4.208000000000000185e+00 -8.638679999999999276e-03 -1.604514000000000027e-03
4.211999999999999744e+00 -8.734601999999999297e-03 -1.639852999999999927e-03
4.216000000000000192e+00 -8.838937999999999309e-03 -1.609322000000000053e-03
4.219999999999999751e+00 -8.981594000000000730e-03 -1.608023999999999998e-03
4.224000000000000199e+00 -9.094728999999999314e-03 -1.631103000000000067e-03
4.227999999999999758e+00 -8.866392000000000717e-03 -1.569269999999999997e-03
4.232000000000000206e+00 -8.517612000000000794e-03 -1.542249000000000094e-03
4.235999999999999766e+00 -8.346683000000000574e-03 -1.599032999999999921e-03
4.240000000000000213e+00 -8.299756000000000147e-03 -1.625909999999999942e-03
4.243999999999999773e+00 -8.254512000000000307e-03 -1.617399999999999958e-03
4.248000000000000220e+00 -8.196526000000000853e-03 -1.604561999999999915e-03
4.251999999999999780e+00 -8.174119999999999997e-03 -1.584607999999999937e-03
4.256000000000000227e+00 -8.169552999999999537e-03 -1.569702999999999984e-03
4.259999999999999787e+00 -8.247011000000000272e-03 -1.586050999999999997e-03
4.264000000000000234e+00 -8.347886000000000542e-03 -1.593454999999999915e-03
4.267999999999999794e+00 -8.454385000000000025e-03 -1.616966999999999970e-03
4.272000000000000242e+00 -8.523140999999999703e-03 -1.637449000000000023e-03
4.275999999999999801e+00 -8.552614999999999523e-03 -1.626054000000000041e-03
4.280000000000000249e+00 -8.535641999999999535e-03 -1.614177999999999967e-03
4.283999999999999808e+00 -8.548527999999999683e-03 -1.626726999999999904e-03
4.288000000000000256e+00 -8.608677000000000343e-03 -1.632208000000000010e-03
4.291999999999999815e+00 -8.621082999999999871e-03 -1.620284000000000047e-03
4.296000000000000263e+00 -8.551941000000000404e-03 -1.587733999999999934e-03
4.299999999999999822e+00 -8.462511000000000685e-03 -1.557393999999999923e-03
4.304000000000000270e+00 -8.487560999999999370e-03 -1.579415999999999936e-03
4.307999999999999829e+00 -8.582232999999999876e-03 -1.619034000000000098e-03
4.312000000000000277e+00 -8.601081000000000004e-03 -1.621487000000000015e-03
4.315999999999999837e+00 -8.557518999999999543e-03 -1.604177000000000033e-03
4.320000000000000284e+00 -8.533959000000000683e-03 -1.564173999999999990e-03
4.323999999999999844e+00 -8.575502000000000472e-03 -1.546143000000000040e-03
4.328000000000000291e+00 -8.616369999999999932e-03 -1.572924999999999974e-03
4.331999999999999851e+00 -8.586415999999999493e-03 -1.599273000000000014e-03
4.336000000000000298e+00 -8.535737999999999312e-03 -1.606245000000000069e-03
4.339999999999999858e+00 -8.520352999999999608e-03 -1.602927000000000084e-03
4.344000000000000306e+00 -8.563529000000000280e-03 -1.615092000000000047e-03
4.347999999999999865e+00 -8.640748000000000179e-03 -1.632353000000000016e-03
4.352000000000000313e+00 -8.597570000000000559e-03 -1.591771999999999979e-03
4.355999999999999872e+00 -8.473616999999999261e-03 -1.536622999999999982e-03
4.360000000000000320e+00 -8.468810000000000227e-03 -1.539748999999999979e-03
4.363999999999999879e+00 -8.575261000000000688e-03 -1.584319999999999956e-03
4.368000000000000327e+00 -8.636179000000000772e-03 -1.602301999999999893e-03
4.371999999999999886e+00 -8.607089999999999533e-03 -1.583406000000000093e-03
4.376000000000000334e+00 -8.562231000000000009e-03 -1.567875999999999949e-03
4.379999999999999893e+00 -8.545258000000000020e-03 -1.592733999999999947e-03
4.384000000000000341e+00 -8.521458000000000851e-03 -1.583935000000000074e-03
4.387999999999999901e+00 -8.552614999999999523e-03 -1.586291000000000090e-03
4.392000000000000348e+00 -8.587330000000000657e-03 -1.599128999999999915e-03
4.395999999999999908e+00 -8.576606999999999981e-03 -1.597206000000000103e-03
4.400000000000000355e+00 -8.555836000000000691e-03 -1.577636000000000099e-03
4.403999999999999915e+00 -8.555404000000000828e-03 -1.546288000000000046e-03
4.408000000000000362e+00 -8.590887000000000176e-03 -1.554941999999999913e-03
4.411999999999999922e+00 -8.614494000000000318e-03 -1.592108999999999972e-03
4.416000000000000369e+00 -8.610601000000000713e-03 -1.605859999999999970e-03
4.419999999999999929e+00 -8.628726999999999231e-03 -1.631632000000000048e-03
4.424000000000000377e+00 -8.646373000000000600e-03 -1.605667999999999982e-03
4.427999999999999936e+00 -8.607187000000000518e-03 -1.522679999999999997e-03
4.432000000000000384e+00 -8.581992000000000093e-03 -1.536767000000000081e-03
4.435999999999999943e+00 -8.561268999999999824e-03 -1.597445999999999979e-03
4.440000000000000391e+00 -8.551749000000000850e-03 -1.592637999999999953e-03
4.443999999999999950e+00 -8.611370000000000136e-03 -1.590810999999999918e-03
4.448000000000000398e+00 -8.695272000000000417e-03 -1.611821999999999951e-03
4.451999999999999957e+00 -8.702338999999999908e-03 -1.598887999999999915e-03
4.456000000000000405e+00 -8.685943999999999263e-03 -1.586146999999999991e-03
4.459999999999999964e+00 -8.689933999999999853e-03 -1.584511999999999943e-03
4.464000000000000412e+00 -8.685559000000000682e-03 -1.554028999999999957e-03
4.467999999999999972e+00 -8.696328999999999171e-03 -1.522584000000000003e-03
4.472000000000000419e+00 -8.721763999999999906e-03 -1.577587999999999994e-03
4.475999999999999979e+00 -8.735948000000000324e-03 -1.636150999999999968e-03
4.480000000000000426e+00 -8.679933000000000787e-03 -1.582541000000000026e-03
4.483999999999999986e+00 -8.659353999999999316e-03 -1.545998999999999941e-03
4.488000000000000433e+00 -8.734553000000000803e-03 -1.563404000000000009e-03
4.491999999999999993e+00 -8.792779000000000567e-03 -1.575760999999999959e-03
4.496000000000000441e+00 -8.749747000000000427e-03 -1.532680999999999931e-03
4.500000000000000000e+00 -8.741669000000000522e-03 -1.543595000000000036e-03
4.503999999999999559e+00 -8.726427999999999616e-03 -1.573261000000000060e-03
4.508000000000000007e+00 -8.717004000000000419e-03 -1.590473999999999924e-03
4.511999999999999567e+00 -8.717772999999999842e-03 -1.587974000000000026e-03
4.516000000000000014e+00 -8.649834000000000342e-03 -1.547441000000000094e-03
4.519999999999999574e+00 -8.616225999999999399e-03 -1.533017000000000017e-03
4.524000000000000021e+00 -8.649113999999999414e-03 -1.560086999999999932e-03
4.527999999999999581e+00 -8.697770999999999975e-03 -1.572828000000000073e-03
4.532000000000000028e+00 -8.699069999999999719e-03 -1.602974999999999973e-03
4.535999999999999588e+00 -8.658634000000000122e-03 -1.600138000000000081e-03
4.540000000000000036e+00 -8.648729000000000833e-03 -1.580185000000000010e-03
4.543999999999999595e+00 -8.595118000000000549e-03 -1.518351999999999940e-03
4.548000000000000043e+00 -8.509822999999999693e-03 -1.478541000000000100e-03
4.551999999999999602e+00 -8.518862000000000309e-03 -1.542249000000000094e-03
4.556000000000000050e+00 -8.614111000000000684e-03 -1.646200000000000007e-03
4.559999999999999609e+00 -8.575357000000000465e-03 -1.647114000000000087e-03
4.564000000000000057e+00 -8.487704999999999902e-03 -1.562924000000000041e-03
4.567999999999999616e+00 -8.467847000000000568e-03 -1.546913000000000021e-03
4.572000000000000064e+00 -8.505207000000000739e-03 -1.585089000000000029e-03
4.575999999999999623e+00 -8.458135999999999780e-03 -1.554798000000000031e-03
4.580000000000000071e+00 -8.440249999999999836e-03 -1.527343999999999924e-03
4.583999999999999631e+00 -8.455249999999999225e-03 -1.522006999999999917e-03
4.588000000000000078e+00 -8.465923999999999672e-03 -1.517487000000000089e-03
4.591999999999999638e+00 -8.451547999999999700e-03 -1.522824000000000096e-03
4.596000000000000085e+00 -8.472319000000000724e-03 -1.578741999999999949e-03
4.599999999999999645e+00 -8.555596000000000381e-03 -1.609898999999999922e-03
4.604000000000000092e+00 -8.514341999999999397e-03 -1.566817999999999987e-03
4.607999999999999652e+00 -8.400918999999999748e-03 -1.509312999999999974e-03
4.612000000000000099e+00 -8.356636000000000619e-03 -1.524266000000000032e-03
4.615999999999999659e+00 -8.408419999999999783e-03 -1.548017999999999963e-03
4.620000000000000107e+00 -8.457558000000000437e-03 -1.553356000000000094e-03
4.623999999999999666e+00 -8.483763000000000068e-03 -1.557154000000000047e-03
4.628000000000000114e+00 -8.468520999999999688e-03 -1.551288000000000059e-03
4.631999999999999673e+00 -8.484724000000000779e-03 -1.573886000000000035e-03
4.636000000000000121e+00 -8.478233999999999423e-03 -1.571626000000000013e-03
4.639999999999999680e+00 -8.407794999999999158e-03 -1.530324999999999915e-03
4.644000000000000128e+00 -8.387696999999999514e-03 -1.516765999999999904e-03
4.647999999999999687e+00 -8.450442000000000717e-03 -1.540373999999999953e-03
4.652000000000000135e+00 -8.488186999999999469e-03 -1.562346999999999955e-03
4.655999999999999694e+00 -8.465876000000000651e-03 -1.553595999999999970e-03
4.660000000000000142e+00 -8.426546000000000036e-03 -1.518976999999999914e-03
4.663999999999999702e+00 -8.450057999999999875e-03 -1.524987999999999908e-03
4.668000000000000149e+00 -8.503428000000000375e-03 -1.556433000000000079e-03
4.671999999999999709e+00 -8.497561000000000697e-03 -1.551576999999999948e-03
4.676000000000000156e+00 -8.433757999999999533e-03 -1.531479000000000087e-03
4.679999999999999716e+00 -8.377166999999999600e-03 -1.499504999999999935e-03
4.684000000000000163e+00 -8.369425999999999255e-03 -1.487388000000000078e-03
4.687999999999999723e+00 -8.404284999999999187e-03 -1.488542000000000034e-03
4.692000000000000171e+00 -8.464050000000000740e-03 -1.516910000000000003e-03
4.695999999999999730e+00 -8.498043000000000263e-03 -1.535902000000000014e-03
4.700000000000000178e+00 -8.477992000000000167e-03 -1.510707999999999929e-03
4.703999999999999737e+00 -8.455153999999999448e-03 -1.495177000000000095e-03
4.708000000000000185e+00 -8.444336000000000203e-03 -1.518737000000000038e-03
4.711999999999999744e+00 -8.400054000000000548e-03 -1.526767000000000055e-03
4.716000000000000192e+00 -8.433757999999999533e-03 -1.533258000000000017e-03
4.719999999999999751e+00 -8.452365999999999352e-03 -1.522102999999999911e-03
4.724000000000000199e+00 -8.472800000000000817e-03 -1.539893000000000078e-03
4.727999999999999758e+00 -8.489243999999999957e-03 -1.555518999999999999e-03
4.732000000000000206e+00 -8.477609000000000533e-03 -1.505466999999999916e-03
4.735999999999999766e+00 -8.416786000000000753e-03 -1.441133999999999948e-03
4.740000000000000213e+00 -8.353029999999999136e-03 -1.457144999999999968e-03
4.743999999999999773e+00 -8.333461000000000340e-03 -1.483734000000000008e-03
4.748000000000000220e+00 -8.358703999999999787e-03 -1.466328999999999940e-03
4.751999999999999780e+00 -8.446835999999999234e-03 -1.499120000000000053e-03
4.756000000000000227e+00 -8.502611000000000196e-03 -1.538978999999999998e-03
4.759999999999999787e+00 -8.477030999999999455e-03 -1.530565000000000007e-03
4.764000000000000234e+00 -8.360770999999999481e-03 -1.488158000000000059e-03
4.767999999999999794e+00 -8.320190999999999351e-03 -1.455654999999999926e-03
4.772000000000000242e+00 -8.358799999999999564e-03 -1.466906000000000026e-03
4.775999999999999801e+00 -8.395245000000000832e-03 -1.487821000000000065e-03
4.780000000000000249e+00 -8.408274999999999777e-03 -1.508592000000000006e-03
4.783999999999999808e+00 -8.392985000000000376e-03 -1.502197000000000037e-03
4.788000000000000256e+00 -8.428180999999999867e-03 -1.504890000000000047e-03
4.791999999999999815e+00 -8.491359999999999880e-03 -1.553499999999999976e-03
4.796000000000000263e+00 -8.419671000000000100e-03 -1.536286999999999896e-03
4.799999999999999822e+00 -8.291342000000000156e-03 -1.474117999999999956e-03
4.804000000000000270e+00 -8.301631999999999761e-03 -1.481667000000000097e-03
4.807999999999999829e+00 -8.384186999999999543e-03 -1.508880999999999894e-03
4.812000000000000277e+00 -8.399860999999999786e-03 -1.510515000000000035e-03
4.815999999999999837e+00 -8.351588000000000067e-03 -1.484936000000000068e-03
4.820000000000000284e+00 -8.360193999999999612e-03 -1.487435999999999967e-03
4.823999999999999844e+00 -8.406639999999999946e-03 -1.495418000000000094e-03
4.828000000000000291e+00 -8.357164999999999733e-03 -1.461952999999999994e-03
4.831999999999999851e+00 -8.278551999999999786e-03 -1.440557000000000079e-03
4.836000000000000298e+00 -8.323653000000000302e-03 -1.468829000000000055e-03
4.839999999999999858e+00 -8.378752999999999201e-03 -1.474454000000000042e-03
4.844000000000000306e+00 -8.382888999999999272e-03 -1.479503000000000068e-03
4.847999999999999865e+00 -8.371012000000000591e-03 -1.501909000000000056e-03
4.852000000000000313e+00 -8.377983999999999778e-03 -1.519313999999999908e-03
4.855999999999999872e+00 -8.379522999999999833e-03 -1.507342000000000057e-03
4.860000000000000320e+00 -8.368464000000000805e-03 -1.498638999999999961e-03
4.863999999999999879e+00 -8.322882999999999670e-03 -1.473588999999999975e-03
4.868000000000000327e+00 -8.357260999999999510e-03 -1.503254999999999999e-03
4.871999999999999886e+00 -8.402312999999999796e-03 -1.552297999999999916e-03
4.876000000000000334e+00 -8.311199999999999491e-03 -1.499359999999999929e-03
4.879999999999999893e+00 -8.255089000000000177e-03 -1.444692000000000025e-03
4.884000000000000341e+00 -8.357501999999999293e-03 -1.477580000000000039e-03
4.887999999999999901e+00 -8.406593000000000399e-03 -1.503542999999999980e-03
4.892000000000000348e+00 -8.363895999999999137e-03 -1.491186999999999938e-03
4.895999999999999908e+00 -8.320622999999999214e-03 -1.478205000000000014e-03
4.900000000000000355e+00 -8.292495999999999895e-03 -1.472290999999999921e-03
4.903999999999999915e+00 -8.308025999999999606e-03 -1.474791000000000036e-03
4.908000000000000362e+00 -8.364857999999999322e-03 -1.496235000000000056e-03
4.911999999999999922e+00 -8.362358000000000291e-03 -1.499649000000000034e-03
4.916000000000000369e+00 -8.302016000000000603e-03 -1.465799999999999959e-03
4.919999999999999929e+00 -8.305333999999999287e-03 -1.467818999999999981e-03
4.924000000000000377e+00 -8.347211999999999688e-03 -1.476522000000000077e-03
4.927999999999999936e+00 -8.361781000000000422e-03 -1.474262000000000055e-03
4.932000000000000384e+00 -8.353703999999999991e-03 -1.495898999999999970e-03
4.935999999999999943e+00 -8.343895000000000478e-03 -1.506717000000000082e-03
4.940000000000000391e+00 -8.346490999999999286e-03 -1.501284000000000082e-03
4.943999999999999950e+00 -8.339134999999999256e-03 -1.469166000000000048e-03
4.948000000000000398e+00 -8.332644000000000162e-03 -1.451423999999999987e-03
4.951999999999999957e+00 -8.352068000000000686e-03 -1.467482999999999895e-03
4.956000000000000405e+00 -8.391878999999999658e-03 -1.519795000000000000e-03
4.959999999999999964e+00 -8.403802999999999621e-03 -1.537825000000000043e-03
4.964000000000000412e+00 -8.309517000000000639e-03 -1.484550999999999970e-03
4.967999999999999972e+00 -8.280620000000000688e-03 -1.444210999999999932e-03
4.972000000000000419e+00 -8.302978000000000788e-03 -1.485704999999999925e-03
4.975999999999999979e+00 -8.287255999999999789e-03 -1.495851000000000082e-03
4.980000000000000426e+00 -8.239269999999999927e-03 -1.473684999999999969e-03
4.983999999999999986e+00 -8.315141999999999325e-03 -1.482772999999999947e-03
4.988000000000000433e+00 -8.347548999999999247e-03 -1.503446999999999987e-03
4.991999999999999993e+00 -8.303025999999999809e-03 -1.475320000000000017e-03
4.996000000000000441e+00 -8.286966999999999250e-03 -1.473059999999999994e-03
5.000000000000000000e+00 -8.309179999999999344e-03 -1.491860000000000018e-03
5.003999999999999559e+00 -8.339134999999999256e-03 -1.499071999999999948e-03
5.008000000000000007e+00 -8.327787999999999163e-03 -1.462434000000000086e-03
5.011999999999999567e+00 -8.300862000000000865e-03 -1.446711999999999955e-03
5.016000000000000014e+00 -8.301103000000000648e-03 -1.491907999999999906e-03
5.019999999999999574e+00 -8.313844000000000789e-03 -1.510178999999999949e-03
5.024000000000000021e+00 -8.364569000000000518e-03 -1.510466999999999929e-03
5.027999999999999581e+00 -8.349472000000000144e-03 -1.478252999999999902e-03
5.032000000000000028e+00 -8.261579999999999271e-03 -1.442383999999999897e-03
5.035999999999999588e+00 -8.217152999999999610e-03 -1.450846999999999901e-03
5.040000000000000036e+00 -8.293170000000000749e-03 -1.494455999999999909e-03
5.043999999999999595e+00 -8.313555999999999724e-03 -1.486955999999999998e-03
5.048000000000000043e+00 -8.324807000000000040e-03 -1.462867000000000074e-03
5.051999999999999602e+00 -8.335240000000000704e-03 -1.466953999999999914e-03
5.056000000000000050e+00 -8.271340000000000289e-03 -1.470607999999999985e-03
5.059999999999999609e+00 -8.222441999999999945e-03 -1.447481000000000028e-03
5.064000000000000057e+00 -8.293361000000000829e-03 -1.450366000000000025e-03
5.067999999999999616e+00 -8.337933000000000497e-03 -1.488158000000000059e-03
5.072000000000000064e+00 -8.302063999999999624e-03 -1.525276000000000106e-03
5.075999999999999623e+00 -8.266387999999999514e-03 -1.514794000000000080e-03
5.080000000000000071e+00 -8.273022999999999141e-03 -1.469887000000000016e-03
5.083999999999999631e+00 -8.300333000000000017e-03 -1.448250000000000101e-03
5.088000000000000078e+00 -8.333125000000000254e-03 -1.491139000000000049e-03
5.091999999999999638e+00 -8.332595999999999406e-03 -1.532343999999999937e-03
5.096000000000000085e+00 -8.313266999999999185e-03 -1.508304000000000025e-03
5.099999999999999645e+00 -8.310862999999999931e-03 -1.490706000000000062e-03
5.104000000000000092e+00 -8.323604000000000072e-03 -1.475271999999999912e-03
5.107999999999999652e+00 -8.322401999999999578e-03 -1.451664000000000079e-03
5.112000000000000099e+00 -8.320239000000000107e-03 -1.467963999999999988e-03
5.115999999999999659e+00 -8.310767000000000154e-03 -1.490849999999999944e-03
5.120000000000000107e+00 -8.295958000000000845e-03 -1.466281000000000051e-03
5.123999999999999666e+00 -8.334951000000000165e-03 -1.457963000000000054e-03
5.128000000000000114e+00 -8.395725999999999190e-03 -1.479983999999999944e-03
5.131999999999999673e+00 -8.359617999999999216e-03 -1.464260999999999905e-03
5.136000000000000121e+00 -8.301727000000000065e-03 -1.445653999999999993e-03
5.139999999999999680e+00 -8.331730000000000733e-03 -1.465029999999999978e-03
5.144000000000000128e+00 -8.378658000000000633e-03 -1.478541000000000100e-03
5.147999999999999687e+00 -8.401399000000000367e-03 -1.492388999999999999e-03
5.152000000000000135e+00 -8.370531999999999972e-03 -1.505995999999999897e-03
5.155999999999999694e+00 -8.299564000000000594e-03 -1.482627999999999941e-03
5.160000000000000142e+00 -8.231432999999999806e-03 -1.439979999999999993e-03
5.163999999999999702e+00 -8.256098999999999383e-03 -1.437480000000000094e-03
5.168000000000000149e+00 -8.344663999999999901e-03 -1.497677999999999900e-03
5.171999999999999709e+00 -8.330769000000000021e-03 -1.523496999999999959e-03
5.176000000000000156e+00 -8.200036000000000824e-03 -1.502244999999999926e-03
5.179999999999999716e+00 -8.132194000000000575e-03 -1.473300999999999994e-03
5.184000000000000163e+00 -8.183015999999999554e-03 -1.484311000000000094e-03
5.187999999999999723e+00 -8.217297000000000143e-03 -1.484119000000000107e-03
