1.000400e+01 -3.167422e-05 -2.926791e-05 -6.094213e-05 -3.705377e-05
1.000800e+01 -6.185633e-06 -1.563402e-05 -2.181965e-05 -1.208431e-05
1.001200e+01 -1.394669e-05 -2.692868e-06 -1.663956e-05 1.161948e-05
1.001600e+01 -2.313510e-05 -3.676053e-06 -2.681116e-05 8.052241e-06
1.002000e+01 -2.172342e-05 -5.303978e-06 -2.702740e-05 2.995867e-06
1.002400e+01 -2.269643e-05 -3.075188e-05 -5.344831e-05 -4.258462e-05
1.002800e+01 -2.866046e-05 -2.396936e-05 -5.262982e-05 -3.005523e-05
1.003200e+01 -4.981926e-05 -8.277799e-06 -5.809706e-05 -7.367806e-06
1.003600e+01 -7.877657e-05 1.248503e-05 -6.629154e-05 2.672044e-05
1.004000e+01 -7.185275e-05 -4.505701e-06 -7.635845e-05 3.931887e-06
1.004400e+01 -3.078465e-05 -1.263963e-05 -4.342428e-05 -8.738893e-06
1.004800e+01 -1.597350e-05 -1.644588e-05 -3.241939e-05 -9.806695e-06
1.005200e+01 -2.195240e-05 -2.764985e-05 -4.960224e-05 -1.477952e-05
1.005600e+01 -4.525737e-05 -2.568903e-05 -7.094640e-05 -1.510961e-05
1.006000e+01 -6.599094e-05 -2.025951e-05 -8.625045e-05 -1.577432e-05
1.006400e+01 -7.719820e-05 1.182026e-05 -6.537794e-05 2.769500e-05
1.006800e+01 -8.690974e-05 1.724679e-05 -6.966295e-05 3.372005e-05
1.007200e+01 -8.470281e-05 4.910401e-06 -7.979241e-05 6.096039e-06
1.007600e+01 -5.020679e-05 5.140053e-06 -4.506674e-05 -3.631666e-06
1.008000e+01 -7.610340e-05 -2.399477e-06 -7.850288e-05 -1.540382e-05
1.008400e+01 -1.055974e-04 1.138024e-05 -9.421712e-05 5.009145e-06
1.008800e+01 -1.163265e-04 6.324894e-06 -1.100016e-04 -6.795088e-06
1.009200e+01 -1.202728e-04 1.207616e-05 -1.081966e-04 -4.130543e-06
1.009600e+01 -1.369146e-04 2.173442e-05 -1.151802e-04 4.467199e-06
1.010000e+01 -1.536748e-04 3.801766e-05 -1.156571e-04 2.446199e-05
1.010400e+01 -1.761205e-04 9.478041e-06 -1.666425e-04 -2.469769e-05
1.010800e+01 -1.511425e-04 7.571540e-06 -1.435709e-04 -1.928393e-05
1.011200e+01 -1.648294e-04 1.961854e-06 -1.628676e-04 -2.318373e-05
1.011600e+01 -1.821835e-04 -2.314358e-05 -2.053271e-04 -5.971708e-05
1.012000e+01 -1.793413e-04 -1.269450e-05 -1.920358e-04 -3.596274e-05
1.012400e+01 -2.166190e-04 -4.925260e-06 -2.215443e-04 -1.250372e-05
1.012800e+01 -2.169459e-04 8.825935e-06 -2.081200e-04 2.797331e-05
1.013200e+01 -2.130869e-04 9.314480e-06 -2.037724e-04 3.049681e-05
1.013600e+01 -1.896868e-04 1.684927e-06 -1.880018e-04 1.212899e-05
1.014000e+01 -1.560514e-04 -6.890516e-06 -1.629419e-04 -4.048978e-06
1.014400e+01 -1.547558e-04 3.386979e-06 -1.513688e-04 5.157059e-06
1.014800e+01 -1.560110e-04 8.691313e-06 -1.473197e-04 1.276361e-05
1.015200e+01 -1.483777e-04 1.126662e-05 -1.371111e-04 1.569975e-05
1.015600e+01 -1.604218e-04 -1.960022e-06 -1.623819e-04 -1.594402e-05
1.016000e+01 -1.407181e-04 1.738947e-05 -1.233286e-04 1.810488e-05
1.016400e+01 -1.401627e-04 2.444572e-05 -1.157170e-04 2.878383e-05
1.016800e+01 -1.338679e-04 1.754017e-05 -1.163278e-04 1.797719e-05
1.017200e+01 -8.395038e-05 1.161001e-05 -7.234036e-05 5.385734e-06
1.017600e+01 -2.332001e-05 1.216784e-05 -1.115217e-05 -1.575834e-06
1.018000e+01 -1.013276e-05 1.658759e-05 6.454832e-06 -2.761156e-06
1.018400e+01 -4.061854e-06 1.468036e-05 1.061850e-05 -4.102380e-06
1.018800e+01 -8.482961e-06 -4.458289e-06 -1.294125e-05 -3.170718e-05
1.019200e+01 7.144327e-06 -9.030351e-06 -1.886024e-06 -3.038081e-05
1.019600e+01 1.634920e-05 -2.144301e-06 1.420490e-05 -9.268443e-06
1.020000e+01 1.207785e-05 -1.690046e-06 1.038780e-05 6.091498e-06
1.020400e+01 3.001959e-05 2.755226e-06 3.277481e-05 1.717343e-05
1.020800e+01 5.453978e-05 -8.333245e-06 4.620653e-05 -3.747645e-06
1.021200e+01 7.361408e-05 -9.792852e-07 7.263479e-05 1.018889e-05
1.021600e+01 7.472616e-05 6.936287e-06 8.166245e-05 2.982376e-05
1.022000e+01 7.486273e-05 -4.300951e-06 7.056178e-05 8.423187e-06
1.022400e+01 7.198203e-05 -1.223387e-05 5.974816e-05 -6.542901e-06
1.022800e+01 8.180194e-05 -9.761400e-06 7.204054e-05 5.461962e-06
1.023200e+01 8.539942e-05 -2.326267e-06 8.307315e-05 1.430779e-05
1.023600e+01 7.924127e-05 -1.635988e-09 7.923964e-05 1.842336e-05
1.024000e+01 6.581678e-05 -7.941146e-06 5.787563e-05 -2.956746e-07
1.024400e+01 5.117546e-05 -8.320039e-06 4.285542e-05 -2.908984e-06
1.024800e+01 4.342449e-05 -1.025644e-05 3.316805e-05 -1.239785e-07
1.025200e+01 5.877155e-05 -2.525283e-05 3.351873e-05 -2.765771e-05
1.025600e+01 9.195953e-05 -1.371224e-05 7.824729e-05 -3.977913e-06
1.026000e+01 9.561955e-05 1.114306e-05 1.067626e-04 3.884035e-05
1.026400e+01 7.745048e-05 1.149279e-05 8.894326e-05 2.969773e-05
1.026800e+01 6.885066e-05 -2.542624e-06 6.630804e-05 3.082456e-06
1.027200e+01 6.927794e-05 -6.373910e-06 6.290403e-05 -2.646793e-06
1.027600e+01 5.643765e-05 -1.482863e-05 4.160902e-05 -2.177966e-05
1.028000e+01 6.543410e-05 -1.139717e-05 5.403693e-05 -1.734929e-05
1.028400e+01 5.567739e-05 -7.670008e-06 4.800739e-05 -7.924002e-06
1.028800e+01 6.570037e-05 2.885021e-06 6.858540e-05 1.462385e-05
1.029200e+01 6.241091e-05 1.035108e-05 7.276198e-05 2.919950e-05
1.029600e+01 4.454221e-05 8.157772e-06 5.269999e-05 2.485377e-05
1.030000e+01 3.132364e-05 -1.235916e-05 1.896448e-05 -1.097619e-05
1.030400e+01 2.291027e-05 -5.132260e-07 2.239704e-05 3.562406e-06
1.030800e+01 2.330469e-05 4.973801e-06 2.827849e-05 1.369112e-05
1.031200e+01 2.441158e-05 3.683534e-06 2.809511e-05 1.432653e-05
1.031600e+01 4.409711e-05 6.406352e-06 5.050346e-05 1.711315e-05
1.032000e+01 6.002041e-05 5.078022e-06 6.509844e-05 1.059614e-05
1.032400e+01 3.371160e-05 -1.011991e-05 2.359169e-05 -1.904961e-05
1.032800e+01 1.719370e-05 1.047597e-05 2.766967e-05 1.878995e-05
1.033200e+01 1.274643e-06 2.615391e-05 2.742855e-05 4.935612e-05
1.033600e+01 1.880660e-05 9.070744e-06 2.787735e-05 1.614604e-05
1.034000e+01 3.772844e-05 2.323330e-06 4.005177e-05 -3.186979e-07
1.034400e+01 2.179796e-05 -7.118413e-06 1.467955e-05 -1.619657e-05
1.034800e+01 -1.166028e-05 -7.539876e-06 -1.920015e-05 -1.496590e-05
1.035200e+01 1.816896e-07 -3.920490e-06 -3.738801e-06 -4.294957e-06
1.035600e+01 2.661765e-05 -5.047214e-07 2.611293e-05 3.252082e-06
1.036000e+01 4.005535e-05 -1.020775e-07 3.995327e-05 5.912153e-06
1.036400e+01 4.537281e-05 3.409766e-06 4.878257e-05 1.565991e-05
1.036800e+01 2.338109e-05 -2.504157e-05 -1.660477e-06 -3.196649e-05
1.037200e+01 7.088818e-06 -4.798423e-05 -4.089541e-05 -7.653086e-05
1.037600e+01 1.621513e-05 -4.155550e-05 -2.534037e-05 -5.194779e-05
1.038000e+01 2.452192e-05 -1.178967e-05 1.273225e-05 1.054286e-05
1.038400e+01 7.797153e-06 -1.926621e-05 -1.146906e-05 -6.847960e-06
1.038800e+01 6.438497e-06 -2.201024e-05 -1.557174e-05 -1.773058e-05
1.039200e+01 1.893120e-05 -1.102231e-05 7.908894e-06 -9.532462e-07
1.039600e+01 2.708461e-05 -1.331338e-06 2.575327e-05 1.989367e-05
1.040000e+01 1.640371e-05 -1.555865e-05 8.450600e-07 -9.822092e-06
1.040400e+01 2.784298e-05 -1.750811e-05 1.033487e-05 -1.905771e-05
1.040800e+01 3.022041e-05 -1.754589e-05 1.267452e-05 -3.440029e-05
1.041200e+01 2.088714e-05 9.614434e-06 3.050157e-05 7.073033e-06
1.041600e+01 8.646052e-06 3.462381e-05 4.326987e-05 4.650460e-05
1.042000e+01 9.774069e-06 2.829235e-05 3.806642e-05 2.878173e-05
1.042400e+01 2.516757e-05 9.708316e-06 3.487588e-05 -2.228291e-05
1.042800e+01 3.331967e-05 1.241888e-05 4.573855e-05 -1.399403e-05
1.043200e+01 2.873126e-05 2.467889e-05 5.341015e-05 2.896852e-05
1.043600e+01 1.775226e-05 1.557864e-05 3.333090e-05 2.626074e-05
1.044000e+01 2.752912e-05 1.540756e-06 2.906988e-05 -1.093323e-05
1.044400e+01 5.180550e-05 -3.977332e-06 4.782817e-05 -1.864128e-05
1.044800e+01 3.123662e-05 4.959257e-06 3.619588e-05 -3.162585e-06
1.045200e+01 2.240130e-05 1.775484e-05 4.015613e-05 2.431039e-05
1.045600e+01 -1.033512e-05 6.432793e-06 -3.902327e-06 -1.667243e-06
1.046000e+01 -1.192188e-05 -9.784407e-06 -2.170629e-05 -3.738247e-05
1.046400e+01 2.093391e-05 1.801890e-06 2.273580e-05 -1.320618e-05
1.046800e+01 3.646857e-05 1.087626e-05 4.734484e-05 9.459333e-06
1.047200e+01 3.128930e-05 -1.196074e-05 1.932856e-05 -2.923661e-05
1.047600e+01 1.209846e-05 -6.286833e-06 5.811630e-06 -2.054605e-05
1.048000e+01 -1.028429e-06 7.347871e-06 6.319442e-06 2.615622e-06
1.048400e+01 2.945228e-05 1.003901e-05 3.949129e-05 4.344482e-06
1.048800e+01 2.081544e-05 1.584331e-05 3.665875e-05 1.206074e-05
1.049200e+01 -1.031412e-06 1.385173e-05 1.282032e-05 7.053497e-06
1.049600e+01 8.839411e-06 9.979551e-06 1.881896e-05 6.774465e-06
1.050000e+01 2.410707e-05 7.769919e-06 3.187699e-05 7.246567e-06
1.050400e+01 4.587562e-06 9.997678e-06 1.458524e-05 1.169582e-05
1.050800e+01 2.520716e-05 2.195384e-05 4.716100e-05 2.917491e-05
1.051200e+01 3.176759e-05 1.851300e-05 5.028058e-05 2.019532e-05
1.051600e+01 1.666383e-05 -9.395623e-06 7.268208e-06 -3.053670e-05
1.052000e+01 2.396995e-05 -1.545767e-05 8.512277e-06 -3.231514e-05
1.052400e+01 2.107527e-05 -1.331220e-05 7.763070e-06 -2.644134e-05
1.052800e+01 6.516588e-06 -1.532267e-05 -8.806077e-06 -2.962597e-05
1.053200e+01 1.395977e-05 -1.120783e-05 2.751943e-06 -2.007061e-05
1.053600e+01 3.164268e-05 9.692902e-07 3.261197e-05 1.969649e-05
1.054000e+01 7.332651e-06 -4.044469e-06 3.288181e-06 1.501662e-05
1.054400e+01 8.849090e-06 -5.278942e-06 3.570149e-06 6.742971e-06
1.054800e+01 2.250229e-05 -5.782183e-06 1.672011e-05 -2.140728e-06
1.055200e+01 3.599798e-05 5.433192e-06 4.143117e-05 1.939608e-05
1.055600e+01 2.969253e-05 2.133011e-05 5.102264e-05 3.888840e-05
1.056000e+01 -9.045093e-06 2.687777e-05 1.783268e-05 3.053362e-05
1.056400e+01 -1.221447e-05 1.859764e-05 6.383164e-06 3.567705e-06
1.056800e+01 -6.589023e-06 2.429551e-06 -4.159472e-06 -2.561980e-05
1.057200e+01 7.308212e-06 -1.079542e-05 -3.487205e-06 -3.241617e-05
1.057600e+01 2.226076e-05 -6.301037e-06 1.595973e-05 -9.168299e-06
1.058000e+01 3.162921e-05 1.502352e-05 4.665273e-05 3.067614e-05
1.058400e+01 1.056160e-05 9.292688e-06 1.985428e-05 1.057577e-05
1.058800e+01 7.555247e-06 -1.086709e-05 -3.311848e-06 -1.573396e-05
1.059200e+01 2.599153e-05 -2.397798e-05 2.013545e-06 -3.021228e-05
1.059600e+01 4.060064e-05 -3.950254e-05 1.098102e-06 -4.595804e-05
1.060000e+01 2.025786e-05 -3.377037e-05 -1.351251e-05 -3.548921e-05
1.060400e+01 2.880103e-06 -3.982758e-06 -1.102655e-06 2.113747e-05
1.060800e+01 -5.783773e-06 7.505324e-06 1.721551e-06 3.805257e-05
1.061200e+01 1.202401e-05 5.580471e-06 1.760448e-05 3.242255e-05
1.061600e+01 3.482406e-05 2.318899e-06 3.714296e-05 1.874142e-05
1.062000e+01 2.111815e-05 -1.372645e-05 7.391697e-06 -1.851602e-05
1.062400e+01 -4.583953e-06 -1.337679e-05 -1.796074e-05 -3.249821e-05
1.062800e+01 -1.168063e-06 2.265520e-06 1.097457e-06 -8.067988e-06
1.063200e+01 5.856844e-07 1.526598e-06 2.112283e-06 -5.605606e-06
1.063600e+01 6.295349e-06 -6.150932e-06 1.444171e-07 -1.976997e-05
1.064000e+01 -1.284782e-06 -2.221418e-05 -2.349896e-05 -4.507245e-05
1.064400e+01 -3.211150e-06 -1.983773e-05 -2.304888e-05 -2.765514e-05
1.064800e+01 3.923413e-06 -1.122504e-05 -7.301624e-06 1.100373e-05
1.065200e+01 3.296985e-06 -6.394771e-06 -3.097786e-06 3.605388e-05
1.065600e+01 -2.564994e-06 -3.201703e-06 -5.766698e-06 3.960419e-05
1.066000e+01 -3.327994e-06 2.269560e-06 -1.058434e-06 3.888223e-05
1.066400e+01 -3.713404e-06 8.009866e-06 4.296463e-06 4.448251e-05
1.066800e+01 -2.583637e-06 4.884747e-06 2.301110e-06 2.239794e-05
1.067200e+01 -2.669970e-05 -1.552943e-05 -4.222912e-05 -2.380922e-05
1.067600e+01 -1.411678e-05 -2.973920e-06 -1.709070e-05 -4.601719e-06
1.068000e+01 -7.917367e-06 2.564513e-05 1.772776e-05 4.248060e-05
1.068400e+01 -1.293304e-05 2.548348e-05 1.255044e-05 3.271586e-05
1.068800e+01 2.050613e-05 1.564722e-05 3.615335e-05 1.347683e-05
1.069200e+01 4.419464e-06 7.557512e-06 1.197698e-05 7.859558e-07
1.069600e+01 -1.446283e-05 -9.137025e-06 -2.359986e-05 -2.167003e-05
1.070000e+01 -1.119521e-05 -2.259475e-05 -3.378996e-05 -4.254812e-05
1.070400e+01 5.585393e-06 -7.734416e-06 -2.149023e-06 -1.592293e-05
1.070800e+01 -4.198819e-07 -1.259402e-05 -1.301391e-05 -1.840579e-05
1.071200e+01 -2.003215e-05 -3.089478e-05 -5.092693e-05 -5.161130e-05
1.071600e+01 -1.201131e-05 -1.963779e-05 -3.164911e-05 -1.913231e-05
1.072000e+01 1.448617e-05 2.830168e-06 1.731634e-05 3.640086e-05
1.072400e+01 1.364722e-05 4.429636e-06 1.807686e-05 3.940220e-05
1.072800e+01 -6.183632e-06 3.628071e-06 -2.555561e-06 3.021852e-05
1.073200e+01 -8.461422e-06 -2.076543e-07 -8.669076e-06 2.341307e-05
1.073600e+01 -6.667600e-06 -6.255430e-06 -1.292303e-05 1.801411e-05
1.074000e+01 3.984701e-06 3.184779e-06 7.169480e-06 2.658996e-05
1.074400e+01 -1.341711e-05 1.070813e-05 -2.708980e-06 1.978321e-05
1.074800e+01 -6.618134e-05 1.693287e-06 -6.448805e-05 -1.631814e-05
1.075200e+01 -1.057121e-04 -7.380967e-06 -1.130930e-04 -4.931302e-05
1.075600e+01 -9.677382e-05 6.893455e-06 -8.988036e-05 -2.564108e-05
1.076000e+01 -7.271150e-05 2.491655e-05 -4.779495e-05 1.407168e-05
1.076400e+01 -7.818010e-05 2.966382e-05 -4.851628e-05 3.750976e-05
1.076800e+01 -7.342193e-05 1.666643e-05 -5.675549e-05 1.803046e-05
1.077200e+01 -8.558153e-05 1.208810e-05 -7.349343e-05 8.534028e-06
1.077600e+01 -8.769463e-05 1.105975e-05 -7.663489e-05 6.995329e-06
1.078000e+01 -6.840460e-05 6.309180e-06 -6.209542e-05 -6.776607e-06
1.078400e+01 -5.576440e-05 -3.269022e-06 -5.903342e-05 -2.569898e-05
1.078800e+01 -5.037353e-05 -1.734650e-05 -6.772003e-05 -5.564242e-05
1.079200e+01 -2.384194e-05 -8.920501e-06 -3.276244e-05 -3.495749e-05
1.079600e+01 -1.603689e-05 1.096794e-05 -5.068948e-06 1.317061e-05
1.080000e+01 -4.792283e-05 7.944340e-07 -4.712839e-05 -4.850138e-06
1.080400e+01 -3.228660e-05 -3.921105e-06 -3.620770e-05 -4.545856e-06
1.080800e+01 -1.373015e-05 -1.652897e-07 -1.389544e-05 1.915749e-05
1.081200e+01 2.324135e-05 3.072377e-06 2.631372e-05 3.545441e-05
1.081600e+01 2.932985e-05 -1.107036e-05 1.825949e-05 6.911815e-06
1.082000e+01 2.337609e-05 -1.952989e-05 3.846198e-06 -2.125027e-05
1.082400e+01 2.878741e-05 -1.573755e-05 1.304986e-05 -2.867122e-05
1.082800e+01 3.922745e-05 2.897161e-06 4.212461e-05 -6.618473e-06
1.083200e+01 4.042276e-05 1.390698e-05 5.432974e-05 8.335983e-06
1.083600e+01 2.506648e-05 -2.453046e-06 2.261344e-05 -1.576880e-05
1.084000e+01 3.785996e-05 1.061413e-05 4.847408e-05 2.990163e-05
1.084400e+01 4.750761e-05 6.494351e-06 5.400196e-05 3.487104e-05
1.084800e+01 5.392150e-05 -2.214886e-05 3.177264e-05 -1.845961e-05
1.085200e+01 8.758588e-05 -2.540865e-05 6.217723e-05 -3.263478e-05
1.085600e+01 8.016027e-05 -1.025486e-05 6.990541e-05 -9.229262e-06
1.086000e+01 6.657717e-05 -1.703892e-05 4.953825e-05 -1.816657e-05
1.086400e+01 8.392719e-05 -1.102345e-05 7.290374e-05 4.602130e-06
1.086800e+01 8.335872e-05 6.670794e-06 9.002951e-05 4.557379e-05
1.087200e+01 6.146464e-05 1.205245e-05 7.351709e-05 3.958462e-05
1.087600e+01 3.677271e-05 4.541755e-06 4.131447e-05 9.138897e-06
1.088000e+01 3.975737e-05 1.391204e-06 4.114857e-05 8.034503e-06
1.088400e+01 5.286133e-06 -3.478821e-05 -2.950208e-05 -6.172445e-05
1.088800e+01 -1.586492e-05 -3.753769e-05 -5.340261e-05 -6.749626e-05
1.089200e+01 -3.799151e-05 -1.713469e-05 -5.512619e-05 -2.272801e-05
1.089600e+01 -4.614695e-05 -1.255608e-05 -5.870303e-05 -1.387424e-05
1.090000e+01 -5.106887e-05 -3.436743e-06 -5.450561e-05 9.162551e-06
1.090400e+01 -1.250292e-04 7.953033e-06 -1.170761e-04 3.983105e-05
1.090800e+01 -2.813095e-04 -5.101404e-06 -2.864109e-04 1.406837e-05
1.091200e+01 -4.026070e-04 -1.658169e-05 -4.191886e-04 -8.548562e-06
1.091600e+01 -4.318810e-04 -2.758178e-05 -4.594628e-04 -1.603253e-05
1.092000e+01 -2.269154e-04 -1.815564e-05 -2.450710e-04 2.320496e-05
1.092400e+01 4.193014e-05 -5.176253e-07 4.141251e-05 3.424140e-05
1.092800e+01 2.209038e-04 -3.384227e-06 2.175195e-04 -6.833716e-06
1.093200e+01 3.174632e-04 -1.818969e-06 3.156442e-04 -2.096059e-05
1.093600e+01 4.197848e-04 -1.583655e-05 4.039482e-04 -2.277421e-05
1.094000e+01 4.350864e-04 5.697883e-08 4.351433e-04 7.747690e-06
1.094400e+01 3.627057e-04 2.410280e-05 3.868085e-04 4.147843e-05
1.094800e+01 2.954379e-04 4.277216e-05 3.382101e-04 6.172205e-05
1.095200e+01 2.438619e-04 2.413379e-05 2.679957e-04 5.904438e-06
1.095600e+01 1.995594e-04 1.475237e-05 2.143118e-04 -1.120750e-05
1.096000e+01 9.774735e-05 -1.598426e-05 8.176309e-05 -3.495064e-05
1.096400e+01 4.949698e-05 -5.501971e-05 -5.522738e-06 -6.524326e-05
1.096800e+01 3.173456e-05 -1.668441e-05 1.505014e-05 -2.061133e-05
1.097200e+01 3.469061e-05 1.967834e-05 5.436896e-05 2.487537e-06
1.097600e+01 2.246955e-05 1.885081e-05 4.132037e-05 -1.963616e-05
1.098000e+01 -3.663380e-05 5.239667e-06 -3.139413e-05 -3.175543e-05
1.098400e+01 -5.735184e-05 -2.964719e-06 -6.031656e-05 -1.018084e-05
1.098800e+01 -2.352660e-05 6.736592e-06 -1.679001e-05 2.758890e-05
1.099200e+01 3.113014e-05 4.078878e-05 7.191892e-05 7.744969e-05
1.099600e+01 -3.081001e-06 2.653213e-05 2.345112e-05 2.773393e-05
1.100000e+01 -6.156449e-05 1.758779e-05 -4.397670e-05 -1.341715e-05
1.100400e+01 -9.040726e-05 4.770052e-05 -4.270674e-05 1.835610e-05
1.100800e+01 -7.629698e-05 7.535804e-05 -9.389443e-07 4.573582e-05
1.101200e+01 -4.279819e-05 6.854993e-05 2.575174e-05 3.315729e-05
1.101600e+01 -1.979980e-05 4.268495e-05 2.288515e-05 -1.444287e-05
1.102000e+01 -2.882108e-05 2.007053e-05 -8.750558e-06 -4.821265e-05
1.102400e+01 -5.071029e-05 3.868636e-06 -4.684166e-05 -6.544372e-05
1.102800e+01 -2.419334e-05 2.170979e-05 -2.483541e-06 -1.624504e-05
1.103200e+01 -1.079684e-05 2.445899e-05 1.366216e-05 3.128326e-05
1.103600e+01 -3.307780e-06 6.712126e-06 3.404346e-06 1.750028e-05
1.104000e+01 -9.569482e-06 -3.978558e-06 -1.354804e-05 1.742833e-07
1.104400e+01 -2.173342e-05 1.319125e-05 -8.542165e-06 2.225277e-05
1.104800e+01 -2.867265e-05 -3.218044e-06 -3.189070e-05 -9.786245e-06
1.105200e+01 -1.989394e-05 -1.294344e-05 -3.283738e-05 -3.607235e-05
1.105600e+01 -6.837123e-06 -1.479114e-05 -2.162826e-05 -4.072978e-05
1.106000e+01 -9.741286e-06 -8.735395e-07 -1.061483e-05 -1.012985e-05
1.106400e+01 -3.118599e-05 2.639811e-05 -4.787873e-06 3.419698e-05
1.106800e+01 -5.614197e-05 3.551153e-05 -2.063044e-05 4.110056e-05
1.107200e+01 -4.284056e-05 2.685092e-05 -1.598963e-05 3.096013e-05
1.107600e+01 -7.361659e-06 8.952807e-06 1.591148e-06 4.421784e-07
1.108000e+01 -4.661796e-06 -3.158364e-05 -3.624543e-05 -6.579454e-05
1.108400e+01 -1.682799e-05 -4.055979e-05 -5.738778e-05 -7.433412e-05
1.108800e+01 -1.672245e-05 -1.493268e-05 -3.165512e-05 -2.311157e-05
1.109200e+01 -2.035406e-05 1.003306e-05 -1.032101e-05 2.045480e-05
1.109600e+01 -2.995991e-05 2.489711e-05 -5.062795e-06 4.709802e-05
1.110000e+01 -4.407041e-05 1.792258e-05 -2.614783e-05 3.314299e-05
1.110400e+01 -3.701106e-05 -1.669490e-05 -5.370596e-05 -1.115724e-05
1.110800e+01 -2.724278e-05 -5.162350e-05 -7.886628e-05 -4.294974e-05
1.111200e+01 -4.158899e-05 -5.439778e-05 -9.598677e-05 -4.016324e-05
1.111600e+01 -6.683103e-05 -1.971091e-05 -8.654194e-05 1.190838e-05
1.112000e+01 -1.004539e-04 -2.218017e-06 -1.026719e-04 1.701494e-06
1.112400e+01 -1.040957e-04 2.054600e-05 -8.354970e-05 6.666254e-06
1.112800e+01 -1.163141e-04 4.026980e-05 -7.604429e-05 3.054219e-05
1.113200e+01 -1.099841e-04 8.138428e-06 -1.018457e-04 4.442818e-06
1.113600e+01 -7.605885e-05 -7.020839e-06 -8.307969e-05 4.546398e-06
1.114000e+01 -8.501168e-05 -5.743043e-06 -9.075472e-05 1.134711e-05
1.114400e+01 -1.261055e-04 2.446004e-06 -1.236595e-04 7.136400e-07
1.114800e+01 -1.408564e-04 -5.704780e-06 -1.465612e-04 -2.599538e-05
1.115200e+01 -1.328916e-04 1.038776e-06 -1.318529e-04 -2.162207e-05
1.115600e+01 -1.633274e-04 -6.125534e-06 -1.694530e-04 -2.053694e-05
1.116000e+01 -1.629593e-04 5.560200e-06 -1.573991e-04 6.200883e-06
1.116400e+01 -1.330409e-04 2.391413e-05 -1.091267e-04 4.168656e-05
1.116800e+01 -1.254257e-04 1.628963e-05 -1.091360e-04 3.934920e-05
1.117200e+01 -1.586202e-04 7.789124e-06 -1.508311e-04 2.904655e-05
1.117600e+01 -1.757340e-04 -3.495734e-07 -1.760836e-04 1.734025e-06
1.118000e+01 -1.588403e-04 -2.872073e-05 -1.875610e-04 -4.945523e-05
1.118400e+01 -1.386708e-04 -4.583405e-05 -1.845049e-04 -6.292984e-05
1.118800e+01 -1.246665e-04 -2.098152e-05 -1.456480e-04 -3.231696e-06
1.119200e+01 -1.262016e-04 -1.369134e-06 -1.275707e-04 3.105194e-05
1.119600e+01 -1.463759e-04 2.502064e-05 -1.213552e-04 5.762199e-05
1.120000e+01 -1.639323e-04 1.123685e-05 -1.526954e-04 2.110100e-05
1.120400e+01 -1.346766e-04 -2.003079e-05 -1.547074e-04 -3.017870e-05
1.120800e+01 -8.100703e-05 -4.326816e-05 -1.242752e-04 -4.492302e-05
1.121200e+01 -5.924064e-05 -3.896657e-05 -9.820720e-05 -2.335385e-05
1.121600e+01 -6.218972e-05 -2.261882e-05 -8.480854e-05 3.490551e-06
1.122000e+01 -4.347870e-05 1.488219e-05 -2.859651e-05 5.320233e-05
1.122400e+01 -2.952343e-05 4.373052e-05 1.420709e-05 8.516845e-05
1.122800e+01 -4.692769e-05 3.166889e-05 -1.525879e-05 5.523458e-05
1.123200e+01 -1.799904e-05 -1.284573e-05 -3.084478e-05 -2.043782e-05
1.123600e+01 2.405349e-05 -3.391526e-05 -9.861775e-06 -6.371440e-05
1.124000e+01 2.997000e-05 -7.567282e-06 2.240272e-05 -2.345008e-05
1.124400e+01 5.781326e-05 1.020440e-05 6.801766e-05 2.900068e-05
1.124800e+01 8.878527e-05 -3.643291e-06 8.514198e-05 2.619288e-05
1.125200e+01 9.780873e-05 -3.007643e-05 6.773230e-05 -1.883938e-05
1.125600e+01 7.492956e-05 -3.769417e-05 3.723539e-05 -3.677490e-05
1.126000e+01 9.130376e-05 -2.772639e-05 6.357738e-05 -5.140566e-06
1.126400e+01 9.701261e-05 -3.712243e-05 5.989019e-05 -2.080591e-05
1.126800e+01 1.072404e-04 -3.151127e-05 7.572912e-05 -1.919325e-05
1.127200e+01 9.600310e-05 1.762223e-06 9.776532e-05 2.139869e-05
1.127600e+01 9.602695e-05 4.060957e-05 1.366365e-04 8.588009e-05
1.128000e+01 1.003040e-04 5.349894e-05 1.538029e-04 1.020562e-04
1.128400e+01 1.109583e-04 8.207887e-06 1.191662e-04 3.053802e-05
1.128800e+01 1.184566e-04 -5.795921e-05 6.049737e-05 -6.736685e-05
1.129200e+01 1.100027e-04 -6.236180e-05 4.764088e-05 -7.541732e-05
1.129600e+01 9.256933e-05 -3.453247e-05 5.803686e-05 -3.997181e-05
1.130000e+01 9.688796e-05 -2.619868e-05 7.068928e-05 -2.558470e-05
1.130400e+01 1.246063e-04 -1.942392e-05 1.051824e-04 -8.235196e-06
1.130800e+01 1.322787e-04 -1.549838e-05 1.167804e-04 5.377525e-06
1.131200e+01 9.311019e-05 -1.728681e-05 7.582337e-05 1.252361e-05
1.131600e+01 7.718660e-05 -1.446262e-05 6.272398e-05 2.719814e-05
1.132000e+01 6.309374e-05 -7.784722e-06 5.530901e-05 2.429977e-05
1.132400e+01 4.511604e-05 -1.641021e-05 2.870582e-05 -8.198394e-06
1.132800e+01 4.143939e-05 -2.655649e-05 1.488290e-05 -5.068858e-05
1.133200e+01 7.745000e-05 -5.434249e-06 7.201575e-05 -2.842750e-05
1.133600e+01 7.767635e-05 2.829134e-05 1.059677e-04 1.059818e-05
1.134000e+01 7.360445e-05 3.392882e-05 1.075333e-04 -1.156875e-05
1.134400e+01 5.890539e-05 1.000661e-05 6.891201e-05 -4.661687e-05
1.134800e+01 4.372729e-05 1.224759e-05 5.597488e-05 -5.397313e-06
1.135200e+01 7.531492e-06 3.884260e-05 4.637409e-05 6.247713e-05
1.135600e+01 -5.595350e-07 5.208168e-05 5.152214e-05 7.620890e-05
1.136000e+01 1.738670e-05 2.782427e-05 4.521097e-05 1.658371e-05
1.136400e+01 2.121269e-05 -8.890416e-06 1.232227e-05 -6.199801e-05
1.136800e+01 2.610663e-05 -2.075604e-05 5.350592e-06 -6.600947e-05
1.137200e+01 2.560264e-05 -1.142146e-05 1.418118e-05 -2.227211e-05
1.137600e+01 2.812107e-05 1.108185e-06 2.922926e-05 2.377732e-05
1.138000e+01 3.508529e-05 2.445951e-05 5.954480e-05 6.150584e-05
1.138400e+01 1.797963e-05 2.041902e-05 3.839866e-05 3.857724e-05
1.138800e+01 8.471344e-06 2.798391e-07 8.751183e-06 -2.189854e-05
1.139200e+01 1.587883e-05 -3.572469e-06 1.230637e-05 -2.846687e-05
1.139600e+01 1.526679e-05 -6.916251e-06 8.350537e-06 -1.307626e-05
1.140000e+01 3.365554e-05 -1.966828e-05 1.398726e-05 -1.439001e-05
1.140400e+01 1.512918e-05 -1.143553e-05 3.693648e-06 -9.946812e-06
1.140800e+01 -1.728371e-05 1.365914e-05 -3.624577e-06 3.373591e-05
1.141200e+01 -5.126666e-05 2.446489e-05 -2.680177e-05 4.198477e-05
1.141600e+01 -3.148337e-05 2.152393e-05 -9.959436e-06 1.421516e-05
1.142000e+01 5.277719e-06 1.924991e-05 2.452762e-05 4.071966e-06
1.142400e+01 -4.426864e-06 2.201806e-05 1.759119e-05 2.089269e-05
1.142800e+01 2.375955e-06 2.120654e-05 2.358250e-05 2.138252e-05
1.143200e+01 7.096715e-06 1.228630e-05 1.938302e-05 -2.225625e-06
1.143600e+01 1.605755e-05 1.044413e-05 2.650168e-05 -1.989958e-06
1.144000e+01 2.042142e-05 9.350934e-06 2.977235e-05 9.813350e-07
1.144400e+01 1.021589e-05 4.236149e-06 1.445204e-05 -1.300249e-05
1.144800e+01 1.100629e-05 1.413659e-05 2.514288e-05 -3.604196e-06
1.145200e+01 3.974114e-06 2.098593e-05 2.496004e-05 -3.185688e-06
1.145600e+01 1.700544e-05 1.798888e-05 3.499432e-05 -4.879283e-06
1.146000e+01 1.063386e-05 1.062459e-05 2.125846e-05 -2.929663e-06
1.146400e+01 6.398907e-06 2.355010e-05 2.994901e-05 3.254348e-05
1.146800e+01 2.789572e-05 3.177889e-05 5.967461e-05 5.045986e-05
1.147200e+01 3.528879e-05 2.493537e-05 6.022416e-05 4.135758e-05
1.147600e+01 2.190927e-05 -1.330143e-06 2.057913e-05 -6.491866e-06
1.148000e+01 3.628786e-05 -1.247598e-05 2.381188e-05 -2.584175e-05
1.148400e+01 4.658627e-05 1.306836e-05 5.965463e-05 5.942389e-06
1.148800e+01 2.201142e-05 4.164293e-05 6.365435e-05 1.626559e-05
1.149200e+01 5.503442e-06 4.122496e-05 4.672840e-05 -1.176939e-06
1.149600e+01 1.194806e-05 1.053104e-05 2.247910e-05 -4.083613e-05
1.150000e+01 7.854194e-06 -1.095887e-05 -3.104679e-06 -4.893104e-05
1.150400e+01 2.827015e-05 -9.608549e-06 1.866160e-05 -1.192843e-05
1.150800e+01 4.370489e-05 -2.494270e-06 4.121062e-05 1.335069e-05
1.151200e+01 7.421627e-05 -2.193471e-06 7.202280e-05 1.945170e-05
1.151600e+01 7.282348e-05 -2.882646e-05 4.399702e-05 -3.147490e-05
1.152000e+01 9.304567e-05 -3.614472e-05 5.690096e-05 -3.932446e-05
1.152400e+01 8.782189e-05 -1.136915e-06 8.668497e-05 1.960321e-05
1.152800e+01 2.277205e-05 1.306324e-05 3.583529e-05 2.328350e-05
1.153200e+01 1.386745e-05 7.498511e-07 1.461730e-05 -1.435611e-05
1.153600e+01 5.412699e-05 6.009408e-06 6.013640e-05 -2.494850e-06
1.154000e+01 6.593881e-05 2.457790e-05 9.051671e-05 3.825576e-05
1.154400e+01 6.146850e-05 2.328573e-05 8.475423e-05 2.719464e-05
1.154800e+01 4.475440e-05 1.335652e-05 5.811092e-05 4.771488e-06
1.155200e+01 5.950902e-06 -1.740827e-05 -1.145736e-05 -5.498858e-05
1.155600e+01 1.583066e-05 -2.948934e-05 -1.365867e-05 -7.052402e-05
1.156000e+01 1.627994e-05 -7.426234e-06 8.853710e-06 -3.734838e-05
1.156400e+01 8.175368e-06 1.929446e-05 2.746983e-05 4.019407e-06
1.156800e+01 1.729517e-05 8.125435e-06 2.542060e-05 -1.136115e-05
1.157200e+01 2.910575e-05 -1.792729e-05 1.117846e-05 -3.620622e-05
1.157600e+01 5.113704e-05 -2.602508e-05 2.511195e-05 -2.101140e-05
1.158000e+01 4.638226e-05 -3.133033e-05 1.505193e-05 -2.290774e-05
1.158400e+01 6.220169e-05 -1.798248e-05 4.421921e-05 1.960365e-06
1.158800e+01 5.958335e-05 -1.587298e-05 4.371038e-05 -1.613404e-06
1.159200e+01 5.158104e-05 -1.463246e-05 3.694858e-05 6.152263e-06
1.159600e+01 2.930013e-05 -4.770454e-06 2.452968e-05 2.630466e-05
1.160000e+01 1.894424e-05 4.962995e-06 2.390724e-05 2.430678e-05
1.160400e+01 9.696380e-06 1.279986e-05 2.249624e-05 1.422108e-05
1.160800e+01 2.048151e-05 3.346667e-06 2.382818e-05 -6.005511e-06
1.161200e+01 6.103247e-05 1.674367e-06 6.270684e-05 1.184348e-05
1.161600e+01 4.848050e-05 -3.751336e-06 4.472916e-05 -3.059679e-07
1.162000e+01 3.354619e-05 -1.151220e-05 2.203399e-05 -2.336069e-05
1.162400e+01 4.572561e-05 -1.267602e-05 3.304960e-05 -1.640588e-05
1.162800e+01 6.490660e-05 -4.382876e-06 6.052373e-05 2.550109e-05
1.163200e+01 6.399030e-05 -1.523888e-05 4.875141e-05 8.679634e-06
1.163600e+01 4.754936e-05 -2.606953e-05 2.147983e-05 -3.215683e-05
1.164000e+01 4.406291e-05 -1.724730e-05 2.681561e-05 -4.703306e-06
1.164400e+01 2.834900e-05 -1.564414e-05 1.270486e-05 1.703080e-05
1.164800e+01 2.306011e-05 -2.620143e-05 -3.141324e-06 1.081393e-05
1.165200e+01 3.828330e-05 -3.027095e-05 8.012352e-06 -7.744555e-06
1.165600e+01 3.896093e-05 -2.159787e-05 1.736306e-05 1.681769e-06
1.166000e+01 4.897049e-05 -7.439206e-06 4.153128e-05 1.833573e-05
1.166400e+01 4.279703e-05 -5.966002e-06 3.683103e-05 -9.185615e-07
1.166800e+01 3.408005e-05 1.241927e-06 3.532198e-05 -1.143563e-06
1.167200e+01 3.593680e-05 4.806947e-06 4.074375e-05 9.946993e-06
1.167600e+01 3.234386e-05 9.339257e-06 4.168312e-05 2.781895e-05
1.168000e+01 1.386631e-05 1.005497e-05 2.392128e-05 2.290915e-05
1.168400e+01 2.597639e-05 1.145304e-06 2.712169e-05 -5.067593e-06
1.168800e+01 4.315693e-05 5.476093e-06 4.863302e-05 1.488462e-06
1.169200e+01 3.192868e-05 1.822637e-06 3.375132e-05 -7.622901e-06
1.169600e+01 2.118127e-05 -6.962696e-06 1.421857e-05 -1.229582e-05
1.170000e+01 8.599224e-06 -1.031027e-05 -1.711050e-06 2.957979e-07
1.170400e+01 2.886873e-05 -4.613018e-06 2.425571e-05 5.802181e-06
1.170800e+01 3.779120e-05 -2.628145e-07 3.752838e-05 1.047591e-05
1.171200e+01 1.579945e-05 -1.323732e-05 2.562129e-06 -1.969922e-05
1.171600e+01 2.751565e-05 -1.507925e-05 1.243641e-05 -1.803899e-05
1.172000e+01 6.080555e-06 -8.927781e-06 -2.847226e-06 -8.319032e-06
1.172400e+01 1.245305e-05 -8.747097e-06 3.705952e-06 4.296046e-07
1.172800e+01 1.940996e-06 -2.078149e-05 -1.884050e-05 -1.839374e-05
1.173200e+01 1.965192e-05 -1.002025e-05 9.631674e-06 6.380185e-06
1.173600e+01 1.467340e-05 6.631226e-06 2.130463e-05 2.258885e-05
1.174000e+01 5.146222e-06 1.476927e-05 1.991549e-05 2.331548e-05
1.174400e+01 2.898444e-06 1.387402e-05 1.677247e-05 1.420300e-05
1.174800e+01 2.681981e-05 1.506840e-05 4.188820e-05 1.588632e-05
1.175200e+01 2.693889e-05 2.449224e-05 5.143113e-05 3.930604e-05
1.175600e+01 -2.283221e-05 3.336964e-05 1.053744e-05 5.378342e-05
1.176000e+01 -5.538861e-05 2.101763e-05 -3.437099e-05 1.786739e-05
1.176400e+01 -4.601460e-05 -7.058592e-06 -5.307320e-05 -3.849789e-05
1.176800e+01 -3.633902e-05 -1.557249e-05 -5.191150e-05 -5.292928e-05
1.177200e+01 -3.836450e-05 6.033173e-06 -3.233133e-05 -5.644716e-06
1.177600e+01 -4.068261e-05 1.098420e-05 -2.969840e-05 1.320288e-07
1.178000e+01 -5.441072e-05 3.360857e-06 -5.104986e-05 -2.099879e-06
1.178400e+01 -9.907896e-05 -4.423462e-06 -1.035024e-04 -4.385393e-06
1.178800e+01 -1.242938e-04 -1.736041e-05 -1.416542e-04 -2.569874e-05
1.179200e+01 -9.777098e-05 -2.248179e-05 -1.202528e-04 -3.216193e-05
1.179600e+01 -3.561568e-05 -4.592993e-06 -4.020867e-05 1.558752e-05
1.180000e+01 -3.826533e-05 -8.567434e-06 -4.683276e-05 1.622168e-05
1.180400e+01 -4.045114e-05 -3.053658e-05 -7.098773e-05 -2.319269e-05
1.180800e+01 -3.476623e-05 -3.356422e-05 -6.833045e-05 -3.755041e-05
1.181200e+01 -2.819923e-05 -1.272626e-05 -4.092549e-05 -1.517279e-07
1.181600e+01 -3.746824e-05 3.687637e-06 -3.378060e-05 2.685791e-05
1.182000e+01 -5.067537e-05 6.197082e-06 -4.447829e-05 3.446833e-05
1.182400e+01 -4.077798e-05 2.974313e-07 -4.048055e-05 2.923807e-05
1.182800e+01 -1.232033e-05 -7.596141e-06 -1.991647e-05 4.080405e-06
1.183200e+01 3.210101e-05 8.879838e-06 4.098085e-05 1.387987e-05
1.183600e+01 6.248006e-05 2.109327e-05 8.357334e-05 3.678902e-05
1.184000e+01 4.889445e-05 9.040796e-07 4.979853e-05 9.784528e-07
1.184400e+01 3.279462e-05 -1.833735e-05 1.445727e-05 -4.138547e-05
1.184800e+01 2.803326e-05 -1.443718e-05 1.359608e-05 -4.018310e-05
1.185200e+01 1.192534e-05 -7.033041e-06 4.892297e-06 -3.075599e-05
1.185600e+01 1.496031e-05 -4.239588e-06 1.072073e-05 -2.604862e-05
1.186000e+01 3.846589e-05 -5.038472e-06 3.342742e-05 -7.186929e-06
1.186400e+01 4.102343e-05 -8.232742e-06 3.279069e-05 6.845151e-06
1.186800e+01 3.174141e-05 1.242238e-06 3.298364e-05 2.825349e-05
1.187200e+01 3.364339e-06 4.320448e-06 7.684786e-06 1.843748e-05
1.187600e+01 -6.940580e-06 -4.326915e-06 -1.126750e-05 3.218456e-06
1.188000e+01 2.729156e-05 -3.428056e-06 2.386350e-05 1.265868e-05
1.188400e+01 4.739581e-05 -4.532896e-06 4.286291e-05 1.103904e-05
1.188800e+01 3.753551e-06 -1.376627e-06 2.376925e-06 9.492575e-06
1.189200e+01 -3.854087e-05 -2.650868e-06 -4.119174e-05 -6.899869e-06
1.189600e+01 -2.288939e-05 5.029421e-06 -1.785997e-05 1.397429e-05
1.190000e+01 -4.394062e-06 2.018828e-05 1.579422e-05 4.463608e-05
1.190400e+01 -5.592260e-05 1.832227e-05 -3.760034e-05 2.851959e-05
1.190800e+01 -1.139018e-04 -1.402576e-05 -1.279275e-04 -5.998664e-05
1.191200e+01 -5.738505e-05 -3.260753e-05 -8.999258e-05 -8.378739e-05
1.191600e+01 -5.243157e-05 -3.254701e-05 -8.497858e-05 -5.579973e-05
1.192000e+01 -1.625338e-04 -2.326964e-05 -1.858034e-04 -3.297797e-05
1.192400e+01 -3.434880e-04 -1.305665e-05 -3.565446e-04 -2.819426e-05
1.192800e+01 -4.718872e-04 6.075882e-06 -4.658113e-04 3.179696e-06
1.193200e+01 -4.625721e-04 1.335911e-05 -4.492130e-04 2.409826e-05
1.193600e+01 -2.150619e-04 7.221738e-06 -2.078402e-04 2.197624e-05
1.194000e+01 4.296745e-05 7.028711e-06 4.999616e-05 1.943000e-05
1.194400e+01 1.597466e-04 5.617694e-06 1.653643e-04 8.536078e-07
1.194800e+01 2.363283e-04 3.312848e-05 2.694568e-04 4.086954e-05
1.195200e+01 2.924883e-04 5.114348e-05 3.436318e-04 5.316544e-05
1.195600e+01 2.621632e-04 4.403338e-05 3.061966e-04 1.263271e-05
1.196000e+01 1.911574e-04 1.838166e-05 2.095390e-04 -3.762341e-05
1.196400e+01 1.874161e-04 1.834198e-05 2.057581e-04 -1.272858e-05
1.196800e+01 1.797847e-04 4.709546e-05 2.268802e-04 5.097337e-05
1.197200e+01 7.677007e-05 6.987039e-05 1.466405e-04 7.366596e-05
1.197600e+01 -4.263469e-05 5.239380e-05 9.759112e-06 4.821842e-05
1.198000e+01 -7.110813e-05 -1.014226e-05 -8.125039e-05 -2.398787e-05
1.198400e+01 -3.688333e-05 -4.780915e-05 -8.469249e-05 -6.633571e-05
1.198800e+01 2.106781e-05 -3.034523e-05 -9.277419e-06 -4.275480e-05
1.199200e+01 -2.450823e-05 -3.447581e-06 -2.795581e-05 -2.439422e-05
1.199600e+01 -1.082555e-04 3.067897e-06 -1.051876e-04 -1.329472e-05
1.200000e+01 -1.446689e-04 7.718389e-06 -1.369505e-04 5.227610e-06
1.200400e+01 -1.246786e-04 2.644154e-05 -9.823703e-05 2.145502e-05
1.200800e+01 -9.663593e-05 7.741056e-05 -1.922537e-05 7.890993e-05
1.201200e+01 -1.356081e-04 7.002420e-05 -6.558392e-05 6.226684e-05
1.201600e+01 -1.662785e-04 -2.225206e-05 -1.885305e-04 -7.428689e-05
1.202000e+01 -1.210175e-04 -5.215402e-05 -1.731715e-04 -1.102135e-04
1.202400e+01 -8.129460e-05 -6.212819e-06 -8.750742e-05 -2.150334e-05
1.202800e+01 -6.554650e-05 1.528299e-05 -5.026351e-05 2.221675e-05
1.203200e+01 -8.043226e-05 -1.819877e-06 -8.225213e-05 3.723752e-07
1.203600e+01 -1.268001e-04 -7.574618e-06 -1.343747e-04 -2.071961e-06
1.204000e+01 -1.633870e-04 3.366961e-05 -1.297174e-04 4.761840e-05
1.204400e+01 -1.750834e-04 7.984329e-05 -9.524011e-05 1.011754e-04
1.204800e+01 -1.443173e-04 4.442125e-05 -9.989605e-05 5.779837e-05
1.205200e+01 -1.161433e-04 -2.226567e-05 -1.384089e-04 -3.420240e-05
1.205600e+01 -1.085626e-04 -5.601936e-05 -1.645820e-04 -7.343810e-05
1.206000e+01 -1.127261e-04 -4.389228e-05 -1.566184e-04 -5.943527e-05
1.206400e+01 -1.174289e-04 -7.888129e-06 -1.253171e-04 -2.633131e-05
1.206800e+01 -1.118157e-04 2.031013e-05 -9.150557e-05 1.970317e-06
1.207200e+01 -1.278977e-04 3.121742e-05 -9.668033e-05 1.644904e-05
1.207600e+01 -1.439421e-04 4.642399e-05 -9.751815e-05 5.346710e-05
1.208000e+01 -1.437740e-04 5.321612e-05 -9.055789e-05 8.265610e-05
1.208400e+01 -1.388727e-04 4.796700e-05 -9.090568e-05 6.915265e-05
1.208800e+01 -1.589805e-04 1.037792e-05 -1.486026e-04 -1.391798e-05
1.209200e+01 -1.790025e-04 -1.347486e-05 -1.924773e-04 -6.896499e-05
1.209600e+01 -1.966416e-04 -1.020213e-05 -2.068438e-04 -7.651055e-05
1.210000e+01 -2.022178e-04 -5.471290e-06 -2.076891e-04 -6.735189e-05
1.210400e+01 -1.826567e-04 1.516827e-05 -1.674884e-04 -1.170117e-05
1.210800e+01 -1.450794e-04 1.751955e-05 -1.275598e-04 2.226313e-05
1.211200e+01 -1.215594e-04 -6.988382e-06 -1.285478e-04 1.839257e-05
1.211600e+01 -1.536668e-04 -3.495447e-05 -1.886213e-04 -1.467845e-05
1.212000e+01 -1.883394e-04 -4.743645e-05 -2.357758e-04 -3.300876e-05
1.212400e+01 -1.725391e-04 -3.371765e-05 -2.062567e-04 7.459004e-06
1.212800e+01 -1.537264e-04 -3.653049e-05 -1.902569e-04 1.310108e-05
1.213200e+01 -1.466766e-04 -3.596602e-05 -1.826426e-04 3.193420e-06
1.213600e+01 -1.882153e-04 -2.770546e-05 -2.159208e-04 -1.518699e-05
1.214000e+01 -1.965246e-04 6.964500e-06 -1.895601e-04 1.089893e-07
1.214400e+01 -2.177915e-04 2.149704e-06 -2.156418e-04 -3.396730e-05
1.214800e+01 -2.212533e-04 4.572839e-06 -2.166804e-04 -2.336196e-05
1.215200e+01 -2.309788e-04 3.376382e-05 -1.972150e-04 2.867532e-05
1.215600e+01 -2.415843e-04 6.241060e-05 -1.791737e-04 6.932741e-05
1.216000e+01 -2.529503e-04 4.283237e-05 -2.101179e-04 3.539314e-05
1.216400e+01 -2.568068e-04 2.233317e-05 -2.344736e-04 7.207543e-06
1.216800e+01 -2.811112e-04 1.991338e-05 -2.611978e-04 1.120495e-05
1.217200e+01 -3.047221e-04 1.685693e-05 -2.878651e-04 6.362740e-06
1.217600e+01 -2.822209e-04 1.601548e-07 -2.820607e-04 -2.608641e-05
1.218000e+01 -2.265810e-04 -1.538415e-05 -2.419651e-04 -4.539112e-05
1.218400e+01 -2.284761e-04 -8.774892e-06 -2.372510e-04 -1.772794e-05
1.218800e+01 -2.580786e-04 -2.829629e-06 -2.609082e-04 -1.947539e-06
1.219200e+01 -2.599475e-04 -5.418908e-06 -2.653665e-04 8.318616e-06
1.219600e+01 -2.615552e-04 -6.035651e-07 -2.621587e-04 1.689965e-05
1.220000e+01 -2.766690e-04 -4.607090e-06 -2.812761e-04 2.187373e-07
1.220400e+01 -2.439065e-04 -6.832614e-06 -2.507392e-04 4.900352e-06
1.220800e+01 -2.166844e-04 -7.401870e-07 -2.174245e-04 3.104481e-05
1.221200e+01 -1.934386e-04 1.641793e-05 -1.770206e-04 7.815157e-05
1.221600e+01 -2.312695e-04 2.044840e-05 -2.108211e-04 3.779930e-05
1.222000e+01 -2.427111e-04 2.475657e-05 -2.179546e-04 -6.276724e-06
1.222400e+01 -2.244463e-04 1.726158e-05 -2.071847e-04 -2.427041e-05
1.222800e+01 -2.186142e-04 -3.346884e-06 -2.219611e-04 -5.302245e-05
1.223200e+01 -1.785966e-04 -4.596512e-06 -1.831932e-04 -3.633637e-05
1.223600e+01 -1.315619e-04 5.569066e-06 -1.259929e-04 9.343238e-06
1.224000e+01 -9.813877e-05 1.294541e-05 -8.519336e-05 5.487856e-05
1.224400e+01 -9.546850e-05 1.192878e-05 -8.353971e-05 5.070032e-05
1.224800e+01 -9.801004e-05 7.354442e-06 -9.065560e-05 2.352292e-05
1.225200e+01 -7.246324e-05 -3.956371e-06 -7.641961e-05 -1.761963e-05
1.225600e+01 -7.144544e-06 -5.628880e-06 -1.277342e-05 -1.362466e-05
1.226000e+01 -3.115095e-05 -1.940695e-06 -3.309164e-05 -2.540925e-05
1.226400e+01 -5.512209e-05 -9.064662e-06 -6.418675e-05 -5.417869e-05
1.226800e+01 -3.472029e-05 -1.374497e-05 -4.846527e-05 -4.653783e-05
1.227200e+01 -2.947758e-05 -9.621088e-06 -3.909867e-05 -3.447870e-05
1.227600e+01 -3.198765e-05 -4.423854e-06 -3.641150e-05 -3.021931e-05
1.228000e+01 -1.378224e-05 6.731989e-06 -7.050253e-06 4.750924e-06
1.228400e+01 5.040841e-06 1.108986e-05 1.613071e-05 2.358343e-05
1.228800e+01 -8.178284e-06 1.181884e-05 3.640553e-06 2.267080e-05
1.229200e+01 -1.167122e-05 1.587345e-05 4.202225e-06 2.864628e-05
1.229600e+01 -5.703451e-06 2.429433e-05 1.859088e-05 3.926806e-05
1.230000e+01 -1.299614e-05 2.126234e-05 8.266200e-06 2.336690e-05
1.230400e+01 -2.307249e-05 7.575822e-06 -1.549667e-05 -1.253043e-05
1.230800e+01 3.938039e-06 -1.159276e-06 2.778763e-06 -3.019420e-05
1.231200e+01 6.198125e-05 5.746071e-06 6.772732e-05 8.880153e-06
1.231600e+01 8.336513e-05 2.477632e-05 1.081414e-04 6.091791e-05
1.232000e+01 5.310106e-05 2.011776e-05 7.321882e-05 2.089937e-05
1.232400e+01 1.773540e-05 -3.342227e-06 1.439318e-05 -4.911620e-05
1.232800e+01 9.668186e-06 -2.092571e-05 -1.125752e-05 -6.885942e-05
1.233200e+01 -3.595040e-06 -2.303646e-05 -2.663150e-05 -5.938676e-05
1.233600e+01 -6.164033e-06 -1.791308e-05 -2.407711e-05 -3.420499e-05
1.234000e+01 1.477307e-05 -1.561266e-05 -8.395868e-07 2.066884e-06
1.234400e+01 2.267565e-05 -2.009005e-05 2.585601e-06 9.358901e-06
1.234800e+01 -5.654154e-06 -1.665800e-05 -2.231215e-05 1.045494e-05
1.235200e+01 -2.093680e-05 -8.037020e-06 -2.897382e-05 1.741526e-05
1.235600e+01 5.143228e-06 -5.573708e-06 -4.304808e-07 1.343619e-05
1.236000e+01 1.488737e-05 -2.215648e-06 1.267172e-05 3.277295e-06
1.236400e+01 1.181425e-05 1.209075e-05 2.390501e-05 4.770428e-05
1.236800e+01 8.845801e-06 2.776096e-05 3.660676e-05 8.718832e-05
1.237200e+01 -2.214429e-05 2.272070e-05 5.764139e-07 4.239952e-05
1.237600e+01 -3.169897e-05 -2.905982e-06 -3.460495e-05 -6.028756e-05
1.238000e+01 -1.059468e-05 -2.479606e-05 -3.539073e-05 -1.102863e-04
1.238400e+01 -1.064477e-05 -3.493948e-05 -4.558425e-05 -8.608471e-05
1.238800e+01 -1.870281e-05 -4.510347e-05 -6.380628e-05 -8.571162e-05
1.239200e+01 1.907643e-05 -3.621641e-05 -1.713998e-05 -3.413415e-05
1.239600e+01 6.498150e-05 -1.654658e-05 4.843493e-05 6.542402e-05
1.240000e+01 7.519061e-05 -5.840156e-06 6.935046e-05 1.304751e-04
1.240400e+01 3.916875e-05 -2.047461e-05 1.869414e-05 6.537754e-05
1.240800e+01 -2.520081e-06 -3.113969e-05 -3.365977e-05 -3.755848e-06
1.241200e+01 2.342349e-06 -2.654949e-05 -2.420714e-05 -7.286728e-06
1.241600e+01 -1.728764e-05 -1.251284e-05 -2.980048e-05 -9.549696e-06
1.242000e+01 -4.302833e-05 6.397255e-06 -3.663108e-05 -4.558385e-08
1.242400e+01 -4.676761e-05 1.722188e-05 -2.954573e-05 -1.780615e-06
1.242800e+01 -7.013725e-05 1.127815e-05 -5.885910e-05 -3.268222e-05
1.243200e+01 -6.659120e-05 1.195586e-06 -6.539562e-05 -5.110051e-05
1.243600e+01 -9.638536e-06 1.251370e-05 2.875162e-06 2.377301e-05
1.244000e+01 1.930915e-05 2.354358e-05 4.285273e-05 9.105341e-05
1.244400e+01 -5.488374e-06 2.376880e-05 1.828043e-05 6.873233e-05
1.244800e+01 -4.548754e-05 4.411175e-06 -4.107636e-05 -1.978773e-05
1.245200e+01 -2.659291e-05 -1.671277e-05 -4.330567e-05 -8.189289e-05
1.245600e+01 2.676185e-05 -1.318295e-05 1.357890e-05 -3.594026e-05
1.246000e+01 1.016408e-05 -8.674329e-06 1.489747e-06 3.685506e-06
1.246400e+01 -2.429922e-05 -1.170622e-05 -3.600544e-05 9.026464e-06
1.246800e+01 -1.788197e-05 -5.810751e-06 -2.369272e-05 3.103294e-05
1.247200e+01 4.395348e-06 1.155648e-05 1.595183e-05 5.360450e-05
1.247600e+01 8.033252e-06 1.883449e-05 2.686775e-05 4.012490e-05
1.248000e+01 4.676161e-05 1.467249e-05 6.143410e-05 2.146740e-05
1.248400e+01 5.658612e-05 1.687447e-06 5.827357e-05 -1.570957e-05
1.248800e+01 2.133199e-05 -4.539413e-06 1.679258e-05 -5.648094e-05
1.249200e+01 -3.795671e-05 -4.436533e-06 -4.239325e-05 -8.690519e-05
1.249600e+01 -3.267108e-05 3.367072e-06 -2.930401e-05 -4.519093e-05
1.250000e+01 -1.543046e-05 1.480314e-06 -1.395015e-05 -1.335359e-05
1.250400e+01 -1.370674e-05 -3.258398e-06 -1.696514e-05 -1.576732e-05
1.250800e+01 1.999443e-06 6.028764e-06 8.028207e-06 4.300648e-06
1.251200e+01 2.354767e-05 1.784829e-05 4.139596e-05 3.946512e-05
1.251600e+01 2.255793e-06 1.476104e-05 1.701683e-05 2.811097e-05
1.252000e+01 -3.462859e-06 1.430171e-05 1.083885e-05 2.365984e-05
1.252400e+01 -4.643899e-06 1.776211e-05 1.311821e-05 1.608817e-05
1.252800e+01 -1.625988e-06 1.784849e-05 1.622251e-05 6.395066e-06
1.253200e+01 -1.526909e-05 4.430231e-06 -1.083885e-05 -4.236786e-05
1.253600e+01 6.569111e-06 -5.749888e-06 8.192229e-07 -6.312289e-05
1.254000e+01 6.376002e-06 -4.955103e-08 6.326451e-06 -3.104317e-05
1.254400e+01 -2.242710e-06 1.341706e-05 1.117435e-05 1.571293e-05
1.254800e+01 -1.038552e-05 2.037589e-05 9.990371e-06 2.013497e-05
1.255200e+01 1.296382e-05 1.885652e-05 3.182034e-05 3.228614e-05
1.255600e+01 3.840970e-05 1.605851e-05 5.446820e-05 4.178652e-05
1.256000e+01 4.760018e-05 1.440468e-05 6.200486e-05 3.509681e-05
1.256400e+01 2.584397e-05 1.427397e-05 4.011794e-05 9.794398e-06
1.256800e+01 9.863709e-06 7.880354e-06 1.774406e-05 -1.525065e-05
1.257200e+01 1.738200e-05 -4.021943e-06 1.336006e-05 -4.173653e-05
1.257600e+01 2.397637e-05 -4.332269e-06 1.964410e-05 -2.711011e-05
1.258000e+01 1.923347e-05 -6.597210e-06 1.263626e-05 -1.747698e-05
1.258400e+01 8.501800e-06 -1.499750e-05 -6.495702e-06 -3.321531e-05
1.258800e+01 2.729528e-05 -1.707189e-05 1.022339e-05 -2.061715e-05
1.259200e+01 5.947795e-05 -5.840789e-06 5.363716e-05 4.165773e-05
1.259600e+01 5.840414e-05 -9.950034e-06 4.845411e-05 3.657724e-05
1.260000e+01 1.568817e-05 -2.605215e-05 -1.036398e-05 -1.859573e-05
1.260400e+01 -3.192211e-06 -2.451727e-05 -2.770948e-05 -2.842223e-05
1.260800e+01 2.266339e-05 -1.185938e-05 1.080402e-05 2.234051e-05
1.261200e+01 3.136468e-05 -4.362200e-06 2.700248e-05 4.792496e-05
1.261600e+01 3.546796e-05 -5.605440e-06 2.986252e-05 2.045645e-05
1.262000e+01 3.268408e-05 -1.663097e-05 1.605311e-05 -3.305902e-05
1.262400e+01 5.227855e-05 -1.539297e-05 3.688558e-05 -3.072441e-05
1.262800e+01 4.450103e-05 1.433141e-06 4.593418e-05 3.191939e-06
1.263200e+01 2.390151e-05 2.253362e-05 4.643513e-05 4.589114e-05
1.263600e+01 -3.797093e-06 1.218306e-05 8.385971e-06 1.171103e-05
1.264000e+01 6.201872e-06 -2.626258e-06 3.575613e-06 -1.488705e-05
1.264400e+01 4.023384e-05 3.766873e-06 4.400071e-05 2.504556e-05
1.264800e+01 5.047027e-05 1.193449e-05 6.240475e-05 4.245863e-05
1.265200e+01 4.819881e-05 1.239900e-05 6.059782e-05 3.729513e-05
1.265600e+01 4.245551e-05 1.275990e-05 5.521541e-05 4.318326e-05
1.266000e+01 2.597255e-05 1.007262e-05 3.604516e-05 1.657843e-05
1.266400e+01 -8.151509e-06 7.005265e-07 -7.450982e-06 -4.648391e-05
1.266800e+01 -2.353767e-05 4.362833e-06 -1.917484e-05 -4.698487e-05
1.267200e+01 -1.556741e-05 1.465072e-05 -9.166905e-07 1.342849e-05
1.267600e+01 -1.092211e-05 8.405032e-06 -2.517075e-06 2.012037e-05
1.268000e+01 2.350517e-05 -3.022803e-06 2.048237e-05 -1.546998e-05
1.268400e+01 6.137453e-05 -1.043873e-05 5.093580e-05 -4.955351e-05
1.268800e+01 6.749659e-05 3.583417e-07 6.785493e-05 -9.111988e-06
1.269200e+01 4.524214e-05 -3.755579e-06 4.148656e-05 -4.139644e-06
1.269600e+01 2.359472e-05 -2.311178e-05 4.829414e-07 -2.970485e-05
1.270000e+01 -3.874920e-06 -3.630403e-05 -4.017895e-05 -4.237335e-05
1.270400e+01 2.632181e-05 -2.070223e-05 5.619581e-06 1.524232e-05
1.270800e+01 6.211447e-05 -1.931791e-06 6.018268e-05 5.572475e-05
1.271200e+01 4.988908e-05 -6.215243e-06 4.367383e-05 2.605327e-05
1.271600e+01 5.977908e-05 -1.214929e-05 4.762979e-05 8.684827e-06
1.272000e+01 3.767852e-05 -5.766950e-06 3.191157e-05 3.675664e-06
1.272400e+01 9.643909e-06 2.665946e-06 1.230986e-05 -9.919410e-06
1.272800e+01 2.284381e-05 3.884500e-06 2.672831e-05 -2.262997e-05
1.273200e+01 1.327560e-05 -5.362154e-06 7.913442e-06 -5.593870e-05
1.273600e+01 1.696691e-06 -1.260379e-05 -1.090710e-05 -5.286451e-05
1.274000e+01 1.292163e-05 -7.559863e-06 5.361763e-06 -7.218996e-06
1.274400e+01 4.553955e-05 6.604214e-06 5.214377e-05 4.875574e-05
1.274800e+01 6.943812e-05 1.698388e-05 8.642199e-05 6.512204e-05
1.275200e+01 6.121078e-05 1.857573e-05 7.978651e-05 4.990525e-05
1.275600e+01 -3.687908e-06 1.045908e-05 6.771174e-06 -8.878265e-06
1.276000e+01 -6.891112e-05 9.490973e-06 -5.942015e-05 -4.232064e-05
1.276400e+01 -4.949828e-05 2.708603e-05 -2.241225e-05 2.853009e-06
1.276800e+01 -3.847764e-05 2.631237e-05 -1.216527e-05 1.730535e-05
1.277200e+01 -5.696738e-05 8.668643e-06 -4.829873e-05 -2.313621e-05
1.277600e+01 -4.843441e-05 -3.780351e-06 -5.221476e-05 -1.971766e-05
1.278000e+01 -1.234853e-05 4.347186e-07 -1.191382e-05 2.666269e-05
1.278400e+01 -1.723826e-05 8.828480e-06 -8.409781e-06 4.933442e-05
1.278800e+01 -3.658989e-05 1.205080e-05 -2.453909e-05 3.301958e-05
1.279200e+01 -4.630224e-05 -1.263345e-06 -4.756559e-05 -1.967566e-05
1.279600e+01 -5.897907e-05 -1.610677e-05 -7.508584e-05 -6.699867e-05
1.280000e+01 -4.033909e-05 -1.195652e-05 -5.229561e-05 -4.475230e-05
1.280400e+01 -3.238361e-05 -8.357113e-06 -4.074072e-05 -2.084734e-05
1.280800e+01 -7.799705e-06 -9.147929e-06 -1.694763e-05 7.285154e-06
1.281200e+01 1.875516e-05 -1.147357e-05 7.281593e-06 2.642455e-05
1.281600e+01 2.652295e-05 -1.669841e-05 9.824546e-06 6.714953e-06
1.282000e+01 5.704623e-05 -1.348611e-05 4.356011e-05 2.033488e-05
1.282400e+01 7.199098e-05 -3.806852e-06 6.818413e-05 3.424752e-05
1.282800e+01 7.659056e-05 7.334182e-06 8.392474e-05 4.297627e-05
1.283200e+01 6.116194e-05 1.952484e-05 8.068678e-05 4.865628e-05
1.283600e+01 2.279960e-05 2.375143e-05 4.655102e-05 1.263537e-05
1.284000e+01 4.150349e-06 1.430822e-05 1.845857e-05 -5.675205e-05
1.284400e+01 3.737299e-05 8.662305e-06 4.603530e-05 -6.067552e-05
1.284800e+01 5.510978e-05 7.231660e-07 5.583294e-05 -4.608735e-05
1.285200e+01 5.610983e-05 -5.852747e-06 5.025708e-05 -2.359929e-05
1.285600e+01 5.265370e-05 -6.059741e-06 4.659396e-05 -3.088774e-06
1.286000e+01 1.037911e-04 -3.464924e-06 1.003261e-04 2.066687e-05
1.286400e+01 1.258820e-04 -2.817395e-06 1.230646e-04 1.533099e-05
1.286800e+01 1.023012e-04 -9.664627e-06 9.263652e-05 -2.003288e-05
1.287200e+01 9.333751e-05 -5.237482e-06 8.810003e-05 9.186222e-07
1.287600e+01 8.216242e-05 1.557139e-06 8.371955e-05 1.842455e-05
1.288000e+01 7.828737e-05 1.207159e-05 9.035895e-05 9.869763e-06
1.288400e+01 7.187725e-05 1.178323e-05 8.366047e-05 -1.723829e-05
1.288800e+01 8.179976e-05 8.882601e-06 9.068236e-05 -1.100775e-06
1.289200e+01 7.612968e-05 2.507956e-06 7.863764e-05 3.421572e-06
1.289600e+01 5.084796e-05 -1.436067e-06 4.941190e-05 -1.926707e-05
1.290000e+01 7.475600e-05 1.026170e-05 8.501770e-05 1.109312e-05
1.290400e+01 7.666622e-05 1.628293e-05 9.294916e-05 2.919414e-05
1.290800e+01 5.020151e-05 9.013081e-06 5.921459e-05 2.441410e-05
1.291200e+01 7.313293e-06 -1.621480e-06 5.691813e-06 2.486637e-06
1.291600e+01 -2.819711e-05 -4.567929e-06 -3.276504e-05 -2.551396e-05
1.292000e+01 -1.121311e-05 3.469747e-06 -7.743365e-06 -1.007503e-05
1.292400e+01 -4.278104e-05 1.119062e-06 -4.166198e-05 3.257365e-06
1.292800e+01 -1.396231e-04 -1.865363e-05 -1.582767e-04 -1.810135e-05
1.293200e+01 -2.758651e-04 -3.396830e-05 -3.098334e-04 -4.101968e-05
1.293600e+01 -3.564998e-04 -2.280990e-05 -3.793097e-04 4.156513e-06
1.294000e+01 -3.018422e-04 -1.285492e-05 -3.146971e-04 2.028843e-05
1.294400e+01 -4.238984e-05 -1.618202e-05 -5.857185e-05 9.596357e-06
1.294800e+01 2.036680e-04 -1.162275e-05 1.920452e-04 6.172318e-06
1.295200e+01 3.118117e-04 4.304091e-06 3.161158e-04 1.621938e-06
1.295600e+01 3.671560e-04 2.544051e-05 3.925965e-04 1.286032e-05
1.296000e+01 3.853106e-04 4.479246e-05 4.301031e-04 3.620541e-05
1.296400e+01 3.407552e-04 4.904650e-05 3.898017e-04 6.765068e-05
1.296800e+01 3.310563e-04 1.198085e-05 3.430371e-04 3.963992e-05
1.297200e+01 3.341999e-04 -2.220464e-05 3.119953e-04 -2.230050e-05
1.297600e+01 3.125407e-04 -3.580755e-06 3.089600e-04 -3.082707e-05
1.298000e+01 2.213056e-04 3.765170e-07 2.216821e-04 -2.225898e-05
1.298400e+01 1.302420e-04 -1.727539e-05 1.129666e-04 -1.803222e-05
1.298800e+01 7.494330e-05 -4.366581e-05 3.127748e-05 -5.304923e-05
1.299200e+01 7.622428e-05 -4.723585e-05 2.898843e-05 -5.970174e-05
1.299600e+01 1.302358e-04 -2.750820e-05 1.027276e-04 -1.839127e-05
1.300000e+01 9.148006e-05 -1.516391e-05 7.631615e-05 1.060966e-05
1.300400e+01 2.331970e-05 -3.234928e-05 -9.029575e-06 7.436626e-06
1.300800e+01 1.127473e-05 -3.151316e-05 -2.023843e-05 3.742441e-05
1.301200e+01 3.174619e-05 -1.243774e-05 1.930845e-05 4.701753e-05
1.301600e+01 6.074469e-05 2.007219e-06 6.275191e-05 3.715699e-05
1.302000e+01 4.288719e-05 -1.780756e-05 2.507963e-05 -1.560005e-05
1.302400e+01 3.135475e-05 -4.105931e-05 -9.704557e-06 -6.879289e-05
1.302800e+01 1.219841e-05 -3.207066e-05 -1.987225e-05 -6.837246e-05
1.303200e+01 1.930453e-05 -5.413815e-07 1.876315e-05 -2.098381e-05
1.303600e+01 2.105816e-05 1.953250e-05 4.059066e-05 1.752944e-05
1.304000e+01 3.261046e-06 9.535491e-06 1.279654e-05 8.247038e-06
1.304400e+01 -1.322905e-05 -9.999255e-06 -2.322831e-05 -1.173593e-05
1.304800e+01 7.776737e-06 -1.922177e-05 -1.144503e-05 5.334465e-06
1.305200e+01 4.030080e-05 -1.303427e-05 2.726652e-05 2.797310e-05
1.305600e+01 2.944553e-05 -1.223908e-06 2.822162e-05 1.899879e-05
1.306000e+01 -4.784872e-06 2.408060e-06 -2.376812e-06 1.198492e-05
1.306400e+01 -2.696482e-05 -1.409562e-07 -2.710578e-05 2.796873e-05
1.306800e+01 -3.648425e-05 2.006764e-06 -3.447749e-05 1.809901e-05
1.307200e+01 -1.862496e-05 3.456298e-05 1.593802e-05 2.936116e-05
1.307600e+01 -1.014565e-05 6.724237e-05 5.709672e-05 4.865509e-05
1.308000e+01 -1.099744e-05 7.005726e-05 5.905982e-05 4.229370e-05
1.308400e+01 -3.036681e-05 6.017271e-05 2.980589e-05 3.148707e-05
1.308800e+01 -3.463805e-05 4.614836e-05 1.151030e-05 1.498267e-05
1.309200e+01 -1.691924e-05 2.555441e-05 8.635169e-06 -2.502935e-05
1.309600e+01 -1.965704e-05 4.409802e-06 -1.524724e-05 -5.458222e-05
1.310000e+01 -3.621709e-05 -2.501745e-05 -6.123454e-05 -7.446948e-05
1.310400e+01 -3.322963e-05 -3.928935e-05 -7.251897e-05 -6.767031e-05
1.310800e+01 -9.307220e-06 -3.326207e-05 -4.256929e-05 -3.715936e-05
1.311200e+01 -1.347675e-05 -1.682256e-05 -3.029930e-05 -5.774641e-07
1.311600e+01 4.541125e-06 -8.216854e-06 -3.675729e-06 3.992399e-05
1.312000e+01 3.774456e-05 -1.292687e-05 2.481769e-05 5.274947e-05
1.312400e+01 1.202362e-05 -1.871005e-05 -6.686435e-06 4.205218e-05
1.312800e+01 -5.806382e-06 -1.383798e-05 -1.964436e-05 2.722697e-05
1.313200e+01 -1.434970e-05 4.185198e-06 -1.016450e-05 2.464167e-05
1.313600e+01 -5.008765e-05 -4.961434e-06 -5.504909e-05 -2.834785e-05
1.314000e+01 -7.959465e-05 -2.717126e-05 -1.067659e-04 -8.817625e-05
1.314400e+01 -5.355785e-05 -3.802526e-05 -9.158310e-05 -7.762978e-05
1.314800e+01 -4.805844e-05 -3.006631e-05 -7.812475e-05 -4.258875e-05
1.315200e+01 -5.851270e-05 -1.183665e-05 -7.034935e-05 -2.154806e-06
1.315600e+01 -9.406441e-05 3.029809e-05 -6.376633e-05 6.950972e-05
1.316000e+01 -8.809056e-05 4.310825e-05 -4.498231e-05 9.883489e-05
1.316400e+01 -7.479900e-05 2.321630e-06 -7.247737e-05 2.370916e-05
1.316800e+01 -9.030694e-05 -4.663810e-05 -1.369450e-04 -7.308996e-05
1.317200e+01 -9.913088e-05 -6.603245e-05 -1.651633e-04 -9.443834e-05
1.317600e+01 -8.140080e-05 -4.850592e-05 -1.299067e-04 -3.426867e-05
1.318000e+01 -8.527542e-05 -4.033420e-05 -1.256096e-04 -1.667496e-05
1.318400e+01 -1.066567e-04 -1.682256e-05 -1.234792e-04 9.848531e-06
1.318800e+01 -1.345981e-04 -4.677159e-06 -1.392753e-04 2.283090e-05
1.319200e+01 -1.172654e-04 -5.165091e-06 -1.224305e-04 3.765474e-05
1.319600e+01 -9.867443e-05 -2.337812e-05 -1.220525e-04 2.002440e-05
1.320000e+01 -1.001188e-04 -1.880725e-05 -1.189261e-04 1.960549e-05
1.320400e+01 -1.521468e-04 -4.953527e-06 -1.571003e-04 6.980722e-06
1.320800e+01 -1.715316e-04 2.048707e-05 -1.510445e-04 9.605423e-06
1.321200e+01 -1.829031e-04 4.685792e-05 -1.360451e-04 1.737430e-05
1.321600e+01 -1.679345e-04 4.051047e-05 -1.274241e-04 2.639304e-05
1.322000e+01 -1.441021e-04 2.914907e-05 -1.149531e-04 2.195487e-05
1.322400e+01 -1.394029e-04 2.560814e-05 -1.137948e-04 -1.034403e-06
1.322800e+01 -1.271585e-04 3.088212e-05 -9.627640e-05 -2.293159e-06
1.323200e+01 -1.029757e-04 2.352921e-05 -7.944648e-05 -1.328464e-05
1.323600e+01 -7.293767e-05 1.379527e-05 -5.914241e-05 -2.898642e-05
1.324000e+01 -4.062770e-05 1.633165e-05 -2.429605e-05 -9.318707e-06
1.324400e+01 -3.399409e-05 1.930529e-05 -1.468879e-05 7.223682e-06
1.324800e+01 -2.629179e-05 1.582147e-05 -1.047032e-05 1.016622e-05
1.325200e+01 -4.809565e-06 6.565045e-06 1.755480e-06 -1.912415e-06
1.325600e+01 2.412836e-05 -1.257048e-05 1.155788e-05 -2.799712e-05
1.326000e+01 3.327117e-05 -8.656191e-06 2.461498e-05 -3.276038e-06
1.326400e+01 3.178662e-05 1.657276e-05 4.835938e-05 4.857101e-05
1.326800e+01 4.435405e-05 2.447243e-05 6.882648e-05 2.591415e-05
1.327200e+01 6.449895e-05 8.393480e-06 7.289243e-05 -3.199130e-05
1.327600e+01 1.014391e-04 1.711217e-06 1.031503e-04 -1.519441e-05
1.328000e+01 1.401760e-04 8.612662e-06 1.487886e-04 2.877343e-05
1.328400e+01 1.181980e-04 7.421701e-06 1.256197e-04 7.101502e-06
1.328800e+01 9.296321e-05 -1.844017e-07 9.277881e-05 -3.382081e-05
1.329200e+01 9.949686e-05 -1.061057e-06 9.843580e-05 -2.274402e-05
1.329600e+01 1.066742e-04 1.752416e-06 1.084266e-04 1.270130e-05
1.330000e+01 1.215798e-04 7.131204e-06 1.287110e-04 2.697970e-05
1.330400e+01 1.204458e-04 6.865831e-06 1.273117e-04 5.808083e-06
1.330800e+01 1.045844e-04 1.970526e-06 1.065550e-04 -1.531572e-06
1.331200e+01 1.095055e-04 1.546828e-05 1.249738e-04 4.676816e-05
1.331600e+01 1.058465e-04 2.563758e-05 1.314840e-04 4.604464e-05
1.332000e+01 9.536867e-05 3.040379e-05 1.257725e-04 1.464921e-05
1.332400e+01 1.113514e-04 4.012465e-05 1.514761e-04 1.584891e-05
1.332800e+01 9.538263e-05 4.061567e-05 1.359983e-04 1.550983e-05
1.333200e+01 6.883743e-05 1.604684e-06 7.044211e-05 -3.319123e-05
1.333600e+01 9.155389e-05 -1.283906e-05 7.871482e-05 -4.403867e-05
1.334000e+01 1.078319e-04 -9.281543e-06 9.855036e-05 -2.414847e-05
1.334400e+01 1.413401e-04 -9.315214e-06 1.320249e-04 5.030427e-06
1.334800e+01 1.521500e-04 -7.027769e-06 1.451222e-04 2.560266e-05
1.335200e+01 1.190253e-04 -8.722989e-06 1.103023e-04 1.998383e-06
1.335600e+01 9.444123e-05 -1.892412e-05 7.551711e-05 -3.198417e-05
1.336000e+01 9.379710e-05 -2.996555e-05 6.383155e-05 -3.941072e-05
1.336400e+01 1.135743e-04 -3.459102e-05 7.898323e-05 -3.302792e-05
1.336800e+01 1.040761e-04 7.399273e-07 1.048161e-04 2.084923e-05
1.337200e+01 8.065723e-05 4.340392e-05 1.240611e-04 8.381694e-05
1.337600e+01 5.806575e-05 3.331975e-05 9.138550e-05 5.571186e-05
1.338000e+01 5.690562e-05 -1.965933e-05 3.724629e-05 -2.605753e-05
1.338400e+01 1.017913e-04 -5.034316e-05 5.144817e-05 -6.346313e-05
1.338800e+01 1.132863e-04 -4.804012e-05 6.524615e-05 -5.501802e-05
1.339200e+01 1.140203e-04 -3.343197e-05 8.058829e-05 -1.405908e-05
1.339600e+01 1.013827e-04 -2.388473e-05 7.749798e-05 -4.333732e-06
1.340000e+01 8.388202e-05 -1.235492e-05 7.152710e-05 -7.109161e-06
1.340400e+01 9.206786e-05 5.730093e-06 9.779796e-05 2.733466e-05
1.340800e+01 8.751798e-05 1.506370e-05 1.025817e-04 5.260029e-05
1.341200e+01 7.614952e-05 8.428941e-06 8.457846e-05 4.223188e-05
1.341600e+01 5.107461e-05 -1.387402e-05 3.720060e-05 2.252151e-06
1.342000e+01 4.220889e-05 -1.100825e-05 3.120064e-05 -5.893807e-06
1.342400e+01 2.622618e-05 8.140675e-07 2.704024e-05 -2.121840e-05
1.342800e+01 1.503320e-05 9.903604e-06 2.493680e-05 -2.000136e-05
1.343200e+01 3.034639e-05 4.212089e-06 3.455848e-05 -1.811035e-05
1.343600e+01 4.314144e-05 5.639304e-06 4.878075e-05 -2.332570e-06
1.344000e+01 3.920137e-05 1.105172e-05 5.025309e-05 -1.346497e-06
1.344400e+01 3.566257e-05 2.041956e-05 5.608213e-05 -8.424881e-07
1.344800e+01 2.547986e-05 1.500372e-05 4.048358e-05 -1.190343e-05
1.345200e+01 3.188378e-05 -7.245946e-06 2.463783e-05 -2.171305e-05
1.345600e+01 5.781051e-05 -1.714360e-05 4.066691e-05 -7.899630e-06
1.346000e+01 6.786114e-05 -1.696194e-05 5.089920e-05 1.919676e-06
1.346400e+01 6.383324e-05 -1.502473e-05 4.880851e-05 -2.723194e-07
1.346800e+01 6.463507e-05 -7.662426e-06 5.697264e-05 6.225878e-06
1.347200e+01 5.017161e-05 7.455777e-06 5.762739e-05 2.876174e-05
1.347600e+01 3.367210e-05 1.417115e-05 4.784324e-05 2.540517e-05
1.348000e+01 2.968773e-05 2.893865e-05 5.862638e-05 3.038661e-05
1.348400e+01 1.635169e-05 2.986892e-05 4.622062e-05 4.859822e-06
1.348800e+01 3.776988e-05 1.686857e-05 5.463845e-05 -2.034039e-05
1.349200e+01 5.800245e-05 -1.567287e-05 4.232958e-05 -6.407830e-05
1.349600e+01 4.897859e-05 -3.228407e-05 1.669452e-05 -7.798857e-05
1.350000e+01 5.326143e-05 -2.848547e-05 2.477596e-05 -4.298527e-05
1.350400e+01 7.653430e-05 -1.757943e-05 5.895486e-05 -1.037059e-05
1.350800e+01 8.144025e-05 -6.212517e-06 7.522773e-05 1.521530e-05
1.351200e+01 5.889505e-05 1.098845e-05 6.988350e-05 4.376682e-05
1.351600e+01 4.972814e-05 1.737765e-05 6.710579e-05 5.156318e-05
1.352000e+01 6.902100e-05 1.335823e-05 8.237923e-05 2.848932e-05
1.352400e+01 8.843192e-05 1.304288e-06 8.973620e-05 -9.070319e-06
1.352800e+01 8.372628e-05 2.593685e-06 8.631997e-05 -8.023127e-06
1.353200e+01 7.203889e-05 1.055303e-05 8.259193e-05 7.667129e-06
1.353600e+01 4.774659e-05 -4.974116e-06 4.277247e-05 -2.640469e-05
1.354000e+01 4.753272e-05 -6.255368e-06 4.127736e-05 -2.559422e-05
1.354400e+01 5.811278e-05 1.164943e-05 6.976221e-05 1.452794e-05
1.354800e+01 5.987532e-05 3.722771e-05 9.710302e-05 6.188982e-05
1.355200e+01 3.528678e-05 4.652552e-05 8.181230e-05 6.496409e-05
1.355600e+01 2.149257e-05 5.348807e-05 7.498065e-05 6.531360e-05
1.356000e+01 2.057584e-05 2.832397e-05 4.889981e-05 1.133557e-06
1.356400e+01 5.358111e-05 2.611800e-07 5.384229e-05 -5.371158e-05
1.356800e+01 6.109921e-05 -8.986712e-06 5.211250e-05 -6.112551e-05
1.357200e+01 8.643059e-05 -2.166627e-05 6.476432e-05 -4.664722e-05
1.357600e+01 9.821233e-05 -1.628610e-05 8.192623e-05 1.708962e-06
1.358000e+01 9.584067e-05 3.105116e-11 9.584070e-05 4.674243e-05
1.358400e+01 6.525166e-05 -5.317265e-06 5.993439e-05 2.692372e-05
1.358800e+01 7.203983e-05 -3.586890e-05 3.617093e-05 -3.080791e-05
1.359200e+01 6.479276e-05 -5.164244e-05 1.315032e-05 -6.043821e-05
1.359600e+01 9.228222e-05 -4.188550e-05 5.039672e-05 -3.261585e-05
1.360000e+01 1.063528e-04 -4.082741e-05 6.552538e-05 -3.394531e-05
1.360400e+01 9.871254e-05 -3.293688e-05 6.577567e-05 -1.250763e-05
1.360800e+01 9.011855e-05 -2.008538e-05 7.003317e-05 2.165510e-05
1.361200e+01 7.049045e-05 -1.219055e-05 5.829990e-05 3.371498e-05
1.361600e+01 8.797561e-05 -3.169172e-06 8.480644e-05 4.538329e-05
1.362000e+01 8.624903e-05 5.247764e-06 9.149680e-05 4.550396e-05
1.362400e+01 5.360956e-05 8.372780e-06 6.198234e-05 1.548675e-05
1.362800e+01 3.644664e-05 -2.168299e-06 3.427834e-05 -3.501786e-05
1.363200e+01 5.268020e-05 8.013334e-06 6.069353e-05 -1.763478e-05
1.363600e+01 4.815055e-05 1.393214e-05 6.208269e-05 1.239844e-06
1.364000e+01 4.831114e-05 2.098047e-05 6.929161e-05 3.695817e-05
1.364400e+01 3.953051e-05 1.410401e-05 5.363452e-05 2.605885e-05
1.364800e+01 3.859902e-05 -1.746412e-06 3.685261e-05 -3.172343e-06
1.365200e+01 3.611189e-05 -1.600078e-05 2.011111e-05 -2.899603e-05
1.365600e+01 2.357761e-05 -1.293521e-05 1.064240e-05 -4.276431e-05
1.366000e+01 2.730358e-05 -5.035338e-06 2.226824e-05 -3.801549e-05
1.366400e+01 4.236701e-05 3.925051e-06 4.629207e-05 -1.906639e-06
1.366800e+01 4.334514e-05 3.898299e-06 4.724344e-05 7.252193e-06
1.367200e+01 3.623774e-05 8.014954e-06 4.425269e-05 1.040477e-05
1.367600e+01 4.295901e-05 1.199549e-05 5.495450e-05 5.505218e-06
1.368000e+01 1.445430e-05 5.229853e-07 1.497728e-05 -2.300140e-05
1.368400e+01 4.539691e-05 -1.372853e-05 3.166838e-05 -2.656210e-05
1.368800e+01 7.692141e-05 -1.414064e-05 6.278077e-05 5.874741e-06
1.369200e+01 6.751718e-05 -6.430827e-06 6.108635e-05 1.131257e-05
1.369600e+01 4.779992e-05 -1.371067e-05 3.408925e-05 -1.998264e-05
1.370000e+01 5.453013e-05 -2.141794e-05 3.311219e-05 -4.561778e-06
1.370400e+01 7.902609e-05 -1.736724e-05 6.165885e-05 4.566241e-05
1.370800e+01 8.955042e-05 -4.197435e-06 8.535299e-05 6.058179e-05
1.371200e+01 7.648183e-05 1.444555e-06 7.792639e-05 3.280586e-05
1.371600e+01 4.394536e-05 -5.493989e-06 3.845137e-05 -1.317864e-05
1.372000e+01 2.945048e-05 -9.032184e-06 2.041829e-05 -2.081081e-05
1.372400e+01 3.795387e-05 3.639254e-06 4.159312e-05 1.754710e-05
1.372800e+01 5.976933e-05 1.514435e-05 7.491368e-05 5.402958e-05
1.373200e+01 7.269634e-05 1.667574e-05 8.937208e-05 5.972712e-05
1.373600e+01 5.875185e-05 5.442160e-06 6.419401e-05 1.628749e-05
1.374000e+01 3.176198e-05 2.093263e-06 3.385525e-05 -2.100301e-05
1.374400e+01 1.501578e-07 9.513120e-06 9.663278e-06 -2.369863e-05
1.374800e+01 9.719390e-06 9.390843e-06 1.911023e-05 -3.335181e-05
1.375200e+01 -1.007966e-06 -4.608272e-06 -5.616238e-06 -7.636558e-05
1.375600e+01 1.472708e-05 -2.477499e-06 1.224958e-05 -3.947607e-05
1.376000e+01 1.523199e-05 7.782428e-06 2.301442e-05 1.292920e-05
1.376400e+01 2.028961e-05 1.497705e-05 3.526666e-05 4.818879e-05
1.376800e+01 2.132360e-05 3.685049e-07 2.169211e-05 1.173320e-05
1.377200e+01 6.051315e-05 -2.550480e-05 3.500835e-05 -3.182134e-05
1.377600e+01 6.599745e-05 -3.380136e-05 3.219609e-05 -4.272050e-05
1.378000e+01 6.016684e-05 -2.159456e-05 3.857229e-05 -1.746569e-05
1.378400e+01 5.783191e-05 -1.208524e-05 4.574667e-05 -1.925155e-06
1.378800e+01 4.059254e-05 -1.235305e-06 3.935723e-05 2.186566e-05
1.379200e+01 2.302921e-05 6.244943e-06 2.927415e-05 2.834599e-05
1.379600e+01 1.815814e-05 2.962645e-06 2.112078e-05 1.060045e-05
1.380000e+01 4.386193e-06 -3.373475e-06 1.012718e-06 -9.743989e-06
1.380400e+01 1.931051e-06 -7.302089e-06 -5.371038e-06 -1.156861e-05
1.380800e+01 1.994433e-05 7.219463e-06 2.716380e-05 3.238148e-05
1.381200e+01 -3.482949e-06 1.699609e-05 1.351314e-05 5.242238e-05
1.381600e+01 -5.029595e-05 2.122878e-05 -2.906717e-05 4.633926e-05
1.382000e+01 -7.335771e-05 1.104094e-05 -6.231677e-05 -9.176538e-07
1.382400e+01 -9.448790e-05 -1.347315e-06 -9.583521e-05 -3.957332e-05
1.382800e+01 -6.692448e-05 4.671073e-06 -6.225341e-05 -1.389911e-05
1.383200e+01 -3.444115e-05 1.833908e-05 -1.610207e-05 1.613851e-05
1.383600e+01 -4.454635e-05 1.401434e-05 -3.053201e-05 -1.493044e-05
1.384000e+01 -3.356976e-05 3.623214e-06 -2.994655e-05 -3.711980e-05
1.384400e+01 -9.895708e-06 3.642705e-06 -6.253003e-06 -1.303252e-05
1.384800e+01 -1.169998e-05 -3.547953e-06 -1.524793e-05 -1.532798e-05
1.385200e+01 -8.137275e-06 -1.183645e-05 -1.997372e-05 -3.294725e-05
1.385600e+01 -4.537686e-06 -2.270383e-05 -2.724152e-05 -4.087779e-05
1.386000e+01 7.006301e-06 -1.834883e-05 -1.134253e-05 -9.392497e-07
1.386400e+01 1.810817e-05 -1.400455e-05 4.103617e-06 2.565011e-05
1.386800e+01 -9.735639e-06 -1.635319e-05 -2.608883e-05 -5.844235e-06
1.387200e+01 -1.062382e-05 -7.234005e-06 -1.785782e-05 -1.010601e-05
1.387600e+01 2.170092e-05 1.704369e-05 3.874461e-05 3.810985e-05
1.388000e+01 3.357521e-05 2.846034e-05 6.203555e-05 5.570557e-05
1.388400e+01 5.411639e-05 2.489131e-05 7.900770e-05 3.767979e-05
1.388800e+01 8.843695e-05 1.011271e-05 9.854965e-05 -3.079869e-06
1.389200e+01 8.067385e-05 -5.537527e-06 7.513633e-05 -3.770326e-05
1.389600e+01 8.093756e-05 -1.366849e-05 6.726907e-05 -4.349719e-05
1.390000e+01 9.226647e-05 -1.057064e-05 8.169583e-05 -2.703741e-05
1.390400e+01 8.005178e-05 2.597766e-06 8.264955e-05 1.547778e-05
1.390800e+01 4.915797e-05 1.055517e-05 5.971313e-05 3.761426e-05
1.391200e+01 3.763868e-05 1.770107e-05 5.533975e-05 5.207194e-05
1.391600e+01 6.599976e-05 1.481667e-05 8.081643e-05 3.324416e-05
1.392000e+01 7.989666e-05 1.180417e-05 9.170083e-05 9.932063e-06
1.392400e+01 3.928829e-05 4.966365e-06 4.425466e-05 -2.430759e-05
1.392800e+01 1.043050e-05 -1.348270e-05 -3.052206e-06 -6.576061e-05
1.393200e+01 4.274489e-05 -2.378035e-05 1.896454e-05 -5.150265e-05
1.393600e+01 8.468596e-05 -1.587969e-05 6.880627e-05 -1.099918e-05
1.394000e+01 7.894183e-05 -1.678519e-06 7.726331e-05 3.137228e-05
1.394400e+01 6.492543e-05 2.600627e-06 6.752605e-05 3.703903e-05
1.394800e+01 4.848649e-06 -4.352215e-06 4.964345e-07 -4.824568e-07
1.395200e+01 -3.838151e-05 -7.432404e-06 -4.581392e-05 -2.300296e-05
1.395600e+01 -7.228234e-05 -5.230038e-06 -7.751238e-05 -2.938776e-05
1.396000e+01 -5.648407e-05 5.033858e-06 -5.145021e-05 -3.982482e-06
1.396400e+01 -8.999401e-05 4.851507e-06 -8.514250e-05 -2.456543e-06
1.396800e+01 -2.184815e-04 1.420138e-06 -2.170614e-04 -4.135000e-06
1.397200e+01 -3.675662e-04 -1.950248e-06 -3.695165e-04 -4.183958e-06
1.397600e+01 -4.814070e-04 -3.237172e-06 -4.846442e-04 -7.780572e-06
1.398000e+01 -4.169352e-04 -7.199130e-06 -4.241343e-04 -3.326511e-06
1.398400e+01 -1.258488e-04 -1.921021e-05 -1.450590e-04 -1.826409e-05
1.398800e+01 1.593555e-04 -4.776475e-07 1.588779e-04 1.866766e-05
1.399200e+01 2.949142e-04 2.780613e-05 3.227203e-04 3.627794e-05
1.399600e+01 3.742318e-04 4.636277e-05 4.205946e-04 2.395323e-05
1.400000e+01 4.012736e-04 3.948378e-05 4.407573e-04 -8.430985e-06
1.400400e+01 3.646939e-04 -5.931881e-06 3.587620e-04 -3.262189e-05
1.400800e+01 3.475290e-04 -3.031285e-05 3.172162e-04 -1.906808e-05
1.401200e+01 3.049963e-04 -1.419462e-05 2.908017e-04 -3.227130e-06
1.401600e+01 2.402532e-04 -5.663256e-06 2.345900e-04 1.133625e-06
1.402000e+01 1.515385e-04 -7.376830e-06 1.441616e-04 -1.558844e-05
1.402400e+01 3.306067e-05 -1.188826e-05 2.117241e-05 -3.035789e-05
1.402800e+01 -2.874594e-05 -1.591386e-05 -4.465980e-05 -2.864103e-05
1.403200e+01 2.228508e-05 -1.397735e-05 8.307739e-06 1.318567e-06
1.403600e+01 9.045263e-05 -4.137477e-06 8.631515e-05 5.565707e-05
1.404000e+01 7.273723e-05 2.638005e-06 7.537523e-05 6.657379e-05
1.404400e+01 -5.871853e-06 -3.303710e-06 -9.175564e-06 4.599561e-05
1.404800e+01 -3.600234e-05 -2.567091e-05 -6.167325e-05 -1.120707e-06
1.405200e+01 1.117436e-05 -3.256664e-05 -2.139227e-05 -1.743572e-05
1.405600e+01 2.399183e-05 -2.755081e-05 -3.558984e-06 -2.642590e-05
1.406000e+01 3.079253e-06 -2.137147e-05 -1.829221e-05 -1.738081e-05
1.406400e+01 -4.776569e-05 -4.181944e-06 -5.194763e-05 7.663507e-06
1.406800e+01 -8.085857e-05 1.174023e-05 -6.911834e-05 1.690457e-05
1.407200e+01 -6.580342e-05 1.553408e-05 -5.026934e-05 7.302171e-06
1.407600e+01 -3.441834e-05 4.676395e-06 -2.974194e-05 -1.567976e-05
1.408000e+01 -4.276432e-05 -2.736647e-06 -4.550097e-05 -2.279951e-05
1.408400e+01 -7.398464e-05 1.394200e-05 -6.004264e-05 2.346665e-05
1.408800e+01 -9.896231e-05 3.264334e-05 -6.631897e-05 4.324254e-05
1.409200e+01 -9.171605e-05 3.129301e-05 -6.042304e-05 2.106664e-05
1.409600e+01 -4.452371e-05 3.195776e-05 -1.256596e-05 2.166961e-05
1.410000e+01 -2.571234e-05 1.390188e-05 -1.181046e-05 -1.270646e-05
1.410400e+01 -4.696432e-05 -1.479537e-06 -4.844386e-05 -4.055775e-05
1.410800e+01 -5.636794e-05 1.515212e-06 -5.485273e-05 -2.027760e-05
1.411200e+01 -2.474175e-05 5.342235e-06 -1.939951e-05 -3.567201e-06
1.411600e+01 -3.702827e-05 8.735732e-06 -2.829254e-05 8.169543e-06
1.412000e+01 -5.906264e-05 5.618124e-06 -5.344452e-05 -2.718479e-06
1.412400e+01 -5.412869e-05 1.110667e-06 -5.301803e-05 -1.783274e-05
1.412800e+01 -4.533544e-05 3.778099e-06 -4.155734e-05 -6.259225e-06
1.413200e+01 -3.648033e-05 1.104460e-05 -2.543572e-05 1.035127e-05
1.413600e+01 -3.290250e-05 2.162022e-05 -1.128228e-05 4.050004e-05
1.414000e+01 -4.518051e-05 1.892155e-05 -2.625896e-05 3.527378e-05
1.414400e+01 -7.385398e-05 -8.399869e-07 -7.469396e-05 -1.021416e-05
1.414800e+01 -8.707734e-05 -6.313916e-06 -9.339126e-05 -1.992977e-05
1.415200e+01 -8.199818e-05 -8.768821e-06 -9.076700e-05 -1.406323e-05
1.415600e+01 -6.357224e-05 -5.353744e-06 -6.892598e-05 1.663360e-06
1.416000e+01 -6.540757e-05 -4.957527e-06 -7.036509e-05 -5.188660e-07
1.416400e+01 -8.212164e-05 -8.778533e-06 -9.090017e-05 -2.213278e-05
1.416800e+01 -6.653005e-05 -1.354202e-05 -8.007207e-05 -2.169673e-05
1.417200e+01 -7.018659e-05 -1.163342e-05 -8.182001e-05 -7.542469e-06
1.417600e+01 -9.008350e-05 -1.109868e-05 -1.011822e-04 2.109003e-05
1.418000e+01 -9.670284e-05 -2.052576e-05 -1.172286e-04 1.347428e-05
1.418400e+01 -7.880680e-05 -3.245251e-05 -1.112593e-04 -1.252875e-05
1.418800e+01 -6.850533e-05 -3.424891e-05 -1.027542e-04 -4.302668e-05
1.419200e+01 -9.835085e-05 -2.991087e-05 -1.282617e-04 -5.659870e-05
1.419600e+01 -1.261675e-04 -2.349668e-05 -1.496642e-04 -2.198419e-05
1.420000e+01 -1.344029e-04 -4.063951e-06 -1.384668e-04 3.001544e-05
1.420400e+01 -1.331008e-04 1.105762e-05 -1.220432e-04 5.215650e-05
1.420800e+01 -1.499088e-04 1.350832e-05 -1.364005e-04 3.206035e-05
1.421200e+01 -1.489951e-04 1.371925e-05 -1.352758e-04 2.027774e-05
1.421600e+01 -1.645566e-04 4.385374e-06 -1.601713e-04 9.912562e-07
1.422000e+01 -1.750075e-04 -2.722677e-06 -1.777302e-04 -8.155891e-07
1.422400e+01 -1.752507e-04 5.784758e-06 -1.694660e-04 7.197409e-07
1.422800e+01 -1.760161e-04 3.019324e-05 -1.458229e-04 2.011921e-05
1.423200e+01 -2.206699e-04 2.716348e-05 -1.935064e-04 -1.303372e-06
1.423600e+01 -2.331660e-04 6.064801e-06 -2.271012e-04 -2.623036e-05
1.424000e+01 -2.350655e-04 -9.766374e-06 -2.448318e-04 -4.108233e-05
1.424400e+01 -2.130949e-04 -8.822102e-06 -2.219170e-04 -2.256153e-05
1.424800e+01 -1.921479e-04 -1.429373e-06 -1.935773e-04 -3.805986e-06
1.425200e+01 -1.942885e-04 7.072126e-06 -1.872164e-04 3.325968e-06
1.425600e+01 -1.601979e-04 1.568876e-05 -1.445092e-04 3.556985e-05
1.426000e+01 -1.346143e-04 6.771029e-06 -1.278433e-04 3.901306e-05
1.426400e+01 -1.687436e-04 -1.660765e-05 -1.853513e-04 -2.819329e-05
1.426800e+01 -1.531720e-04 -3.379305e-05 -1.869650e-04 -4.404153e-05
1.427200e+01 -1.087790e-04 -2.787515e-05 -1.366542e-04 8.083784e-06
1.427600e+01 -8.530956e-05 -1.603519e-05 -1.013447e-04 2.990238e-05
1.428000e+01 -9.270137e-05 1.209795e-05 -8.060342e-05 3.131545e-05
1.428400e+01 -5.885257e-05 2.961394e-05 -2.923863e-05 5.221292e-05
1.428800e+01 -4.568080e-05 1.150762e-05 -3.417318e-05 1.817075e-05
1.429200e+01 -3.796714e-05 -3.038632e-06 -4.100577e-05 2.793549e-06
1.429600e+01 -3.085347e-05 -1.228900e-05 -4.314247e-05 -2.394763e-05
1.430000e+01 -4.437877e-06 -1.278875e-05 -1.722663e-05 -1.455730e-05
1.430400e+01 1.021400e-05 -3.906717e-06 6.307287e-06 2.397029e-06
1.430800e+01 1.935552e-07 -3.525633e-06 -3.332078e-06 -3.307334e-05
1.431200e+01 2.646557e-05 5.285423e-06 3.175099e-05 -3.133970e-05
1.431600e+01 2.557956e-05 1.364325e-05 3.922281e-05 -7.435543e-06
1.432000e+01 5.415586e-05 9.264103e-06 6.341997e-05 -1.757056e-06
1.432400e+01 8.337224e-05 4.498276e-06 8.787052e-05 -4.632948e-06
1.432800e+01 7.777231e-05 9.313123e-06 8.708543e-05 2.725005e-05
1.433200e+01 4.590723e-05 7.275665e-06 5.318290e-05 3.576185e-05
1.433600e+01 4.334926e-05 7.659092e-06 5.100835e-05 2.705381e-05
1.434000e+01 4.276612e-05 2.048050e-05 6.324662e-05 2.907788e-05
1.434400e+01 6.790873e-05 1.286598e-05 8.077471e-05 -1.122211e-05
1.434800e+01 7.246198e-05 -2.500823e-06 6.996116e-05 -6.834036e-05
1.435200e+01 6.830062e-05 1.036414e-05 7.866477e-05 -4.529874e-05
1.435600e+01 6.607179e-05 2.512500e-05 9.119679e-05 -2.848732e-06
1.436000e+01 5.771064e-05 1.750929e-05 7.521993e-05 -5.537689e-06
1.436400e+01 8.792484e-05 1.390040e-05 1.018252e-04 2.556010e-05
1.436800e+01 1.215022e-04 1.031768e-05 1.318199e-04 5.936322e-05
1.437200e+01 8.473708e-05 -2.048744e-05 6.424964e-05 6.637766e-06
1.437600e+01 8.385049e-05 -4.129314e-05 4.255736e-05 -3.050690e-05
1.438000e+01 8.986934e-05 -2.590533e-05 6.396401e-05 -1.551053e-05
1.438400e+01 8.055163e-05 -5.224727e-06 7.532691e-05 1.175832e-05
1.438800e+01 6.200514e-05 2.203582e-05 8.404096e-05 2.748757e-05
1.439200e+01 1.901954e-05 2.562773e-05 4.464727e-05 1.614410e-06
1.439600e+01 1.328628e-05 8.083589e-06 2.136987e-05 -2.145769e-05
1.440000e+01 2.989586e-05 -1.089418e-05 1.900168e-05 -3.772249e-05
1.440400e+01 2.244105e-05 -3.439836e-06 1.900122e-05 -2.650510e-05
1.440800e+01 1.413596e-06 1.676033e-05 1.817392e-05 9.421460e-06
1.441200e+01 2.832859e-06 2.892731e-05 3.176017e-05 3.677414e-05
1.441600e+01 3.625871e-06 1.894483e-05 2.257070e-05 6.577960e-06
1.442000e+01 1.099896e-05 1.641455e-05 2.741351e-05 -1.114243e-05
1.442400e+01 1.749557e-05 3.126583e-05 4.876140e-05 1.952219e-05
1.442800e+01 1.944473e-05 3.638239e-05 5.582711e-05 4.732878e-05
1.443200e+01 3.884448e-05 1.618503e-05 5.502952e-05 2.280377e-05
1.443600e+01 4.555370e-05 -7.547103e-06 3.800660e-05 -2.762157e-05
1.444000e+01 3.624561e-05 -1.261280e-05 2.363281e-05 -3.906880e-05
1.444400e+01 5.674919e-05 -1.511641e-05 4.163278e-05 -2.554954e-05
1.444800e+01 8.028301e-05 -1.035305e-05 6.992996e-05 5.045486e-06
1.445200e+01 5.910252e-05 4.009920e-06 6.311244e-05 4.072589e-05
1.445600e+01 2.921460e-05 3.326815e-06 3.254142e-05 2.911334e-05
1.446000e+01 1.712829e-05 -2.310934e-05 -5.981042e-06 -3.579904e-05
1.446400e+01 3.554332e-05 -1.276588e-05 2.277744e-05 -2.024441e-05
1.446800e+01 3.977811e-05 6.285560e-06 4.606367e-05 1.427354e-05
1.447200e+01 7.774073e-06 -7.448721e-07 7.029201e-06 5.150112e-06
1.447600e+01 3.421325e-06 -9.206346e-06 -5.785022e-06 -5.205817e-06
1.448000e+01 2.798028e-05 4.452575e-06 3.243285e-05 2.343737e-05
1.448400e+01 3.022302e-05 1.323085e-05 4.345387e-05 2.564307e-05
1.448800e+01 1.036619e-05 1.839353e-05 2.875972e-05 1.820706e-05
1.449200e+01 7.916612e-06 1.828048e-05 2.619709e-05 2.540799e-05
1.449600e+01 2.915350e-05 5.869091e-06 3.502259e-05 2.349688e-05
1.450000e+01 5.342155e-05 6.798500e-06 6.022005e-05 2.891384e-05
1.450400e+01 5.352351e-05 1.511030e-05 6.863381e-05 1.467729e-05
1.450800e+01 4.519584e-05 3.984136e-06 4.917997e-05 -1.377951e-05
1.451200e+01 8.228959e-05 -5.043386e-06 7.724621e-05 1.169199e-05
1.451600e+01 7.947414e-05 -1.866833e-05 6.080581e-05 6.958489e-06
1.452000e+01 6.487820e-05 -2.395180e-05 4.092640e-05 -2.732721e-05
1.452400e+01 5.546505e-05 -1.851010e-05 3.695495e-05 -4.996017e-05
1.452800e+01 2.750388e-05 -1.824852e-05 9.255359e-06 -5.336937e-05
1.453200e+01 1.459933e-05 -1.671454e-05 -2.115204e-06 -3.102970e-05
1.453600e+01 2.774231e-05 -7.992190e-06 1.975012e-05 4.383142e-06
1.454000e+01 6.212052e-05 2.867056e-06 6.498757e-05 3.220382e-05
1.454400e+01 6.639736e-05 9.662572e-06 7.605994e-05 4.029400e-05
1.454800e+01 4.882859e-05 1.221187e-05 6.104047e-05 2.065316e-05
1.455200e+01 3.012328e-05 7.701254e-06 3.782453e-05 -6.931792e-07
1.455600e+01 4.607991e-05 1.093241e-05 5.701232e-05 -7.747616e-07
1.456000e+01 2.742150e-05 1.102323e-05 3.844473e-05 -9.127203e-06
1.456400e+01 3.545606e-05 -4.771579e-06 3.068448e-05 -4.965992e-05
1.456800e+01 9.688518e-05 -9.793674e-06 8.709150e-05 -4.102114e-05
1.457200e+01 9.775470e-05 4.528522e-07 9.820755e-05 -3.016267e-06
1.457600e+01 6.477198e-05 3.237022e-06 6.800900e-05 3.549663e-06
1.458000e+01 6.488226e-05 4.275755e-06 6.915801e-05 8.306003e-06
1.458400e+01 5.786667e-05 -6.851053e-06 5.101562e-05 6.247205e-06
1.458800e+01 6.550536e-05 -2.292333e-05 4.258203e-05 -2.346716e-05
1.459200e+01 8.255001e-05 -2.856727e-05 5.398274e-05 -5.014401e-05
1.459600e+01 9.054335e-05 -2.231990e-05 6.822345e-05 -4.621807e-05
1.460000e+01 1.129634e-04 -8.721108e-06 1.042423e-04 8.011638e-06
1.460400e+01 1.135345e-04 1.445663e-05 1.279911e-04 7.708155e-05
1.460800e+01 8.593556e-05 3.145496e-05 1.173905e-04 9.974132e-05
1.461200e+01 5.741457e-05 5.379202e-06 6.279377e-05 1.273950e-05
1.461600e+01 5.231629e-05 -2.968683e-05 2.262946e-05 -8.471184e-05
1.462000e+01 5.265256e-05 -2.447086e-05 2.818170e-05 -9.843420e-05
1.462400e+01 4.801035e-05 -9.896553e-06 3.811380e-05 -6.855722e-05
1.462800e+01 5.876597e-05 -8.932763e-06 4.983320e-05 -4.307373e-05
1.463200e+01 6.935878e-05 1.190129e-06 7.054891e-05 -7.409622e-07
1.463600e+01 5.607090e-05 2.903952e-07 5.636130e-05 1.540954e-05
1.464000e+01 5.396997e-05 -1.133600e-05 4.263398e-05 3.642183e-06
1.464400e+01 5.704940e-05 -2.285004e-05 3.419937e-05 -1.023221e-05
1.464800e+01 8.888666e-05 -2.275620e-05 6.613046e-05 9.113945e-06
1.465200e+01 1.256455e-04 -1.118356e-05 1.144620e-04 3.905821e-05
1.465600e+01 8.930136e-05 2.108586e-06 9.140994e-05 4.183433e-05
1.466000e+01 6.880964e-05 7.871028e-06 7.668067e-05 3.780588e-05
1.466400e+01 6.183927e-05 -7.013250e-06 5.482602e-05 3.837103e-06
1.466800e+01 7.219732e-05 -3.117345e-05 4.102387e-05 -2.807021e-05
1.467200e+01 8.807270e-05 -2.965734e-05 5.841536e-05 -1.225036e-05
1.467600e+01 8.136435e-05 2.997459e-06 8.436181e-05 3.802287e-05
1.468000e+01 8.589247e-05 3.397392e-05 1.198664e-04 9.531160e-05
1.468400e+01 5.706273e-05 1.613550e-05 7.319823e-05 2.166362e-05
1.468800e+01 4.430276e-05 -2.506164e-05 1.924111e-05 -7.433360e-05
1.469200e+01 7.846506e-05 -3.760180e-05 4.086325e-05 -8.550037e-05
1.469600e+01 7.937542e-05 -3.444881e-05 4.492661e-05 -5.708015e-05
1.470000e+01 7.074752e-05 -4.203962e-05 2.870790e-05 -7.570256e-05
1.470400e+01 6.866866e-05 -2.966174e-05 3.900692e-05 -4.518981e-05
1.470800e+01 1.023348e-04 -3.565500e-07 1.019783e-04 5.459434e-05
1.471200e+01 1.203345e-04 1.503250e-05 1.353670e-04 9.617103e-05
1.471600e+01 8.855755e-05 1.803060e-05 1.065881e-04 6.506051e-05
1.472000e+01 3.680515e-05 -3.175887e-06 3.362927e-05 -2.169162e-05
1.472400e+01 2.577205e-05 -2.264182e-05 3.130232e-06 -5.671479e-05
1.472800e+01 2.824951e-05 -1.146127e-05 1.678824e-05 -1.984636e-05
1.473200e+01 2.193874e-05 1.055265e-05 3.249140e-05 -4.410146e-06
1.473600e+01 3.620388e-05 2.718455e-05 6.338843e-05 1.262650e-05
1.474000e+01 5.566184e-05 2.089966e-05 7.656150e-05 1.338328e-05
1.474400e+01 7.261363e-05 1.142249e-05 8.403612e-05 2.860203e-05
1.474800e+01 6.001450e-05 1.187320e-05 7.188770e-05 3.188794e-05
1.475200e+01 3.664733e-05 1.485338e-05 5.150071e-05 1.592543e-05
1.475600e+01 2.344954e-05 1.543037e-05 3.887992e-05 -2.200803e-06
1.476000e+01 1.979067e-05 1.090518e-05 3.069585e-05 -5.445504e-06
1.476400e+01 4.920048e-05 1.263999e-05 6.184047e-05 1.530112e-05
1.476800e+01 5.149745e-05 2.283521e-05 7.433266e-05 4.000866e-05
1.477200e+01 5.658362e-05 1.872778e-05 7.531139e-05 3.878492e-05
1.477600e+01 9.188970e-05 -6.380159e-06 8.550954e-05 1.418045e-06
1.478000e+01 5.680646e-05 -2.742638e-05 2.938008e-05 -3.339714e-05
1.478400e+01 3.264355e-05 -1.307675e-05 1.956680e-05 6.394666e-06
1.478800e+01 2.996848e-05 2.872588e-06 3.284106e-05 2.241307e-05
1.479200e+01 8.091712e-06 -1.247297e-05 -4.381260e-06 -5.616548e-05
1.479600e+01 4.945640e-05 -1.944238e-05 3.001402e-05 -5.606285e-05
1.480000e+01 8.083919e-05 -8.023297e-06 7.281589e-05 -1.071193e-05
1.480400e+01 8.279850e-05 -1.086847e-06 8.171165e-05 9.428355e-07
1.480800e+01 4.055863e-05 -6.617709e-06 3.394092e-05 -2.585894e-05
1.481200e+01 3.089412e-05 -2.673994e-06 2.822013e-05 7.264030e-06
1.481600e+01 2.495593e-05 1.101253e-05 3.596846e-05 5.728240e-05
1.482000e+01 -6.792271e-06 2.644530e-05 1.965303e-05 6.693514e-05
1.482400e+01 -4.165516e-05 1.425946e-05 -2.739570e-05 6.493376e-06
1.482800e+01 -2.322089e-05 -1.105174e-05 -3.427263e-05 -4.861279e-05
1.483200e+01 1.641477e-05 -2.698469e-05 -1.056992e-05 -7.172846e-05
1.483600e+01 2.683689e-05 -2.728476e-05 -4.478680e-07 -5.262345e-05
1.484000e+01 3.122735e-05 -1.378273e-05 1.744462e-05 9.367624e-06
1.484400e+01 1.822536e-05 -1.453459e-06 1.677190e-05 3.850059e-05
1.484800e+01 -3.094757e-05 -7.704785e-06 -3.865236e-05 6.487250e-06
1.485200e+01 -4.546752e-05 -1.661041e-05 -6.207793e-05 -7.356355e-07
1.485600e+01 -1.577668e-05 -1.688865e-05 -3.266532e-05 1.955498e-05
1.486000e+01 -6.246520e-06 -6.809004e-06 -1.305552e-05 3.337763e-05
1.486400e+01 -3.354937e-05 6.680272e-06 -2.686910e-05 3.694706e-05
1.486800e+01 -5.801483e-05 1.532656e-05 -4.268827e-05 5.176716e-05
1.487200e+01 -8.397242e-05 2.232172e-05 -6.165070e-05 5.227737e-05
1.487600e+01 -1.130900e-04 2.883554e-05 -8.425448e-05 3.107431e-05
1.488000e+01 -1.199040e-04 1.791091e-05 -1.019931e-04 -2.257901e-05
1.488400e+01 -6.423808e-05 6.156002e-06 -5.808207e-05 -3.165903e-05
1.488800e+01 -3.655154e-05 3.213554e-06 -3.333799e-05 -1.974529e-05
1.489200e+01 -2.820140e-05 6.596634e-06 -2.160476e-05 -1.546079e-05
1.489600e+01 -2.563036e-05 5.697872e-06 -1.993249e-05 -1.518300e-05
1.490000e+01 -1.121219e-05 -5.381756e-06 -1.659394e-05 -7.145633e-07
1.490400e+01 1.550855e-05 -1.632639e-05 -8.178443e-07 1.194167e-05
1.490800e+01 4.292034e-05 -1.603362e-05 2.688672e-05 3.488360e-05
1.491200e+01 2.146994e-05 -1.160317e-05 9.866773e-06 1.102134e-05
1.491600e+01 1.508477e-05 -9.117117e-06 5.967656e-06 -2.448081e-05
1.492000e+01 4.404539e-05 1.460897e-06 4.550629e-05 -4.295263e-06
1.492400e+01 4.435395e-05 5.348944e-06 4.970290e-05 8.437934e-06
1.492800e+01 3.175749e-05 1.213479e-06 3.297097e-05 -1.146124e-05
1.493200e+01 4.678610e-05 2.002336e-06 4.878843e-05 -6.244748e-07
1.493600e+01 4.518839e-05 -2.749881e-06 4.243851e-05 -8.853194e-07
1.494000e+01 7.037352e-05 1.807473e-06 7.218099e-05 3.083308e-05
1.494400e+01 3.964095e-05 5.809749e-06 4.545070e-05 2.218782e-06
1.494800e+01 5.930091e-06 -3.269511e-06 2.660580e-06 -5.979911e-05
1.495200e+01 1.984275e-05 -3.768447e-06 1.607430e-05 -4.955518e-05
1.495600e+01 4.258913e-05 7.814463e-06 5.040360e-05 1.061602e-05
1.496000e+01 1.234024e-05 2.339601e-05 3.573626e-05 3.737812e-05
1.496400e+01 1.067200e-05 3.140126e-05 4.207326e-05 3.787605e-05
1.496800e+01 2.147436e-05 2.881463e-05 5.028899e-05 3.124246e-05
1.497200e+01 3.773318e-05 1.968061e-05 5.741378e-05 1.557672e-05
1.497600e+01 3.285704e-05 1.399474e-05 4.685178e-05 -4.404766e-06
1.498000e+01 -3.885571e-06 1.428497e-05 1.039940e-05 -2.152626e-05
1.498400e+01 -1.631279e-05 1.159632e-05 -4.716474e-06 -8.933515e-06
1.498800e+01 -1.098878e-05 1.069464e-05 -2.941402e-07 6.202803e-06
1.499200e+01 -5.115164e-05 1.862576e-05 -3.252588e-05 3.077647e-05
1.499600e+01 -7.983884e-05 2.737375e-05 -5.246509e-05 4.798374e-05
1.500000e+01 -7.033168e-05 1.927683e-05 -5.105485e-05 3.240058e-05
1.500400e+01 -1.081159e-04 -4.189381e-06 -1.123053e-04 -1.582145e-05
1.500800e+01 -2.344628e-04 -3.366028e-05 -2.681231e-04 -8.150839e-05
1.501200e+01 -3.661727e-04 -4.656056e-05 -4.127333e-04 -7.582752e-05
1.501600e+01 -4.511278e-04 -2.600897e-05 -4.771368e-04 -4.647272e-05
1.502000e+01 -3.062486e-04 7.564620e-07 -3.054921e-04 -4.976710e-06
1.502400e+01 -1.441110e-05 -7.577227e-06 -2.198833e-05 2.087006e-05
1.502800e+01 1.952920e-04 -1.433882e-05 1.809532e-04 3.143711e-05
1.503200e+01 2.940858e-04 -1.319456e-05 2.808913e-04 3.395910e-05
1.503600e+01 3.414938e-04 -2.254020e-06 3.392397e-04 1.357733e-05
1.504000e+01 3.445178e-04 1.496992e-05 3.594877e-04 9.768627e-06
1.504400e+01 3.005852e-04 2.493159e-05 3.255167e-04 2.084506e-05
1.504800e+01 2.598999e-04 2.711170e-05 2.870116e-04 1.774196e-05
1.505200e+01 2.558692e-04 3.992646e-05 2.957957e-04 2.962821e-05
1.505600e+01 2.175412e-04 4.944338e-05 2.669846e-04 4.573706e-05
1.506000e+01 8.828704e-05 1.247763e-05 1.007647e-04 -9.313236e-06
1.506400e+01 4.541724e-06 -2.530614e-05 -2.076442e-05 -6.000944e-05
1.506800e+01 3.570335e-05 -2.258252e-05 1.312082e-05 -3.095611e-05
1.507200e+01 3.625269e-05 -1.278494e-05 2.346775e-05 -2.605082e-05
1.507600e+01 2.322794e-05 -1.295351e-05 1.027443e-05 -3.165792e-05
1.508000e+01 -2.876493e-06 -1.242488e-05 -1.530138e-05 -1.680769e-05
1.508400e+01 -4.501134e-05 7.277298e-06 -3.773404e-05 2.539443e-05
1.508800e+01 -9.599825e-05 2.499744e-05 -7.100082e-05 1.766103e-05
1.509200e+01 -6.184322e-05 1.054448e-05 -5.129874e-05 -2.326556e-05
1.509600e+01 -1.285150e-05 2.543944e-06 -1.030756e-05 -2.515320e-05
1.510000e+01 -3.336288e-05 3.675162e-06 -2.968772e-05 6.699190e-07
1.510400e+01 -8.792360e-05 8.001654e-06 -7.992195e-05 1.738696e-05
1.510800e+01 -7.547993e-05 -1.604993e-06 -7.708492e-05 -3.715581e-06
1.511200e+01 -1.258041e-05 -3.217597e-05 -4.475638e-05 -3.869745e-05
1.511600e+01 1.809733e-05 -4.031515e-05 -2.221782e-05 -3.012059e-05
1.512000e+01 -2.601483e-05 -4.093326e-05 -6.694809e-05 -2.592715e-05
1.512400e+01 -6.360659e-05 -1.370933e-05 -7.731591e-05 2.976225e-06
1.512800e+01 -8.607983e-05 1.036006e-05 -7.571976e-05 3.285611e-06
1.513200e+01 -7.867651e-05 2.274146e-05 -5.593504e-05 1.312829e-05
1.513600e+01 -6.451458e-05 3.814853e-05 -2.636606e-05 4.919559e-05
1.514000e+01 -8.587354e-05 2.335169e-05 -6.252185e-05 2.413209e-05
1.514400e+01 -1.018442e-04 -3.691659e-06 -1.055358e-04 -2.439033e-05
1.514800e+01 -9.601999e-05 1.317993e-05 -8.284007e-05 1.316800e-05
1.515200e+01 -9.101518e-05 1.688868e-05 -7.412650e-05 -2.622315e-07
1.515600e+01 -7.265670e-05 1.128348e-05 -6.137322e-05 -3.396859e-05
1.516000e+01 -8.053989e-05 3.071245e-05 -4.982744e-05 -1.836893e-05
1.516400e+01 -8.843610e-05 4.190229e-05 -4.653381e-05 1.658881e-05
1.516800e+01 -8.559764e-05 2.637754e-05 -5.922010e-05 1.663811e-05
1.517200e+01 -5.716953e-05 1.141224e-06 -5.602830e-05 -7.554243e-06
1.517600e+01 -5.598350e-05 -2.243287e-05 -7.841637e-05 -3.067063e-05
1.518000e+01 -7.321882e-05 -4.396537e-05 -1.171842e-04 -5.167348e-05
1.518400e+01 -8.911693e-05 -5.210689e-05 -1.412238e-04 -4.569057e-05
1.518800e+01 -7.435486e-05 -4.485650e-05 -1.192114e-04 -2.669318e-05
1.519200e+01 -6.492004e-05 -3.301256e-05 -9.793260e-05 -6.194258e-06
1.519600e+01 -7.718673e-05 -3.352591e-05 -1.107126e-04 -2.007527e-05
1.520000e+01 -9.304339e-05 -2.768207e-05 -1.207255e-04 -1.198737e-05
1.520400e+01 -1.226488e-04 -1.331276e-05 -1.359616e-04 1.197008e-05
1.520800e+01 -1.405093e-04 8.017258e-06 -1.324920e-04 2.981791e-05
1.521200e+01 -1.300184e-04 1.734622e-05 -1.126722e-04 2.410193e-05
1.521600e+01 -1.265445e-04 6.464473e-06 -1.200800e-04 5.398327e-06
1.522000e+01 -1.361147e-04 1.005501e-05 -1.260597e-04 2.367016e-05
1.522400e+01 -1.622987e-04 5.016637e-06 -1.572820e-04 1.280017e-05
1.522800e+01 -1.661638e-04 9.747640e-06 -1.564162e-04 9.543847e-06
1.523200e+01 -1.642999e-04 2.580597e-05 -1.384939e-04 5.032703e-05
1.523600e+01 -1.580891e-04 2.159445e-05 -1.364947e-04 5.343330e-05
1.524000e+01 -1.618669e-04 -1.420129e-05 -1.760682e-04 -1.015017e-05
1.524400e+01 -1.760639e-04 -3.843295e-05 -2.144968e-04 -6.932558e-05
1.524800e+01 -1.762461e-04 -3.316862e-05 -2.094147e-04 -3.955165e-05
1.525200e+01 -2.162988e-04 -9.835871e-06 -2.261346e-04 6.244632e-06
1.525600e+01 -2.635439e-04 -6.732162e-07 -2.642171e-04 5.875987e-06
1.526000e+01 -2.548633e-04 1.813641e-06 -2.530496e-04 -1.608182e-05
1.526400e+01 -2.338699e-04 1.314940e-05 -2.207205e-04 -2.740248e-06
1.526800e+01 -2.417530e-04 2.012732e-05 -2.216257e-04 2.298838e-05
1.527200e+01 -2.177550e-04 -4.322108e-06 -2.220771e-04 1.614608e-05
1.527600e+01 -1.982672e-04 -1.994650e-05 -2.182137e-04 1.222789e-05
1.528000e+01 -2.108894e-04 -2.946741e-05 -2.403568e-04 -7.261519e-06
1.528400e+01 -2.195644e-04 -1.647236e-05 -2.360368e-04 3.794051e-06
1.528800e+01 -2.327982e-04 -1.242874e-05 -2.452270e-04 -9.301890e-06
1.529200e+01 -2.488888e-04 -1.273666e-05 -2.616254e-04 -1.093659e-05
1.529600e+01 -2.407546e-04 1.102938e-06 -2.396517e-04 1.916346e-05
1.530000e+01 -2.342114e-04 1.868665e-05 -2.155248e-04 4.226110e-05
1.530400e+01 -2.243205e-04 4.452386e-05 -1.797966e-04 7.209849e-05
1.530800e+01 -1.812802e-04 3.264632e-05 -1.486339e-04 4.362816e-05
1.531200e+01 -1.681670e-04 -6.548914e-06 -1.747159e-04 -3.471113e-05
1.531600e+01 -1.601667e-04 -2.577959e-05 -1.859463e-04 -5.826403e-05
1.532000e+01 -1.226629e-04 -2.841418e-05 -1.510771e-04 -4.973376e-05
1.532400e+01 -8.776593e-05 -2.387332e-05 -1.116393e-04 -2.546737e-05
1.532800e+01 -1.017411e-04 -9.119800e-06 -1.108609e-04 -1.261333e-07
1.533200e+01 -1.173595e-04 1.049553e-05 -1.068640e-04 2.882952e-05
1.533600e+01 -9.263196e-05 1.203533e-05 -8.059663e-05 2.188063e-05
1.534000e+01 -6.139737e-05 3.585530e-05 -2.554207e-05 3.980670e-05
1.534400e+01 -3.855666e-05 6.450080e-05 2.594414e-05 6.630450e-05
1.534800e+01 -3.854678e-05 6.172635e-05 2.317956e-05 6.006305e-05
1.535200e+01 -7.153864e-05 4.596697e-05 -2.557167e-05 2.468663e-05
1.535600e+01 -6.414891e-05 2.881172e-05 -3.533719e-05 -1.414613e-05
1.536000e+01 -2.476506e-05 1.419500e-05 -1.057006e-05 -2.805314e-05
1.536400e+01 -1.985070e-05 9.216364e-06 -1.063434e-05 -3.014689e-05
1.536800e+01 -4.854642e-05 1.954986e-05 -2.899656e-05 -1.668055e-05
1.537200e+01 -2.703744e-05 2.257094e-05 -4.466499e-06 1.061184e-05
1.537600e+01 1.287088e-05 9.306516e-06 2.217739e-05 2.346370e-05
1.538000e+01 6.454058e-05 -1.326290e-05 5.127768e-05 2.154752e-05
1.538400e+01 1.019478e-04 -5.692135e-05 4.502647e-05 -3.286324e-05
1.538800e+01 8.809123e-05 -6.408989e-05 2.400134e-05 -3.695662e-05
1.539200e+01 6.706659e-05 -4.720360e-05 1.986300e-05 2.759499e-06
1.539600e+01 7.527025e-05 -4.105282e-05 3.421742e-05 1.118506e-05
1.540000e+01 7.547651e-05 -3.833270e-05 3.714381e-05 -8.700599e-06
1.540400e+01 5.633596e-05 -3.260210e-05 2.373386e-05 -2.180454e-05
1.540800e+01 3.823886e-05 -1.526190e-05 2.297696e-05 1.356277e-05
1.541200e+01 9.883816e-06 -5.349731e-06 4.534085e-06 1.587649e-05
1.541600e+01 -1.117058e-05 -9.629313e-06 -2.079990e-05 -2.094191e-05
1.542000e+01 -1.008094e-05 5.375996e-06 -4.704947e-06 5.042910e-07
1.542400e+01 -5.704680e-06 1.295838e-05 7.253701e-06 3.527799e-06
1.542800e+01 4.657775e-06 -1.090694e-06 3.567081e-06 -3.477507e-05
1.543200e+01 -7.051020e-06 -2.104525e-07 -7.261472e-06 -3.035573e-05
1.543600e+01 -2.698762e-05 1.245911e-05 -1.452851e-05 1.123768e-06
1.544000e+01 -1.324900e-05 2.481825e-05 1.156925e-05 3.316212e-05
1.544400e+01 -7.969357e-06 2.078845e-05 1.281909e-05 3.250847e-05
1.544800e+01 -2.316501e-05 -8.736615e-07 -2.403868e-05 3.842973e-06
1.545200e+01 -2.521107e-05 -9.828468e-06 -3.503954e-05 3.743844e-06
1.545600e+01 -4.614578e-05 -5.527190e-06 -5.167297e-05 5.326931e-06
1.546000e+01 -4.208374e-05 -2.057561e-05 -6.265935e-05 -3.143615e-05
1.546400e+01 1.198970e-06 -3.195026e-05 -3.075129e-05 -3.964063e-05
1.546800e+01 -5.030962e-06 -2.563424e-05 -3.066520e-05 -2.683183e-05
1.547200e+01 -1.372554e-05 -1.166392e-05 -2.538945e-05 -1.583329e-05
1.547600e+01 -3.534748e-05 -2.852547e-06 -3.820003e-05 -1.825264e-05
1.548000e+01 -3.375387e-05 1.580797e-05 -1.794590e-05 1.819079e-05
1.548400e+01 -4.964851e-05 2.276019e-05 -2.688832e-05 2.827998e-05
1.548800e+01 -6.716778e-05 9.073604e-06 -5.809418e-05 -9.027243e-06
1.549200e+01 -8.152424e-05 -1.867210e-06 -8.339145e-05 -2.954387e-05
1.549600e+01 -8.019440e-05 -8.124451e-06 -8.831885e-05 -2.690757e-05
1.550000e+01 -7.412477e-05 -7.154167e-06 -8.127894e-05 -1.219416e-05
1.550400e+01 -4.400806e-05 6.140988e-06 -3.786707e-05 2.713646e-05
1.550800e+01 -2.574110e-05 2.722948e-05 1.488384e-06 7.262620e-05
1.551200e+01 -8.560449e-05 2.219200e-05 -6.341249e-05 3.240302e-05
1.551600e+01 -1.333390e-04 8.213909e-06 -1.251251e-04 -4.196895e-05
1.552000e+01 -1.002363e-04 1.321781e-05 -8.701848e-05 -4.124339e-05
1.552400e+01 -1.092009e-04 2.082502e-05 -8.837591e-05 -8.314031e-06
1.552800e+01 -1.146045e-04 2.088856e-05 -9.371591e-05 3.202547e-06
1.553200e+01 -1.061617e-04 2.779807e-05 -7.836361e-05 2.454165e-05
1.553600e+01 -8.648682e-05 3.795905e-05 -4.852777e-05 4.848055e-05
1.554000e+01 -9.956039e-05 3.078676e-05 -6.877363e-05 -2.789862e-07
1.554400e+01 -1.252226e-04 1.249962e-05 -1.127230e-04 -6.764507e-05
1.554800e+01 -7.771826e-05 5.525576e-06 -7.219268e-05 -6.919511e-05
1.555200e+01 -5.777056e-05 1.926714e-05 -3.850342e-05 -4.977956e-06
1.555600e+01 -8.735531e-05 2.258478e-05 -6.477052e-05 1.755669e-05
1.556000e+01 -7.299728e-05 1.578271e-05 -5.721456e-05 1.413097e-05
1.556400e+01 -6.383831e-05 -2.844420e-06 -6.668273e-05 -1.364356e-05
1.556800e+01 -8.910134e-05 -3.736885e-06 -9.283823e-05 -1.346615e-05
1.557200e+01 -8.714458e-05 5.868617e-06 -8.127597e-05 -2.181996e-07
1.557600e+01 -7.043851e-05 2.260333e-05 -4.783518e-05 3.035285e-05
1.558000e+01 -9.334347e-05 2.565325e-05 -6.769022e-05 1.091531e-05
1.558400e+01 -1.023823e-04 1.813803e-05 -8.424424e-05 -1.812642e-05
1.558800e+01 -8.961465e-05 1.051284e-05 -7.910181e-05 -1.294732e-05
1.559200e+01 -8.328922e-05 8.579691e-06 -7.470953e-05 -1.319949e-05
1.559600e+01 -8.534876e-05 1.501191e-05 -7.033685e-05 2.937282e-06
1.560000e+01 -9.878446e-05 1.924464e-05 -7.953982e-05 1.848556e-05
1.560400e+01 -1.030984e-04 1.835350e-05 -8.474490e-05 1.503272e-05
1.560800e+01 -1.068731e-04 1.436064e-05 -9.251245e-05 1.872683e-05
1.561200e+01 -9.563125e-05 3.609746e-06 -9.202150e-05 4.452966e-06
1.561600e+01 -7.316874e-05 -1.011926e-07 -7.326993e-05 1.226992e-05
1.562000e+01 -7.763747e-05 -4.831757e-06 -8.246923e-05 1.509861e-06
1.562400e+01 -7.338440e-05 -6.419215e-06 -7.980361e-05 4.386333e-07
1.562800e+01 -6.822722e-05 -9.531750e-06 -7.775897e-05 9.301758e-06
1.563200e+01 -4.803593e-05 -1.438006e-05 -6.241599e-05 2.291727e-06
1.563600e+01 -7.541397e-05 -1.492625e-05 -9.034022e-05 4.118132e-06
1.564000e+01 -9.376458e-05 -1.023603e-05 -1.040006e-04 1.682886e-05
1.564400e+01 -1.083135e-04 -7.848831e-06 -1.161624e-04 -1.145699e-05
1.564800e+01 -8.978705e-05 -3.070780e-06 -9.285783e-05 -1.577282e-05
1.565200e+01 -7.417559e-05 3.563452e-06 -7.061214e-05 7.083832e-06
1.565600e+01 -8.848148e-05 1.420856e-05 -7.427292e-05 3.887007e-05
1.566000e+01 -1.003579e-04 1.945280e-05 -8.090508e-05 4.629386e-05
1.566400e+01 -8.852092e-05 1.666028e-05 -7.186065e-05 2.326455e-05
1.566800e+01 -1.017684e-04 6.608458e-06 -9.515993e-05 -1.037415e-05
1.567200e+01 -9.332303e-05 4.431640e-06 -8.889139e-05 1.638681e-06
1.567600e+01 -7.353461e-05 4.408228e-07 -7.309378e-05 2.216987e-06
1.568000e+01 -5.102184e-05 -6.649670e-06 -5.767151e-05 3.011975e-06
1.568400e+01 -3.982710e-05 -1.062673e-05 -5.045382e-05 1.433500e-05
1.568800e+01 -3.360082e-05 -8.856988e-06 -4.245781e-05 2.724556e-05
1.569200e+01 -5.465776e-05 -9.999086e-06 -6.465684e-05 1.727993e-06
1.569600e+01 -9.198174e-05 -8.744400e-06 -1.007261e-04 -2.550315e-05
1.570000e+01 -1.087434e-04 -2.194828e-06 -1.109382e-04 -1.443985e-05
1.570400e+01 -9.852786e-05 7.996233e-07 -9.772824e-05 1.865079e-05
1.570800e+01 -7.031677e-05 -9.928132e-07 -7.130959e-05 4.116062e-05
1.571200e+01 -6.413285e-05 -4.974754e-06 -6.910761e-05 1.129615e-05
1.571600e+01 -7.161949e-05 -7.733193e-06 -7.935269e-05 -3.184365e-05
1.572000e+01 -6.566009e-05 -1.063497e-05 -7.629507e-05 -2.272236e-05
1.572400e+01 -6.769855e-05 -1.173757e-05 -7.943612e-05 2.085957e-05
1.572800e+01 -8.394884e-05 -1.804762e-05 -1.019965e-04 1.247284e-05
1.573200e+01 -8.730148e-05 -2.372400e-05 -1.110255e-04 -1.585971e-05
1.573600e+01 -5.514478e-05 -2.361024e-05 -7.875502e-05 -2.018321e-05
1.574000e+01 -4.329525e-05 -9.468863e-06 -5.276411e-05 3.483904e-05
1.574400e+01 -7.940629e-05 1.336105e-06 -7.807019e-05 3.973870e-05
1.574800e+01 -1.054906e-04 4.666029e-06 -1.008246e-04 1.495853e-05
1.575200e+01 -1.023268e-04 4.318188e-06 -9.800865e-05 8.192668e-06
1.575600e+01 -9.635574e-05 -3.253025e-06 -9.960877e-05 -2.394200e-05
1.576000e+01 -6.169809e-05 -9.319695e-06 -7.101778e-05 -2.181737e-05
1.576400e+01 -3.094519e-05 -9.166471e-06 -4.011166e-05 -6.859443e-06
1.576800e+01 -1.627923e-05 -6.168331e-06 -2.244756e-05 4.877903e-06
1.577200e+01 -9.686599e-06 -5.097400e-07 -1.019634e-05 3.025413e-05
1.577600e+01 -5.686849e-05 -4.750014e-06 -6.161851e-05 8.723765e-06
1.578000e+01 -9.416412e-05 -1.562684e-05 -1.097910e-04 -6.121600e-05
1.578400e+01 -9.974321e-05 -1.634006e-05 -1.160833e-04 -7.074237e-05
1.578800e+01 -1.075015e-04 -1.423233e-05 -1.217338e-04 -6.438456e-05
1.579200e+01 -7.519960e-05 -1.319043e-05 -8.839003e-05 -3.203868e-05
1.579600e+01 -3.638363e-05 -6.489933e-06 -4.287356e-05 4.859606e-05
1.580000e+01 -5.366732e-05 -2.215073e-06 -5.588239e-05 6.725947e-05
1.580400e+01 -1.010406e-04 -6.781265e-06 -1.078218e-04 7.502194e-06
1.580800e+01 -1.726598e-04 -1.753803e-05 -1.901979e-04 -8.192495e-05
1.581200e+01 -1.598065e-04 -2.754731e-05 -1.873538e-04 -7.770767e-05
1.581600e+01 -1.442634e-04 -2.351274e-05 -1.677761e-04 -3.162991e-05
1.582000e+01 -1.556485e-04 -4.031327e-06 -1.596799e-04 1.081365e-05
1.582400e+01 -1.463637e-04 2.324749e-05 -1.231162e-04 5.401420e-05
1.582800e+01 -1.520840e-04 2.662698e-05 -1.254571e-04 5.378272e-05
1.583200e+01 -1.768541e-04 1.679256e-06 -1.751748e-04 -1.017161e-05
1.583600e+01 -1.530134e-04 -9.043342e-06 -1.620567e-04 -2.499275e-05
1.584000e+01 -1.655674e-04 -1.694094e-05 -1.825083e-04 -2.996511e-05
1.584400e+01 -1.334363e-04 -1.655430e-06 -1.350918e-04 2.528180e-05
1.584800e+01 -9.297142e-05 1.771288e-05 -7.525854e-05 5.573683e-05
1.585200e+01 -1.467043e-04 9.982948e-06 -1.367214e-04 -1.489630e-05
1.585600e+01 -1.398781e-04 8.664092e-07 -1.390117e-04 -1.366687e-05
1.586000e+01 -1.376478e-04 -1.455147e-06 -1.391029e-04 1.126170e-06
1.586400e+01 -8.779117e-05 7.858620e-07 -8.700530e-05 2.016776e-05
1.586800e+01 -5.128464e-05 -4.962531e-06 -5.624717e-05 -2.140888e-06
1.587200e+01 -7.109148e-05 -1.452345e-05 -8.561493e-05 -4.541930e-05
1.587600e+01 -5.827105e-05 -1.081359e-05 -6.908464e-05 -3.388020e-05
1.588000e+01 -5.216264e-05 -8.496544e-07 -5.301230e-05 -1.732802e-05
1.588400e+01 -6.041360e-05 8.037625e-06 -5.237598e-05 1.785520e-05
1.588800e+01 -4.907802e-05 2.716370e-05 -2.191432e-05 6.816211e-05
1.589200e+01 -5.016140e-05 3.129079e-05 -1.887061e-05 5.471303e-05
1.589600e+01 -6.907224e-05 1.564812e-05 -5.342412e-05 -5.405095e-06
1.590000e+01 -6.277749e-05 4.780574e-06 -5.799691e-05 -3.059037e-05
1.590400e+01 -1.448457e-05 3.475961e-06 -1.100861e-05 -8.647264e-06
1.590800e+01 -5.682176e-06 -4.366535e-07 -6.118829e-06 -2.037463e-05
1.591200e+01 1.341151e-06 1.502511e-06 2.843662e-06 -4.575540e-06
1.591600e+01 6.422022e-07 -1.463453e-08 6.275677e-07 -1.168458e-05
1.592000e+01 -1.940764e-05 -4.730108e-07 -1.988065e-05 -1.937551e-05
1.592400e+01 -4.953963e-05 3.433318e-06 -4.610632e-05 -8.086069e-06
1.592800e+01 -5.907646e-05 3.235806e-06 -5.584066e-05 -1.383326e-05
1.593200e+01 -2.135153e-05 3.985718e-06 -1.736581e-05 -5.702728e-06
1.593600e+01 1.122201e-06 9.934633e-06 1.105683e-05 2.317006e-05
1.594000e+01 -1.511463e-05 1.256787e-05 -2.546763e-06 2.311630e-05
1.594400e+01 -5.182331e-05 5.455191e-06 -4.636812e-05 -3.937509e-06
1.594800e+01 -8.072238e-05 -5.954777e-06 -8.667716e-05 -1.880570e-05
1.595200e+01 -1.185690e-04 3.042979e-06 -1.155260e-04 1.605248e-05
1.595600e+01 -1.478803e-04 1.057579e-05 -1.373045e-04 2.271541e-05
1.596000e+01 -1.181242e-04 5.601515e-06 -1.125227e-04 -1.141805e-05
1.596400e+01 -1.610520e-04 -4.517346e-06 -1.655693e-04 -6.185407e-05
1.596800e+01 -2.715593e-04 5.087292e-06 -2.664720e-04 -3.493287e-05
1.597200e+01 -4.066227e-04 2.790732e-05 -3.787153e-04 2.473848e-05
