1.000400e+01 2.509446e-05 1.404028e-05 3.913474e-05 1.965756e-05
1.000800e+01 6.942838e-05 3.787855e-06 7.321624e-05 8.691070e-06
1.001200e+01 6.735765e-05 9.244950e-07 6.828215e-05 -2.368389e-06
1.001600e+01 3.481490e-05 -8.785219e-06 2.602968e-05 -3.188954e-05
1.002000e+01 1.599940e-05 -5.191676e-06 1.080773e-05 -2.244039e-05
1.002400e+01 -1.063507e-05 4.476219e-06 -6.158856e-06 9.349082e-06
1.002800e+01 1.148262e-05 -6.039727e-06 5.442891e-06 1.501539e-05
1.003200e+01 6.266234e-05 -1.216923e-05 5.049311e-05 1.799667e-06
1.003600e+01 6.706259e-05 -2.734542e-06 6.432804e-05 4.447995e-07
1.004000e+01 1.936660e-05 2.004617e-06 2.137122e-05 -1.278674e-05
1.004400e+01 -3.256134e-06 1.049461e-05 7.238475e-06 2.001794e-05
1.004800e+01 -4.876053e-06 6.005839e-06 1.129786e-06 3.968436e-05
1.005200e+01 3.242140e-05 -6.797007e-06 2.562440e-05 -3.617372e-06
1.005600e+01 1.286645e-05 -5.862791e-06 7.003661e-06 -4.547025e-05
1.006000e+01 5.557883e-06 3.240351e-06 8.798234e-06 -3.215221e-05
1.006400e+01 7.396506e-05 9.439457e-06 8.340451e-05 2.909935e-05
1.006800e+01 8.251270e-05 1.394876e-06 8.390757e-05 3.906768e-05
1.007200e+01 4.277272e-05 -2.905923e-06 3.986680e-05 1.026514e-05
1.007600e+01 2.070609e-05 -7.318854e-06 1.338724e-05 -1.624637e-05
1.008000e+01 1.905259e-05 -1.598628e-05 3.066302e-06 -3.646809e-05
1.008400e+01 -7.436630e-07 -1.477514e-05 -1.551880e-05 -2.573502e-05
1.008800e+01 4.841531e-05 2.937390e-07 4.870905e-05 2.598569e-05
1.009200e+01 6.035934e-05 6.848471e-06 6.720781e-05 4.841264e-05
1.009600e+01 5.814779e-05 -5.064412e-06 5.308337e-05 1.985474e-05
1.010000e+01 6.620944e-05 -1.253129e-05 5.367815e-05 -2.506712e-06
1.010400e+01 6.460129e-05 -6.534338e-06 5.806695e-05 1.080231e-05
1.010800e+01 3.236737e-05 -6.664423e-06 2.570295e-05 -9.561917e-06
1.011200e+01 5.046196e-05 -5.565492e-06 4.489647e-05 -3.058630e-05
1.011600e+01 8.985656e-05 -3.261245e-06 8.659532e-05 -1.053781e-05
1.012000e+01 8.307672e-05 -1.072238e-05 7.235434e-05 -1.362981e-06
1.012400e+01 7.354643e-05 -1.773000e-05 5.581643e-05 4.483718e-07
1.012800e+01 6.480479e-05 -2.076103e-05 4.404376e-05 6.766084e-07
1.013200e+01 4.206492e-05 -1.144061e-05 3.062432e-05 1.060337e-05
1.013600e+01 4.205822e-05 1.283438e-06 4.334165e-05 2.125970e-05
1.014000e+01 6.258264e-05 -9.574351e-07 6.162520e-05 2.002518e-05
1.014400e+01 7.340779e-05 9.314283e-08 7.350093e-05 2.153336e-05
1.014800e+01 7.261163e-05 5.617105e-07 7.317334e-05 1.401419e-05
1.015200e+01 6.322378e-05 9.479433e-06 7.270321e-05 2.133095e-05
1.015600e+01 4.300862e-05 1.878242e-05 6.179104e-05 1.467804e-05
1.016000e+01 3.224164e-05 1.590122e-05 4.814286e-05 -1.297850e-05
1.016400e+01 2.116224e-05 1.137457e-05 3.253682e-05 -1.701816e-05
1.016800e+01 4.746005e-05 8.218492e-06 5.567855e-05 3.856176e-06
1.017200e+01 7.379829e-05 -1.419272e-06 7.237902e-05 5.118775e-06
1.017600e+01 9.609518e-05 -9.891991e-06 8.620319e-05 -5.916197e-06
1.018000e+01 1.225022e-04 -5.555282e-06 1.169469e-04 -8.838834e-07
1.018400e+01 6.882961e-05 -4.730561e-06 6.409905e-05 -2.836741e-06
1.018800e+01 1.133568e-05 8.829701e-07 1.221865e-05 -2.095644e-05
1.019200e+01 3.543575e-05 1.871871e-05 5.415446e-05 -4.204129e-06
1.019600e+01 5.351042e-05 2.845288e-05 8.196329e-05 -2.371571e-06
1.020000e+01 2.003900e-05 3.441468e-05 5.445367e-05 -9.892775e-06
1.020400e+01 2.723058e-05 2.904348e-05 5.627405e-05 -1.475772e-05
1.020800e+01 2.222324e-05 3.669808e-05 5.892132e-05 -1.022366e-06
1.021200e+01 1.673271e-05 4.219071e-05 5.892342e-05 3.900451e-06
1.021600e+01 2.471873e-05 4.095055e-05 6.566928e-05 -1.943903e-06
1.022000e+01 3.256223e-05 4.416839e-05 7.673062e-05 -5.762276e-06
1.022400e+01 7.547432e-06 4.077516e-05 4.832259e-05 -1.917184e-05
1.022800e+01 1.822068e-05 3.759036e-05 5.581104e-05 -1.423600e-05
1.023200e+01 3.654364e-05 3.788649e-05 7.443014e-05 1.709296e-06
1.023600e+01 4.086945e-05 4.136162e-05 8.223107e-05 2.320921e-05
1.024000e+01 3.692139e-05 4.909099e-05 8.601238e-05 3.192632e-05
1.024400e+01 3.062525e-05 5.215508e-05 8.278033e-05 2.676620e-05
1.024800e+01 2.005691e-05 4.386873e-05 6.392564e-05 -4.526386e-06
1.025200e+01 -1.820258e-05 4.117200e-05 2.296942e-05 -2.515321e-05
1.025600e+01 -2.176057e-05 5.310238e-05 3.134181e-05 -1.325411e-06
1.026000e+01 6.103345e-06 4.537958e-05 5.148293e-05 -1.150348e-06
1.026400e+01 6.851142e-05 2.965726e-05 9.816868e-05 -2.377901e-05
1.026800e+01 1.244777e-04 4.070483e-05 1.651825e-04 1.221761e-05
1.027200e+01 6.762022e-05 3.542478e-05 1.030450e-04 2.558014e-05
1.027600e+01 -1.832502e-05 1.920890e-05 8.838788e-07 -1.800121e-05
1.028000e+01 -4.689488e-05 2.355505e-05 -2.333984e-05 -2.496132e-05
1.028400e+01 -1.670357e-05 1.929879e-05 2.595220e-06 -1.755807e-05
1.028800e+01 4.639624e-06 1.117430e-05 1.581392e-05 -1.009860e-05
1.029200e+01 3.685868e-05 4.715619e-06 4.157429e-05 -2.931448e-07
1.029600e+01 1.722203e-05 3.156452e-06 2.037848e-05 -4.640073e-06
1.030000e+01 -4.504370e-06 1.355099e-05 9.046618e-06 1.469388e-05
1.030400e+01 -4.934869e-05 9.659771e-06 -3.968892e-05 7.257295e-06
1.030800e+01 -7.028660e-05 5.877096e-06 -6.440951e-05 -3.361598e-06
1.031200e+01 -3.804222e-05 1.499265e-05 -2.304958e-05 1.962277e-05
1.031600e+01 -9.963119e-06 1.383857e-05 3.875454e-06 2.484784e-06
1.032000e+01 -1.332216e-05 1.264019e-05 -6.819643e-07 -1.407215e-05
1.032400e+01 3.363611e-05 1.196388e-05 4.560000e-05 5.084712e-06
1.032800e+01 5.287168e-05 6.228384e-06 5.910006e-05 4.142473e-06
1.033200e+01 3.225818e-05 2.141295e-07 3.247231e-05 -6.962167e-06
1.033600e+01 1.933750e-05 3.797536e-06 2.313504e-05 -1.352724e-05
1.034000e+01 2.979306e-05 1.224922e-06 3.101799e-05 -1.525884e-05
1.034400e+01 1.248923e-05 -4.092318e-06 8.396908e-06 -1.309717e-05
1.034800e+01 4.751833e-05 -1.615412e-05 3.136421e-05 -1.778549e-05
1.035200e+01 1.043357e-04 -2.930221e-05 7.503345e-05 -5.527363e-06
1.035600e+01 1.351133e-04 -2.504168e-05 1.100716e-04 1.320606e-05
1.036000e+01 1.804252e-04 -8.216176e-06 1.722090e-04 4.105441e-05
1.036400e+01 1.710045e-04 -3.825929e-06 1.671786e-04 3.518056e-05
1.036800e+01 7.014309e-05 -9.381299e-06 6.076179e-05 -2.321163e-05
1.037200e+01 3.257387e-05 -3.709019e-06 2.886485e-05 -4.473337e-05
1.037600e+01 7.829937e-05 5.537032e-06 8.383640e-05 -7.571264e-07
1.038000e+01 1.562134e-04 3.413221e-06 1.596267e-04 3.895772e-05
1.038400e+01 1.699553e-04 -4.902622e-06 1.650527e-04 2.151137e-05
1.038800e+01 1.157442e-04 -1.024246e-05 1.055017e-04 -1.791717e-05
1.039200e+01 8.838617e-05 -4.503980e-06 8.388219e-05 -1.757930e-05
1.039600e+01 1.151608e-04 -9.613895e-07 1.141994e-04 2.028361e-05
1.040000e+01 1.289691e-04 -8.250997e-06 1.207181e-04 2.271785e-05
1.040400e+01 1.195716e-04 -1.421451e-05 1.053571e-04 -5.731629e-06
1.040800e+01 1.234555e-04 -1.029984e-05 1.131557e-04 -1.356852e-05
1.041200e+01 9.857163e-05 -3.818459e-06 9.475317e-05 -7.258436e-06
1.041600e+01 5.676222e-05 -6.494713e-06 5.026751e-05 -6.243397e-06
1.042000e+01 5.366986e-05 -7.280686e-06 4.638917e-05 4.402715e-06
1.042400e+01 5.663093e-05 -9.903071e-07 5.564062e-05 1.515877e-05
1.042800e+01 7.759843e-06 -2.529739e-06 5.230104e-06 1.463220e-05
1.043200e+01 -1.493267e-05 -2.235886e-05 -3.729153e-05 -3.345622e-05
1.043600e+01 -7.759062e-06 -2.262247e-05 -3.038153e-05 -2.825765e-05
1.044000e+01 -7.592058e-05 -1.342357e-05 -8.934415e-05 2.158054e-05
1.044400e+01 -2.074021e-04 -1.553848e-05 -2.229406e-04 1.453203e-05
1.044800e+01 -3.360969e-04 -2.860639e-05 -3.647032e-04 -2.144694e-05
1.045200e+01 -3.230843e-04 -2.191452e-05 -3.449988e-04 2.506540e-05
1.045600e+01 -9.091117e-05 -2.186339e-05 -1.127746e-04 5.217864e-05
1.046000e+01 1.817112e-04 -4.427104e-05 1.374402e-04 1.139798e-05
1.046400e+01 3.189893e-04 -4.249578e-05 2.764935e-04 -2.265240e-05
1.046800e+01 4.084951e-04 -1.195555e-05 3.965395e-04 3.634263e-06
1.047200e+01 5.293879e-04 -1.873985e-05 5.106481e-04 3.543561e-06
1.047600e+01 4.790454e-04 -3.086260e-05 4.481828e-04 -8.690443e-06
1.048000e+01 3.953241e-04 -3.073544e-05 3.645887e-04 8.770510e-06
1.048400e+01 3.887748e-04 -2.625203e-05 3.625227e-04 2.266028e-05
1.048800e+01 3.343764e-04 -2.909396e-05 3.052824e-04 -1.486754e-05
1.049200e+01 2.330183e-04 -2.346532e-05 2.095530e-04 -1.622004e-05
1.049600e+01 1.849048e-04 -1.051503e-05 1.743897e-04 3.746850e-05
1.050000e+01 1.481345e-04 -1.239336e-05 1.357411e-04 2.934053e-05
1.050400e+01 1.086980e-04 -2.453355e-05 8.416444e-05 -2.657394e-05
1.050800e+01 1.374414e-04 -2.117482e-05 1.162666e-04 -2.095783e-05
1.051200e+01 1.203146e-04 -1.218473e-05 1.081299e-04 2.462381e-06
1.051600e+01 4.368776e-05 -1.325237e-05 3.043539e-05 1.022466e-05
1.052000e+01 1.969707e-05 -2.042719e-05 -7.301136e-07 1.319727e-05
1.052400e+01 4.441444e-05 -1.711480e-05 2.729964e-05 -6.020377e-06
1.052800e+01 8.460829e-05 -1.624842e-06 8.298345e-05 7.911250e-06
1.053200e+01 1.008496e-04 -3.993890e-06 9.685574e-05 8.830390e-06
1.053600e+01 5.951338e-05 -1.695221e-05 4.256118e-05 -2.163124e-05
1.054000e+01 3.539974e-05 -7.371215e-06 2.802853e-05 -1.622789e-05
1.054400e+01 3.748114e-05 2.016393e-06 3.949754e-05 1.265105e-05
1.054800e+01 9.657762e-05 1.510839e-06 9.808846e-05 4.090049e-05
1.055200e+01 9.364871e-05 2.906865e-07 9.393940e-05 3.383120e-05
1.055600e+01 4.589066e-05 2.570059e-06 4.846072e-05 1.286628e-05
1.056000e+01 -4.249049e-05 3.937566e-06 -3.855293e-05 -2.529774e-05
1.056400e+01 -6.356211e-05 9.533433e-06 -5.402867e-05 -2.915451e-05
1.056800e+01 2.076510e-05 1.600326e-05 3.676836e-05 1.144168e-05
1.057200e+01 6.117469e-05 7.464541e-06 6.863923e-05 2.040492e-05
1.057600e+01 2.575365e-05 -5.889702e-06 1.986395e-05 -2.080647e-05
1.058000e+01 -3.428463e-06 -8.021540e-06 -1.145000e-05 -4.182084e-05
1.058400e+01 2.060482e-05 4.116931e-06 2.472175e-05 -8.338586e-06
1.058800e+01 5.615182e-05 9.741743e-06 6.589357e-05 1.097487e-05
1.059200e+01 6.163834e-05 1.137873e-05 7.301707e-05 1.435506e-05
1.059600e+01 3.510239e-05 1.623927e-05 5.134165e-05 3.011707e-05
1.060000e+01 9.713071e-06 1.687859e-05 2.659166e-05 1.410996e-05
1.060400e+01 5.695259e-06 1.302577e-05 1.872103e-05 -2.096653e-05
1.060800e+01 2.147847e-05 1.447378e-05 3.595226e-05 -7.773469e-06
1.061200e+01 2.938370e-06 1.493760e-05 1.787597e-05 -1.124035e-05
1.061600e+01 1.469586e-05 1.917099e-05 3.386686e-05 -2.368229e-05
1.062000e+01 2.168414e-05 1.863013e-05 4.031426e-05 -7.349067e-06
1.062400e+01 1.410182e-05 9.451644e-06 2.355346e-05 -2.372128e-06
1.062800e+01 -6.535345e-06 1.089328e-06 -5.446017e-06 -1.558197e-05
1.063200e+01 -9.807596e-06 -4.880345e-07 -1.029563e-05 -1.846262e-05
1.063600e+01 1.832059e-05 3.677867e-06 2.199846e-05 -1.405485e-06
1.064000e+01 -2.342484e-05 2.598460e-06 -2.082638e-05 -1.673323e-05
1.064400e+01 -4.398124e-05 1.630511e-06 -4.235073e-05 -2.551389e-05
1.064800e+01 4.034104e-06 2.573402e-06 6.607506e-06 -1.951750e-05
1.065200e+01 9.716320e-06 8.272479e-06 1.798880e-05 -3.547856e-06
1.065600e+01 -4.170627e-05 9.663871e-06 -3.204240e-05 -7.156812e-06
1.066000e+01 -6.402749e-05 4.568549e-06 -5.945894e-05 -1.412551e-05
1.066400e+01 -2.132928e-05 8.293646e-06 -1.303564e-05 2.365327e-05
1.066800e+01 -8.903435e-06 6.242497e-06 -2.660938e-06 1.942671e-05
1.067200e+01 -5.484468e-05 -2.003748e-06 -5.684843e-05 -3.679782e-05
1.067600e+01 -8.763469e-05 -4.077841e-06 -9.171253e-05 -6.072515e-05
1.068000e+01 -1.099057e-04 -2.004880e-06 -1.119106e-04 -4.829657e-05
1.068400e+01 -1.041244e-04 -2.182679e-06 -1.063071e-04 -1.750783e-05
1.068800e+01 -1.024547e-04 -7.283905e-06 -1.097386e-04 1.072630e-06
1.069200e+01 -6.295431e-05 -7.142343e-06 -7.009666e-05 2.782713e-05
1.069600e+01 -5.341973e-05 -7.822142e-07 -5.420195e-05 3.016861e-05
1.070000e+01 -1.096753e-04 6.296852e-07 -1.090457e-04 -3.271711e-06
1.070400e+01 -1.199534e-04 5.720366e-07 -1.193814e-04 7.964093e-07
1.070800e+01 -1.258573e-04 4.554864e-06 -1.213024e-04 3.141161e-05
1.071200e+01 -1.556340e-04 7.287909e-06 -1.483461e-04 1.485273e-05
1.071600e+01 -1.712453e-04 8.543940e-06 -1.627013e-04 7.630480e-06
1.072000e+01 -1.425317e-04 8.813827e-06 -1.337179e-04 2.592401e-05
1.072400e+01 -1.230995e-04 8.382446e-06 -1.147171e-04 3.130104e-05
1.072800e+01 -1.339933e-04 4.084247e-07 -1.335849e-04 4.144180e-07
1.073200e+01 -1.270603e-04 -5.023741e-06 -1.320841e-04 -2.172501e-05
1.073600e+01 -1.322783e-04 -6.313164e-06 -1.385914e-04 -4.417993e-05
1.074000e+01 -1.184173e-04 -3.574774e-06 -1.219920e-04 -3.249313e-05
1.074400e+01 -7.075569e-05 -1.235405e-05 -8.310974e-05 -1.080188e-05
1.074800e+01 -5.508417e-05 -2.016009e-05 -7.524426e-05 1.168619e-05
1.075200e+01 -6.199021e-05 -1.573657e-05 -7.772679e-05 2.466301e-05
1.075600e+01 -8.390953e-06 -5.527040e-06 -1.391799e-05 3.959355e-05
1.076000e+01 4.015415e-05 -4.341046e-06 3.581310e-05 2.203089e-05
1.076400e+01 2.954160e-05 -2.085186e-06 2.745641e-05 2.774395e-06
1.076800e+01 -8.048482e-08 5.908798e-06 5.828313e-06 -4.139864e-06
1.077200e+01 4.416419e-05 1.690139e-05 6.106558e-05 3.316899e-05
1.077600e+01 8.896181e-05 1.076396e-05 9.972577e-05 2.728597e-05
1.078000e+01 8.248130e-05 -1.409085e-06 8.107222e-05 -5.338104e-06
1.078400e+01 9.839446e-05 -3.124440e-07 9.808202e-05 5.129550e-06
1.078800e+01 1.349752e-04 6.611830e-06 1.415870e-04 1.625768e-05
1.079200e+01 1.492776e-04 1.193310e-05 1.612107e-04 2.683815e-05
1.079600e+01 1.379006e-04 1.023727e-05 1.481379e-04 3.535099e-05
1.080000e+01 1.388825e-04 9.597959e-06 1.484805e-04 4.206317e-05
1.080400e+01 1.245604e-04 1.790237e-06 1.263506e-04 -2.930120e-06
1.080800e+01 5.409826e-05 -1.244528e-05 4.165298e-05 -8.112333e-05
1.081200e+01 5.788497e-05 -1.158984e-05 4.629512e-05 -8.978097e-05
1.081600e+01 1.674791e-04 7.574627e-06 1.750537e-04 4.949280e-06
1.082000e+01 2.566761e-04 7.979182e-06 2.646553e-04 4.998584e-05
1.082400e+01 1.833690e-04 -5.833785e-06 1.775352e-04 1.141672e-05
1.082800e+01 1.333162e-04 -2.414782e-06 1.309014e-04 1.186280e-05
1.083200e+01 1.429550e-04 3.080484e-06 1.460355e-04 2.031786e-05
1.083600e+01 1.479757e-04 1.459639e-06 1.494353e-04 -7.978236e-06
1.084000e+01 1.275576e-04 4.454687e-06 1.320123e-04 -4.577055e-05
1.084400e+01 1.106287e-04 1.277649e-05 1.234052e-04 -3.175465e-05
1.084800e+01 1.315078e-04 1.510970e-05 1.466175e-04 1.558228e-05
1.085200e+01 1.561819e-04 -1.665121e-06 1.545168e-04 1.045147e-05
1.085600e+01 1.625238e-04 -1.214186e-05 1.503820e-04 -2.630530e-05
1.086000e+01 1.879407e-04 1.522094e-05 2.031616e-04 1.948151e-05
1.086400e+01 1.949233e-04 3.628554e-05 2.312088e-04 5.923744e-05
1.086800e+01 1.458164e-04 2.801525e-05 1.738316e-04 2.119762e-05
1.087200e+01 1.158622e-04 2.239085e-05 1.382530e-04 -1.222514e-05
1.087600e+01 1.069124e-04 1.930938e-05 1.262217e-04 6.161247e-07
1.088000e+01 9.490320e-05 1.519322e-05 1.100964e-04 1.527344e-05
1.088400e+01 1.183803e-04 1.639762e-05 1.347779e-04 1.242905e-05
1.088800e+01 1.051026e-04 1.924313e-05 1.243457e-04 -1.311290e-05
1.089200e+01 7.177376e-05 2.890367e-05 1.006774e-04 -2.706416e-05
1.089600e+01 4.280828e-05 2.961095e-05 7.241923e-05 -2.583431e-05
1.090000e+01 8.647118e-05 1.340553e-05 9.987671e-05 -6.245042e-06
1.090400e+01 1.269802e-04 -1.371112e-06 1.256091e-04 1.052741e-05
1.090800e+01 1.050600e-04 -1.024902e-05 9.481102e-05 -3.023153e-06
1.091200e+01 1.152741e-04 -1.195654e-05 1.033176e-04 -1.200385e-05
1.091600e+01 6.456002e-05 -7.466355e-06 5.709366e-05 -2.204988e-05
1.092000e+01 2.567228e-05 8.044673e-06 3.371695e-05 -6.294790e-07
1.092400e+01 1.179811e-04 2.993274e-05 1.479139e-04 6.577171e-05
1.092800e+01 2.081149e-04 3.534449e-05 2.434594e-04 7.575499e-05
1.093200e+01 1.658524e-04 3.129270e-05 1.971451e-04 2.134435e-05
1.093600e+01 1.121769e-04 3.192106e-05 1.440980e-04 -1.695638e-05
1.094000e+01 8.934013e-05 3.039737e-05 1.197375e-04 -2.839984e-05
1.094400e+01 4.161678e-05 2.000064e-05 6.161741e-05 -4.100854e-05
1.094800e+01 8.835891e-06 1.634038e-05 2.517627e-05 -3.419308e-05
1.095200e+01 4.455161e-05 2.368276e-05 6.823437e-05 2.012471e-05
1.095600e+01 1.412404e-04 6.764934e-06 1.480053e-04 4.622882e-05
1.096000e+01 1.721345e-04 -1.218587e-05 1.599486e-04 1.695614e-05
1.096400e+01 1.307864e-04 -1.152275e-05 1.192636e-04 -1.308845e-05
1.096800e+01 8.235605e-05 8.684518e-06 9.104057e-05 -4.936361e-06
1.097200e+01 5.360765e-05 1.707000e-05 7.067766e-05 -2.396401e-06
1.097600e+01 9.002502e-05 8.500652e-06 9.852567e-05 -6.621249e-06
1.098000e+01 1.329919e-04 -8.041166e-07 1.321878e-04 -1.810326e-05
1.098400e+01 1.442625e-04 1.906190e-06 1.461687e-04 -1.054006e-05
1.098800e+01 7.008310e-05 -3.598333e-06 6.648477e-05 -1.401769e-05
1.099200e+01 2.513334e-05 -1.622909e-05 8.904259e-06 -5.751648e-05
1.099600e+01 7.306419e-05 -2.412872e-06 7.065132e-05 -3.080040e-05
1.100000e+01 1.522520e-04 9.407013e-08 1.523461e-04 5.402297e-06
1.100400e+01 1.816694e-04 -8.313763e-06 1.733557e-04 1.987157e-05
1.100800e+01 1.954147e-04 -1.935353e-05 1.760612e-04 2.950416e-05
1.101200e+01 1.855930e-04 -1.652641e-05 1.690666e-04 3.427854e-05
1.101600e+01 1.248917e-04 -1.205232e-05 1.128394e-04 -2.084109e-05
1.102000e+01 6.138533e-05 -7.182473e-06 5.420286e-05 -5.361596e-05
1.102400e+01 5.183237e-05 9.646565e-06 6.147893e-05 -2.809800e-05
1.102800e+01 9.125555e-05 2.326333e-05 1.145189e-04 1.594382e-05
1.103200e+01 1.276773e-04 1.151508e-05 1.391924e-04 3.833805e-05
1.103600e+01 1.437897e-04 -1.785134e-05 1.259384e-04 1.517561e-05
1.104000e+01 1.193878e-04 -3.836436e-05 8.102343e-05 -4.564572e-05
1.104400e+01 1.160668e-04 -2.385725e-05 9.220954e-05 -3.099949e-05
1.104800e+01 1.778569e-04 -6.617496e-07 1.771952e-04 2.719806e-05
1.105200e+01 1.867337e-04 1.586873e-06 1.883206e-04 2.575454e-05
1.105600e+01 1.533856e-04 1.581960e-06 1.549676e-04 1.698081e-05
1.106000e+01 1.073202e-04 -1.560665e-05 9.171353e-05 1.512286e-06
1.106400e+01 3.541311e-05 -3.542766e-05 -1.455743e-08 -4.879932e-05
1.106800e+01 3.282670e-05 -2.214812e-05 1.067858e-05 -4.329120e-05
1.107200e+01 1.013827e-04 -7.191582e-06 9.419112e-05 -7.411886e-06
1.107600e+01 1.842449e-04 -2.807503e-06 1.814374e-04 1.172094e-05
1.108000e+01 2.327206e-04 -8.600753e-06 2.241198e-04 2.413535e-05
1.108400e+01 2.121613e-04 -3.271867e-05 1.794427e-04 4.271401e-06
1.108800e+01 1.431689e-04 -3.738930e-05 1.057796e-04 -2.749098e-05
1.109200e+01 8.877433e-05 -1.490071e-05 7.387361e-05 -1.346871e-05
1.109600e+01 8.465589e-05 1.042595e-06 8.569848e-05 4.544863e-06
1.110000e+01 1.236318e-04 -3.287190e-07 1.233030e-04 -3.102175e-06
1.110400e+01 1.043891e-04 -1.533112e-05 8.905800e-05 -4.111916e-05
1.110800e+01 9.941055e-05 -2.759918e-05 7.181137e-05 -4.168876e-05
1.111200e+01 1.387490e-04 -2.504464e-05 1.137044e-04 3.202089e-07
1.111600e+01 1.614529e-04 -9.599879e-06 1.518530e-04 4.979427e-05
1.112000e+01 1.289413e-04 -5.245227e-06 1.236961e-04 4.002976e-05
1.112400e+01 1.098419e-04 -7.333394e-06 1.025085e-04 1.161381e-05
1.112800e+01 1.299027e-04 -4.279985e-06 1.256227e-04 1.077314e-05
1.113200e+01 1.369264e-04 -7.461533e-06 1.294648e-04 2.332861e-06
1.113600e+01 1.009228e-04 -1.632460e-05 8.459816e-05 -2.559174e-05
1.114000e+01 4.101514e-05 -2.145466e-05 1.956048e-05 -2.656750e-05
1.114400e+01 4.687606e-05 -1.870274e-05 2.817332e-05 -4.819153e-06
1.114800e+01 1.429866e-04 -1.304037e-05 1.299462e-04 2.522726e-05
1.115200e+01 1.702439e-04 -9.766190e-06 1.604777e-04 3.874423e-05
1.115600e+01 1.156905e-04 -1.089862e-05 1.047918e-04 1.239049e-05
1.116000e+01 8.827287e-05 -3.161531e-06 8.511134e-05 2.243289e-05
1.116400e+01 1.012622e-04 -9.336016e-07 1.003286e-04 1.922148e-05
1.116800e+01 1.370883e-04 -6.487944e-06 1.306003e-04 -1.317402e-05
1.117200e+01 9.235046e-05 -1.187570e-05 8.047476e-05 -5.481725e-05
1.117600e+01 3.970238e-05 -1.102295e-05 2.867942e-05 -5.052541e-05
1.118000e+01 1.129077e-04 2.375049e-06 1.152828e-04 2.285940e-05
1.118400e+01 1.811779e-04 9.719106e-06 1.908970e-04 7.869478e-05
1.118800e+01 1.640444e-04 -2.492055e-06 1.615524e-04 4.832602e-05
1.119200e+01 1.185146e-04 -7.580905e-06 1.109337e-04 -6.518140e-06
1.119600e+01 3.925812e-05 2.937392e-06 4.219551e-05 -3.849583e-05
1.120000e+01 1.687395e-05 1.179077e-05 2.866472e-05 -4.659651e-05
1.120400e+01 7.451074e-05 6.434662e-06 8.094540e-05 -1.734902e-05
1.120800e+01 9.987173e-05 -9.929531e-06 8.994220e-05 -3.255147e-06
1.121200e+01 1.014871e-04 -1.372532e-05 8.776177e-05 7.396549e-07
1.121600e+01 1.215816e-04 -3.969902e-06 1.176117e-04 1.844603e-05
1.122000e+01 1.259201e-04 8.711548e-06 1.346316e-04 4.278553e-05
1.122400e+01 7.708519e-05 2.001929e-05 9.710448e-05 4.135798e-05
1.122800e+01 6.312178e-05 2.686014e-05 8.998192e-05 3.661253e-05
1.123200e+01 6.043088e-05 2.500933e-05 8.544021e-05 2.014678e-05
1.123600e+01 6.521691e-05 1.770329e-05 8.292020e-05 -5.640939e-06
1.124000e+01 7.279932e-05 1.048707e-05 8.328639e-05 -2.239309e-05
1.124400e+01 6.176680e-05 7.589970e-06 6.935677e-05 -2.233776e-05
1.124800e+01 4.286707e-05 1.881705e-05 6.168413e-05 4.389386e-06
1.125200e+01 6.298727e-05 2.700217e-05 8.998944e-05 2.282964e-05
1.125600e+01 7.756565e-05 2.108690e-05 9.865255e-05 2.965752e-06
1.126000e+01 6.059792e-05 1.634597e-05 7.694389e-05 -2.797614e-06
1.126400e+01 7.642528e-05 7.199938e-06 8.362522e-05 -5.822777e-06
1.126800e+01 1.027324e-04 -2.489906e-06 1.002425e-04 -3.445086e-05
1.127200e+01 8.848354e-05 5.145593e-06 9.362913e-05 -2.787174e-05
1.127600e+01 9.381654e-05 1.748448e-05 1.113010e-04 2.214602e-05
1.128000e+01 1.006188e-04 2.384219e-05 1.244610e-04 5.675943e-05
1.128400e+01 7.210437e-05 2.421959e-05 9.632396e-05 1.890993e-05
1.128800e+01 5.007089e-05 2.557719e-05 7.564809e-05 -1.492592e-05
1.129200e+01 3.831243e-05 2.901260e-05 6.732503e-05 -1.205455e-05
1.129600e+01 3.337023e-05 2.585106e-05 5.922129e-05 2.121883e-07
1.130000e+01 4.438484e-05 2.835710e-05 7.274195e-05 1.761471e-05
1.130400e+01 5.582179e-05 3.160261e-05 8.742439e-05 1.103513e-05
1.130800e+01 3.002115e-05 1.839883e-05 4.841998e-05 -2.602956e-05
1.131200e+01 5.413568e-05 5.776994e-06 5.991267e-05 -1.917049e-05
1.131600e+01 7.694555e-05 3.600688e-07 7.730562e-05 1.167473e-05
1.132000e+01 4.609279e-05 1.944097e-06 4.803689e-05 -2.451956e-06
1.132400e+01 -2.405077e-05 3.309788e-06 -2.074099e-05 -3.674305e-05
1.132800e+01 -3.370053e-05 9.736575e-06 -2.396396e-05 -1.390322e-05
1.133200e+01 8.614363e-06 6.883036e-06 1.549740e-05 1.692852e-05
1.133600e+01 4.044292e-05 -9.798784e-07 3.946304e-05 2.792706e-05
1.134000e+01 5.666229e-05 -6.253492e-06 5.040879e-05 2.580024e-05
1.134400e+01 6.538430e-05 4.661723e-06 7.004602e-05 2.361252e-05
1.134800e+01 1.843498e-05 9.165165e-06 2.760014e-05 3.320920e-07
1.135200e+01 -2.320912e-05 1.801948e-06 -2.140717e-05 -3.005513e-05
1.135600e+01 -1.563205e-05 -2.686897e-06 -1.831894e-05 -1.285410e-05
1.136000e+01 6.141529e-05 -1.184231e-06 6.023106e-05 4.265149e-05
1.136400e+01 8.034087e-05 -9.327527e-06 7.101335e-05 3.727111e-05
1.136800e+01 4.061710e-05 -1.497466e-05 2.564244e-05 3.665676e-06
1.137200e+01 1.030524e-05 -1.560512e-05 -5.299883e-06 -1.933435e-05
1.137600e+01 -2.488773e-06 -1.484913e-05 -1.733790e-05 -4.133909e-05
1.138000e+01 2.016401e-05 -7.303004e-06 1.286101e-05 -4.007138e-05
1.138400e+01 2.950926e-05 -1.013999e-06 2.849526e-05 -2.911769e-05
1.138800e+01 2.062308e-05 -5.124887e-06 1.549819e-05 -2.366856e-05
1.139200e+01 6.241820e-05 -1.358992e-05 4.882829e-05 5.381187e-06
1.139600e+01 1.366577e-04 -1.793102e-05 1.187267e-04 3.845555e-05
1.140000e+01 1.417852e-04 -2.160487e-05 1.201803e-04 7.134365e-06
1.140400e+01 1.279556e-04 -1.904873e-05 1.089069e-04 -2.011330e-05
1.140800e+01 1.101703e-04 -1.200491e-05 9.816537e-05 -2.362336e-05
1.141200e+01 8.803134e-05 -7.785813e-06 8.024553e-05 -1.946259e-05
1.141600e+01 1.155049e-04 -7.403404e-06 1.081015e-04 -5.496690e-07
1.142000e+01 1.539328e-04 -2.056915e-05 1.333637e-04 -7.246437e-07
1.142400e+01 1.641441e-04 -2.245549e-05 1.416886e-04 1.464441e-05
1.142800e+01 1.437373e-04 -1.557348e-05 1.281638e-04 1.854156e-05
1.143200e+01 1.285951e-04 -8.600588e-06 1.199945e-04 1.647281e-05
1.143600e+01 1.013593e-04 -6.767008e-06 9.459232e-05 6.752028e-06
1.144000e+01 6.245225e-05 -1.009398e-06 6.144285e-05 5.140355e-06
1.144400e+01 1.048159e-04 3.099314e-06 1.079152e-04 2.592191e-06
1.144800e+01 1.382087e-04 -9.310719e-06 1.288980e-04 -3.359675e-05
1.145200e+01 1.033701e-04 -7.447603e-06 9.592246e-05 -2.005968e-05
1.145600e+01 7.089988e-05 -3.621442e-06 6.727844e-05 -2.369381e-06
1.146000e+01 8.808668e-05 -8.582188e-06 7.950449e-05 -2.051829e-05
1.146400e+01 1.062845e-04 -1.702861e-05 8.925593e-05 -3.058759e-05
1.146800e+01 1.328470e-04 -1.886853e-05 1.139785e-04 -1.280857e-05
1.147200e+01 1.452229e-04 -1.603795e-05 1.291850e-04 2.076135e-05
1.147600e+01 6.500380e-05 -2.341676e-05 4.158703e-05 -6.555105e-07
1.148000e+01 -2.138386e-05 -2.716063e-05 -4.854449e-05 -3.821231e-05
1.148400e+01 -2.235385e-05 -1.060617e-05 -3.296002e-05 -4.455133e-06
1.148800e+01 -2.286484e-05 8.383283e-06 -1.448156e-05 5.992073e-05
1.149200e+01 -1.450242e-04 -4.394702e-06 -1.494189e-04 2.086959e-05
1.149600e+01 -3.412422e-04 -2.349115e-05 -3.647333e-04 -7.248970e-05
1.150000e+01 -4.628165e-04 -2.000264e-05 -4.828191e-04 -9.061030e-05
1.150400e+01 -3.669764e-04 -2.460858e-06 -3.694372e-04 -1.162447e-05
1.150800e+01 -7.607212e-05 -3.978762e-06 -8.005088e-05 3.246407e-05
1.151200e+01 1.416100e-04 -1.922287e-05 1.223871e-04 8.358571e-06
1.151600e+01 2.769684e-04 -1.052888e-05 2.664395e-04 2.286861e-05
1.152000e+01 4.002136e-04 2.558895e-06 4.027725e-04 4.247978e-05
1.152400e+01 4.777591e-04 -1.335872e-06 4.764232e-04 2.785765e-05
1.152800e+01 4.404414e-04 -5.292501e-06 4.351489e-04 2.702381e-05
1.153200e+01 3.879919e-04 8.232173e-07 3.888151e-04 2.847476e-05
1.153600e+01 3.377352e-04 1.104539e-05 3.487806e-04 3.369698e-05
1.154000e+01 2.787783e-04 6.208380e-06 2.849867e-04 3.930553e-05
1.154400e+01 1.900780e-04 -1.288907e-05 1.771889e-04 8.830897e-06
1.154800e+01 8.476951e-05 -1.341417e-05 7.135534e-05 -2.446535e-05
1.155200e+01 2.781188e-05 4.611270e-06 3.242315e-05 -1.055480e-05
1.155600e+01 4.034064e-05 1.650182e-05 5.684247e-05 3.641231e-06
1.156000e+01 6.933317e-05 -1.904257e-07 6.914275e-05 -2.785351e-05
1.156400e+01 4.881157e-05 -2.375351e-05 2.505806e-05 -5.108140e-05
1.156800e+01 -8.807793e-06 -2.095220e-05 -2.976000e-05 -1.177469e-05
1.157200e+01 -1.920959e-05 -3.800609e-06 -2.301020e-05 7.572245e-06
1.157600e+01 2.415058e-05 7.039203e-06 3.118978e-05 5.500861e-07
1.158000e+01 4.334204e-05 6.238420e-06 4.958046e-05 -2.833533e-07
1.158400e+01 4.171190e-05 1.358228e-05 5.529418e-05 1.395420e-05
1.158800e+01 -8.646763e-06 2.822191e-05 1.957515e-05 2.684304e-05
1.159200e+01 -5.528173e-05 3.092248e-05 -2.435924e-05 3.068718e-05
1.159600e+01 -2.623679e-05 2.277771e-05 -3.459076e-06 1.016058e-05
1.160000e+01 -1.435567e-05 2.396017e-05 9.604493e-06 1.118919e-06
1.160400e+01 -6.149160e-05 2.261682e-05 -3.887478e-05 -1.754642e-05
1.160800e+01 -1.011685e-04 2.083602e-05 -8.033251e-05 -3.343882e-05
1.161200e+01 -3.424719e-05 2.449842e-05 -9.748775e-06 1.439368e-05
1.161600e+01 2.976003e-05 1.607027e-05 4.583030e-05 4.030597e-05
1.162000e+01 4.655928e-05 1.236181e-05 5.892109e-05 2.424860e-05
1.162400e+01 -1.440556e-05 1.730378e-05 2.898219e-06 2.099429e-06
1.162800e+01 -6.577544e-05 1.813532e-05 -4.764012e-05 -1.455927e-05
1.163200e+01 -7.554705e-05 1.236751e-05 -6.317954e-05 -2.594187e-05
1.163600e+01 -3.297565e-05 1.687951e-05 -1.609614e-05 1.521695e-06
1.164000e+01 1.304256e-05 2.434682e-05 3.738938e-05 4.070636e-05
1.164400e+01 -2.209032e-05 1.609460e-05 -5.995718e-06 2.951842e-05
1.164800e+01 -5.680182e-05 1.304716e-06 -5.549710e-05 -1.530948e-05
1.165200e+01 -4.172231e-05 7.030327e-06 -3.469198e-05 -1.758728e-05
1.165600e+01 -3.861305e-06 1.979590e-05 1.593460e-05 -5.939970e-06
1.166000e+01 -3.088203e-05 1.647001e-05 -1.441203e-05 -2.602063e-05
1.166400e+01 -1.874569e-05 1.180432e-05 -6.941371e-06 -3.614508e-06
1.166800e+01 -5.451551e-06 1.103856e-05 5.587008e-06 2.762200e-05
1.167200e+01 -3.451856e-05 5.260256e-06 -2.925830e-05 1.803635e-05
1.167600e+01 -5.929591e-05 1.431215e-06 -5.786469e-05 1.620365e-05
1.168000e+01 -6.859925e-05 2.727702e-06 -6.587154e-05 1.825158e-06
1.168400e+01 -6.359648e-05 1.226620e-05 -5.133028e-05 -3.716789e-05
1.168800e+01 -5.012580e-05 2.561538e-05 -2.451042e-05 -1.265662e-05
1.169200e+01 4.578126e-06 1.905091e-05 2.362904e-05 7.258266e-06
1.169600e+01 1.192368e-05 1.029553e-06 1.295324e-05 -2.909669e-05
1.170000e+01 -2.883975e-05 -5.533424e-06 -3.437317e-05 -4.283137e-05
1.170400e+01 -7.236007e-05 -4.520047e-06 -7.688012e-05 -2.371151e-05
1.170800e+01 -6.385596e-05 -3.332902e-06 -6.718886e-05 -3.165403e-06
1.171200e+01 -4.385633e-05 -9.198923e-06 -5.305525e-05 -1.805123e-05
1.171600e+01 -6.385034e-05 -1.090640e-05 -7.475673e-05 -2.231405e-05
1.172000e+01 -1.051473e-04 -1.127510e-05 -1.164224e-04 2.902414e-06
1.172400e+01 -8.925580e-05 -1.588298e-05 -1.051388e-04 3.175885e-05
1.172800e+01 -1.068136e-04 -3.171483e-05 -1.385284e-04 -4.232551e-06
1.173200e+01 -1.270629e-04 -2.685676e-05 -1.539197e-04 -2.713901e-05
1.173600e+01 -1.021121e-04 -1.076805e-05 -1.128802e-04 -1.097369e-05
1.174000e+01 -8.737863e-05 -9.586579e-06 -9.696521e-05 -4.820592e-06
1.174400e+01 -1.299676e-04 -1.598610e-05 -1.459537e-04 -1.893824e-05
1.174800e+01 -1.408553e-04 -1.243165e-05 -1.532870e-04 4.213819e-06
1.175200e+01 -1.321337e-04 -1.579808e-05 -1.479318e-04 2.354706e-05
1.175600e+01 -1.513214e-04 -2.170763e-05 -1.730290e-04 1.865819e-05
1.176000e+01 -1.657404e-04 -1.951032e-05 -1.852507e-04 1.399311e-05
1.176400e+01 -1.738284e-04 -1.057210e-05 -1.844005e-04 2.689825e-06
1.176800e+01 -1.795064e-04 -1.103378e-05 -1.905402e-04 -2.071172e-05
1.177200e+01 -1.607382e-04 -1.789168e-05 -1.786299e-04 -2.859077e-05
1.177600e+01 -1.393029e-04 -1.728102e-05 -1.565839e-04 -8.344859e-06
1.178000e+01 -1.668682e-04 -2.100278e-05 -1.878710e-04 -1.417560e-05
1.178400e+01 -1.909488e-04 -2.519450e-05 -2.161433e-04 -1.348131e-05
1.178800e+01 -1.469713e-04 -2.523572e-05 -1.722070e-04 2.118884e-05
1.179200e+01 -6.218938e-05 -2.954784e-05 -9.173722e-05 3.391461e-05
1.179600e+01 -4.444201e-05 -4.239488e-05 -8.683689e-05 -1.283557e-05
1.180000e+01 -8.193424e-05 -4.094810e-05 -1.228823e-04 -4.722196e-05
1.180400e+01 -1.200458e-04 -2.543263e-05 -1.454784e-04 -3.693377e-05
1.180800e+01 -1.062709e-04 -2.221179e-05 -1.284827e-04 -2.433062e-05
1.181200e+01 -4.112516e-05 -2.801355e-05 -6.913871e-05 1.485944e-05
1.181600e+01 3.719112e-05 -3.088580e-05 6.305318e-06 6.414339e-05
1.182000e+01 6.907269e-05 -2.630396e-05 4.276873e-05 5.364600e-05
1.182400e+01 8.610467e-05 -1.970823e-05 6.639645e-05 1.789814e-05
1.182800e+01 7.683067e-05 -1.649524e-05 6.033543e-05 8.075028e-07
1.183200e+01 3.177548e-05 -2.104636e-05 1.072912e-05 -1.508745e-05
1.183600e+01 6.239505e-07 -1.628417e-05 -1.566022e-05 -1.176043e-05
1.184000e+01 1.654445e-05 -1.397495e-05 2.569496e-06 1.835127e-05
1.184400e+01 7.859727e-05 -2.289824e-05 5.569902e-05 4.017639e-05
1.184800e+01 1.581486e-04 -2.558673e-05 1.325619e-04 3.210402e-05
1.185200e+01 1.403359e-04 -2.159754e-05 1.187384e-04 -6.728316e-06
1.185600e+01 7.555862e-05 -2.037107e-05 5.518755e-05 -3.066182e-05
1.186000e+01 7.964811e-05 -6.619670e-06 7.302844e-05 1.762718e-05
1.186400e+01 9.749750e-05 6.132920e-06 1.036304e-04 6.782107e-05
1.186800e+01 1.176807e-04 1.920347e-06 1.196011e-04 6.057235e-05
1.187200e+01 1.104838e-04 -1.533429e-06 1.089504e-04 1.692035e-05
1.187600e+01 7.232173e-05 5.939304e-06 7.826104e-05 -1.284215e-05
1.188000e+01 5.252177e-05 1.982804e-05 7.234980e-05 2.690253e-06
1.188400e+01 8.290497e-05 3.227638e-05 1.151813e-04 2.363913e-05
1.188800e+01 5.920113e-05 3.117513e-05 9.037626e-05 1.084107e-05
1.189200e+01 4.518317e-05 2.111379e-05 6.629696e-05 -6.391135e-06
1.189600e+01 8.295935e-05 1.142076e-05 9.438011e-05 -1.026884e-06
1.190000e+01 6.230822e-05 -1.671959e-06 6.063626e-05 -1.260379e-05
1.190400e+01 4.394095e-05 -2.492889e-06 4.144806e-05 -8.812773e-06
1.190800e+01 1.012264e-04 3.257753e-07 1.015522e-04 5.767784e-06
1.191200e+01 9.994497e-05 1.837610e-06 1.017826e-04 -4.578559e-06
1.191600e+01 3.725572e-05 8.735881e-06 4.599160e-05 -2.277524e-05
1.192000e+01 4.714920e-05 8.789991e-06 5.593919e-05 -1.101851e-05
1.192400e+01 1.063413e-04 9.722124e-06 1.160634e-04 1.398116e-05
1.192800e+01 8.946853e-05 1.597169e-05 1.054402e-04 7.732608e-06
1.193200e+01 3.061410e-05 2.129575e-05 5.190986e-05 -1.072966e-05
1.193600e+01 2.230572e-05 3.434398e-05 5.664970e-05 1.138534e-05
1.194000e+01 4.290135e-05 4.233814e-05 8.523949e-05 2.186133e-05
1.194400e+01 1.632187e-05 3.743197e-05 5.375385e-05 -6.721719e-06
1.194800e+01 -7.110596e-06 3.108172e-05 2.397113e-05 -1.874261e-05
1.195200e+01 1.015197e-06 3.696411e-05 3.797931e-05 6.208300e-06
1.195600e+01 9.828994e-06 4.029476e-05 5.012375e-05 2.439324e-05
1.196000e+01 -1.623508e-05 3.783746e-05 2.160238e-05 -5.177511e-06
1.196400e+01 -6.093559e-05 3.967525e-05 -2.126033e-05 -3.754366e-05
1.196800e+01 -1.394892e-05 5.183545e-05 3.788653e-05 4.357473e-07
1.197200e+01 3.541808e-05 5.593080e-05 9.134888e-05 3.844659e-05
1.197600e+01 3.962729e-06 4.336245e-05 4.732518e-05 8.928273e-06
1.198000e+01 -4.157894e-05 3.303182e-05 -8.547121e-06 -1.960219e-05
1.198400e+01 -4.736333e-05 3.605443e-05 -1.130890e-05 -2.072659e-05
1.198800e+01 -1.660878e-05 4.368023e-05 2.707145e-05 -1.165481e-05
1.199200e+01 1.756143e-05 3.408629e-05 5.164772e-05 -1.243817e-05
1.199600e+01 2.273291e-05 2.298694e-05 4.571984e-05 -2.027306e-05
1.200000e+01 4.903089e-05 2.623814e-05 7.526903e-05 1.313305e-05
1.200400e+01 6.712130e-05 1.913018e-05 8.625149e-05 1.923754e-05
1.200800e+01 3.796706e-05 1.784220e-05 5.580927e-05 6.727080e-06
1.201200e+01 -4.043503e-05 2.789317e-05 -1.254186e-05 -9.997732e-06
1.201600e+01 -4.961535e-05 3.142881e-05 -1.818654e-05 -2.125636e-05
1.202000e+01 -1.500000e-05 2.258941e-05 7.589416e-06 -3.013299e-05
1.202400e+01 8.206506e-06 3.886549e-06 1.209306e-05 -4.319328e-05
1.202800e+01 1.807815e-05 -1.029125e-05 7.786904e-06 -5.149920e-05
1.203200e+01 1.984350e-05 -1.692858e-06 1.815065e-05 -1.189094e-05
1.203600e+01 -1.118887e-05 1.691210e-05 5.723231e-06 3.489184e-05
1.204000e+01 1.468532e-05 2.110713e-05 3.579245e-05 4.887992e-05
1.204400e+01 5.679442e-05 1.221562e-05 6.901004e-05 1.389230e-05
1.204800e+01 1.867253e-05 1.945045e-05 3.812298e-05 -2.056498e-05
1.205200e+01 -1.059880e-05 3.266955e-05 2.207076e-05 -8.793188e-06
1.205600e+01 9.301690e-06 3.047610e-05 3.977779e-05 4.217027e-06
1.206000e+01 1.905817e-05 1.912657e-05 3.818475e-05 -4.687537e-06
1.206400e+01 2.359077e-05 4.737841e-06 2.832861e-05 -4.202063e-06
1.206800e+01 3.092608e-05 -6.429188e-06 2.449689e-05 -7.945812e-06
1.207200e+01 1.748933e-05 -1.093733e-05 6.552003e-06 -3.546313e-05
1.207600e+01 7.934699e-06 -1.034363e-05 -2.408930e-06 -3.845293e-05
1.208000e+01 3.430469e-05 -1.281480e-05 2.148989e-05 -9.582002e-06
1.208400e+01 7.410456e-05 -1.422021e-05 5.988435e-05 2.329505e-05
1.208800e+01 8.118114e-05 -2.501934e-05 5.616180e-05 3.556969e-06
1.209200e+01 5.610365e-05 -2.864074e-05 2.746291e-05 -1.583094e-05
1.209600e+01 4.906960e-05 -2.761890e-05 2.145071e-05 -1.354653e-05
1.210000e+01 4.929816e-05 -1.793876e-05 3.135940e-05 -5.034555e-06
1.210400e+01 3.991139e-05 -1.417211e-05 2.573927e-05 -9.846930e-06
1.210800e+01 2.710806e-05 -1.789587e-05 9.212198e-06 -7.560307e-06
1.211200e+01 3.436014e-05 -2.237316e-05 1.198697e-05 6.233620e-06
1.211600e+01 6.458650e-05 -2.916678e-05 3.541972e-05 1.021728e-05
1.212000e+01 8.226466e-05 -3.011712e-05 5.214754e-05 1.192789e-06
1.212400e+01 7.131365e-05 -1.787798e-05 5.343567e-05 1.765503e-05
1.212800e+01 7.762161e-05 -1.636282e-05 6.125879e-05 1.178599e-05
1.213200e+01 4.873923e-05 -2.319408e-05 2.554515e-05 -2.397984e-05
1.213600e+01 6.592330e-06 -2.226689e-05 -1.567456e-05 -2.449753e-05
1.214000e+01 -1.503921e-05 -2.217133e-05 -3.721054e-05 -1.469937e-05
1.214400e+01 2.122009e-05 -1.932256e-05 1.897522e-06 2.076578e-05
1.214800e+01 8.698088e-05 -1.739034e-05 6.959054e-05 6.086087e-05
1.215200e+01 8.652329e-05 -1.622128e-05 7.030201e-05 5.559895e-05
1.215600e+01 5.102634e-05 -1.051110e-05 4.051523e-05 2.112566e-05
1.216000e+01 4.573550e-06 5.793074e-07 5.152858e-06 -4.096820e-06
1.216400e+01 -1.686220e-05 7.830927e-06 -9.031270e-06 -5.662200e-06
1.216800e+01 -4.044896e-06 2.519178e-06 -1.525717e-06 -1.351161e-05
1.217200e+01 1.483414e-05 -7.596533e-06 7.237609e-06 -1.183478e-05
1.217600e+01 1.486944e-05 -2.751917e-05 -1.264973e-05 -3.784692e-05
1.218000e+01 1.018876e-05 -3.533324e-05 -2.514448e-05 -5.033139e-05
1.218400e+01 3.738708e-05 -2.367355e-05 1.371353e-05 -1.985520e-05
1.218800e+01 7.475033e-05 -1.504827e-05 5.970206e-05 1.724123e-05
1.219200e+01 1.180706e-04 -1.540258e-05 1.026680e-04 2.940379e-05
1.219600e+01 6.689379e-05 -1.654780e-05 5.034599e-05 1.237804e-05
1.220000e+01 1.584071e-05 -2.089620e-05 -5.055496e-06 -2.786612e-06
1.220400e+01 5.372163e-06 -2.478506e-05 -1.941290e-05 -8.306817e-06
1.220800e+01 4.233254e-06 -1.466448e-05 -1.043123e-05 1.501067e-05
1.221200e+01 1.897581e-05 -7.241930e-06 1.173388e-05 2.883463e-05
1.221600e+01 3.677238e-05 -1.034885e-05 2.642353e-05 2.377471e-06
1.222000e+01 5.390836e-05 -3.715848e-07 5.353677e-05 1.043180e-05
1.222400e+01 2.987429e-05 7.139887e-06 3.701418e-05 2.450754e-05
1.222800e+01 -2.038378e-05 2.409154e-06 -1.797463e-05 -2.393364e-06
1.223200e+01 -4.362531e-05 -3.843619e-06 -4.746893e-05 -2.553652e-05
1.223600e+01 8.666956e-06 -7.068802e-08 8.596268e-06 8.541573e-06
1.224000e+01 5.618739e-05 -1.877147e-06 5.431024e-05 2.134008e-05
1.224400e+01 6.212249e-05 1.390363e-06 6.351285e-05 3.992153e-05
1.224800e+01 3.749279e-06 -1.915435e-06 1.833844e-06 2.716916e-05
1.225200e+01 -2.691825e-05 -8.184408e-06 -3.510266e-05 -2.142935e-05
1.225600e+01 2.093011e-06 5.419142e-06 7.512153e-06 1.639288e-06
1.226000e+01 4.675203e-05 8.453335e-06 5.520537e-05 2.433298e-06
1.226400e+01 3.407171e-05 3.306494e-07 3.440236e-05 -3.852330e-05
1.226800e+01 5.010683e-06 -2.236495e-06 2.774188e-06 -3.565387e-05
1.227200e+01 2.376343e-05 -1.034555e-06 2.272887e-05 7.118235e-06
1.227600e+01 2.482731e-05 1.726173e-06 2.655349e-05 4.085085e-05
1.228000e+01 -1.365861e-05 7.812313e-07 -1.287738e-05 1.469748e-05
1.228400e+01 2.451037e-05 8.074047e-07 2.531777e-05 -5.227501e-06
1.228800e+01 6.806109e-05 2.576133e-06 7.063722e-05 1.087916e-06
1.229200e+01 7.590042e-05 1.124798e-05 8.714840e-05 1.574210e-05
1.229600e+01 2.517892e-05 1.207501e-05 3.725393e-05 9.555632e-06
1.230000e+01 1.336623e-05 8.584729e-06 2.195096e-05 1.664827e-05
1.230400e+01 2.763357e-05 9.463599e-06 3.709717e-05 1.682753e-05
1.230800e+01 3.008085e-05 5.888807e-06 3.596966e-05 -2.747244e-06
1.231200e+01 -3.586922e-06 9.799623e-08 -3.488926e-06 -2.244347e-05
1.231600e+01 -1.082634e-05 5.004165e-06 -5.822174e-06 7.170303e-06
1.232000e+01 -1.450396e-05 -7.171664e-07 -1.522113e-05 -3.766373e-06
1.232400e+01 1.574892e-05 -6.221335e-06 9.527585e-06 -1.428668e-05
1.232800e+01 4.577661e-05 -2.519845e-07 4.552462e-05 1.654194e-05
1.233200e+01 6.648730e-05 -4.857477e-06 6.162982e-05 1.483934e-06
1.233600e+01 4.249028e-06 -1.200389e-05 -7.754859e-06 -4.412956e-05
1.234000e+01 3.430388e-05 4.137510e-06 3.844139e-05 -3.011532e-06
1.234400e+01 8.180179e-05 1.098854e-05 9.279033e-05 1.504837e-05
1.234800e+01 2.176624e-05 5.907319e-06 2.767356e-05 -3.058114e-05
1.235200e+01 -3.568592e-05 3.177242e-06 -3.250868e-05 -2.722701e-05
1.235600e+01 1.160760e-05 2.822004e-06 1.442960e-05 1.625059e-05
1.236000e+01 6.105512e-05 1.199622e-05 7.305134e-05 4.128957e-05
1.236400e+01 3.085342e-05 8.992074e-06 3.984549e-05 2.201326e-05
1.236800e+01 2.263774e-05 9.648701e-06 3.228644e-05 6.333113e-06
1.237200e+01 1.365827e-05 2.506091e-05 3.871918e-05 4.979332e-07
1.237600e+01 2.311532e-05 3.550956e-05 5.862488e-05 -1.360244e-05
1.238000e+01 1.094163e-05 2.566151e-05 3.660315e-05 -2.129794e-05
1.238400e+01 -3.585974e-05 -2.379947e-06 -3.823969e-05 -5.105817e-05
1.238800e+01 -9.722771e-05 -1.384367e-05 -1.110714e-04 -5.597873e-05
1.239200e+01 -7.406553e-05 -1.518238e-07 -7.421735e-05 2.497719e-05
1.239600e+01 5.002578e-05 2.071660e-06 5.209744e-05 6.474029e-05
1.240000e+01 6.717888e-05 -1.012063e-05 5.705825e-05 7.953921e-06
1.240400e+01 7.311722e-06 -5.647464e-06 1.664258e-06 -4.300980e-06
1.240800e+01 -4.526188e-05 -1.995416e-06 -4.725730e-05 -3.782662e-06
1.241200e+01 -9.933773e-05 -5.320793e-06 -1.046585e-04 -2.968369e-05
1.241600e+01 -7.862313e-05 -3.004174e-06 -8.162730e-05 -1.791084e-05
1.242000e+01 -2.026569e-05 -5.252982e-06 -2.551867e-05 1.633873e-05
1.242400e+01 -1.213229e-05 -1.677362e-05 -2.890590e-05 -9.638215e-06
1.242800e+01 -2.453106e-05 -1.907805e-05 -4.360911e-05 -2.243935e-05
1.243200e+01 -1.162815e-05 -1.245679e-05 -2.408495e-05 -1.265796e-06
1.243600e+01 -1.628182e-05 -2.047452e-05 -3.675634e-05 -3.102099e-05
1.244000e+01 -1.703627e-05 -1.299516e-05 -3.003143e-05 -2.218869e-05
1.244400e+01 -3.184646e-06 7.960458e-07 -2.388600e-06 1.829733e-05
1.244800e+01 4.193875e-05 -8.168711e-06 3.377004e-05 2.116827e-05
1.245200e+01 4.662359e-05 -1.631690e-05 3.030670e-05 -1.664301e-06
1.245600e+01 1.181094e-05 -8.464394e-06 3.346543e-06 4.965758e-06
1.246000e+01 9.869895e-06 9.669146e-07 1.083681e-05 1.255851e-05
1.246400e+01 4.189006e-05 3.481886e-08 4.192488e-05 -2.935080e-05
1.246800e+01 6.372964e-05 -1.668106e-06 6.206154e-05 -3.550698e-05
1.247200e+01 7.120214e-05 -8.988921e-06 6.221321e-05 -2.206716e-05
1.247600e+01 9.366024e-05 -2.197400e-05 7.168623e-05 -3.064434e-05
1.248000e+01 8.577869e-05 -2.766456e-05 5.811412e-05 -2.448756e-05
1.248400e+01 4.222303e-05 -3.420696e-05 8.016062e-06 -2.580897e-05
1.248800e+01 6.439198e-05 -2.827881e-05 3.611318e-05 -3.319293e-06
1.249200e+01 1.093632e-04 -1.935383e-05 9.000942e-05 3.530506e-05
1.249600e+01 1.193955e-04 -2.976334e-05 8.963214e-05 2.641787e-07
1.250000e+01 1.212809e-04 -3.713403e-05 8.414685e-05 -1.875056e-05
1.250400e+01 1.191296e-04 -2.846392e-05 9.066563e-05 1.408802e-05
1.250800e+01 1.102405e-04 -2.303052e-05 8.720997e-05 -4.866510e-07
1.251200e+01 8.259988e-05 -2.128718e-05 6.131270e-05 -2.533206e-05
1.251600e+01 3.407742e-05 -1.302460e-05 2.105283e-05 -7.759612e-06
1.252000e+01 1.871603e-05 -7.187847e-06 1.152818e-05 3.786103e-06
1.252400e+01 2.426518e-05 -1.013994e-05 1.412523e-05 -3.854968e-06
1.252800e+01 4.202229e-05 -1.320224e-05 2.882005e-05 -1.489963e-05
1.253200e+01 4.486545e-05 -1.218651e-05 3.267894e-05 -8.229059e-06
1.253600e+01 2.648801e-05 -8.488333e-06 1.799968e-05 1.137108e-05
1.254000e+01 1.002469e-06 -3.482409e-06 -2.479941e-06 2.814066e-05
1.254400e+01 -2.851324e-05 2.381485e-06 -2.613175e-05 2.995477e-05
1.254800e+01 -3.767939e-05 6.187998e-06 -3.149140e-05 4.912474e-06
1.255200e+01 -1.121926e-04 6.535746e-06 -1.056568e-04 -2.279251e-05
1.255600e+01 -2.862089e-04 4.185238e-06 -2.820237e-04 -3.128781e-05
1.256000e+01 -4.538207e-04 -2.300096e-06 -4.561208e-04 -4.137285e-05
1.256400e+01 -4.953516e-04 -2.065828e-06 -4.974175e-04 2.975278e-06
1.256800e+01 -3.071328e-04 1.195448e-06 -3.059374e-04 5.852135e-05
1.257200e+01 -2.176819e-05 -8.485035e-07 -2.261669e-05 4.399029e-05
1.257600e+01 1.889930e-04 -2.072863e-06 1.869202e-04 7.500853e-06
1.258000e+01 2.927074e-04 9.567717e-07 2.936642e-04 8.847146e-06
1.258400e+01 3.519439e-04 2.617946e-06 3.545619e-04 1.514160e-06
1.258800e+01 3.302345e-04 9.971738e-06 3.402062e-04 9.879491e-06
1.259200e+01 2.910092e-04 1.599256e-05 3.070018e-04 1.824627e-05
1.259600e+01 2.646077e-04 1.143869e-05 2.760464e-04 4.466159e-06
1.260000e+01 2.266381e-04 1.262326e-05 2.392613e-04 3.797775e-06
1.260400e+01 1.884119e-04 1.594625e-05 2.043582e-04 9.144485e-06
1.260800e+01 7.870127e-05 1.233089e-05 9.103216e-05 1.102950e-05
1.261200e+01 -4.292084e-06 1.341098e-05 9.118895e-06 1.605143e-05
1.261600e+01 2.020992e-05 2.281094e-05 4.302086e-05 3.901234e-05
1.262000e+01 4.338556e-05 1.664014e-05 6.002570e-05 2.268718e-05
1.262400e+01 -6.639635e-06 1.111986e-05 4.480229e-06 -1.970840e-05
1.262800e+01 -7.395209e-05 2.007459e-05 -5.387750e-05 2.155834e-06
1.263200e+01 -5.653614e-05 1.892252e-05 -3.761362e-05 4.423031e-05
1.263600e+01 -3.013467e-05 2.004073e-05 -1.009395e-05 5.239370e-05
1.264000e+01 -9.700635e-06 2.175936e-05 1.205873e-05 1.782939e-05
1.264400e+01 -3.294014e-05 1.756495e-05 -1.537518e-05 -3.069274e-05
1.264800e+01 -8.025453e-05 2.005889e-05 -6.019563e-05 -3.243614e-05
1.265200e+01 -8.672256e-05 2.277053e-05 -6.395203e-05 -2.403209e-06
1.265600e+01 -3.002603e-05 3.071511e-05 6.890824e-07 4.807414e-05
1.266000e+01 -1.253192e-05 1.938124e-05 6.849313e-06 1.632345e-05
1.266400e+01 -3.710342e-05 2.234219e-05 -1.476123e-05 4.643836e-06
1.266800e+01 -1.008600e-04 3.555878e-05 -6.530125e-05 1.859878e-05
1.267200e+01 -1.326622e-04 3.375651e-05 -9.890565e-05 6.390106e-06
1.267600e+01 -1.208242e-04 3.160856e-05 -8.921562e-05 -1.007581e-05
1.268000e+01 -5.886425e-05 3.720514e-05 -2.165911e-05 1.952446e-05
1.268400e+01 -4.281133e-05 3.530136e-05 -7.509977e-06 4.848753e-05
1.268800e+01 -9.688014e-05 2.399599e-05 -7.288414e-05 4.654472e-06
1.269200e+01 -1.464584e-04 1.884474e-05 -1.276136e-04 -4.912979e-05
1.269600e+01 -1.232920e-04 1.911611e-05 -1.041759e-04 -3.164802e-05
1.270000e+01 -7.348488e-05 2.112407e-05 -5.236081e-05 1.131497e-05
1.270400e+01 -4.925553e-05 2.230537e-05 -2.695017e-05 4.088214e-05
1.270800e+01 -6.922469e-05 1.425684e-05 -5.496785e-05 2.486618e-05
1.271200e+01 -9.200967e-05 5.984786e-06 -8.602488e-05 -8.190907e-06
1.271600e+01 -1.021825e-04 3.577972e-06 -9.860456e-05 -1.943376e-05
1.272000e+01 -1.008360e-04 8.568175e-06 -9.226782e-05 1.447650e-05
1.272400e+01 -6.828896e-05 1.138060e-05 -5.690836e-05 2.140362e-05
1.272800e+01 -8.127795e-05 9.211231e-06 -7.206672e-05 -1.960401e-05
1.273200e+01 -8.266549e-05 1.115808e-05 -7.150741e-05 -1.557115e-05
1.273600e+01 -7.833844e-05 4.337153e-06 -7.400128e-05 -3.320849e-05
1.274000e+01 -1.006606e-04 -1.360695e-06 -1.020213e-04 -4.779738e-05
1.274400e+01 -7.424099e-05 -1.731696e-06 -7.597268e-05 -1.481363e-05
1.274800e+01 -5.707174e-05 -9.474079e-07 -5.801914e-05 6.001381e-06
1.275200e+01 -1.257715e-04 6.701446e-07 -1.251014e-04 -1.056054e-05
1.275600e+01 -1.451499e-04 -1.306888e-07 -1.452806e-04 -2.146781e-05
1.276000e+01 -1.424280e-04 -9.371750e-06 -1.517998e-04 -5.328049e-05
1.276400e+01 -1.734172e-04 -1.128234e-05 -1.846995e-04 -6.495271e-05
1.276800e+01 -1.824036e-04 -4.369633e-06 -1.867733e-04 -1.511843e-05
1.277200e+01 -1.259222e-04 -5.269935e-06 -1.311922e-04 4.558593e-05
1.277600e+01 -1.055312e-04 -1.232428e-05 -1.178555e-04 3.170641e-05
1.278000e+01 -1.294966e-04 -1.772342e-05 -1.472200e-04 -8.749751e-06
1.278400e+01 -1.213149e-04 -1.872803e-05 -1.400429e-04 -1.288156e-06
1.278800e+01 -1.498213e-04 -1.726359e-05 -1.670849e-04 8.883411e-06
1.279200e+01 -1.731927e-04 -1.298286e-05 -1.861755e-04 -6.198288e-06
1.279600e+01 -1.694268e-04 -1.338029e-05 -1.828071e-04 -7.973250e-06
1.280000e+01 -1.896796e-04 -2.165359e-05 -2.113332e-04 -1.213947e-05
1.280400e+01 -2.414081e-04 -3.153837e-05 -2.729464e-04 -4.778708e-05
1.280800e+01 -2.005727e-04 -3.418584e-05 -2.347585e-04 -7.268890e-06
1.281200e+01 -1.056149e-04 -3.381534e-05 -1.394303e-04 5.990503e-05
1.281600e+01 -1.060476e-04 -3.590238e-05 -1.419499e-04 3.638066e-05
1.282000e+01 -1.975307e-04 -3.199047e-05 -2.295212e-04 3.849955e-06
1.282400e+01 -2.534294e-04 -2.664504e-05 -2.800745e-04 1.543897e-05
1.282800e+01 -1.825966e-04 -2.871338e-05 -2.113100e-04 1.846728e-05
1.283200e+01 -1.426897e-04 -3.425118e-05 -1.769409e-04 -2.702097e-06
1.283600e+01 -1.863081e-04 -4.411176e-05 -2.304198e-04 -1.646020e-05
1.284000e+01 -1.965370e-04 -4.210187e-05 -2.386388e-04 -6.981579e-06
1.284400e+01 -2.197648e-04 -4.190561e-05 -2.616704e-04 -1.140891e-05
1.284800e+01 -1.982607e-04 -4.264037e-05 -2.409010e-04 -1.049743e-05
1.285200e+01 -1.676754e-04 -3.900937e-05 -2.066848e-04 4.086104e-06
1.285600e+01 -1.709226e-04 -4.880035e-05 -2.197230e-04 4.915594e-06
1.286000e+01 -1.527359e-04 -4.763191e-05 -2.003678e-04 1.241611e-05
1.286400e+01 -9.669305e-05 -2.935988e-05 -1.260529e-04 3.558520e-05
1.286800e+01 -5.157325e-05 -2.101260e-05 -7.258585e-05 1.397225e-05
1.287200e+01 -6.668840e-05 -2.030435e-05 -8.699275e-05 -1.681969e-05
1.287600e+01 -1.177071e-04 -8.661303e-06 -1.263684e-04 -1.350365e-05
1.288000e+01 -1.409434e-04 -1.184520e-06 -1.421279e-04 -1.266984e-05
1.288400e+01 -1.129940e-04 9.377695e-06 -1.036163e-04 -3.822654e-06
1.288800e+01 -2.801994e-05 2.096497e-05 -7.054969e-06 1.405011e-05
1.289200e+01 -1.242370e-05 7.498278e-06 -4.925420e-06 -1.087902e-05
1.289600e+01 -3.647023e-06 6.473757e-06 2.826734e-06 -1.156908e-06
1.290000e+01 -1.257709e-05 9.667076e-06 -2.910012e-06 1.454810e-05
1.290400e+01 2.747086e-06 1.098237e-05 1.372946e-05 1.509883e-05
1.290800e+01 -4.613236e-06 1.180119e-05 7.187959e-06 6.395906e-06
1.291200e+01 -3.020239e-05 9.229688e-07 -2.927942e-05 -3.644782e-05
1.291600e+01 -5.155716e-05 7.784004e-06 -4.377315e-05 -2.551914e-05
1.292000e+01 -7.880197e-06 1.315848e-05 5.278282e-06 1.582867e-05
1.292400e+01 7.166122e-05 1.816035e-05 8.982157e-05 1.951297e-05
1.292800e+01 5.121795e-05 3.449450e-05 8.571245e-05 1.620858e-06
1.293200e+01 -9.038248e-06 3.341739e-05 2.437914e-05 -2.083345e-05
1.293600e+01 -3.517363e-05 2.226254e-05 -1.291109e-05 -2.484479e-05
1.294000e+01 -4.136192e-05 3.291409e-05 -8.447832e-06 4.322021e-06
1.294400e+01 -2.023539e-05 3.435811e-05 1.412272e-05 1.133029e-05
1.294800e+01 3.317641e-05 2.319680e-05 5.637321e-05 -1.537421e-05
1.295200e+01 5.228373e-05 4.193258e-05 9.421631e-05 1.252030e-05
1.295600e+01 2.555805e-05 5.436954e-05 7.992759e-05 2.619784e-05
1.296000e+01 -2.578167e-05 5.044158e-05 2.465991e-05 -1.678864e-05
1.296400e+01 -7.266246e-05 4.921146e-05 -2.345100e-05 -5.515683e-05
1.296800e+01 -9.943539e-05 6.190214e-05 -3.753325e-05 -4.028538e-05
1.297200e+01 -8.552580e-05 7.137663e-05 -1.414918e-05 6.630796e-06
1.297600e+01 -7.402380e-05 6.114037e-05 -1.288344e-05 -1.025963e-05
1.298000e+01 -5.766677e-05 5.520648e-05 -2.460283e-06 -2.081122e-05
1.298400e+01 -1.431796e-05 4.153494e-05 2.721698e-05 -2.375483e-06
1.298800e+01 1.673728e-06 3.350986e-05 3.518358e-05 1.496730e-05
1.299200e+01 -5.628118e-06 3.410579e-05 2.847767e-05 1.228637e-06
1.299600e+01 -4.083326e-05 4.051363e-05 -3.196254e-07 8.545432e-06
1.300000e+01 -5.214130e-05 5.211612e-05 -2.518428e-08 2.197875e-05
1.300400e+01 -5.920922e-05 5.957851e-05 3.692917e-07 2.838213e-05
1.300800e+01 -9.356952e-05 5.441348e-05 -3.915604e-05 7.902122e-06
1.301200e+01 -7.741670e-05 5.982718e-05 -1.758952e-05 2.635127e-05
1.301600e+01 -2.966616e-05 6.157468e-05 3.190852e-05 2.911885e-05
1.302000e+01 -3.763013e-05 5.152433e-05 1.389420e-05 3.247167e-06
1.302400e+01 -6.353045e-05 4.212429e-05 -2.140616e-05 2.483637e-05
1.302800e+01 -3.994701e-05 2.486983e-05 -1.507718e-05 3.737044e-05
1.303200e+01 -1.528699e-05 8.920903e-06 -6.366088e-06 -1.357570e-05
1.303600e+01 -2.540346e-05 1.896741e-05 -6.436046e-06 -1.209136e-05
1.304000e+01 -5.031855e-05 2.373980e-05 -2.657876e-05 -3.851216e-06
1.304400e+01 -7.421136e-05 1.319091e-05 -6.102044e-05 -3.978376e-05
1.304800e+01 -7.021197e-05 7.170509e-06 -6.304146e-05 -5.223392e-05
1.305200e+01 -5.143021e-05 2.874672e-06 -4.855554e-05 -2.757027e-05
1.305600e+01 -2.496943e-05 1.574545e-06 -2.339489e-05 1.700478e-05
1.306000e+01 -2.310923e-05 -1.872383e-06 -2.498161e-05 3.513143e-05
1.306400e+01 -3.308014e-05 1.374663e-08 -3.306639e-05 3.349225e-05
1.306800e+01 -3.817122e-05 -4.661309e-06 -4.283253e-05 1.385017e-05
1.307200e+01 -4.718532e-05 -3.108866e-06 -5.029418e-05 1.606201e-06
1.307600e+01 -2.555710e-05 -6.145251e-06 -3.170235e-05 -1.948446e-05
1.308000e+01 6.008355e-06 -1.496516e-05 -8.956801e-06 -2.548658e-05
1.308400e+01 -6.429369e-06 -1.571905e-05 -2.214842e-05 -1.961310e-05
1.308800e+01 3.511686e-05 -8.711644e-06 2.640522e-05 3.406782e-05
1.309200e+01 5.024300e-05 -1.279757e-05 3.744544e-05 7.035866e-05
1.309600e+01 -7.313282e-06 -1.620724e-05 -2.352052e-05 5.075130e-05
1.310000e+01 -7.224206e-05 -1.031639e-05 -8.255844e-05 2.301042e-06
1.310400e+01 -4.439832e-05 -1.172611e-05 -5.612443e-05 -4.585048e-05
1.310800e+01 1.227229e-05 -9.126091e-06 3.146200e-06 -1.693508e-05
1.311200e+01 2.823821e-05 -2.275817e-05 5.480040e-06 -4.987332e-06
1.311600e+01 1.624072e-05 -3.078567e-05 -1.454495e-05 -2.219333e-05
1.312000e+01 1.333652e-05 -3.746375e-05 -2.412724e-05 -2.046585e-05
1.312400e+01 4.479655e-05 -3.116803e-05 1.362851e-05 3.087546e-05
1.312800e+01 1.841046e-05 -2.818714e-05 -9.776679e-06 2.886283e-05
1.313200e+01 -1.740365e-05 -3.093789e-05 -4.834153e-05 -5.138031e-06
1.313600e+01 -3.929387e-05 -2.500275e-05 -6.429662e-05 -1.010728e-05
1.314000e+01 -1.336990e-05 -1.945303e-05 -3.282293e-05 2.117839e-05
1.314400e+01 5.193166e-06 -2.715016e-05 -2.195699e-05 1.452755e-05
1.314800e+01 1.647991e-06 -3.079278e-05 -2.914479e-05 -5.494453e-05
1.315200e+01 2.845357e-05 -1.233575e-05 1.611781e-05 -4.308333e-05
1.315600e+01 9.378202e-05 -8.730498e-06 8.505152e-05 6.418827e-06
1.316000e+01 8.493255e-05 -1.362235e-05 7.131021e-05 2.154482e-05
1.316400e+01 1.296029e-05 -1.952168e-05 -6.561393e-06 -2.446397e-05
1.316800e+01 7.422886e-06 -2.402837e-05 -1.660548e-05 -3.811720e-05
1.317200e+01 3.742070e-05 -2.656158e-05 1.085912e-05 -1.522319e-05
1.317600e+01 4.624232e-05 -4.416189e-05 2.080426e-06 -1.755054e-05
1.318000e+01 2.682487e-05 -6.414369e-05 -3.731882e-05 -5.719451e-05
1.318400e+01 1.115416e-05 -5.912747e-05 -4.797331e-05 -5.067268e-05
1.318800e+01 5.734489e-05 -4.197069e-05 1.537420e-05 2.318856e-05
1.319200e+01 1.047183e-04 -3.546839e-05 6.924989e-05 7.266144e-05
1.319600e+01 7.013384e-05 -4.985178e-05 2.028205e-05 3.063837e-05
1.320000e+01 6.652221e-05 -4.773092e-05 1.879129e-05 1.574197e-05
1.320400e+01 8.670460e-05 -3.973263e-05 4.697198e-05 2.361754e-05
1.320800e+01 6.642071e-05 -3.914556e-05 2.727515e-05 3.056556e-06
1.321200e+01 7.514144e-05 -2.555137e-05 4.959008e-05 1.554915e-05
1.321600e+01 7.033516e-05 -2.815905e-05 4.217611e-05 2.891047e-06
1.322000e+01 5.868622e-05 -2.924130e-05 2.944493e-05 -1.199772e-05
1.322400e+01 8.708574e-06 -2.768782e-05 -1.897925e-05 -1.852047e-05
1.322800e+01 -3.006515e-05 -3.513798e-05 -6.520313e-05 -2.685065e-05
1.323200e+01 -1.940520e-05 -3.387429e-05 -5.327949e-05 -1.369626e-05
1.323600e+01 3.410835e-05 -1.782557e-05 1.628278e-05 2.803232e-05
1.324000e+01 6.903833e-05 -1.954499e-05 4.949335e-05 2.017622e-05
1.324400e+01 3.878047e-05 -2.884179e-05 9.938682e-06 -4.081826e-05
1.324800e+01 1.142638e-05 -1.920724e-05 -7.780858e-06 -4.047139e-05
1.325200e+01 4.212050e-05 -2.561567e-05 1.650484e-05 -1.413788e-05
1.325600e+01 4.749885e-05 -3.160812e-05 1.589073e-05 -1.108651e-05
1.326000e+01 4.591293e-05 -2.614170e-05 1.977123e-05 -4.386246e-06
1.326400e+01 5.603088e-05 -2.693241e-05 2.909847e-05 2.057065e-05
1.326800e+01 3.534178e-05 -3.751284e-05 -2.171062e-06 1.761407e-05
1.327200e+01 -5.071897e-05 -4.170950e-05 -9.242847e-05 -3.803064e-05
1.327600e+01 -1.559717e-05 -2.040430e-05 -3.600147e-05 -1.318180e-05
1.328000e+01 8.920519e-05 -6.291848e-06 8.291334e-05 4.642010e-05
1.328400e+01 1.080116e-04 -2.518770e-06 1.054928e-04 5.843644e-05
1.328800e+01 3.455034e-05 -1.155887e-06 3.339445e-05 3.604080e-05
1.329200e+01 -4.475778e-05 -4.694224e-06 -4.945200e-05 4.566269e-07
1.329600e+01 -8.148100e-05 -7.585870e-06 -8.906687e-05 -4.466957e-05
1.330000e+01 -2.753319e-05 6.358421e-06 -2.117477e-05 -4.645097e-05
1.330400e+01 1.989627e-05 1.773929e-05 3.763556e-05 -1.974369e-05
1.330800e+01 1.390266e-05 1.508317e-05 2.898582e-05 -6.827744e-06
1.331200e+01 -4.241009e-06 -3.126318e-07 -4.553640e-06 -2.247884e-05
1.331600e+01 -3.496909e-05 -1.020766e-05 -4.517675e-05 -4.629802e-05
1.332000e+01 -4.901593e-05 -6.578224e-06 -5.559416e-05 -3.284294e-05
1.332400e+01 -1.370591e-05 9.686471e-06 -4.019438e-06 4.346784e-05
1.332800e+01 3.980835e-05 1.007843e-05 4.988677e-05 5.802639e-05
1.333200e+01 3.364042e-05 2.794737e-06 3.643515e-05 5.265066e-07
1.333600e+01 5.248999e-06 5.435616e-06 1.068462e-05 -2.405698e-05
1.334000e+01 -1.266633e-05 1.056497e-05 -2.101362e-06 -6.480779e-06
1.334400e+01 -6.567345e-05 7.053171e-06 -5.862028e-05 -2.193797e-05
1.334800e+01 -5.983705e-05 7.951632e-06 -5.188542e-05 -3.360646e-05
1.335200e+01 -3.665579e-05 8.958762e-06 -2.769702e-05 -1.925972e-05
1.335600e+01 -5.878173e-05 3.535853e-06 -5.524588e-05 -1.955775e-05
1.336000e+01 -1.014385e-04 4.169940e-06 -9.726859e-05 -2.750689e-05
1.336400e+01 -4.891507e-05 1.397537e-05 -3.493971e-05 2.575615e-05
1.336800e+01 -3.486245e-06 2.432850e-05 2.084226e-05 7.957990e-05
1.337200e+01 -6.406446e-05 3.117309e-05 -3.289137e-05 6.097221e-05
1.337600e+01 -9.704682e-05 3.437724e-05 -6.266958e-05 3.908414e-05
1.338000e+01 -1.047965e-04 3.557092e-05 -6.922556e-05 3.305521e-05
1.338400e+01 -9.985868e-05 3.910757e-05 -6.075111e-05 2.154423e-05
1.338800e+01 -1.211048e-04 3.771363e-05 -8.339113e-05 -4.411803e-06
1.339200e+01 -1.691276e-04 3.145887e-05 -1.376687e-04 -1.584284e-05
1.339600e+01 -1.276540e-04 3.607150e-05 -9.158250e-05 3.634106e-05
1.340000e+01 -1.132574e-04 3.014371e-05 -8.311371e-05 5.393048e-05
1.340400e+01 -1.309201e-04 1.979219e-05 -1.111279e-04 2.446601e-05
1.340800e+01 -1.443881e-04 1.474411e-05 -1.296440e-04 2.841420e-06
1.341200e+01 -1.081669e-04 1.321737e-05 -9.494950e-05 -6.732926e-07
1.341600e+01 -7.907574e-05 1.683252e-05 -6.224322e-05 1.048957e-05
1.342000e+01 -7.580593e-05 2.299097e-05 -5.281496e-05 2.164342e-05
1.342400e+01 -5.247192e-05 2.299531e-05 -2.947661e-05 2.280724e-05
1.342800e+01 -9.065929e-05 2.002961e-05 -7.062968e-05 -4.751405e-06
1.343200e+01 -1.904844e-04 2.209663e-05 -1.683877e-04 -5.472811e-05
1.343600e+01 -1.989872e-04 2.254508e-05 -1.764422e-04 -5.492318e-05
1.344000e+01 -4.388541e-05 2.198517e-05 -2.190024e-05 3.332018e-05
1.344400e+01 3.775939e-05 1.495176e-05 5.271115e-05 5.349407e-05
1.344800e+01 -1.451484e-05 4.298908e-06 -1.021593e-05 -1.501289e-05
1.345200e+01 -1.862434e-05 4.022637e-06 -1.460171e-05 2.511070e-07
1.345600e+01 7.298430e-05 1.078072e-05 8.376502e-05 5.620446e-05
1.346000e+01 2.175969e-05 1.699893e-05 3.875863e-05 2.855015e-05
1.346400e+01 -5.254207e-05 1.679730e-05 -3.574477e-05 -2.590828e-05
1.346800e+01 -4.891976e-05 1.331258e-05 -3.560718e-05 -2.479366e-05
1.347200e+01 -7.311788e-06 1.056214e-05 3.250347e-06 2.511376e-07
1.347600e+01 4.367307e-06 4.950306e-06 9.317613e-06 -2.384194e-06
1.348000e+01 -3.118567e-05 2.090562e-06 -2.909511e-05 1.797315e-06
1.348400e+01 -5.991209e-05 1.868530e-06 -5.804356e-05 3.035343e-05
1.348800e+01 -4.297327e-05 -2.278077e-07 -4.320108e-05 9.632633e-06
1.349200e+01 1.893614e-05 2.701065e-08 1.896315e-05 -2.212671e-05
1.349600e+01 3.737433e-05 1.838422e-06 3.921275e-05 -1.429387e-05
1.350000e+01 6.412494e-05 3.282083e-06 6.740703e-05 -5.721928e-06
1.350400e+01 4.463625e-05 7.912835e-06 5.254908e-05 -1.289229e-05
1.350800e+01 1.306882e-05 1.145209e-05 2.452091e-05 1.080648e-06
1.351200e+01 -1.427926e-05 9.387832e-06 -4.891433e-06 3.739845e-06
1.351600e+01 -8.088052e-05 5.119893e-06 -7.576062e-05 -3.549436e-05
1.352000e+01 -6.872616e-05 7.089223e-06 -6.163694e-05 -2.881458e-05
1.352400e+01 -1.263749e-05 7.299067e-06 -5.338427e-06 5.861276e-06
1.352800e+01 -2.460810e-05 2.791920e-06 -2.181618e-05 1.071168e-05
1.353200e+01 -4.691929e-05 4.398886e-06 -4.252041e-05 3.716608e-05
1.353600e+01 -5.762388e-05 2.632138e-07 -5.736067e-05 1.676711e-05
1.354000e+01 -1.712238e-04 -8.941003e-06 -1.801648e-04 -5.325018e-05
1.354400e+01 -3.340535e-04 -2.685190e-06 -3.367387e-04 -5.640107e-05
1.354800e+01 -4.228473e-04 7.250206e-06 -4.155971e-04 -5.273349e-07
1.355200e+01 -4.858085e-04 5.708911e-06 -4.800996e-04 2.034587e-05
1.355600e+01 -4.027248e-04 -1.310304e-06 -4.040351e-04 6.485655e-06
1.356000e+01 -1.476870e-04 -1.122654e-05 -1.589135e-04 4.898702e-06
1.356400e+01 6.483648e-05 -2.047339e-05 4.436309e-05 -2.258092e-05
1.356800e+01 1.725921e-04 -1.715630e-05 1.554358e-04 -2.579815e-05
1.357200e+01 3.066427e-04 -6.511643e-06 3.001311e-04 1.459678e-05
1.357600e+01 3.850603e-04 -5.703962e-06 3.793564e-04 2.609884e-05
1.358000e+01 3.496894e-04 -1.101667e-05 3.386727e-04 -2.017283e-05
1.358400e+01 3.076841e-04 -1.412613e-05 2.935580e-04 -1.968149e-05
1.358800e+01 2.649943e-04 -1.348831e-05 2.515060e-04 -1.159897e-06
1.359200e+01 1.956494e-04 -9.045511e-06 1.866039e-04 -1.074844e-05
1.359600e+01 1.023428e-04 -3.689572e-06 9.865323e-05 -1.279236e-05
1.360000e+01 7.457942e-06 -2.698423e-06 4.759519e-06 -1.288602e-05
1.360400e+01 -7.470521e-05 -8.751297e-06 -8.345651e-05 -4.096080e-05
1.360800e+01 -5.109197e-05 -1.156537e-05 -6.265735e-05 -2.471628e-05
1.361200e+01 1.531998e-05 -1.001850e-05 5.301475e-06 2.205946e-05
1.361600e+01 -8.181537e-06 -8.697888e-06 -1.687942e-05 3.477602e-05
1.362000e+01 -9.453587e-05 -5.356418e-06 -9.989229e-05 8.609726e-06
1.362400e+01 -1.210780e-04 -5.993752e-06 -1.270717e-04 -2.089851e-05
1.362800e+01 -9.241210e-05 -6.832476e-06 -9.924458e-05 -1.799200e-05
1.363200e+01 -4.339738e-05 -2.411781e-06 -4.580916e-05 1.959116e-05
1.363600e+01 -6.963731e-05 -6.419177e-07 -7.027923e-05 -6.355508e-06
1.364000e+01 -1.086770e-04 -1.666095e-06 -1.103431e-04 -2.739647e-07
1.364400e+01 -4.862355e-05 -4.745627e-06 -5.336918e-05 5.470797e-05
1.364800e+01 3.086681e-05 -7.912092e-06 2.295471e-05 7.234565e-05
1.365200e+01 -3.844205e-06 -9.438747e-06 -1.328295e-05 1.881054e-05
1.365600e+01 -8.130177e-05 -6.180355e-06 -8.748213e-05 -2.756293e-05
1.366000e+01 -1.336567e-04 -2.947052e-06 -1.366038e-04 -3.493278e-05
1.366400e+01 -1.279683e-04 6.866829e-07 -1.272816e-04 -3.161360e-05
1.366800e+01 -5.935096e-05 5.358742e-06 -5.399222e-05 9.046356e-07
1.367200e+01 -3.191452e-05 1.101509e-06 -3.081301e-05 -1.467874e-06
1.367600e+01 -8.915559e-05 -3.479967e-06 -9.263556e-05 -1.484757e-05
1.368000e+01 -1.625741e-04 -3.566634e-06 -1.661407e-04 -1.198521e-05
1.368400e+01 -1.403483e-04 8.222982e-07 -1.395260e-04 -1.180588e-05
1.368800e+01 -1.185388e-04 5.452714e-06 -1.130861e-04 -2.703204e-05
1.369200e+01 -9.844278e-05 6.294066e-06 -9.214872e-05 -4.816965e-06
1.369600e+01 -1.078344e-04 2.220648e-06 -1.056138e-04 7.683412e-06
1.370000e+01 -1.224879e-04 3.411129e-06 -1.190768e-04 -1.176848e-05
1.370400e+01 -8.048622e-05 1.230557e-05 -6.818065e-05 -1.999690e-06
1.370800e+01 -3.901989e-05 1.909324e-05 -1.992665e-05 2.637237e-05
1.371200e+01 -9.647442e-05 1.831685e-05 -7.815757e-05 -2.045957e-06
1.371600e+01 -1.278825e-04 1.938943e-05 -1.084931e-04 2.339130e-05
1.372000e+01 -1.196002e-04 1.663098e-05 -1.029692e-04 4.393613e-05
1.372400e+01 -1.778887e-04 1.126406e-05 -1.666246e-04 -1.152336e-05
1.372800e+01 -2.177501e-04 9.673729e-06 -2.080763e-04 -6.295045e-05
1.373200e+01 -1.727781e-04 9.217578e-06 -1.635605e-04 -5.111247e-05
1.373600e+01 -1.843076e-04 7.388273e-06 -1.769193e-04 -3.283452e-05
1.374000e+01 -1.664986e-04 6.700930e-06 -1.597977e-04 -6.836409e-06
1.374400e+01 -1.133241e-04 7.849055e-06 -1.054750e-04 3.497328e-05
1.374800e+01 -1.126897e-04 7.297369e-06 -1.053923e-04 3.807974e-05
1.375200e+01 -1.566666e-04 3.386161e-06 -1.532804e-04 -1.347337e-05
1.375600e+01 -1.662635e-04 1.811532e-07 -1.660823e-04 -3.182091e-05
1.376000e+01 -1.571064e-04 -1.158814e-06 -1.582653e-04 -2.282580e-05
1.376400e+01 -1.163868e-04 -1.078417e-06 -1.174652e-04 5.270725e-06
1.376800e+01 -1.494376e-04 -4.537075e-06 -1.539747e-04 -3.782613e-06
1.377200e+01 -2.290260e-04 -8.737275e-06 -2.377632e-04 -4.582155e-05
1.377600e+01 -2.405222e-04 -7.280443e-06 -2.478027e-04 -1.377422e-05
1.378000e+01 -1.971673e-04 -4.498901e-06 -2.016662e-04 4.024861e-05
1.378400e+01 -1.783657e-04 -3.983884e-06 -1.823496e-04 3.794333e-05
1.378800e+01 -2.492491e-04 -4.527372e-06 -2.537764e-04 -1.916676e-05
1.379200e+01 -2.899862e-04 -1.294363e-06 -2.912805e-04 -1.458607e-05
1.379600e+01 -2.382065e-04 2.501108e-06 -2.357054e-04 3.630888e-05
1.380000e+01 -1.907741e-04 -1.088575e-06 -1.918627e-04 1.797887e-05
1.380400e+01 -2.457925e-04 -8.700387e-06 -2.544929e-04 -4.747514e-05
1.380800e+01 -2.797538e-04 -1.029413e-05 -2.900479e-04 -4.006932e-05
1.381200e+01 -2.553119e-04 -4.629665e-06 -2.599416e-04 2.384575e-05
1.381600e+01 -2.361910e-04 -2.051783e-06 -2.382427e-04 5.384664e-05
1.382000e+01 -2.195239e-04 -3.988062e-07 -2.199227e-04 7.236800e-05
1.382400e+01 -2.202854e-04 -4.516443e-07 -2.207371e-04 3.867102e-05
1.382800e+01 -2.301556e-04 -3.554100e-07 -2.305110e-04 -8.558131e-06
1.383200e+01 -2.050252e-04 1.159095e-06 -2.038661e-04 8.831249e-06
1.383600e+01 -2.080925e-04 1.538709e-08 -2.080771e-04 2.312558e-05
1.384000e+01 -2.408794e-04 -2.724160e-06 -2.436035e-04 -6.637423e-06
1.384400e+01 -2.272688e-04 -1.852393e-06 -2.291212e-04 -3.942161e-07
1.384800e+01 -2.052558e-04 -2.799610e-06 -2.080554e-04 2.888103e-05
1.385200e+01 -1.681530e-04 -6.505746e-06 -1.746587e-04 2.159347e-05
1.385600e+01 -1.223132e-04 -5.669529e-06 -1.279827e-04 1.752132e-05
1.386000e+01 -1.020570e-04 -2.511166e-06 -1.045682e-04 1.854237e-05
1.386400e+01 -1.396668e-04 -4.033447e-07 -1.400701e-04 4.866060e-06
1.386800e+01 -1.584090e-04 -2.664045e-06 -1.610730e-04 -2.196217e-05
1.387200e+01 -1.249313e-04 -7.901381e-06 -1.328326e-04 -4.640717e-05
1.387600e+01 -4.274997e-05 -7.129887e-06 -4.987986e-05 -6.524999e-06
1.388000e+01 2.551458e-05 -4.337746e-06 2.117683e-05 3.342420e-05
1.388400e+01 -8.419036e-06 -6.455535e-06 -1.487457e-05 3.933665e-06
1.388800e+01 -6.970967e-05 -6.515919e-06 -7.622559e-05 -1.393710e-05
1.389200e+01 -3.275692e-05 -5.379356e-06 -3.813628e-05 2.008398e-05
1.389600e+01 3.140550e-05 -3.285233e-06 2.812027e-05 4.362018e-05
1.390000e+01 4.681505e-05 -2.526351e-06 4.428870e-05 2.921667e-05
1.390400e+01 4.825280e-05 -2.512704e-06 4.574010e-05 -7.964201e-08
1.390800e+01 5.344611e-05 -1.924780e-06 5.152133e-05 -1.403921e-05
1.391200e+01 2.253820e-05 -2.517089e-06 2.002111e-05 -1.602759e-05
1.391600e+01 -1.858930e-05 -4.400219e-06 -2.298952e-05 -3.075311e-05
1.392000e+01 3.703253e-05 -1.872194e-06 3.516033e-05 -9.442970e-06
1.392400e+01 9.693219e-05 2.619642e-06 9.955183e-05 3.041218e-05
1.392800e+01 6.075023e-05 4.582996e-06 6.533322e-05 2.338584e-05
1.393200e+01 3.863538e-05 6.721476e-06 4.535686e-05 7.196911e-06
1.393600e+01 4.372920e-05 5.261243e-06 4.899045e-05 -6.659168e-06
1.394000e+01 4.950814e-05 2.464254e-06 5.197240e-05 -2.459074e-05
1.394400e+01 4.252729e-05 5.564084e-06 4.809138e-05 -4.810440e-06
1.394800e+01 3.700193e-05 6.991076e-06 4.399301e-05 9.182295e-06
1.395200e+01 3.810120e-05 4.365915e-06 4.246712e-05 -1.624822e-05
1.395600e+01 5.836015e-05 1.506511e-06 5.986666e-05 -2.479058e-05
1.396000e+01 3.832438e-05 -2.091062e-06 3.623332e-05 -2.720320e-05
1.396400e+01 1.815553e-05 -2.506107e-06 1.564942e-05 -7.130183e-07
1.396800e+01 3.956878e-05 -5.965780e-07 3.897220e-05 1.953785e-05
1.397200e+01 5.337470e-05 1.760080e-06 5.513478e-05 1.050914e-05
1.397600e+01 3.539775e-05 8.280501e-07 3.622580e-05 -3.607511e-06
1.398000e+01 2.139761e-05 9.918491e-08 2.149680e-05 -2.424897e-06
1.398400e+01 -3.308775e-05 -1.810811e-06 -3.489856e-05 -1.954346e-05
1.398800e+01 -8.289886e-06 4.985200e-07 -7.791366e-06 1.202471e-06
1.399200e+01 5.994169e-05 4.793765e-06 6.473545e-05 2.003700e-05
1.399600e+01 1.169317e-04 5.948770e-06 1.228805e-04 2.061187e-05
1.400000e+01 8.876163e-05 1.370877e-06 9.013250e-05 -1.051698e-05
1.400400e+01 3.174203e-05 -5.366921e-07 3.120533e-05 -2.004637e-05
1.400800e+01 -4.852584e-06 2.390507e-06 -2.462077e-06 2.310204e-07
1.401200e+01 2.729488e-06 6.300189e-06 9.029677e-06 5.465121e-06
1.401600e+01 6.998865e-06 5.723457e-06 1.272232e-05 -2.644822e-05
1.402000e+01 -1.738097e-05 4.776971e-06 -1.260400e-05 -1.715040e-05
1.402400e+01 1.968546e-05 7.228493e-06 2.691395e-05 2.998521e-05
1.402800e+01 4.354386e-05 5.839767e-06 4.938362e-05 2.546977e-05
1.403200e+01 4.841875e-05 2.023540e-06 5.044229e-05 3.828488e-07
1.403600e+01 5.385405e-05 -1.454069e-07 5.370864e-05 -1.888440e-05
1.404000e+01 1.759812e-05 5.976688e-07 1.819579e-05 -3.554060e-05
1.404400e+01 -6.876344e-06 1.980114e-06 -4.896231e-06 -2.145894e-05
1.404800e+01 8.752690e-06 5.084697e-07 9.261160e-06 3.543572e-06
1.405200e+01 3.715875e-05 -3.510261e-06 3.364849e-05 1.457272e-05
1.405600e+01 7.277787e-05 -3.031767e-06 6.974610e-05 2.464201e-05
1.406000e+01 6.609956e-05 -1.664542e-06 6.443502e-05 5.417312e-06
1.406400e+01 5.731111e-06 -1.736528e-06 3.994583e-06 -1.658246e-05
1.406800e+01 -1.088044e-05 9.677959e-07 -9.912644e-06 -8.226973e-06
1.407200e+01 -2.597060e-05 3.768137e-06 -2.220246e-05 9.150626e-06
1.407600e+01 -2.699615e-05 8.966123e-07 -2.609954e-05 -7.655487e-06
1.408000e+01 2.919299e-05 -1.143315e-06 2.804967e-05 -3.027762e-05
1.408400e+01 6.272432e-05 -9.553233e-08 6.262879e-05 -7.719937e-06
1.408800e+01 7.941797e-05 2.559112e-06 8.197708e-05 2.518727e-05
1.409200e+01 6.043185e-05 2.212700e-06 6.264455e-05 1.949576e-05
1.409600e+01 5.014611e-05 1.760967e-07 5.032220e-05 7.480262e-06
1.410000e+01 3.025278e-05 -1.032844e-06 2.921994e-05 -2.361770e-05
1.410400e+01 -1.885567e-05 -2.018535e-06 -2.087420e-05 -5.956031e-05
1.410800e+01 -3.486405e-05 -1.610189e-06 -3.647424e-05 -5.704673e-05
1.411200e+01 1.515081e-05 -1.540244e-06 1.361057e-05 -2.871805e-05
1.411600e+01 8.278651e-05 7.463918e-07 8.353290e-05 2.108544e-05
1.412000e+01 1.157570e-04 2.244841e-06 1.180019e-04 5.282255e-05
1.412400e+01 8.960054e-05 2.593148e-06 9.219369e-05 2.695453e-05
1.412800e+01 5.244119e-05 4.799292e-06 5.724049e-05 1.150425e-05
1.413200e+01 1.537743e-05 5.512326e-06 2.088975e-05 -1.047039e-05
1.413600e+01 2.542209e-05 1.632477e-06 2.705457e-05 -5.410274e-05
1.414000e+01 7.268330e-05 2.658307e-06 7.534161e-05 -2.914300e-05
1.414400e+01 9.214755e-05 7.030649e-06 9.917820e-05 1.383398e-05
1.414800e+01 8.451304e-05 5.501047e-06 9.001409e-05 3.447639e-06
1.415200e+01 6.992339e-05 3.879027e-06 7.380242e-05 2.737336e-06
1.415600e+01 1.735876e-05 1.484461e-06 1.884322e-05 -2.075526e-05
1.416000e+01 -1.337908e-05 2.173776e-07 -1.316170e-05 -2.074300e-05
1.416400e+01 5.342850e-05 -2.155747e-06 5.127276e-05 -1.355477e-06
1.416800e+01 1.210192e-04 -7.938430e-07 1.202253e-04 3.353064e-05
1.417200e+01 1.171937e-04 1.726291e-06 1.189200e-04 3.819868e-05
1.417600e+01 5.738640e-05 3.452452e-07 5.773165e-05 -6.294477e-06
1.418000e+01 -2.587112e-05 -5.148877e-06 -3.102000e-05 -4.736261e-05
1.418400e+01 -3.023945e-05 -8.889310e-06 -3.912876e-05 -3.653936e-05
1.418800e+01 5.848477e-05 -7.356336e-06 5.112844e-05 -3.836074e-06
1.419200e+01 1.369169e-04 -4.390447e-07 1.364779e-04 4.082455e-05
1.419600e+01 9.361312e-05 -1.567013e-06 9.204611e-05 -1.397575e-06
1.420000e+01 3.512724e-05 -2.071935e-06 3.305531e-05 -2.626920e-05
1.420400e+01 1.605527e-05 2.595054e-06 1.865033e-05 1.594980e-05
1.420800e+01 1.927548e-05 3.335988e-06 2.261147e-05 3.268726e-05
1.421200e+01 3.844140e-05 4.768853e-06 4.321025e-05 2.241819e-05
1.421600e+01 8.461752e-05 8.303370e-06 9.292089e-05 8.166202e-06
1.422000e+01 9.590283e-05 1.009179e-05 1.059946e-04 7.995052e-08
1.422400e+01 4.401759e-05 6.229076e-06 5.024667e-05 -2.708809e-05
1.422800e+01 -1.347088e-05 2.000420e-06 -1.147046e-05 -3.733068e-05
1.423200e+01 1.062832e-05 1.029695e-06 1.165802e-05 4.947916e-06
1.423600e+01 8.804616e-05 3.629561e-06 9.167572e-05 5.695931e-05
1.424000e+01 1.134413e-04 4.363749e-06 1.178051e-04 4.382047e-05
1.424400e+01 6.301853e-05 1.327693e-06 6.434622e-05 7.318702e-06
1.424800e+01 2.755822e-05 -4.581158e-06 2.297706e-05 -2.198510e-05
1.425200e+01 2.155552e-05 -4.072739e-06 1.748278e-05 -1.295082e-05
1.425600e+01 4.925245e-06 -2.492141e-06 2.433104e-06 -1.011891e-05
1.426000e+01 -7.920188e-06 -2.891984e-06 -1.081217e-05 -1.685583e-05
1.426400e+01 8.388690e-05 4.137275e-06 8.802417e-05 3.129081e-05
1.426800e+01 1.454490e-04 8.228595e-06 1.536776e-04 4.615320e-05
1.427200e+01 1.035888e-04 -2.694207e-07 1.033193e-04 8.565265e-06
1.427600e+01 4.434384e-05 -6.550249e-06 3.779359e-05 -5.723244e-06
1.428000e+01 5.072942e-05 -1.317890e-06 4.941153e-05 1.839454e-05
1.428400e+01 7.551021e-05 6.173022e-06 8.168323e-05 1.843015e-05
1.428800e+01 9.462605e-05 1.194423e-05 1.065703e-04 2.613141e-05
1.429200e+01 4.573397e-05 1.056114e-05 5.629511e-05 7.082494e-06
1.429600e+01 -3.017746e-05 5.568015e-06 -2.460945e-05 -3.188354e-05
1.430000e+01 -4.977568e-05 1.524687e-06 -4.825099e-05 -6.005049e-05
1.430400e+01 3.845540e-06 1.815639e-06 5.661179e-06 -3.365980e-05
1.430800e+01 4.651475e-05 1.891610e-06 4.840636e-05 1.065123e-05
1.431200e+01 6.596648e-05 -2.673998e-06 6.329248e-05 7.112137e-06
1.431600e+01 8.967953e-05 -3.994832e-06 8.568470e-05 1.735463e-05
1.432000e+01 6.580963e-05 -3.989244e-06 6.182038e-05 3.812104e-05
1.432400e+01 -1.859937e-06 -5.085761e-06 -6.945697e-06 2.037739e-06
1.432800e+01 -2.318681e-05 -5.760519e-06 -2.894733e-05 -4.406882e-05
1.433200e+01 -3.236519e-05 -5.074104e-06 -3.743930e-05 -4.218397e-05
1.433600e+01 6.697824e-06 -3.096672e-06 3.601152e-06 7.963044e-06
1.434000e+01 7.753580e-05 -2.321972e-06 7.521383e-05 3.299951e-05
1.434400e+01 1.128259e-04 -4.766847e-06 1.080591e-04 1.864982e-05
1.434800e+01 1.227453e-04 -9.547031e-06 1.131982e-04 -8.186015e-06
1.435200e+01 9.813189e-05 -1.152525e-05 8.660663e-05 -1.412210e-05
1.435600e+01 6.807574e-05 -7.746357e-06 6.032938e-05 7.134334e-06
1.436000e+01 5.371357e-05 -5.485560e-06 4.822801e-05 3.197746e-05
1.436400e+01 3.999260e-05 -8.031044e-06 3.196156e-05 5.276197e-06
1.436800e+01 5.391252e-05 -8.867866e-06 4.504466e-05 -9.892985e-06
1.437200e+01 6.001646e-05 -7.758661e-06 5.225780e-05 1.180202e-05
1.437600e+01 -2.535424e-05 -8.663600e-06 -3.401784e-05 -5.513730e-06
1.438000e+01 -7.628376e-05 -6.350274e-06 -8.263403e-05 -1.455104e-05
1.438400e+01 1.011638e-05 -1.350736e-06 8.765639e-06 1.265872e-05
1.438800e+01 1.185620e-04 1.601630e-06 1.201636e-04 4.099264e-05
1.439200e+01 9.079507e-05 -4.317121e-06 8.647795e-05 2.519713e-05
1.439600e+01 6.493630e-06 -9.714233e-06 -3.220604e-06 -1.218781e-06
1.440000e+01 -4.687528e-05 -7.635006e-06 -5.451028e-05 -4.452821e-06
1.440400e+01 -7.124711e-05 -4.013601e-06 -7.526071e-05 -1.225012e-06
1.440800e+01 -3.681564e-05 -3.540039e-06 -4.035568e-05 7.157239e-06
1.441200e+01 -1.762515e-05 -2.847534e-06 -2.047268e-05 6.562627e-06
1.441600e+01 -2.447312e-05 -6.724670e-07 -2.514559e-05 -1.460624e-05
1.442000e+01 -2.123791e-05 5.260215e-08 -2.118531e-05 -2.127998e-05
1.442400e+01 -2.104812e-05 -3.975012e-06 -2.502314e-05 -1.711787e-05
1.442800e+01 -2.565761e-05 -8.716419e-06 -3.437403e-05 -2.447364e-05
1.443200e+01 1.518464e-05 -6.605975e-06 8.578665e-06 -1.084820e-05
1.443600e+01 1.833241e-05 -5.912212e-06 1.242020e-05 -1.167786e-05
1.444000e+01 2.497575e-05 -3.519747e-06 2.145601e-05 6.984691e-06
1.444400e+01 7.641948e-05 -1.771247e-06 7.464823e-05 3.582013e-05
1.444800e+01 8.279360e-05 -6.377680e-06 7.641592e-05 1.064664e-05
1.445200e+01 6.770862e-05 -8.284882e-06 5.942374e-05 -2.969123e-05
1.445600e+01 6.983383e-05 -2.194141e-07 6.961442e-05 -2.319932e-06
1.446000e+01 8.924226e-05 6.041866e-06 9.528413e-05 2.899667e-05
1.446400e+01 1.229933e-04 4.350259e-06 1.273435e-04 1.861964e-05
1.446800e+01 1.227359e-04 -2.620199e-07 1.224739e-04 2.936439e-06
1.447200e+01 8.606449e-05 -3.715501e-06 8.234899e-05 -1.934896e-05
1.447600e+01 5.859040e-05 -3.644677e-06 5.494572e-05 -1.886126e-05
1.448000e+01 7.344355e-05 -2.421186e-06 7.102237e-05 -9.612053e-06
1.448400e+01 7.660138e-05 -6.686590e-07 7.593272e-05 -1.227948e-05
1.448800e+01 7.308344e-05 2.389257e-06 7.547269e-05 6.283265e-06
1.449200e+01 5.013940e-05 2.857960e-06 5.299736e-05 5.536813e-06
1.449600e+01 5.764280e-05 3.194836e-06 6.083764e-05 -1.256632e-05
1.450000e+01 9.067769e-05 5.112393e-06 9.579008e-05 -9.592186e-06
1.450400e+01 6.407945e-05 1.678487e-06 6.575794e-05 -3.737006e-05
1.450800e+01 7.791004e-06 3.273615e-07 8.118365e-06 -5.066340e-05
1.451200e+01 3.434750e-05 4.148366e-06 3.849586e-05 3.509612e-06
1.451600e+01 6.412094e-05 5.723805e-06 6.984475e-05 5.836991e-05
1.452000e+01 6.346744e-05 1.564759e-06 6.503220e-05 4.707997e-05
1.452400e+01 1.074448e-04 2.637845e-06 1.100826e-04 4.334860e-05
1.452800e+01 4.464970e-05 6.869901e-06 5.151960e-05 2.998884e-05
1.453200e+01 -4.603201e-05 8.827489e-06 -3.720453e-05 -3.084359e-05
1.453600e+01 -5.964291e-05 1.174581e-05 -4.789710e-05 -4.649855e-05
1.454000e+01 -8.122112e-05 1.292070e-05 -6.830043e-05 6.031593e-07
1.454400e+01 -2.063346e-04 7.313284e-06 -1.990213e-04 7.208498e-06
1.454800e+01 -4.153869e-04 2.654688e-06 -4.127322e-04 -2.243188e-05
1.455200e+01 -5.528532e-04 -9.638344e-07 -5.538170e-04 -5.833596e-05
1.455600e+01 -4.143014e-04 -4.160292e-06 -4.184617e-04 -6.878177e-05
1.456000e+01 -6.415359e-05 -1.682327e-06 -6.583592e-05 -2.507806e-05
1.456400e+01 2.446445e-04 1.851299e-06 2.464958e-04 3.321231e-05
1.456800e+01 3.407717e-04 1.117099e-06 3.418888e-04 3.296022e-05
1.457200e+01 3.219734e-04 -4.028888e-07 3.215705e-04 -2.564279e-06
1.457600e+01 3.806306e-04 3.612923e-06 3.842435e-04 1.949722e-05
1.458000e+01 4.205783e-04 6.269494e-06 4.268477e-04 3.160632e-05
1.458400e+01 3.991910e-04 5.946146e-06 4.051372e-04 9.322031e-06
1.458800e+01 3.647250e-04 7.870979e-06 3.725959e-04 7.394864e-07
1.459200e+01 2.945259e-04 1.054340e-05 3.050693e-04 1.682680e-05
1.459600e+01 1.721378e-04 6.528872e-06 1.786666e-04 2.356714e-05
1.460000e+01 5.114606e-05 -1.001817e-06 5.014424e-05 2.319151e-07
1.460400e+01 -1.110081e-05 -6.199040e-06 -1.729985e-05 -2.795276e-05
1.460800e+01 3.616409e-06 -7.001874e-06 -3.385465e-06 -4.264183e-05
1.461200e+01 4.447687e-05 -1.447442e-06 4.302943e-05 -1.517441e-05
1.461600e+01 7.279241e-05 3.840520e-06 7.663293e-05 4.092709e-05
1.462000e+01 2.908821e-05 -3.557621e-06 2.553059e-05 1.825167e-05
1.462400e+01 -4.263278e-05 -9.045051e-06 -5.167783e-05 -3.478561e-05
1.462800e+01 -2.301732e-05 -1.711605e-06 -2.472892e-05 -8.158279e-06
1.463200e+01 6.284753e-05 1.020211e-05 7.304964e-05 4.617081e-05
1.463600e+01 6.390103e-05 1.326737e-05 7.716840e-05 5.138433e-05
1.464000e+01 -3.605573e-06 1.268922e-05 9.083647e-06 3.895109e-05
1.464400e+01 -7.485121e-05 9.108739e-06 -6.574247e-05 1.356742e-06
1.464800e+01 -1.146673e-04 5.167807e-06 -1.094995e-04 -3.885941e-05
1.465200e+01 -7.364003e-05 4.783231e-06 -6.885680e-05 -2.992625e-05
1.465600e+01 6.299055e-06 9.510890e-06 1.580994e-05 3.390583e-05
1.466000e+01 2.632889e-05 8.458279e-06 3.478716e-05 3.144428e-05
1.466400e+01 3.788682e-05 4.988104e-06 4.287492e-05 9.537517e-07
1.466800e+01 2.424099e-05 7.712293e-06 3.195328e-05 -7.530877e-08
1.467200e+01 3.007782e-05 9.504712e-06 3.958253e-05 6.519215e-06
1.467600e+01 9.801735e-06 1.027565e-05 2.007738e-05 3.884524e-06
1.468000e+01 -3.326800e-05 1.159987e-05 -2.166813e-05 -5.493810e-06
1.468400e+01 -4.336774e-05 1.233608e-05 -3.103166e-05 -4.469090e-06
1.468800e+01 -2.646480e-05 7.827386e-06 -1.863741e-05 -5.649460e-06
1.469200e+01 -2.619212e-05 4.976948e-06 -2.121517e-05 -9.095865e-07
1.469600e+01 -2.594141e-05 5.735925e-06 -2.020549e-05 1.358486e-05
1.470000e+01 -3.011176e-05 6.328396e-06 -2.378336e-05 7.947551e-06
1.470400e+01 -2.449991e-05 4.834428e-06 -1.966548e-05 -1.066420e-05
1.470800e+01 -1.207767e-05 6.507983e-06 -5.569688e-06 -3.839012e-06
1.471200e+01 1.340572e-05 6.624147e-06 2.002987e-05 1.782256e-05
1.471600e+01 -1.804094e-05 1.851788e-07 -1.785576e-05 -1.451930e-05
1.472000e+01 -4.523514e-05 -6.349032e-07 -4.587004e-05 -3.357651e-05
1.472400e+01 -5.652403e-05 6.601793e-06 -4.992223e-05 2.594669e-06
1.472800e+01 -3.747307e-05 5.510944e-06 -3.196213e-05 8.329028e-07
1.473200e+01 -2.153407e-05 7.520577e-07 -2.078201e-05 -2.061507e-05
1.473600e+01 -3.719476e-05 -2.416323e-08 -3.721893e-05 -2.035084e-05
1.474000e+01 -3.329826e-05 5.534349e-06 -2.776391e-05 1.369708e-05
1.474400e+01 -6.951834e-05 6.085012e-06 -6.343333e-05 9.207428e-06
1.474800e+01 -1.044633e-04 -1.786746e-07 -1.046420e-04 -3.645644e-05
1.475200e+01 -1.009466e-04 -2.049570e-06 -1.029961e-04 -3.582448e-05
1.475600e+01 -7.837615e-05 1.290941e-06 -7.708521e-05 6.785262e-06
1.476000e+01 -5.920338e-05 -3.354118e-06 -6.255750e-05 5.572147e-06
1.476400e+01 -6.295278e-05 -9.739911e-06 -7.269269e-05 -2.721329e-05
1.476800e+01 -8.100170e-05 -7.939569e-06 -8.894127e-05 -2.043820e-05
1.477200e+01 -7.366107e-05 -9.728528e-06 -8.338960e-05 -5.013294e-06
1.477600e+01 -1.191730e-04 -1.927916e-05 -1.384521e-04 -3.519884e-05
1.478000e+01 -1.722688e-04 -2.145451e-05 -1.937233e-04 -3.612497e-05
1.478400e+01 -1.479124e-04 -1.059523e-05 -1.585077e-04 2.916028e-05
1.478800e+01 -8.631102e-05 -7.958306e-06 -9.426933e-05 4.581898e-05
1.479200e+01 -9.217373e-05 -1.560573e-05 -1.077795e-04 5.196402e-06
1.479600e+01 -8.741008e-05 -2.003869e-05 -1.074488e-04 -5.285493e-06
1.480000e+01 -1.024647e-04 -2.297877e-05 -1.254434e-04 -2.163787e-06
1.480400e+01 -1.238180e-04 -2.414685e-05 -1.479649e-04 6.250990e-06
1.480800e+01 -1.132352e-04 -1.996308e-05 -1.331983e-04 1.968890e-05
1.481200e+01 -1.120924e-04 -1.439123e-05 -1.264837e-04 7.391696e-06
1.481600e+01 -1.310083e-04 -1.327203e-05 -1.442803e-04 3.062928e-06
1.482000e+01 -1.504969e-04 -1.196375e-05 -1.624606e-04 1.737572e-05
1.482400e+01 -1.693289e-04 -1.122948e-05 -1.805583e-04 2.558040e-05
1.482800e+01 -1.624668e-04 -1.539648e-05 -1.778632e-04 9.222381e-06
1.483200e+01 -1.533120e-04 -1.918723e-05 -1.724992e-04 -3.944860e-06
1.483600e+01 -1.571378e-04 -2.009719e-05 -1.772350e-04 -1.903296e-05
1.484000e+01 -1.347313e-04 -2.512245e-05 -1.598537e-04 -1.819692e-05
1.484400e+01 -1.452820e-04 -3.286340e-05 -1.781454e-04 -2.053464e-05
1.484800e+01 -1.492301e-04 -3.528454e-05 -1.845146e-04 -2.113238e-05
1.485200e+01 -8.275273e-05 -3.098592e-05 -1.137387e-04 7.174548e-06
1.485600e+01 -3.259033e-06 -2.626545e-05 -2.952448e-05 2.698222e-05
1.486000e+01 2.377897e-05 -2.051312e-05 3.265846e-06 2.490956e-05
1.486400e+01 6.874626e-06 -1.377091e-05 -6.896280e-06 2.676769e-05
1.486800e+01 5.916052e-06 -8.916535e-06 -3.000483e-06 3.610054e-05
1.487200e+01 3.252486e-05 -1.400465e-05 1.852021e-05 2.599770e-05
1.487600e+01 5.333170e-05 -1.479421e-05 3.853750e-05 8.180967e-06
1.488000e+01 3.720246e-05 -6.938585e-06 3.026388e-05 -7.797439e-06
1.488400e+01 2.554042e-05 -1.177073e-06 2.436335e-05 -3.650964e-06
1.488800e+01 5.315823e-05 2.362903e-07 5.339452e-05 6.349196e-06
1.489200e+01 7.917478e-05 -3.474566e-06 7.570021e-05 9.287488e-06
1.489600e+01 8.464937e-05 -1.110665e-05 7.354272e-05 -1.101189e-05
1.490000e+01 9.631089e-05 -7.111613e-06 8.919928e-05 -5.357550e-06
1.490400e+01 7.860216e-05 -1.620193e-06 7.698197e-05 -3.008193e-06
1.490800e+01 1.061744e-04 5.906110e-06 1.120805e-04 1.655593e-05
1.491200e+01 1.682054e-04 1.469398e-05 1.828993e-04 5.527640e-05
1.491600e+01 1.279119e-04 2.794062e-06 1.307060e-04 2.042931e-05
1.492000e+01 8.435033e-05 -7.524098e-06 7.682623e-05 -2.976455e-05
1.492400e+01 9.153314e-05 7.208639e-06 9.874178e-05 2.456586e-06
1.492800e+01 1.148141e-04 2.043184e-05 1.352460e-04 3.891485e-05
1.493200e+01 9.792145e-05 2.103940e-05 1.189608e-04 1.433265e-05
1.493600e+01 7.422173e-05 1.453055e-05 8.875228e-05 -4.622848e-05
1.494000e+01 6.921415e-05 3.574827e-06 7.278898e-05 -8.310681e-05
1.494400e+01 8.868501e-05 -2.299854e-06 8.638515e-05 -5.705374e-05
1.494800e+01 1.208349e-04 3.921578e-06 1.247565e-04 5.945933e-06
1.495200e+01 1.333405e-04 3.166952e-06 1.365075e-04 1.773218e-05
1.495600e+01 1.442943e-04 4.788319e-06 1.490826e-04 1.429262e-05
1.496000e+01 1.365079e-04 6.595869e-06 1.431037e-04 1.611356e-05
1.496400e+01 8.664336e-05 7.054528e-06 9.369789e-05 -3.926048e-06
1.496800e+01 4.457456e-05 1.663695e-05 6.121150e-05 -7.938912e-06
1.497200e+01 7.385666e-05 3.011763e-05 1.039743e-04 1.893091e-05
1.497600e+01 1.049743e-04 2.633227e-05 1.313066e-04 -2.950202e-06
1.498000e+01 5.918027e-05 2.009140e-05 7.927167e-05 -4.016779e-05
1.498400e+01 3.401567e-05 2.098647e-05 5.500214e-05 -1.354176e-05
1.498800e+01 7.502459e-05 1.378547e-05 8.881006e-05 1.389027e-05
1.499200e+01 8.173606e-05 1.007877e-06 8.274394e-05 2.310237e-06
1.499600e+01 9.680692e-05 4.028125e-06 1.008350e-04 1.185228e-05
1.500000e+01 1.038403e-04 8.994651e-06 1.128349e-04 1.189201e-05
1.500400e+01 9.709911e-05 6.108700e-06 1.032078e-04 -1.508222e-05
1.500800e+01 5.999948e-05 7.226204e-06 6.722568e-05 -3.290522e-05
1.501200e+01 4.499669e-05 1.517537e-05 6.017206e-05 -1.345060e-05
1.501600e+01 7.472073e-05 1.626489e-05 9.098562e-05 3.073975e-05
1.502000e+01 1.030999e-04 3.789735e-06 1.068896e-04 4.090635e-05
1.502400e+01 8.127649e-05 1.976191e-06 8.325268e-05 1.640656e-05
1.502800e+01 3.669170e-05 7.619725e-06 4.431142e-05 -1.560400e-05
1.503200e+01 2.089665e-05 1.337550e-05 3.427216e-05 -2.998961e-05
1.503600e+01 1.493706e-05 9.520229e-06 2.445729e-05 -3.573891e-05
1.504000e+01 3.399625e-05 -3.017919e-06 3.097833e-05 -2.248318e-05
1.504400e+01 9.413634e-05 -4.295440e-06 8.984090e-05 1.321305e-05
1.504800e+01 1.143722e-04 2.499066e-06 1.168712e-04 2.663141e-05
1.505200e+01 8.318687e-05 -1.730642e-07 8.301380e-05 -1.358190e-06
1.505600e+01 3.923776e-05 9.221439e-08 3.932997e-05 -2.050568e-05
1.506000e+01 4.746429e-05 5.629977e-06 5.309427e-05 2.418731e-06
1.506400e+01 7.135380e-05 9.882853e-07 7.234208e-05 1.325490e-05
1.506800e+01 1.426281e-05 -1.091186e-05 3.350945e-06 -1.585017e-05
1.507200e+01 -2.137562e-05 -4.476006e-06 -2.585162e-05 -2.231676e-05
1.507600e+01 4.613811e-05 1.858618e-05 6.472429e-05 1.288962e-05
1.508000e+01 1.086988e-04 1.945021e-05 1.281490e-04 1.521255e-05
1.508400e+01 8.931164e-05 4.764131e-06 9.407577e-05 -6.664633e-06
1.508800e+01 5.171158e-05 6.118338e-06 5.782992e-05 8.974979e-06
1.509200e+01 4.650529e-05 1.326369e-05 5.976898e-05 2.792374e-05
1.509600e+01 2.065672e-05 1.412237e-05 3.477908e-05 3.200632e-06
1.510000e+01 1.010570e-05 7.855533e-06 1.796123e-05 -5.355136e-05
1.510400e+01 4.921553e-05 1.306393e-05 6.227945e-05 -3.473332e-05
1.510800e+01 9.179441e-05 1.253636e-05 1.043308e-04 1.727385e-05
1.511200e+01 8.929760e-05 -9.560038e-06 7.973756e-05 1.599655e-05
1.511600e+01 4.511070e-05 -1.839490e-05 2.671580e-05 -7.816348e-06
1.512000e+01 2.983498e-05 6.592281e-07 3.049421e-05 -5.556468e-06
1.512400e+01 6.563662e-05 1.570558e-05 8.134220e-05 1.689786e-05
1.512800e+01 1.701550e-05 1.089155e-05 2.790704e-05 1.658605e-06
1.513200e+01 -2.180274e-05 3.310104e-06 -1.849264e-05 -2.743913e-05
1.513600e+01 7.725583e-05 1.156952e-05 8.882535e-05 2.151644e-05
1.514000e+01 1.206539e-04 1.204896e-05 1.327029e-04 4.615455e-05
1.514400e+01 6.069753e-05 -8.907254e-06 5.179027e-05 -4.203686e-05
1.514800e+01 6.432340e-05 -2.277478e-06 6.204592e-05 -3.250437e-05
1.515200e+01 1.170640e-04 9.808411e-06 1.268724e-04 2.411368e-05
1.515600e+01 1.269587e-04 -8.401905e-06 1.185568e-04 2.144845e-06
1.516000e+01 5.964014e-05 -9.073254e-06 5.056689e-05 -3.237413e-06
1.516400e+01 4.501657e-05 3.077270e-06 4.809384e-05 2.814437e-05
1.516800e+01 7.907819e-05 -4.079567e-06 7.499862e-05 8.374761e-06
1.517200e+01 4.951125e-05 -1.237524e-05 3.713601e-05 -3.478760e-05
1.517600e+01 3.971000e-06 -1.274735e-05 -8.776353e-06 -5.939918e-05
1.518000e+01 5.487484e-05 -1.367833e-05 4.119652e-05 -5.023710e-05
1.518400e+01 9.828781e-05 -1.606414e-05 8.222367e-05 -2.066742e-05
1.518800e+01 1.108089e-04 -2.858321e-05 8.222568e-05 -8.282099e-06
1.519200e+01 1.024714e-04 -3.312612e-05 6.934532e-05 -1.063292e-05
1.519600e+01 6.542936e-05 -3.020795e-05 3.522141e-05 -1.228697e-05
1.520000e+01 4.102039e-05 -1.859439e-05 2.242600e-05 1.669529e-05
1.520400e+01 6.424163e-05 -7.165122e-06 5.707650e-05 4.715286e-05
1.520800e+01 6.281859e-05 -2.844125e-06 5.997446e-05 4.325641e-05
1.521200e+01 5.350263e-05 1.641461e-06 5.514409e-05 2.792455e-05
1.521600e+01 5.670641e-05 -7.680903e-07 5.593832e-05 6.201380e-06
1.522000e+01 6.888719e-05 4.763917e-07 6.936358e-05 9.184539e-07
1.522400e+01 5.216993e-05 -2.474855e-06 4.969507e-05 -2.370491e-05
1.522800e+01 -1.881394e-06 -1.364360e-05 -1.552500e-05 -4.972849e-05
1.523200e+01 1.754531e-05 -1.714699e-05 3.983155e-07 -2.362577e-05
1.523600e+01 8.457934e-05 -1.503409e-05 6.954525e-05 2.672814e-05
1.524000e+01 1.189628e-04 -1.825363e-05 1.007092e-04 4.260952e-05
1.524400e+01 1.143826e-04 -1.227545e-05 1.021071e-04 5.064017e-05
1.524800e+01 9.313809e-05 -7.358609e-06 8.577948e-05 5.245472e-05
1.525200e+01 7.064991e-05 -7.161377e-06 6.348854e-05 1.838688e-05
1.525600e+01 6.219591e-05 -3.420856e-08 6.216170e-05 -4.369241e-06
1.526000e+01 5.305661e-05 2.693362e-06 5.574997e-05 -5.557011e-06
1.526400e+01 1.399524e-05 -7.598205e-06 6.397034e-06 -2.980593e-05
1.526800e+01 3.688010e-05 -1.100489e-05 2.587521e-05 -3.167334e-05
1.527200e+01 5.265133e-05 -4.885178e-06 4.776615e-05 3.167788e-06
1.527600e+01 4.429605e-05 -3.988258e-06 4.030779e-05 3.982927e-05
1.528000e+01 4.167091e-05 -3.791555e-06 3.787936e-05 3.976487e-05
1.528400e+01 6.030933e-05 -3.981079e-06 5.632825e-05 2.258630e-05
1.528800e+01 2.830783e-05 -6.184905e-06 2.212292e-05 -1.707092e-05
1.529200e+01 4.864422e-05 -2.096290e-06 4.654793e-05 -2.326620e-05
1.529600e+01 5.788548e-05 2.498430e-06 6.038391e-05 -1.265783e-05
1.530000e+01 3.375524e-05 -3.518367e-06 3.023687e-05 -2.396728e-05
1.530400e+01 3.855401e-05 -2.578216e-06 3.597580e-05 -1.003150e-05
1.530800e+01 8.230289e-05 5.556112e-06 8.785900e-05 2.252972e-05
1.531200e+01 4.583400e-05 -1.973734e-06 4.386026e-05 1.954828e-05
1.531600e+01 1.443582e-07 -6.904112e-06 -6.759753e-06 2.969133e-07
1.532000e+01 4.901656e-08 2.090281e-06 2.139297e-06 1.117539e-06
1.532400e+01 2.624029e-06 2.545044e-06 5.169074e-06 -7.754486e-06
1.532800e+01 3.119066e-05 -3.756228e-07 3.081504e-05 -2.667888e-06
1.533200e+01 4.225250e-05 5.599890e-06 4.785239e-05 3.074449e-05
1.533600e+01 5.866175e-06 2.928910e-06 8.795086e-06 1.449475e-05
1.534000e+01 2.138819e-05 -8.012785e-06 1.337540e-05 -3.095809e-05
1.534400e+01 6.803105e-05 -9.499537e-06 5.853151e-05 -3.449783e-05
1.534800e+01 8.738928e-05 -1.267841e-07 8.726250e-05 2.910769e-06
1.535200e+01 4.364044e-05 6.001846e-07 4.424062e-05 1.299143e-05
1.535600e+01 -1.620525e-05 -9.298684e-06 -2.550393e-05 -8.711108e-06
1.536000e+01 -1.000993e-05 4.216590e-07 -9.588273e-06 2.272609e-05
1.536400e+01 4.368291e-05 6.201304e-06 4.988422e-05 3.683002e-05
1.536800e+01 7.385213e-05 2.403803e-06 7.625594e-05 8.582622e-06
1.537200e+01 6.724224e-05 8.446641e-06 7.568888e-05 3.587934e-07
1.537600e+01 7.689085e-05 2.188699e-05 9.877784e-05 3.611717e-05
1.538000e+01 4.348559e-05 2.312947e-05 6.661506e-05 3.061176e-05
1.538400e+01 9.210480e-06 1.638722e-05 2.559770e-05 -6.760155e-06
1.538800e+01 -9.418297e-06 1.331136e-05 3.893061e-06 -2.777220e-05
1.539200e+01 1.275122e-06 1.316633e-05 1.444145e-05 -2.556458e-05
1.539600e+01 6.209238e-06 1.907834e-05 2.528758e-05 1.235339e-05
1.540000e+01 -2.187033e-05 1.649393e-05 -5.376397e-06 2.353680e-05
1.540400e+01 -1.685245e-05 2.386060e-06 -1.446639e-05 -1.614934e-05
1.540800e+01 2.305505e-06 9.247506e-07 3.230255e-06 -2.960233e-05
1.541200e+01 -2.066735e-05 -7.878771e-07 -2.145523e-05 -3.651757e-05
1.541600e+01 -5.718670e-05 -1.168427e-05 -6.887096e-05 -5.220728e-05
1.542000e+01 -3.077501e-05 -7.920858e-06 -3.869586e-05 -1.720378e-05
1.542400e+01 -2.864300e-05 4.437381e-06 -2.420561e-05 2.740016e-05
1.542800e+01 -6.981369e-05 -1.244484e-06 -7.105817e-05 1.231837e-05
1.543200e+01 -5.248229e-05 -4.443438e-06 -5.692573e-05 -8.112296e-06
1.543600e+01 1.799786e-05 3.177191e-07 1.831558e-05 7.647868e-06
1.544000e+01 2.035830e-05 -1.721007e-06 1.863729e-05 1.506286e-05
1.544400e+01 -1.003607e-05 1.078322e-06 -8.957744e-06 1.974511e-05
1.544800e+01 -6.341092e-05 -3.995938e-06 -6.740686e-05 -1.501294e-05
1.545200e+01 -1.165947e-04 -1.252703e-05 -1.291218e-04 -4.106276e-05
1.545600e+01 -1.143119e-04 4.744996e-07 -1.138374e-04 -1.432947e-05
1.546000e+01 -8.182331e-05 1.787261e-05 -6.395070e-05 3.370921e-05
1.546400e+01 -8.634959e-06 1.378039e-05 5.145429e-06 5.572933e-05
1.546800e+01 4.948889e-05 5.877997e-06 5.536688e-05 4.366363e-05
1.547200e+01 2.936987e-05 -1.486726e-06 2.788315e-05 -5.643434e-06
1.547600e+01 -3.283882e-05 -6.438768e-06 -3.927759e-05 -4.208141e-05
1.548000e+01 -2.779612e-05 -1.416814e-06 -2.921294e-05 -2.223434e-05
1.548400e+01 2.046026e-05 1.817184e-07 2.064198e-05 6.162256e-06
1.548800e+01 5.123445e-05 -6.087934e-06 4.514651e-05 1.693863e-06
1.549200e+01 1.699701e-05 -1.842639e-05 -1.429383e-06 -2.092719e-05
1.549600e+01 1.720958e-05 -2.009602e-05 -2.886436e-06 -9.722929e-06
1.550000e+01 4.493217e-05 -1.112676e-05 3.380541e-05 -1.814557e-06
1.550400e+01 8.575126e-05 -3.029898e-06 8.272137e-05 -2.450576e-06
1.550800e+01 8.652865e-05 -3.074595e-07 8.622119e-05 1.927749e-05
1.551200e+01 7.344315e-05 -2.313638e-07 7.321178e-05 3.350663e-05
1.551600e+01 8.657919e-05 4.859193e-06 9.143839e-05 5.404676e-06
1.552000e+01 7.489508e-05 1.607193e-05 9.096701e-05 -1.383295e-05
1.552400e+01 1.775773e-05 3.120145e-05 4.895918e-05 8.652963e-07
1.552800e+01 1.110985e-05 3.875202e-05 4.986186e-05 4.849473e-06
1.553200e+01 2.316611e-05 3.464810e-05 5.781421e-05 -2.346039e-06
1.553600e+01 4.257155e-05 2.327931e-05 6.585085e-05 -2.868300e-06
1.554000e+01 3.223908e-05 1.884747e-05 5.108655e-05 -3.448013e-07
1.554400e+01 6.364346e-06 1.665868e-05 2.302302e-05 -1.982494e-05
1.554800e+01 2.784362e-05 1.275425e-05 4.059786e-05 -2.275079e-05
1.555200e+01 5.942966e-05 8.281663e-06 6.771133e-05 1.688149e-06
1.555600e+01 5.266577e-05 2.383995e-07 5.290417e-05 1.200157e-05
1.556000e+01 4.260517e-05 -3.327652e-06 3.927751e-05 2.375936e-05
1.556400e+01 -3.447690e-06 -8.324786e-06 -1.177248e-05 -9.268972e-06
1.556800e+01 -7.357796e-05 -9.368964e-06 -8.294693e-05 -5.515627e-05
1.557200e+01 -7.072556e-05 4.131081e-06 -6.659448e-05 -2.689992e-05
1.557600e+01 -5.462438e-05 1.497014e-05 -3.965423e-05 2.047929e-05
1.558000e+01 -1.477739e-04 1.222665e-05 -1.355472e-04 1.771992e-05
1.558400e+01 -3.011971e-04 3.388073e-06 -2.978090e-04 -7.570774e-06
1.558800e+01 -3.918874e-04 -3.775990e-07 -3.922650e-04 -6.925854e-06
1.559200e+01 -4.501478e-04 -1.331438e-07 -4.502810e-04 3.561254e-06
1.559600e+01 -3.040143e-04 9.481486e-06 -2.945328e-04 2.033887e-05
1.560000e+01 -1.334539e-05 1.230289e-05 -1.042495e-06 1.631969e-05
1.560400e+01 1.783348e-04 5.265734e-06 1.836005e-04 -1.839844e-05
1.560800e+01 2.559916e-04 -2.749618e-06 2.532420e-04 -4.777191e-05
1.561200e+01 3.601675e-04 -4.360641e-06 3.558068e-04 -3.227077e-05
1.561600e+01 4.413074e-04 8.843223e-06 4.501506e-04 2.799545e-05
1.562000e+01 3.926017e-04 9.136239e-06 4.017379e-04 3.309059e-05
1.562400e+01 3.094393e-04 6.937488e-07 3.101330e-04 2.039757e-05
1.562800e+01 2.592234e-04 -4.497089e-06 2.547263e-04 1.691671e-05
1.563200e+01 2.218703e-04 -6.745160e-06 2.151252e-04 7.779774e-06
1.563600e+01 9.398001e-05 -1.331082e-05 8.066919e-05 -2.607932e-05
1.564000e+01 9.266016e-06 -8.198460e-06 1.067556e-06 -2.635661e-05
1.564400e+01 1.716523e-05 8.440290e-06 2.560552e-05 2.415713e-05
1.564800e+01 5.818214e-05 9.044752e-06 6.722689e-05 3.405690e-05
1.565200e+01 8.648601e-05 -3.271644e-06 8.321437e-05 5.906378e-06
1.565600e+01 5.716895e-06 -2.955978e-06 2.760917e-06 -2.192157e-05
1.566000e+01 -7.452279e-05 -2.232201e-06 -7.675499e-05 -4.367736e-05
1.566400e+01 -3.023346e-05 1.863317e-07 -3.004713e-05 -2.641689e-05
1.566800e+01 5.815100e-05 1.180915e-05 6.996014e-05 2.369092e-05
1.567200e+01 4.702532e-05 1.539405e-05 6.241937e-05 3.339522e-05
1.567600e+01 -6.337966e-05 1.287374e-07 -6.325093e-05 -7.401390e-06
1.568000e+01 -1.106800e-04 -1.262332e-05 -1.233034e-04 -2.666433e-05
1.568400e+01 -8.264548e-05 -1.474836e-06 -8.412031e-05 7.363775e-06
1.568800e+01 -4.400604e-05 1.549066e-05 -2.851538e-05 3.533319e-05
1.569200e+01 -2.895499e-05 1.600752e-05 -1.294746e-05 1.606921e-06
1.569600e+01 -3.541805e-05 9.040850e-06 -2.637720e-05 -3.152438e-05
1.570000e+01 -3.559435e-05 5.912536e-06 -2.968181e-05 -1.391212e-05
1.570400e+01 -6.645275e-05 -8.778429e-06 -7.523118e-05 -2.939929e-05
1.570800e+01 -5.426194e-05 -1.119871e-05 -6.546066e-05 -2.137648e-05
1.571200e+01 -9.625408e-06 1.286258e-05 3.237172e-06 4.823069e-05
1.571600e+01 3.119443e-05 2.699292e-05 5.818735e-05 8.651198e-05
1.572000e+01 -9.656634e-08 8.105939e-06 8.009372e-06 2.083041e-05
1.572400e+01 -6.701708e-05 -6.846969e-06 -7.386405e-05 -4.333666e-05
1.572800e+01 -1.028624e-04 4.676122e-06 -9.818628e-05 -3.135173e-05
1.573200e+01 -8.024654e-05 2.295731e-05 -5.728923e-05 8.370991e-06
1.573600e+01 -5.378230e-05 1.953473e-05 -3.424757e-05 1.731765e-05
1.574000e+01 -7.146235e-05 8.516129e-06 -6.294622e-05 8.235443e-06
1.574400e+01 -3.523157e-05 1.329453e-05 -2.193704e-05 4.350386e-05
1.574800e+01 4.986564e-05 9.182935e-06 5.904857e-05 4.261727e-05
1.575200e+01 4.814999e-05 4.576299e-08 4.819575e-05 -3.270316e-06
1.575600e+01 -3.041201e-05 3.006789e-06 -2.740522e-05 -3.203601e-05
1.576000e+01 -7.540686e-05 2.075205e-06 -7.333166e-05 -4.647123e-05
1.576400e+01 -7.944950e-05 -9.428022e-06 -8.887752e-05 -4.035988e-05
1.576800e+01 -3.904897e-05 -2.047910e-05 -5.952807e-05 -9.906537e-06
1.577200e+01 2.126102e-05 -2.691078e-05 -5.649762e-06 2.386802e-06
1.577600e+01 4.620088e-06 -2.988058e-05 -2.526050e-05 -4.575343e-06
1.578000e+01 -3.994176e-05 -3.410195e-05 -7.404371e-05 -1.279973e-05
1.578400e+01 -6.123521e-05 -3.235303e-05 -9.358824e-05 -1.292882e-05
1.578800e+01 -6.875863e-05 -2.306169e-05 -9.182032e-05 4.941870e-06
1.579200e+01 -2.872053e-05 -1.956913e-05 -4.828965e-05 1.850795e-05
1.579600e+01 -1.151409e-05 -2.255474e-05 -3.406882e-05 -2.990903e-06
1.580000e+01 -4.656774e-05 -2.273669e-05 -6.930443e-05 -3.353978e-05
1.580400e+01 -9.166093e-05 -1.606003e-05 -1.077210e-04 -2.239359e-05
1.580800e+01 -1.190987e-04 -1.167349e-05 -1.307722e-04 7.193728e-06
1.581200e+01 -1.192205e-04 -2.102842e-05 -1.402489e-04 -6.003212e-06
1.581600e+01 -9.260780e-05 -1.688252e-05 -1.094903e-04 9.990216e-06
1.582000e+01 -5.020534e-05 -7.834014e-06 -5.803935e-05 5.056046e-05
1.582400e+01 -6.556982e-05 -1.525037e-05 -8.082019e-05 3.033994e-05
1.582800e+01 -1.012775e-04 -2.179000e-05 -1.230675e-04 -2.664208e-06
1.583200e+01 -1.354655e-04 -1.586507e-05 -1.513305e-04 -5.336956e-06
1.583600e+01 -1.456056e-04 -1.310832e-05 -1.587140e-04 3.853094e-06
1.584000e+01 -1.222977e-04 -1.249567e-05 -1.347933e-04 2.362179e-05
1.584400e+01 -1.304533e-04 -2.002794e-05 -1.504813e-04 -2.476582e-07
1.584800e+01 -1.165540e-04 -2.454215e-05 -1.410962e-04 -5.702580e-07
1.585200e+01 -1.141293e-04 -2.492744e-05 -1.390568e-04 2.690879e-05
1.585600e+01 -1.415658e-04 -3.488848e-05 -1.764542e-04 5.950015e-06
1.586000e+01 -1.265331e-04 -3.625232e-05 -1.627854e-04 -1.721233e-05
1.586400e+01 -8.533963e-05 -2.022057e-05 -1.055602e-04 1.934918e-05
1.586800e+01 -1.093529e-04 -1.956955e-05 -1.289224e-04 1.180197e-05
1.587200e+01 -1.200488e-04 -2.633359e-05 -1.463824e-04 -1.088099e-05
1.587600e+01 -1.054235e-04 -2.469657e-05 -1.301200e-04 -9.855620e-07
1.588000e+01 -8.213386e-05 -2.293324e-05 -1.050671e-04 9.388685e-06
1.588400e+01 -6.506116e-05 -2.427935e-05 -8.934050e-05 -8.937782e-06
1.588800e+01 -9.570599e-05 -1.747428e-05 -1.131803e-04 -1.721966e-05
1.589200e+01 -1.114211e-04 -8.560453e-07 -1.122772e-04 2.150745e-06
1.589600e+01 -5.663638e-05 -5.387026e-07 -5.717508e-05 2.924540e-07
1.590000e+01 1.085162e-05 -1.010554e-06 9.841064e-06 -1.048262e-06
1.590400e+01 3.618850e-05 -3.055940e-06 3.313256e-05 -2.781898e-06
1.590800e+01 -4.566446e-05 -9.600740e-06 -5.526520e-05 -2.333344e-05
1.591200e+01 -8.091143e-05 -6.221441e-06 -8.713287e-05 -2.741034e-05
1.591600e+01 1.068642e-05 5.000446e-06 1.568687e-05 8.700479e-06
1.592000e+01 7.695624e-05 1.574430e-07 7.711368e-05 1.723675e-05
1.592400e+01 1.069200e-04 -5.878537e-06 1.010414e-04 3.285032e-06
1.592800e+01 1.054512e-04 2.099139e-06 1.075503e-04 -4.922415e-06
1.593200e+01 8.709702e-05 1.214456e-05 9.924158e-05 -3.521441e-06
1.593600e+01 8.693480e-05 1.202750e-05 9.896231e-05 -3.028156e-06
1.594000e+01 1.174145e-04 7.137139e-06 1.245516e-04 -3.312888e-07
1.594400e+01 1.460291e-04 7.463114e-06 1.534923e-04 1.471205e-05
1.594800e+01 1.273724e-04 3.466270e-06 1.308387e-04 -3.165129e-06
1.595200e+01 1.212372e-04 4.358471e-06 1.255957e-04 -1.226789e-05
1.595600e+01 1.486931e-04 3.613001e-06 1.523062e-04 -4.047120e-06
1.596000e+01 1.566898e-04 4.757478e-06 1.614473e-04 6.504231e-06
1.596400e+01 1.226159e-04 1.603605e-05 1.386519e-04 2.723747e-05
1.596800e+01 1.109905e-04 1.907751e-05 1.300681e-04 2.027163e-05
1.597200e+01 1.220593e-04 1.856953e-05 1.406288e-04 -2.479525e-05
1.597600e+01 1.240701e-04 3.523053e-05 1.593006e-04 -2.470498e-05
1.598000e+01 9.423175e-05 3.246718e-05 1.266989e-04 -1.497100e-05
1.598400e+01 8.723793e-05 1.272445e-05 9.996238e-05 -2.015441e-05
1.598800e+01 1.047609e-04 1.619764e-06 1.063806e-04 -2.694839e-05
